tree
version=v3
num_class=1
num_tree_per_iteration=1
label_index=0
max_feature_idx=25
objective=binary sigmoid:1
feature_names=Column_0 Column_1 Column_2 Column_3 Column_4 Column_5 Column_6 Column_7 Column_8 Column_9 Column_10 Column_11 Column_12 Column_13 Column_14 Column_15 Column_16 Column_17 Column_18 Column_19 Column_20 Column_21 Column_22 Column_23 Column_24 Column_25
feature_infos=[-17.402206619859587:27.687168402436622] [-0.20812437311935808:0.099823147966201745] [0:1] [0.031338175432642196:0.93297412910361155] [-20.81243731193581:9.9823147966201748] [-0.0005393220211609898:0.99318026402695536] [-0.0013062366946508558:0.98863070968412281] [0.034183147716191312:0.94357116730990453] [0.02665975324060689:0.85268377266040474] [-0.99987531832657395:0.99998462976158686] [-1:1] [-139.70966366406122:141.90379553072478] [-18.572536760995316:24.727040250332422] [-0.8937782785959909:0.65667388740767862] none [10.635:23.837499999999999] [-15.020176356299503:18.057503506311367] [0.29418309000114917:0.76334962003367635] [-0.14033198312322304:0.076224670097470026] [-0.15194500962539842:0.10760075203716812] [-0.90633067917800325:0.85731564250571679] [0:1] [0:1] [0:1] [0:1] [0:1]
tree_sizes=1880 1776 1781 1878

Tree=0
num_leaves=17
num_cat=0
split_feature=13 16 11 1 18 15 1 23 1 17 15 12 18 13 9 11
split_gain=10.9302 8.07065 7.63428 6.56852 6.33321 4.20155 3.50446 4.81513 4.98833 6.4702 3.6163 2.73717 3.94139 2.55461 1.73289 2.00322
threshold=-0.18530441156506616 3.2394589183729088 -36.002466197120164 -1.0000000180025095e-35 0.017270080016879994 15.593750000000002 0.0062202497509806845 1.0000000180025095e-35 0.0023610672362042451 0.46538548509057992 16.600000000000005 -1.8117539794327673 -0.01637897331323895 0.15852396017294648 0.99223618166649308 79.478553467739104
decision_type=2 2 2 2 2 2 2 2 2 2 2 2 2 2 2 2
left_child=3 2 4 -1 11 -3 7 8 9 -4 13 -2 -13 -9 15 -5
right_child=1 5 6 14 -6 -7 -8 10 -10 -11 -12 12 -14 -15 -16 -17
leaf_value=0.023074507206465124 -0.1142825618161448 0.013543608539590142 0.11647731414183929 -0.37115811946881799 0.07072900054083997 0.30956210831076569 -0.15801256746415937 0.11031888731093598 0.19653686294358952 -0.29382787346712769 -0.043641783461659693 -0.12370133226340946 -0.44393952747040882 0.35665596054708909 -0.44393952747040843 -0.12370133226340943
leaf_weight=2.9977685809135428 4.2468388229608527 3.4973966777324668 2.4981404840946269 2.7479545325040799 3.4973966777324668 4.2468388229608536 3.4973966777324668 3.2475826293230057 2.4981404840946198 3.9970247745513916 2.4981404840946198 2.4981404840946189 3.997024774551388 3.4973966777324677 2.9977685809135437 2.4981404840946198
leaf_count=12 17 14 10 11 14 17 14 13 10 16 10 10 16 14 12 10
internal_value=-0.054559 -0.00933055 -0.0492015 -0.230447 -0.163029 0.175876 0.0253751 0.0605453 -0.0436418 -0.136018 0.161917 -0.239136 -0.320771 0.238049 -0.322637 -0.253322
internal_weight=0 43.7175 35.9732 11.2416 14.2394 7.74424 21.7338 18.2364 8.99331 6.49517 9.24312 10.742 6.49517 6.74498 8.24386 5.2461
internal_count=220 175 144 45 57 31 87 73 36 26 37 43 26 27 33 21
shrinkage=1


Tree=1
num_leaves=16
num_cat=0
split_feature=13 7 16 13 13 20 15 10 21 16 13 7 20 7 10
split_gain=7.17394 7.44115 6.49271 6.83395 6.3826 4.06458 5.20856 4.4098 3.22256 2.6395 2.95126 2.39292 3.28576 2.31922 1.83829
threshold=-0.18530441156506616 0.72419176724475121 -1.0000000180025095e-35 -0.075758107818156659 0.05768270082220648 -0.03878760214263146 12.035000000000002 0.051228114708898674 1.0000000180025095e-35 4.0663076677479273 0.23236361617399687 0.69739958748204411 0.012205654397982154 0.33567163491269092 0.013916798193106374
decision_type=2 2 2 2 2 2 2 2 2 2 2 2 2 2 2
left_child=8 2 3 -2 14 -5 -7 -8 11 10 -6 -1 -13 -9 -4
right_child=1 -3 4 5 9 6 7 13 -10 -11 -12 12 -14 -15 -16
leaf_value=-0.2329514065909149 0.24737126510813212 0.28936836018489487 0.041628752426167488 -0.27362858274435886 0.24530238299890506 0.15958811208803991 0.066888926968657364 -0.10590638985561492 -0.34807736618230578 0.31849545291830772 -0.002776987883853302 -0.15716094165685227 0.14845182472483631 -0.32743279548245852 -0.18126471915605122
leaf_weight=2.9448755681514722 2.4832302182912818 4.2040945440530768 2.9674662947654786 4.4116256386041668 3.7163444310426694 3.4637870341539374 3.4304358214139921 4.1786369979381561 2.4216065257787696 3.9468655586242676 3.9643250107765198 2.9325100928544998 2.7054042667150497 3.4520925730466843 2.9528224915266037
leaf_count=12 10 17 12 18 15 14 14 17 10 16 16 12 11 14 12
internal_value=0 0.0365748 0.0093017 -0.0645899 0.0994977 -0.105499 -0.0544329 -0.121453 -0.144322 0.185566 0.117258 -0.0868327 -0.0105099 -0.206123 -0.0695423
internal_weight=0 43.1717 38.9676 21.4198 17.5478 18.9366 14.525 11.0612 11.0044 11.6275 7.68067 8.58279 5.63791 7.63073 5.92029
internal_count=220 175 158 87 71 77 59 45 45 47 31 35 23 31 24
shrinkage=0.2


Tree=2
num_leaves=16
num_cat=0
split_feature=18 5 18 1 6 23 5 12 3 18 1 25 19 3 9
split_gain=4.13074 5.31142 3.36491 6.74845 3.48318 3.75121 2.87923 2.72289 5.84217 4.21074 5.15738 3.14232 3.78859 2.91902 0.348339
threshold=0.049503015203885843 0.91443332333291916 -0.077270316713048723 0.0075616740197750011 0.80011846563051747 1.0000000180025095e-35 0.27930805706190487 -0.16034662912570893 0.28853159693123115 -0.0017859554219685212 0.0020040352138419211 1.0000000180025095e-35 -0.01204929562876572 0.3944747769340286 0.80719449815240729
decision_type=2 2 2 2 2 2 2 2 2 2 2 2 2 2 2
left_child=1 2 -1 4 7 -6 -5 9 -9 10 -4 12 -10 -11 -7
right_child=-2 -3 3 6 5 14 -8 8 11 13 -12 -13 -14 -15 -16
leaf_value=0.20892248090782239 0.19256560388012359 -0.25110092418034513 0.11741843777545491 -0.31312978260090335 -0.017924821067582312 0.19702715003209142 -0.060969901121552643 0.11861466468317494 0.098621709411132671 0.28325621537056472 -0.25894086405727412 -0.29001040967896163 -0.24092054040280517 0.023604727828070934 0.30441765120510245
leaf_weight=2.9409539103507987 4.0982203334569922 3.5769303590059272 2.9194554090499878 3.6512157171964637 3.6288767307996732 2.3977734744548798 3.5943301469087601 4.3628721833229109 2.8429129570722518 3.6550932526588404 2.9062198549509048 4.2056782692670822 2.4449160099029585 3.2914382517337799 2.4352231174707413
leaf_count=12 17 15 12 15 15 10 15 18 12 15 12 18 10 14 10
internal_value=0 -0.0164788 0.00205664 -0.0123137 0.0239705 0.135751 -0.18804 -0.0115503 -0.0729518 0.0550633 -0.0703337 -0.160989 -0.0583713 0.160227 0.251138
internal_weight=0 48.8539 45.277 42.336 35.0905 8.46187 7.24555 26.6286 13.8564 12.7722 5.82568 9.49351 5.28783 6.94653 4.833
internal_count=220 203 188 176 146 35 30 111 58 53 24 40 22 29 20
shrinkage=0.2


Tree=3
num_leaves=17
num_cat=0
split_feature=4 18 13 13 13 18 16 7 13 7 16 12 16 21 13 13
split_gain=6.14464 5.84332 5.95166 5.07164 9.34715 5.45648 4.54055 3.36616 3.17983 5.77434 2.89234 1.87287 1.59331 1.30288 0.916477 0.868669
threshold=0.020414770116392807 0.017270080016879994 -0.40589625394708501 0.41648521762192403 0.15852396017294648 -0.01637897331323895 -0.85272058710742427 0.317244983022619 -0.056141490538159984 0.50364021666868874 -0.62220876459621732 1.3041953121990864 -3.3196188163513103 1.0000000180025095e-35 0.072893342896629576 -0.0058489261095845393
decision_type=2 2 2 2 2 2 2 2 2 2 2 2 2 2 2 2
left_child=6 3 -3 4 5 -2 12 -6 -8 -10 -7 -4 -1 -13 -14 -12
right_child=1 2 11 -5 7 10 8 -9 9 -11 15 13 14 -15 -16 -17
leaf_value=-0.088323567962864072 0.12595085972816003 -0.11352024701208779 0.33411612514055489 -0.28516681462096871 0.02737181859099444 -0.041403230196404135 -0.16456320040044434 0.31495122692087901 -0.11205671002645048 0.27409199397364564 -0.17740430314535027 0.072642221932519846 -0.36315579758859351 0.26306086859202255 -0.1920211871293456 -0.34558728910011038
leaf_weight=2.6996400654315948 3.6296571642160442 2.560297191143035 4.0047423094511014 2.4435213059186927 2.6063978224992743 4.1713628768920907 3.2850960195064554 4.3375620245933533 3.1333971619605991 3.06341552734375 2.291039690375329 3.2641353160142899 2.543523162603381 2.5680868923664093 2.4645851105451584 2.648554727435112
leaf_count=12 15 11 17 10 11 18 14 18 13 13 10 14 11 11 11 11
internal_value=0 0.0481801 0.158106 -0.0134058 0.0203289 -0.0814165 -0.0981669 0.207009 -0.00549113 0.0788372 -0.164028 0.228803 -0.212175 0.156489 -0.278937 -0.267582
internal_weight=0 34.5254 12.3973 22.1281 19.6846 12.7406 17.1897 6.94396 9.48191 6.19681 9.11096 9.83696 7.70775 5.83222 5.00811 4.93959
internal_count=220 146 53 93 83 54 74 29 40 26 39 42 34 25 22 21
shrinkage=0.2


end of trees

feature_importances:
Column_13=12
Column_18=7
Column_16=6
Column_1=5
Column_7=5
Column_12=3
Column_15=3
Column_3=2
Column_5=2
Column_9=2
Column_10=2
Column_11=2
Column_20=2
Column_21=2
Column_23=2
Column_4=1
Column_6=1
Column_17=1
Column_19=1
Column_25=1

parameters:
[boosting: gbdt]
[objective: binary]
[metric: binary_logloss]
[tree_learner: serial]
[device_type: cpu]
[data: ]
[valid: ]
[num_iterations: 10000]
[learning_rate: 0.2]
[num_leaves: 63]
[num_threads: 0]
[force_col_wise: 0]
[force_row_wise: 0]
[histogram_pool_size: -1]
[max_depth: -1]
[min_data_in_leaf: 10]
[min_sum_hessian_in_leaf: 0.001]
[bagging_fraction: 0.9]
[pos_bagging_fraction: 1]
[neg_bagging_fraction: 1]
[bagging_freq: 0]
[bagging_seed: 21709]
[feature_fraction: 0.5]
[feature_fraction_bynode: 1]
[feature_fraction_seed: 24116]
[extra_trees: 0]
[extra_seed: 15571]
[early_stopping_round: 50]
[first_metric_only: 0]
[max_delta_step: 0]
[lambda_l1: 0]
[lambda_l2: 0]
[min_gain_to_split: 0]
[drop_rate: 0.1]
[max_drop: 50]
[skip_drop: 0.5]
[xgboost_dart_mode: 0]
[uniform_drop: 0]
[drop_seed: 15722]
[top_rate: 0.2]
[other_rate: 0.1]
[min_data_per_group: 100]
[max_cat_threshold: 32]
[cat_l2: 10]
[cat_smooth: 10]
[max_cat_to_onehot: 4]
[top_k: 20]
[monotone_constraints: ]
[monotone_constraints_method: basic]
[monotone_penalty: 0]
[feature_contri: ]
[forcedsplits_filename: ]
[refit_decay_rate: 0.9]
[cegb_tradeoff: 1]
[cegb_penalty_split: 0]
[cegb_penalty_feature_lazy: ]
[cegb_penalty_feature_coupled: ]
[path_smooth: 0]
[interaction_constraints: ]
[verbosity: -1]
[saved_feature_importance_type: 0]
[max_bin: 255]
[max_bin_by_feature: ]
[min_data_in_bin: 3]
[bin_construct_sample_cnt: 200000]
[data_random_seed: 4074]
[is_enable_sparse: 1]
[enable_bundle: 1]
[use_missing: 1]
[zero_as_missing: 0]
[feature_pre_filter: 1]
[pre_partition: 0]
[two_round: 0]
[header: 0]
[label_column: ]
[weight_column: ]
[group_column: ]
[ignore_column: ]
[categorical_feature: ]
[forcedbins_filename: ]
[objective_seed: 10917]
[num_class: 1]
[is_unbalance: 0]
[scale_pos_weight: 1]
[sigmoid: 1]
[boost_from_average: 1]
[reg_sqrt: 0]
[alpha: 0.9]
[fair_c: 1]
[poisson_max_delta_step: 0.7]
[tweedie_variance_power: 1.5]
[lambdarank_truncation_level: 20]
[lambdarank_norm: 1]
[label_gain: ]
[eval_at: ]
[multi_error_top_k: 1]
[auc_mu_weights: ]
[num_machines: 1]
[local_listen_port: 12400]
[time_out: 120]
[machine_list_filename: ]
[machines: ]
[gpu_platform_id: -1]
[gpu_device_id: -1]
[gpu_use_dp: 0]

end of parameters

pandas_categorical:null
