tree
version=v3
num_class=1
num_tree_per_iteration=1
label_index=0
max_feature_idx=23
objective=binary sigmoid:1
feature_names=Column_0 Column_1 Column_2 Column_3 Column_4 Column_5 Column_6 Column_7 Column_8 Column_9 Column_10 Column_11 Column_12 Column_13 Column_14 Column_15 Column_16 Column_17 Column_18 Column_19 Column_20 Column_21 Column_22 Column_23
feature_infos=[-10.995312238406155:19.062817859773407] [-0.081937065794850786:0.20851601136403489] [-8.1937065794850792:20.851601136403488] [0.00086259034284403169:1.0001242361615796] [-0.00044249722766557511:0.99963433012055358] [0.058480570655491795:0.96778502876016637] [0.11553137031170593:0.94865955149567949] [-0.99980361752893165:0.99995113224908738] [-1:1] [-139.44211251698357:153.5747041781774] [-23.925961406677025:16.224098901811949] [-0.61688198280944229:0.7324655007988653] none [10.8675:25.965] [-11.15887515672577:18.057503506311367] [0.34278507652536305:0.80513261173693351] [-0.10296892144070657:0.10325406556870176] [-0.091538908265989039:0.13067260325331798] [-0.9111099270495131:0.89349910924965281] [0:1] [0:1] [0:1] [0:1] [0:1]
tree_sizes=1045 1158 1274 1052 1049 1064 1162 1061 1160 1164 1155 1162 1270 1059 1058

Tree=0
num_leaves=9
num_cat=0
split_feature=2 1 2 9 0 2 9 20
split_gain=19.5843 7.72533 5.4776 4.52217 4.37583 3.145 2.02341 4.89666
threshold=-0.022849607993656484 0.010280703693004696 0.54475171321652616 -15.590403957652484 -0.14254870016426865 0.16415592566631274 -8.0875185026396181 1.0000000180025095e-35
decision_type=2 2 2 2 2 2 2 2
left_child=3 2 4 -1 -2 -6 -4 -8
right_child=1 -3 6 -5 5 -7 7 -9
leaf_value=-0.29277341028905818 -0.2412245456447468 -0.24845102199675306 -0.19160274136097044 -0.23881572019407804 -0.16173330577267789 -0.21071275660294256 -0.19497509699190668 -0.12820245549936879
leaf_weight=7.4132157862186423 6.9190014004707328 6.9190014004707328 7.4132157862186459 8.1545373648405057 5.1892510503530529 8.89585894346237 4.9421438574790937 6.1776798218488693
leaf_count=30 28 28 30 33 21 36 20 25
internal_value=-0.215975 -0.199711 -0.191181 -0.26451 -0.208663 -0.192668 -0.171369 -0.157879
internal_weight=0 46.4562 39.5372 15.5678 21.0041 14.0851 18.533 11.1198
internal_count=251 188 160 63 85 57 75 45
shrinkage=1


Tree=1
num_leaves=10
num_cat=0
split_feature=2 1 7 9 2 0 2 18 17
split_gain=17.7511 6.96814 5.08419 4.21371 3.55999 3.26313 3.39584 2.72729 2.64155
threshold=-0.022849607993656484 0.010280703693004696 -0.95468124387379028 18.981273450003886 0.54475171321652616 -0.14254870016426865 0.2745164900934754 -0.045859109724080152 0.011218954613627765
decision_type=2 2 2 2 2 2 2 2 2
left_child=3 2 -2 7 5 -4 -7 -1 -6
right_child=1 -3 4 -5 8 6 -8 -9 -10
leaf_value=-0.036963456908452229 -0.013043158803522218 -0.030971171955277533 -0.01549285916526701 -0.0082319102882192057 0.033045376887576715 0.061364697268393401 0.0065692127321979946 -0.087942214999711832 0.075804074129423984
leaf_weight=4.9048711061477652 7.6753710657358125 6.8930779099464408 5.4207593202590951 4.9293810129165641 9.1813868284225446 5.211309775710113 6.1811354011297226 5.6407768428325644 5.9545920938253394
leaf_count=20 31 28 22 20 37 21 25 23 24
internal_value=0 0.0154264 0.0234977 -0.0463936 0.0322762 0.0164402 0.0316346 -0.0642316 0.0498669
internal_weight=0 46.5176 39.6246 15.475 31.9492 16.8132 11.3924 10.5456 15.136
internal_count=251 188 160 63 129 68 46 43 61
shrinkage=0.05


Tree=2
num_leaves=11
num_cat=0
split_feature=7 11 9 7 18 17 18 0 11 14
split_gain=7.73269 6.98199 5.69938 8.51182 4.47271 3.29282 5.58024 2.94428 2.00158 1.5655
threshold=-0.93026201559876387 0.18192258272072637 -15.590403957652484 0.99606850721566276 -0.024113334414577355 0.030475934227512384 -0.03763020392903909 -0.14254870016426865 0.035833707944042177 -1.0000000180025095e-35
decision_type=2 2 2 2 2 2 2 2 2 2
left_child=4 2 8 5 -1 6 -4 -3 -2 -6
right_child=1 7 3 -5 9 -7 -8 -9 -10 -11
leaf_value=0.0073288268133828568 -0.052863310473096517 0.02062605123539786 0.0099582357199097318 0.052298886824256687 -0.069146639957779851 0.02165120184193892 -0.062495862057757715 0.072245415877446761 -0.0088249314650614072 -0.030167955807806113
leaf_weight=5.1695750951766959 5.417059168219561 5.9005697071552277 5.4391299784183476 8.6653438955545408 5.1537366658449164 5.7020431756973258 5.1962583214044686 5.1941754519939405 4.9269053488969803 5.1500819921493521
leaf_count=21 22 24 22 35 21 23 21 21 20 21
internal_value=0 0.0101888 -0.00067276 0.0122412 -0.0306232 -0.00900536 -0.0254415 0.0447925 -0.0318875 -0.0496642
internal_weight=0 46.4415 35.3467 25.0028 15.4734 16.3374 10.6354 11.0947 10.344 10.3038
internal_count=251 188 143 101 63 66 43 45 42 42
shrinkage=0.05


Tree=3
num_leaves=9
num_cat=0
split_feature=8 7 9 0 7 6 7 18
split_gain=9.10049 10.8466 6.6813 4.04379 3.68025 7.03823 2.84606 1.98023
threshold=-0.15230759409569697 0.99426018971561991 -15.590403957652484 0.15197340090863112 0.90330886698895718 0.49591661211388954 -1.0000000180025095e-35 -0.056927958760867647
decision_type=2 2 2 2 2 2 2 2
left_child=7 3 -3 6 5 -5 -2 -1
right_child=1 2 -4 4 -6 -7 -8 -9
leaf_value=0.01614793658632099 -0.068465396153967947 -0.020083063912409906 0.048562245272021097 -0.034209367188726178 -0.049465235473766439 0.04237440379123264 -0.020235716141830784 0.05073585333180556
leaf_weight=9.3759020715951937 8.052358463406561 5.6735194176435479 9.4469646662473643 6.3763970434665698 4.9295046031475058 5.6657758057117462 4.9325458854436901 7.4075810462236396
leaf_count=38 33 23 38 26 20 23 20 30
internal_value=0 -0.0117174 0.0228051 -0.0291425 -0.013074 0.00182287 -0.0501445 0.0314137
internal_weight=0 45.0771 15.1205 29.9566 16.9717 12.0422 12.9849 16.7835
internal_count=251 183 61 122 69 49 53 68
shrinkage=0.05


Tree=4
num_leaves=9
num_cat=0
split_feature=8 7 9 0 7 6 6 4
split_gain=8.20343 9.82508 6.0139 3.70403 3.34653 6.34828 2.77375 2.49661
threshold=-0.15230759409569697 0.99426018971561991 -15.590403957652484 0.15197340090863112 0.90330886698895718 0.49591661211388954 0.55029656523301551 0.57349489232497219
decision_type=2 2 2 2 2 2 2 2
left_child=7 3 -3 6 5 -5 -2 -1
right_child=1 2 -4 4 -6 -7 -8 -9
leaf_value=0.010448271420804595 -0.024409987263021078 -0.019122459919041573 0.046020038143343121 -0.032651528546845783 -0.047288768528626422 0.040076720455241188 -0.070817277058763978 0.048961156210905132
leaf_weight=8.3947308808565158 6.3276282399892825 5.6609247028827676 9.4697369486093486 6.3473365008831042 4.8993300050497046 5.6904034912586212 6.5558048486709595 8.4374842345714551
leaf_count=34 26 23 38 26 20 23 27 34
internal_value=0 -0.0111689 0.0216479 -0.0278199 -0.0124508 0.0017281 -0.0480246 0.0297536
internal_weight=0 44.9512 15.1307 29.8205 16.9371 12.0377 12.8834 16.8322
internal_count=251 183 61 122 69 49 53 68
shrinkage=0.05


Tree=5
num_leaves=9
num_cat=0
split_feature=7 11 18 7 7 18 17 0
split_gain=6.03862 6.64436 3.71907 3.70644 5.13841 4.15285 2.84854 2.84502
threshold=-0.93026201559876387 0.18192258272072637 -1.0000000180025095e-35 0.99426018971561991 0.9672359042157197 0.023862622345553617 -1.0000000180025095e-35 -0.14254870016426865
decision_type=2 2 2 2 2 2 2 2
left_child=2 3 -1 4 5 -2 -5 -3
right_child=1 7 -4 6 -6 -7 -8 -9
leaf_value=-0.002452883968439784 0.029571878782037854 0.018910637925112588 -0.051822219734275143 -0.0048133428517798081 -0.044040900645795862 -0.029723718253728298 0.040085423676086807 0.069592526438906926
leaf_weight=7.5766578912734985 7.4091977626085299 5.9115727692842484 7.6828592568635923 6.9081911891698837 8.8270010203123075 4.9094496071338654 7.2294768989086133 5.2087629437446576
leaf_count=31 30 24 32 28 36 20 29 21
internal_value=0 0.00894877 -0.0273093 -0.00167295 -0.0149237 0.00594033 0.0181462 0.04265
internal_weight=0 46.4037 15.2595 35.2833 21.1456 12.3186 14.1377 11.1203
internal_count=251 188 63 143 86 50 57 45
shrinkage=0.05


Tree=6
num_leaves=10
num_cat=0
split_feature=8 7 18 17 3 19 15 3 3
split_gain=7.37707 8.21277 4.98832 3.72796 2.88549 2.37089 4.99282 2.29708 1.11781
threshold=-0.15230759409569697 0.99426018971561991 0.034573242428691336 0.020629348260348939 0.67798028381640529 1.0000000180025095e-35 0.55028680425031884 0.6709936532882238 0.35334227751418018
decision_type=2 2 2 2 2 2 2 2 2
left_child=7 3 -3 5 -5 6 -2 8 -1
right_child=1 2 -4 4 -6 -7 -8 -9 -10
leaf_value=0.030852240596310827 0.0023353785669123204 -0.009038206521634647 0.048376253872573091 0.024602584977562219 -0.024233818295967238 -0.06745257873025913 -0.065711128901410093 0.051552059638640346 -0.0019824463826564882
leaf_weight=4.9328078925609606 6.0746978074312263 7.6656246632337552 7.4694580733776093 4.8657088875770551 7.9936345666646957 5.7840645611286154 4.8463371843099594 6.4668636173009864 5.4623173773288727
leaf_count=20 25 31 30 20 33 24 20 26 22
internal_value=0 -0.0106571 0.0192969 -0.0259917 -0.00575514 -0.0415694 -0.0278611 0.0281544 0.0135986
internal_weight=0 44.6995 15.1351 29.5644 12.8593 16.7051 10.921 16.862 10.3951
internal_count=251 183 61 122 53 69 45 68 42
shrinkage=0.05


Tree=7
num_leaves=9
num_cat=0
split_feature=8 18 14 14 8 7 1 1
split_gain=6.70517 11.7815 3.70691 7.8312 6.01675 3.20347 3.79991 0.878132
threshold=0.058210939733735416 0.068351058654155597 -2.9495806648761929 -0.51572603972020714 -0.2044782449873018 -0.93026201559876387 0.0037678612269467764 0.0011751898863989628
decision_type=2 2 2 2 2 2 2 2
left_child=2 5 -1 -4 -5 -2 -7 -6
right_child=1 -3 3 4 7 6 -8 -9
leaf_value=-0.02179094286321347 -0.07343551455882838 0.025507986975828484 0.059250413010661064 0.035368201695078802 -0.0063454515478621187 -0.059724376803808057 -0.0014171895889094426 -0.034701105144575264
leaf_weight=5.8502450734376898 5.9098636209964797 9.6126372069120389 9.4240105599164981 8.4483616203069705 5.3487520068883878 5.1327736377716064 6.1331409364938736 5.5774909555912018
leaf_count=24 25 39 38 34 22 21 25 23
internal_value=0 -0.0188155 0.0144943 0.0218654 0.003681 -0.0436217 -0.0279821 -0.0208201
internal_weight=0 26.7884 34.6489 28.7986 19.3746 17.1758 11.2659 10.9262
internal_count=251 110 141 117 79 71 46 45
shrinkage=0.05


Tree=8
num_leaves=10
num_cat=0
split_feature=2 11 2 23 9 4 14 2 13
split_gain=15.2828 5.13225 5.85253 5.46396 4.43375 2.39662 4.13183 1.94383 1.11483
threshold=-0.043960772267415474 0.18192258272072637 1.2077912685387926 1.0000000180025095e-35 -15.590403957652484 0.51660691127857838 0.69177879587398972 0.2745164900934754 12.410000000000002
decision_type=2 2 2 2 2 2 2 2 2
left_child=4 2 5 -3 -1 8 7 -7 -2
right_child=1 3 -4 -5 -6 6 -8 -9 -10
leaf_value=-0.075064065416652115 -0.008482337145141074 0.061421336341500911 0.05238146411474396 -0.0010375883849846836 -0.019476674784128577 0.0037044363146238077 -0.025649368268952751 0.047675334268855257 -0.041485575331976311
leaf_weight=6.6317469775676727 4.9014040678739601 9.3422698080539686 4.9660324305295935 5.6007221490144721 7.8138806819915754 5.141977325081827 6.627879172563552 4.9168060272932053 5.3537643700838089
leaf_count=28 20 38 20 23 32 21 27 20 22
internal_value=0 0.0138292 0.00250428 0.0380114 -0.0449959 -0.00668929 0.00500145 0.0251977 -0.0257119
internal_weight=0 46.8509 31.9079 14.943 14.4456 26.9418 16.6867 10.0588 10.2552
internal_count=251 191 130 61 60 110 68 41 42
shrinkage=0.05


Tree=9
num_leaves=10
num_cat=0
split_feature=2 14 14 9 9 16 16 9 17
split_gain=13.9117 3.51517 4.80744 3.87513 3.36342 3.22426 5.92797 3.17269 2.30249
threshold=-0.022849607993656484 -2.9495806648761929 -1.6701355924450134 -45.458674785030531 7.547369512883753 -0.00063875350841018075 0.02037627965328501 18.981273450003886 -0.022521873405218048
decision_type=2 2 2 2 2 2 2 2 2
left_child=7 -2 -3 -4 -5 -6 -7 8 -1
right_child=1 2 3 4 5 6 -8 -9 -10
leaf_value=-0.032647361699792786 -0.015388945978728806 0.062718684596144464 -0.019403647146410574 0.052330426388286388 0.035522117466806655 -0.045155351542525091 0.030486816524179856 -0.0087945305343938782 -0.080411103754614396
leaf_weight=4.7875826507806769 8.5411986708641034 5.6366471052169755 7.2859765440225592 6.7008581459522345 7.6169517785310772 5.1795854866504651 5.1808483004570007 4.8965433686971656 5.3345408886671057
leaf_count=20 35 23 30 27 31 21 21 20 23
internal_value=0 0.0135668 0.0201442 0.0126365 0.022096 0.0108265 -0.00732966 -0.041836 -0.0578197
internal_weight=0 46.1421 37.6009 31.9642 24.6782 17.9774 10.3604 15.0187 10.1221
internal_count=251 188 153 130 100 73 42 63 43
shrinkage=0.05


Tree=10
num_leaves=10
num_cat=0
split_feature=2 8 18 11 10 10 3 3 6
split_gain=12.7184 7.85992 8.17481 5.64821 3.95181 3.71455 3.435 3.41472 1.39711
threshold=-0.043960772267415474 0.058210939733735416 0.068351058654155597 0.18192258272072637 2.2563700334202763 1.5533928666100045 0.34189582583560496 0.81792345080503293 0.49134190556906998
decision_type=2 2 2 2 2 2 2 2 2
left_child=5 3 6 4 7 8 -3 -2 -1
right_child=1 2 -4 -5 -6 -7 -8 -9 -10
leaf_value=-0.079555611895325118 0.06166609800345807 -0.065737141748947236 0.030338775714928948 0.070130575697322228 -0.011782159302302708 -0.0059664134594251553 -0.01386074417385471 0.005250779744000747 -0.040873667069090111
leaf_weight=4.6070184856653196 5.9087481349706703 5.0336905270814922 8.1529547125101072 6.916521191596984 7.1823183596134177 4.8353689461946479 8.7169293016195279 4.9120796918869019 4.7318180650472641
leaf_count=20 24 21 33 28 29 20 36 20 20
internal_value=0 0.01252 -0.00933057 0.0317259 0.0169714 -0.0415382 -0.0328511 0.0360565 -0.0599562
internal_weight=0 46.8232 21.9036 24.9197 18.0031 14.1742 13.7506 10.8208 9.33884
internal_count=251 191 90 101 73 60 57 44 40
shrinkage=0.05


Tree=11
num_leaves=10
num_cat=0
split_feature=2 1 11 2 0 7 10 10 2
split_gain=11.5815 5.07869 5.72608 4.83651 6.59378 4.31578 3.12831 3.10825 1.14268
threshold=-0.022849607993656484 0.010280703693004696 0.19745307415601324 0.52425176263622941 -0.044566556970107966 -0.9150057601564705 1.5533928666100045 2.2563700334202763 -0.56447149724727896
decision_type=2 2 2 2 2 2 2 2 2
left_child=6 2 3 4 -2 -4 8 -5 -1
right_child=1 -3 5 7 -6 -7 -8 -9 -10
leaf_value=-0.070531403525129904 -0.054493138726376115 -0.027790089823361244 0.012938048493971954 0.048399422253138029 0.014910022656587014 0.074770249878456388 -0.0056729336995799762 -2.6373266207775296e-05 -0.036447785408271462
leaf_weight=5.3139877468347541 5.8143875598907426 6.7457331717014304 4.8778577148914337 7.910835385322569 8.3184155821800285 6.6961275339126569 4.8313486129045478 5.7020252048969269 4.5772398710250846
leaf_count=23 24 28 20 32 34 27 20 23 20
internal_value=0 0.0122919 0.0191684 0.00684478 -0.0136432 0.0487111 -0.0386509 0.0281153 -0.054759
internal_weight=0 46.0654 39.3196 27.7457 14.1328 11.574 14.7226 13.6129 9.89123
internal_count=251 188 160 113 58 47 63 55 43
shrinkage=0.05


Tree=12
num_leaves=11
num_cat=0
split_feature=2 11 2 11 11 10 4 14 20 4
split_gain=10.5791 3.90831 4.60817 4.36767 3.35741 3.21875 2.0078 4.59525 2.28958 0.558032
threshold=-0.043960772267415474 0.18192258272072637 1.2077912685387926 0.42142165249127722 0.25197449985729453 1.5533928666100045 0.58220246960701605 0.69177879587398972 1.0000000180025095e-35 0.39774146750503903
decision_type=2 2 2 2 2 2 2 2 2 2
left_child=5 2 6 4 -3 9 8 -8 -2 -1
right_child=1 3 -4 -5 -6 -7 7 -9 -10 -11
leaf_value=-0.043399813608000153 -0.003808918941054092 0.021484429725107366 0.045785982097674011 -0.0068814574011277913 0.079122754284786614 -0.0053937483051793109 0.02703925578866306 -0.030290187670849972 -0.048397161324710315 -0.06822687803906613
leaf_weight=4.4784708023071271 7.0406492203474098 4.9168757647275907 4.9460965991020194 4.7840743213891974 5.1969222575426102 4.8274539411067954 9.3009444773197156 5.5998416543006888 4.8709389269351959 4.5759089887142181
leaf_count=20 29 20 20 20 21 20 38 23 20 20
internal_value=0 0.0113529 0.00144136 0.0324818 0.0511016 -0.0383669 -0.00673892 0.00549437 -0.0220421 -0.0559469
internal_weight=0 46.6563 31.7585 14.8979 10.1138 13.8818 26.8124 14.9008 11.9116 9.05438
internal_count=251 191 130 61 41 60 110 61 49 40
shrinkage=0.05


Tree=13
num_leaves=9
num_cat=0
split_feature=2 14 14 6 17 5 10 2
split_gain=9.64311 3.04885 4.23401 3.27858 4.68458 4.49585 2.71399 1.07436
threshold=-0.022849607993656484 -2.9495806648761929 -1.6701355924450134 0.42173095058733057 -0.043789899996786778 0.60617265326837388 1.5533928666100045 -0.56447149724727896
decision_type=2 2 2 2 2 2 2 2
left_child=6 -2 -3 -4 -5 -6 7 -1
right_child=1 2 3 4 5 -7 -8 -9
leaf_value=-0.066714785884587055 -0.015876300913639837 0.057339795385518803 0.035262171567486719 0.042951338021881211 -0.03689748995969392 0.013692002299185472 -0.0051281695869679457 -0.033168258730112574
leaf_weight=5.129216641187667 8.4987373203039152 5.6117384433746293 9.2668719887733513 4.9389670193195334 8.9823250025510841 8.5930313318967801 4.8236860483884803 4.4636761695146552
leaf_count=23 35 23 38 20 37 35 20 20
internal_value=0 0.0111563 0.0173004 0.0102304 -7.25849e-05 -0.012163 -0.0357216 -0.0511052
internal_weight=0 45.8917 37.3929 31.7812 22.5143 17.5754 14.4166 9.59289
internal_count=251 188 153 130 92 72 63 43
shrinkage=0.05


Tree=14
num_leaves=9
num_cat=0
split_feature=2 9 14 14 6 19 9 0
split_gain=8.80974 4.00522 2.6769 3.91576 3.00848 7.55408 4.03059 2.94612
threshold=-0.043960772267415474 -15.590403957652484 -2.9495806648761929 -1.6701355924450134 0.42173095058733057 1.0000000180025095e-35 -43.0329157023234 0.87853323147440221
decision_type=2 2 2 2 2 2 2 2
left_child=1 -1 -2 -4 6 7 -5 -6
right_child=2 -3 3 4 5 -7 -8 -9
leaf_value=-0.06580551444189367 -0.015108077869726295 -0.011158489377191522 0.054542471286920927 0.00014528923334701684 0.045685198817868172 -0.034679914204435322 0.064437071701058488 -0.0017206491513829616
leaf_weight=6.0446837246417999 8.4847054630517942 7.5297999531030637 5.6047177463769904 4.8427234590053558 7.0972341597080231 9.5041740387678146 4.9089062213897687 6.0893146991729736
leaf_count=28 35 32 23 20 29 39 20 25
internal_value=0 -0.0354927 0.0102872 0.0159505 0.00928343 -0.000698213 0.0325093 0.023794
internal_weight=0 13.5745 46.5318 38.0471 32.4424 22.6907 9.75163 13.1865
internal_count=251 60 191 156 133 93 40 54
shrinkage=0.05


end of trees

feature_importances:
Column_2=19
Column_7=14
Column_9=12
Column_14=11
Column_11=9
Column_18=9
Column_0=8
Column_6=6
Column_8=6
Column_10=6
Column_17=6
Column_1=5
Column_3=5
Column_4=4
Column_16=2
Column_19=2
Column_20=2
Column_5=1
Column_13=1
Column_15=1
Column_23=1

parameters:
[boosting: gbdt]
[objective: binary]
[metric: binary_logloss]
[tree_learner: serial]
[device_type: cpu]
[data: ]
[valid: ]
[num_iterations: 10000]
[learning_rate: 0.05]
[num_leaves: 127]
[num_threads: 0]
[force_col_wise: 0]
[force_row_wise: 0]
[histogram_pool_size: -1]
[max_depth: -1]
[min_data_in_leaf: 20]
[min_sum_hessian_in_leaf: 0.001]
[bagging_fraction: 0.5]
[pos_bagging_fraction: 1]
[neg_bagging_fraction: 1]
[bagging_freq: 0]
[bagging_seed: 31935]
[feature_fraction: 0.5]
[feature_fraction_bynode: 1]
[feature_fraction_seed: 22066]
[extra_trees: 0]
[extra_seed: 31278]
[early_stopping_round: 50]
[first_metric_only: 0]
[max_delta_step: 0]
[lambda_l1: 0]
[lambda_l2: 0]
[min_gain_to_split: 0]
[drop_rate: 0.1]
[max_drop: 50]
[skip_drop: 0.5]
[xgboost_dart_mode: 0]
[uniform_drop: 0]
[drop_seed: 21642]
[top_rate: 0.2]
[other_rate: 0.1]
[min_data_per_group: 100]
[max_cat_threshold: 32]
[cat_l2: 10]
[cat_smooth: 10]
[max_cat_to_onehot: 4]
[top_k: 20]
[monotone_constraints: ]
[monotone_constraints_method: basic]
[monotone_penalty: 0]
[feature_contri: ]
[forcedsplits_filename: ]
[refit_decay_rate: 0.9]
[cegb_tradeoff: 1]
[cegb_penalty_split: 0]
[cegb_penalty_feature_lazy: ]
[cegb_penalty_feature_coupled: ]
[path_smooth: 0]
[interaction_constraints: ]
[verbosity: -1]
[saved_feature_importance_type: 0]
[max_bin: 255]
[max_bin_by_feature: ]
[min_data_in_bin: 3]
[bin_construct_sample_cnt: 200000]
[data_random_seed: 4087]
[is_enable_sparse: 1]
[enable_bundle: 1]
[use_missing: 1]
[zero_as_missing: 0]
[feature_pre_filter: 1]
[pre_partition: 0]
[two_round: 0]
[header: 0]
[label_column: ]
[weight_column: ]
[group_column: ]
[ignore_column: ]
[categorical_feature: ]
[forcedbins_filename: ]
[objective_seed: 19407]
[num_class: 1]
[is_unbalance: 0]
[scale_pos_weight: 1]
[sigmoid: 1]
[boost_from_average: 1]
[reg_sqrt: 0]
[alpha: 0.9]
[fair_c: 1]
[poisson_max_delta_step: 0.7]
[tweedie_variance_power: 1.5]
[lambdarank_truncation_level: 20]
[lambdarank_norm: 1]
[label_gain: ]
[eval_at: ]
[multi_error_top_k: 1]
[auc_mu_weights: ]
[num_machines: 1]
[local_listen_port: 12400]
[time_out: 120]
[machine_list_filename: ]
[machines: ]
[gpu_platform_id: -1]
[gpu_device_id: -1]
[gpu_use_dp: 0]

end of parameters

pandas_categorical:null
