tree
version=v3
num_class=1
num_tree_per_iteration=1
label_index=0
max_feature_idx=25
objective=binary sigmoid:1
feature_names=Column_0 Column_1 Column_2 Column_3 Column_4 Column_5 Column_6 Column_7 Column_8 Column_9 Column_10 Column_11 Column_12 Column_13 Column_14 Column_15 Column_16 Column_17 Column_18 Column_19 Column_20 Column_21 Column_22 Column_23 Column_24 Column_25
feature_infos=[-17.402206619859587:27.687168402436622] [-0.20812437311935808:0.099823147966201745] [0:1] [0.037168053843861286:0.93297412910361155] [-20.81243731193581:9.9823147966201748] [-0.0005393220211609898:0.99318026402695536] [-0.0013062366946508558:0.98863070968412281] [0.020904448381991552:0.94499981726285354] [0.016895569832796383:0.85268377266040474] [-0.99987531832657395:0.99998462976158686] [-1:1] [-141.02524786355616:141.90379553072478] [-18.572536760995316:24.35944545847752] [-0.8937782785959909:0.65667388740767862] none [10.56:23.837499999999999] [-15.020176356299503:18.057503506311367] [0.29418309000114917:0.76075179245527635] [-0.14033198312322304:0.076224670097470026] [-0.14020905764198333:0.10399780099729805] [-0.94408923106147991:0.85731564250571679] [0:1] [0:1] [0:1] [0:1] [0:1]
tree_sizes=833 737 737 735 733 738 842 840 838 739 736 743 739 839 741 638 743 839 945 842 841 734 844 744 846 848 849 846 838 729 747 851 851 847 850 850 751 847 743 843 852 751 849 749 850 846 848 848 856 744 954 850 747 854 748 854 753 646 746 852 848 749 840 741 750 748 747 855 744 839 749 745 856 748 751 958 755 849 754 643 861

Tree=0
num_leaves=7
num_cat=0
split_feature=17 12 8 11 13 8
split_gain=34.7951 19.5728 17.981 13.0648 15.8122 3.43913
threshold=0.52729337677136268 1.5678259196362061 0.4667576670384222 17.280206346781448 0.27759065806596001 0.46300388567829692
decision_type=2 2 2 2 2 2
left_child=3 5 -3 4 -1 -2
right_child=1 2 -4 -5 -6 -7
leaf_value=0.32538197465202312 0.37094941061107317 -0.072903831534977759 0.36321636748197778 -0.15353838125381841 -0.059464739915170928 0.5452943829761342
leaf_weight=8.1850772649049812 9.1772078424692172 7.4409793317317945 7.6890119761228561 11.161468997597693 8.9291751980781537 8.9291751980781537
leaf_count=33 37 30 31 45 36 36
internal_value=0.177887 0.316629 0.148731 0.0148039 0.124592 0.456928
internal_weight=0 33.2364 15.13 28.2757 17.1143 18.1064
internal_count=248 134 61 114 69 73
shrinkage=1


Tree=1
num_leaves=6
num_cat=0
split_feature=17 17 11 3 12
split_gain=22.6936 15.4762 9.66683 5.44468 4.64384
threshold=0.52729337677136268 0.65856568354213318 -37.494728221536462 0.52628669041756659 1.2517992777972944
decision_type=2 2 2 2 2
left_child=2 4 -1 -4 -2
right_child=1 -3 3 -5 -6
leaf_value=0.049363594154996825 0.29202128050930953 -0.091663300998598374 -0.084481353895944133 -0.29663214789773384 0.10886432979197358
leaf_weight=8.3982725739479083 12.042443722486498 9.9988417625427228 8.4008611440658587 11.412305027246473 10.250400587916372
leaf_count=34 51 41 34 46 42
internal_value=0 0.115077 -0.130458 -0.206679 0.207804
internal_weight=0 32.2917 28.2114 19.8132 22.2928
internal_count=248 134 114 80 93
shrinkage=0.2


Tree=2
num_leaves=6
num_cat=0
split_feature=17 8 11 16 8
split_gain=15.069 12.5996 6.37449 5.25689 3.13714
threshold=0.52729337677136268 0.35422541612475439 -37.494728221536462 0.74031620394577491 0.51584310173742021
decision_type=2 2 2 2 2
left_child=2 -2 -1 -4 -3
right_child=1 4 3 -5 -6
leaf_value=0.039633362186443803 -0.090775286311853526 0.11174723158424156 -0.24971135901343822 -0.034780002241630539 0.26557307493306781
leaf_weight=8.3712429851293582 9.8584509491920489 11.513779506087305 12.142409548163416 7.2815005332231513 9.8314669579267484
leaf_count=34 41 49 50 30 44
internal_value=0 0.0962291 -0.106262 -0.169139 0.182598
internal_weight=0 31.2037 27.7952 19.4239 21.3452
internal_count=248 134 114 80 93
shrinkage=0.2


Tree=3
num_leaves=6
num_cat=0
split_feature=17 8 11 7 17
split_gain=10.3014 13.328 8.32512 6.39419 3.15386
threshold=0.5530778809519149 0.41368556727288414 -37.494728221536462 0.65973471140198758 0.64519886723929376
decision_type=2 2 2 2 2
left_child=2 -2 -1 -4 -3
right_child=1 4 3 -5 -6
leaf_value=0.074677260954195454 -0.088974583102444493 0.28247600113680216 -0.05293292811057411 -0.27493384294400502 0.10465104316001116
leaf_weight=9.8985471278429049 9.9365789592266101 9.1716412454843539 12.192784830927851 9.0353571772575361 7.0607963651418677
leaf_count=41 41 45 51 40 30
internal_value=0 0.0934535 -0.0767935 -0.147423 0.205126
internal_weight=0 26.169 31.1267 21.2281 16.2324
internal_count=248 116 132 91 75
shrinkage=0.2


Tree=4
num_leaves=6
num_cat=0
split_feature=12 17 13 9 13
split_gain=9.22082 8.71986 12.0477 6.42818 2.82518
threshold=2.5012048585045052 0.52729337677136268 0.17818691395915728 0.99432106318794167 0.21805170560646522
decision_type=2 2 2 2 2
left_child=1 2 -1 -2 -3
right_child=3 4 -4 -5 -6
leaf_value=0.15792207069101205 -0.19531002027393032 0.10192357130881716 -0.19200578175063601 0.024968786184677957 0.26753427642670169
leaf_weight=6.9561153203249004 12.339481249451639 11.010824814438822 9.063348248600958 9.2876092046499235 6.5840980112552634
leaf_count=30 53 53 38 43 31
internal_value=0 0.0666989 -0.040057 -0.100713 0.163896
internal_weight=0 33.6144 16.0195 21.6271 17.5949
internal_count=248 152 68 96 84
shrinkage=0.2


Tree=5
num_leaves=6
num_cat=0
split_feature=11 9 11 9 7
split_gain=6.51451 8.62213 7.50192 9.50441 3.18144
threshold=-37.494728221536462 0.86605928982890334 62.741059079787696 -0.49234237026492611 0.56505535013011743
decision_type=2 2 2 2 2
left_child=1 -1 3 -2 -5
right_child=2 -3 -4 4 -6
leaf_value=-0.086117923993698081 0.054587768362280409 0.19684130771230218 0.14534154414895792 -0.10736137921077904 -0.27740636528054213
leaf_weight=6.6870893985033062 10.762840807437899 12.10497961938381 6.4295166283845893 9.8299754709005374 7.9688417464494696
leaf_count=32 50 52 34 42 38
internal_value=0 0.0961513 -0.0498403 -0.0937777 -0.183493
internal_weight=0 18.7921 34.9912 28.5617 17.7988
internal_count=248 84 164 130 80
shrinkage=0.2


Tree=6
num_leaves=7
num_cat=0
split_feature=20 20 9 8 16 17
split_gain=5.99265 11.0788 10.6222 7.26666 2.82236 2.71418
threshold=0.015085548794804672 0.091562704041927248 0.86605928982890334 0.44007800669994201 -0.35975743599567261 0.53930808410497166
decision_type=2 2 2 2 2 2
left_child=2 3 5 -2 -4 -1
right_child=1 -3 4 -5 -6 -7
leaf_value=-0.16069510762124731 -0.25147044917538558 0.13978307793242745 0.10183456556963014 0.0015862414297199607 0.28386046238659096 0.026350857143789139
leaf_weight=6.0609112977981585 11.136703133583074 7.4559198915958396 6.9756953716278076 7.6616459190845481 6.6606493443250638 6.3588147759437561
leaf_count=27 48 35 33 39 32 34
internal_value=0 -0.0665106 0.068877 -0.148332 0.190745 -0.0649289
internal_weight=0 26.2543 26.0561 18.7983 13.6363 12.4197
internal_count=248 122 126 87 65 61
shrinkage=0.2


Tree=7
num_leaves=7
num_cat=0
split_feature=12 10 8 20 18 17
split_gain=5.88427 4.62802 5.17299 4.8276 4.25948 3.73349
threshold=2.5012048585045052 -0.26515235988351421 0.48485544710833572 0.017466280999543914 -0.0058478788150465302 0.5530778809519149
decision_type=2 2 2 2 2 2
left_child=1 -1 3 -3 -2 -6
right_child=4 2 -4 -5 5 -7
leaf_value=-0.098407166487182951 0.04202619771036345 0.15732976128196011 0.2255805633409787 -0.062027344914706108 -0.25966847469292903 -0.045790343194643424
leaf_weight=6.2092855721712139 7.0515704452991512 6.9369775801897111 8.1105101406574232 9.521577984094618 6.4171808660030347 6.64556485414505
leaf_count=30 34 33 46 43 31 31
internal_value=0 0.0558617 0.0948497 0.0304276 -0.0832388 -0.15086
internal_weight=0 30.7784 24.5691 16.4586 20.1143 13.0627
internal_count=248 152 122 76 96 62
shrinkage=0.2


Tree=8
num_leaves=7
num_cat=0
split_feature=8 11 17 9 13 8
split_gain=4.62219 5.11189 9.27141 6.56576 7.7184 1.92055
threshold=0.28777140487844732 27.451730475947155 0.48380263322304445 -0.98737708773134758 0.039602750341811079 0.40708593322282788
decision_type=2 2 2 2 2 2
left_child=-1 3 -3 -2 -5 -6
right_child=1 2 -4 4 5 -7
leaf_value=-0.13610484249003668 -0.090169586517445069 -0.27092194264202629 0.055031776215069252 -0.039575185529252301 0.15439212896669868 0.3073642198093392
leaf_weight=8.2172704786062223 6.6638910546898833 5.5247741788625708 9.4800387844443303 6.4512898921966615 6.8707136660814268 6.2869144603610039
leaf_count=36 31 30 52 34 32 33
internal_value=0 0.0281481 -0.0649844 0.0813375 0.139622 0.227485
internal_weight=0 41.2776 15.0048 26.2728 19.6089 13.1576
internal_count=248 212 82 130 99 65
shrinkage=0.2


Tree=9
num_leaves=6
num_cat=0
split_feature=1 4 4 15 8
split_gain=3.85257 4.91515 3.77981 3.11478 4.78752
threshold=-0.0020295558815514934 -0.22708833384656937 0.13315673664931096 14.487500000000002 0.39102870544082918
decision_type=2 2 2 2 2
left_child=-1 -2 -3 -4 -5
right_child=1 2 3 4 -6
leaf_value=-0.10410766864442755 -0.11066021904233447 0.18709512333516723 -0.067129627376793524 -0.028504168486093381 0.2186790950355238
leaf_weight=10.830096587538717 7.6884349063038817 7.9125224724411991 8.6630279570817965 6.608160659670828 5.9620140865445137
leaf_count=54 39 40 47 31 37
internal_value=0 0.0315862 0.0691098 0.0251428 0.0887345
internal_weight=0 36.8342 29.1457 21.2332 12.5702
internal_count=248 194 155 115 68
shrinkage=0.2


Tree=10
num_leaves=6
num_cat=0
split_feature=17 17 8 11 7
split_gain=5.22961 7.21151 4.93825 3.47309 4.20569
threshold=0.68185620837866623 0.56494227211545789 0.42772218528438527 24.917129301762579 0.46583157707277939
decision_type=2 2 2 2 2
left_child=1 3 -3 4 -1
right_child=-2 2 -4 -5 -6
leaf_value=-0.047958557325806249 -0.17620034729601958 0.0072141089888620967 0.254251276360205 -0.13581847311875392 0.15468013922432738
leaf_weight=12.879626154899602 5.8314579948782912 5.6843865364789945 7.5170056968927383 8.7675371468067151 6.0079396143555632
leaf_count=59 29 26 52 51 31
internal_value=0 0.0262637 0.14788 -0.0317906 0.0164987
internal_weight=0 40.8565 13.2014 27.6551 18.8876
internal_count=248 219 78 141 90
shrinkage=0.2


Tree=11
num_leaves=6
num_cat=0
split_feature=20 19 9 20 8
split_gain=3.41227 8.3333 3.31379 7.59308 6.07899
threshold=0.10374208662951141 0.054019164723588288 0.81030472827009126 0.0069268317147808791 0.46300388567829692
decision_type=2 2 2 2 2
left_child=1 2 4 -4 -1
right_child=-2 -3 3 -5 -6
leaf_value=-0.17081879219203225 0.14897382794571051 -0.24604928664914694 0.18965225669534017 -0.072943884548248322 0.075340840306314133
leaf_weight=8.0478806123137492 5.5014005675911894 5.5635920763015738 10.262164726853372 7.7164866104722014 8.003819562494753
leaf_count=38 29 30 58 44 49
internal_value=0 -0.0191257 0.0179739 0.0769453 -0.0480768
internal_weight=0 39.5939 34.0304 17.9787 16.0517
internal_count=248 219 189 102 87
shrinkage=0.2


Tree=12
num_leaves=6
num_cat=0
split_feature=10 12 9 8 22
split_gain=3.15212 3.91147 3.41435 2.75146 2.53819
threshold=-0.27354506477274404 2.5012048585045052 0.99432106318794167 0.46107160890154714 1.0000000180025095e-35
decision_type=2 2 2 2 2
left_child=-1 3 -3 4 -2
right_child=1 2 -4 -5 -6
leaf_value=-0.13134092674522024 0.11824139081811712 -0.12773529119830873 0.059764946998887597 0.16872319957421497 -0.058781975361382167
leaf_weight=6.1652550324797621 5.9404537379741686 9.554638087749483 6.5464494898915282 8.341247692704199 7.126539021730423
leaf_count=34 31 49 40 57 37
internal_value=0 0.0229714 -0.0515006 0.0789816 0.0216955
internal_weight=0 37.5093 16.1011 21.4082 13.067
internal_count=248 214 89 125 68
shrinkage=0.2


Tree=13
num_leaves=7
num_cat=0
split_feature=17 17 8 11 4 7
split_gain=3.02194 4.9138 4.47991 3.08096 2.96782 1.24106
threshold=0.68185620837866623 0.56494227211545789 0.41368556727288414 41.499816820237506 0.13315673664931096 0.37585703394253278
decision_type=2 2 2 2 2 2
left_child=1 3 -3 4 -1 -6
right_child=-2 2 -4 -5 5 -7
leaf_value=0.10059126924470679 -0.13735162124009706 -0.0051994189941334864 0.2482842390605097 -0.15592622358987196 -0.11690194811861077 0.013204988044563108
leaf_weight=8.4709329754114204 5.4953619167208663 5.1508254557847959 6.0818596333265305 5.717976562678813 6.1338861137628538 5.6190032213926315
leaf_count=43 29 25 53 36 30 32
internal_value=0 0.0215444 0.132048 -0.0263029 0.0103461 -0.0546984
internal_weight=0 37.1745 11.2327 25.9418 20.2238 11.7529
internal_count=248 219 78 141 105 62
shrinkage=0.2


Tree=14
num_leaves=6
num_cat=0
split_feature=11 10 8 9 17
split_gain=3.00915 5.21313 4.26039 3.87122 3.14668
threshold=-36.582951438480713 0.14752496209207189 0.46300388567829692 0.86605928982890334 0.49358653501402955
decision_type=2 2 2 2 2
left_child=3 2 -2 -1 -4
right_child=1 -3 4 -5 -6
leaf_value=-0.063653601855120021 -0.22002025405818132 0.10095032764095457 -0.12846045074105109 0.14546563134064924 0.081942525239126346
leaf_weight=5.4938641227781764 7.0235811620950761 7.4299461469054213 5.6147311553359014 9.961259648203848 5.7599597759544849
leaf_count=33 39 47 33 54 42
internal_value=0 -0.0404426 -0.0975426 0.0711296 -0.0219158
internal_weight=0 25.8282 18.3983 15.4551 11.3747
internal_count=248 161 114 87 75
shrinkage=0.2


Tree=15
num_leaves=5
num_cat=0
split_feature=12 17 19 4
split_gain=2.66094 3.24771 3.16729 3.6269
threshold=-1.4391198921611918 0.50315037426383979 0.032013946946475642 0.13315673664931096
decision_type=2 2 2 2
left_child=1 -1 3 -2
right_child=2 -3 -4 -5
leaf_value=-0.03175004300647076 0.12538046550785353 0.16101427482672348 -0.12489438482155511 -0.067959530474576382
leaf_weight=6.5625407844781858 7.0462012179195908 7.4820656329393387 10.057474948465822 8.6400582119822484
leaf_count=33 45 54 57 59
internal_value=0 0.0709424 -0.0372844 0.018888
internal_weight=0 14.0446 25.7437 15.6863
internal_count=248 87 161 104
shrinkage=0.2


Tree=16
num_leaves=6
num_cat=0
split_feature=20 19 9 20 8
split_gain=2.40352 4.30047 3.01244 3.05856 1.92853
threshold=0.10374208662951141 0.046264114290136278 0.81030472827009126 0.0034337358524369481 0.42772218528438527
decision_type=2 2 2 2 2
left_child=1 2 4 -4 -1
right_child=-2 -3 3 -5 -6
leaf_value=-0.14277421427130621 0.13251079865305931 -0.15890555971578449 0.16419684313841426 -0.025131443813269119 0.013153775545916645
leaf_weight=5.3756962865591067 4.8566018007695666 6.8956363573670378 7.9402230083942396 5.9862557463347912 7.7423886097967625
leaf_count=28 29 44 55 40 52
internal_value=0 -0.017917 0.0180312 0.0828146 -0.0507444
internal_weight=0 33.9402 27.0446 13.9265 13.1181
internal_count=248 219 175 95 80
shrinkage=0.2


Tree=17
num_leaves=7
num_cat=0
split_feature=10 8 16 3 8 16
split_gain=2.25367 2.91714 2.44384 2.83393 1.89625 1.43639
threshold=-0.3894310099421866 0.28777140487844732 1.2193118340139826 0.40946239903550374 0.53839003245542882 3.4871047230864334
decision_type=2 2 2 2 2 2
left_child=-1 -2 3 -3 -5 -4
right_child=1 2 5 4 -6 -7
leaf_value=-0.13111815473765687 -0.10077975460027651 0.10217763194314962 0.19815437997463256 -0.13999098138398278 0.038906528384306645 0.047000123394715737
leaf_weight=4.5546856373548499 6.5306641012430182 6.6054052934050622 5.2664065025746805 5.8278594687581045 3.9943694118410349 4.8129098434001207
leaf_count=28 36 41 35 40 36 32
internal_value=0 0.0189509 0.0484497 0.000881682 -0.0672394 0.125978
internal_weight=0 33.0376 26.507 16.4276 9.82223 10.0793
internal_count=248 220 184 117 76 67
shrinkage=0.2


Tree=18
num_leaves=8
num_cat=0
split_feature=5 8 1 7 9 10 5
split_gain=1.83957 3.58762 2.41965 2.31458 2.84962 2.41609 0.890223
threshold=0.049049818115743646 0.31582908995485864 -0.0020295558815514934 0.65476286540572948 -0.98737708773134758 0.16954562639635509 0.81344598229822329
decision_type=2 2 2 2 2 2 2
left_child=-1 -2 -3 4 -4 -6 -5
right_child=1 2 3 6 5 -7 -8
leaf_value=0.11546121734839612 -0.17114127849696395 -0.10319737211968294 -0.033717361436714929 -0.11758816632092561 0.056259745656243282 0.26232205148101423 0.021452587123890789
leaf_weight=4.8484476432204238 5.0666143000125876 5.7186887785792377 4.7737504914402988 3.6403179205954066 4.6533010266721231 4.4550870433449745 3.7284831516444683
leaf_count=27 31 39 29 25 32 30 35
internal_value=0 -0.0167258 0.0122833 0.0433595 0.0914487 0.157049 -0.047236
internal_weight=0 32.0362 26.9696 21.2509 13.8821 9.10839 7.3688
internal_count=248 221 190 151 91 62 60
shrinkage=0.2


Tree=19
num_leaves=7
num_cat=0
split_feature=17 17 8 0 10 11
split_gain=1.94924 2.92087 3.0008 2.04136 2.35875 1.67251
threshold=0.68185620837866623 0.56494227211545789 0.35422541612475439 -1.3759536476593361 0.14752496209207189 -17.972690331333123
decision_type=2 2 2 2 2 2
left_child=1 3 -3 -1 5 -5
right_child=-2 2 -4 4 -6 -7
leaf_value=0.097883167911306482 -0.12094195382968514 -0.034318050795454635 0.20677159919437627 -0.018667379383345711 0.046184852673244098 -0.17302522670945988
leaf_weight=4.6878329813480404 4.5912126824259749 3.3064293861389142 5.5005870778113604 5.0127110928297087 6.4547702968120566 6.3835061900317678
leaf_count=29 29 19 59 31 40 41
internal_value=0 0.0185921 0.116259 -0.0195711 -0.0504157 -0.10513
internal_weight=0 31.3458 8.80702 22.5388 17.851 11.3962
internal_count=248 219 78 141 112 72
shrinkage=0.2


Tree=20
num_leaves=7
num_cat=0
split_feature=12 18 8 9 7 9
split_gain=2.06876 1.8893 1.75427 2.70511 2.88249 1.97097
threshold=2.616566268803282 -0.0058478788150465302 0.48485544710833572 -0.98737708773134758 0.36769226193016907 -0.94855447333895782
decision_type=2 2 2 2 2 2
left_child=2 -2 3 -1 -5 -4
right_child=1 -3 5 4 -6 -7
leaf_value=-0.13006478872047683 0.043193740611394062 -0.11579694144751823 0.22709630887525145 0.16131873769947064 -0.059621685976910713 0.022315015617041363
leaf_weight=4.5285779647529116 4.5474311150610456 8.7271154187619651 3.484362592920661 5.0421678870916384 4.4435441233217716 4.0830482114106408
leaf_count=28 34 59 27 33 31 36
internal_value=0 -0.0613319 0.0390078 -0.00289304 0.0578201 0.116605
internal_weight=0 13.2745 21.5817 14.0143 9.48571 7.56741
internal_count=248 93 155 92 64 63
shrinkage=0.2


Tree=21
num_leaves=6
num_cat=0
split_feature=12 17 9 9 5
split_gain=1.37852 1.53506 2.41891 1.52527 1.01953
threshold=2.616566268803282 0.50315037426383979 0.99312790172921206 0.99214021352181836 0.58377159213571939
decision_type=2 2 2 2 2
left_child=1 -1 4 -2 -3
right_child=3 2 -4 -5 -6
leaf_value=-0.028677252359713121 -0.11646190431663823 0.20385775684651916 -0.053286961471595021 0.020464522338540084 0.059659140676030543
leaf_weight=9.1474338080734032 6.7250936701893789 4.5979020949453098 3.6921401284635058 6.3048573657870293 3.4201589096337557
leaf_count=58 42 39 25 51 33
internal_value=0 0.032712 0.0806663 -0.0502067 0.142349
internal_weight=0 20.8576 11.7102 13.03 8.01806
internal_count=248 155 97 93 72
shrinkage=0.2


Tree=22
num_leaves=7
num_cat=0
split_feature=20 19 16 12 17 4
split_gain=1.43484 2.31812 1.57146 1.50638 1.52482 1.46553
threshold=0.10374208662951141 0.048481757713397501 0.2302971410754959 3.6757378604113322 0.52729337677136268 0.41348158690877507
decision_type=2 2 2 2 2 2
left_child=1 2 3 4 -1 -4
right_child=-2 -3 5 -5 -6 -7
leaf_value=-0.083947778502372977 0.10872774727813239 -0.14300062504658714 0.11908726720914042 -0.14859764217388413 0.08188190988990815 -0.027646439405585907
leaf_weight=4.1394780799746567 4.2961727902293196 4.7407341841608277 7.1503666918724758 3.5853128321468821 4.7780877724289894 4.3968936372548342
leaf_count=24 29 39 52 30 44 30
internal_value=0 -0.0151784 0.0100178 -0.0391134 0.00490481 0.0632149
internal_weight=0 28.7909 24.0501 12.5029 8.91757 11.5473
internal_count=248 219 180 98 68 82
shrinkage=0.2


Tree=23
num_leaves=6
num_cat=0
split_feature=17 17 0 10 11
split_gain=1.55628 2.29302 1.61047 1.50257 2.61867
threshold=0.68185620837866623 0.60411071359205437 -1.3759536476593361 0.14752496209207189 -36.582951438480713
decision_type=2 2 2 2 2
left_child=1 2 -1 4 -4
right_child=-2 -3 3 -5 -6
leaf_value=0.093039161137514204 -0.11471890362226995 0.13458578096032989 0.031039405271802312 0.037646152177097859 -0.16391733649186724
leaf_weight=4.7580398600548568 4.0832044258713713 5.3983209785073987 4.7466990686953121 6.6479015145450822 6.5709556452929938
leaf_count=34 29 54 32 49 50
internal_value=0 0.0174145 -0.0104212 -0.0378219 -0.0821512
internal_weight=0 28.1219 22.7236 17.9656 11.3177
internal_count=248 219 165 131 82
shrinkage=0.2


Tree=24
num_leaves=7
num_cat=0
split_feature=8 10 16 24 7 4
split_gain=1.17025 1.61092 1.3558 1.29885 0.977718 0.901357
threshold=0.28777140487844732 -0.3894310099421866 1.2193118340139826 1.0000000180025095e-35 0.51744212826832914 0.28439393717646194
decision_type=2 2 2 2 2 2
left_child=-1 -2 3 4 -3 -4
right_child=1 2 5 -5 -6 -7
leaf_value=-0.08416632805646232 -0.10175901756159443 0.11931646165287615 0.16552890836076758 -0.070612578163224526 -0.022541157563721475 0.034757996245608179
leaf_weight=5.4153978042304542 3.8296938277781072 4.190109556540845 4.3267477452754957 5.9302020668983459 3.6245303265750408 4.1119608599692583
leaf_count=36 28 32 37 55 30 30
internal_value=0 0.0180262 0.0387055 -3.62987e-05 0.0535211 0.101808
internal_weight=0 26.0132 22.1836 13.7448 7.81464 8.43871
internal_count=248 212 184 117 62 67
shrinkage=0.2


Tree=25
num_leaves=7
num_cat=0
split_feature=4 4 22 1 17 1
split_gain=1.1593 1.78673 2.30091 2.00432 2.61667 1.05994
threshold=-0.36194981724033753 0.13315673664931096 1.0000000180025095e-35 -0.0020295558815514934 0.56494227211545789 0.0038086301871688493
decision_type=2 2 2 2 2 2
left_child=-1 2 -2 -3 5 -5
right_child=1 3 -4 4 -6 -7
leaf_value=-0.089839444434050036 0.1876778288114323 -0.1404155063443524 -0.022124798115822585 0.020213162151329223 0.14516897922420119 -0.11674522351357744
leaf_weight=4.8067824039608267 4.6204968076199311 4.1650988478213611 3.8192477226257324 4.9071165584027714 4.3876932039856902 4.190519917756319
leaf_count=36 41 31 25 35 47 33
internal_value=0 0.0170464 0.0927356 -0.0191453 0.0183104 -0.0428721
internal_weight=0 26.0902 8.43974 17.6504 13.4853 9.09764
internal_count=248 212 66 146 115 68
shrinkage=0.2


Tree=26
num_leaves=7
num_cat=0
split_feature=17 17 0 9 10 11
split_gain=1.06207 0.984099 1.139 1.08112 2.78908 3.67722
threshold=0.68185620837866623 0.60411071359205437 -1.3759536476593361 -0.98737708773134758 0.14752496209207189 -35.272095776260279
decision_type=2 2 2 2 2 2
left_child=1 2 -1 -4 5 -5
right_child=-2 -3 3 4 -6 -7
leaf_value=0.085914497534107348 -0.099048863957907504 0.098008295304773313 -0.11996200579213914 0.056118375522456888 0.12149970605694871 -0.20919449707396964
leaf_weight=4.5301403719931939 3.7474005445837966 4.6707379333674899 3.862942339852462 4.4171577431261619 4.8231483232229939 3.9655604474246333
leaf_count=34 29 54 28 29 38 36
internal_value=0 0.0147657 -0.00323535 -0.0268961 0.000327233 -0.0693915
internal_weight=0 26.2697 21.5989 17.0688 13.2059 8.38272
internal_count=248 219 165 131 103 65
shrinkage=0.2


Tree=27
num_leaves=7
num_cat=0
split_feature=12 12 18 5 11 10
split_gain=1.17471 1.92065 1.82029 3.76577 1.62355 1.00102
threshold=-1.4391198921611918 -2.9902308341229196 -0.010069279739049168 0.26491688460906093 -9.5813860460931775 0.17252760130957978
decision_type=2 2 2 2 2 2
left_child=1 -1 -2 -4 -5 -6
right_child=2 -3 3 4 5 -7
leaf_value=-0.017656400686872287 0.06969386068921514 0.15883629333011992 -0.24006718322512666 0.10747033602070677 -0.14211625083833943 0.016516200422109578
leaf_weight=6.0021343939006329 5.315693905577068 4.1867137886583823 3.7101245187222931 3.4292353112250584 3.1999729294329846 3.1649033613502979
leaf_count=57 42 30 27 29 40 23
internal_value=0 0.0548665 -0.0294455 -0.0684699 -0.00346687 -0.063237
internal_weight=0 10.1888 18.8199 13.5042 9.79411 6.36488
internal_count=248 87 161 119 92 63
shrinkage=0.2


Tree=28
num_leaves=7
num_cat=0
split_feature=5 9 13 11 3 2
split_gain=0.91788 2.07143 2.51914 1.38277 1.31973 0.778873
threshold=0.6786275912259957 -0.98955805867682956 0.22668192534201825 -55.807369829884202 0.65917399468596793 0.91236453183736332
decision_type=2 2 2 2 2 2
left_child=1 -1 3 -3 -2 -5
right_child=4 2 -4 5 -6 -7
leaf_value=-0.15560323224489492 0.15209074439491804 0.052262873916043021 0.10545032891912819 -0.17507302207914643 -0.011128753579455447 -0.039012134423476272
leaf_weight=3.8145898804068628 3.3875283822417241 3.2460034899413639 6.4461899856105438 3.3469035550951922 4.7741839597001672 3.3849360961467028
leaf_count=30 31 25 50 31 52 29
internal_value=0 -0.0228361 0.008 -0.0549578 0.0566157 -0.106658
internal_weight=0 20.2386 16.424 9.97784 8.16171 6.73184
internal_count=248 165 135 85 83 60
shrinkage=0.2


Tree=29
num_leaves=6
num_cat=0
split_feature=12 9 8 8 15
split_gain=0.967536 1.43515 1.2942 1.86969 1.33829
threshold=2.616566268803282 0.99050760166255436 0.4764029576013194 0.59044574225329727 14.891250000000001
decision_type=2 2 2 2 2
left_child=2 -2 4 -4 -1
right_child=1 -3 3 -5 -6
leaf_value=-0.10780226022827036 -0.12309516989077407 0.02336956109229418 0.21404340729345464 0.001491550471887105 0.041565479291433081
leaf_weight=3.8663745988160425 5.1582348272204381 5.5610550623387098 3.036860888823866 3.6389910634607077 6.323600641451776
leaf_count=33 39 54 30 35 57
internal_value=0 -0.0471108 0.0297339 0.0981819 -0.015109
internal_weight=0 10.7193 16.8658 6.67585 10.19
internal_count=248 93 155 65 90
shrinkage=0.2


Tree=30
num_leaves=6
num_cat=0
split_feature=1 1 0 16 17
split_gain=0.93841 1.54879 1.2924 1.15206 1.25888
threshold=-0.0020295558815514934 0.00061497949984363012 -1.044102704055432 1.2193118340139826 0.56494227211545789
decision_type=2 2 2 2 2
left_child=-1 -2 -3 4 -4
right_child=1 2 3 -5 -6
leaf_value=-0.067708211037806484 0.12352359341944902 0.10538529201705767 -0.14507142624240918 0.052475700034960521 0.0057184529228607337
leaf_weight=6.2806285023689297 4.5564870256930616 3.1953087970614513 4.8777344478294165 4.0055147353559741 4.0562931457534432
leaf_count=54 43 29 43 40 39
internal_value=0 0.0205564 -0.00852152 -0.0366498 -0.0766087
internal_weight=0 20.6913 16.1349 12.9395 8.93403
internal_count=248 194 151 122 82
shrinkage=0.2


Tree=31
num_leaves=7
num_cat=0
split_feature=20 19 9 12 2 10
split_gain=0.936102 1.50812 1.16014 1.17948 1.45429 1.36902
threshold=0.10374208662951141 0.046264114290136278 0.99704608019723684 3.6757378604113322 0.040406248887192991 0.064402781415735591
decision_type=2 2 2 2 2 2
left_child=1 2 3 4 -1 -6
right_child=-2 -3 -4 -5 5 -7
leaf_value=-0.068408209188227861 0.098852479919076613 -0.12392086707369375 0.11885265000137907 -0.10690711008913921 0.17573085304224378 -0.00065642203796963355
leaf_weight=4.6377085428685039 3.3450048537924877 4.1276841517537823 3.2203702963888636 3.9875934030860654 3.090632070787251 4.0883974991738796
leaf_count=36 29 44 30 38 34 37
internal_value=0 -0.0143346 0.00944172 -0.0128524 0.0188866 0.0752798
internal_weight=0 23.1524 19.0247 15.8043 11.8167 7.17903
internal_count=248 219 175 145 107 71
shrinkage=0.2


Tree=32
num_leaves=7
num_cat=0
split_feature=8 11 10 9 13 4
split_gain=0.799843 1.28256 1.68774 1.49396 1.43234 1.01726
threshold=0.28777140487844732 -37.494728221536462 -0.030299892905410322 0.86605928982890334 -0.15021814397556238 -1.0000000180025095e-35
decision_type=2 2 2 2 2 2
left_child=-1 3 5 -2 -4 -3
right_child=1 2 4 -5 -6 -7
leaf_value=-0.077161342231015506 -0.013554753701921093 -0.17776677111494155 -0.063302194910827614 0.18054286349810264 0.11110564612628059 -0.022214961806553846
leaf_weight=4.442026540637019 2.9403511583805146 2.9400771446526051 3.0017283558845547 3.4442342519760132 5.0562823526561145 3.9290184313431409
leaf_count=36 29 27 32 35 44 45
internal_value=0 0.0161325 -0.0159552 0.0911533 0.0461361 -0.0887935
internal_weight=0 21.3117 14.9271 6.38459 8.05801 6.8691
internal_count=248 212 148 64 76 72
shrinkage=0.2


Tree=33
num_leaves=7
num_cat=0
split_feature=18 6 11 12 13 18
split_gain=0.672244 2.30306 1.91855 0.854038 1.1763 0.913163
threshold=-0.010069279739049168 0.22598670973566418 -36.582951438480713 2.616566268803282 0.17818691395915728 0.027444567780279042
decision_type=2 2 2 2 2 2
left_child=2 -2 -1 4 5 -3
right_child=1 3 -4 -5 -6 -7
leaf_value=0.14471875653241026 -0.17305395816789404 0.20258185766961823 -0.053848372922709144 -0.047856982743965229 -0.033361656032362207 0.029075084398080611
leaf_weight=4.0345925725996494 3.2654352411627796 2.4787661144509894 3.7603963073343065 5.4889747090637675 3.5877240849658847 2.3766604298725724
leaf_count=37 28 31 32 55 34 31
internal_value=0 -0.0218764 0.0489276 0.0135569 0.0534827 0.117653
internal_weight=0 17.1976 7.79499 13.9321 8.44315 4.85543
internal_count=248 179 69 151 96 62
shrinkage=0.2


Tree=34
num_leaves=7
num_cat=0
split_feature=13 9 13 12 20 13
split_gain=0.660771 3.04662 2.05804 1.43986 0.841001 1.32745
threshold=0.22668192534201825 -0.98302066052579573 0.12274777631053554 -0.16034662912570893 0.070998882336455335 -0.060088954843867143
decision_type=2 2 2 2 2 2
left_child=2 -2 3 -1 5 -5
right_child=1 -3 -4 4 -6 -7
leaf_value=0.14230502474942724 -0.10970781028674344 0.13145531514916048 -0.16085051370603395 0.02005421614555308 0.060501948299203592 -0.16835870241931922
leaf_weight=2.7242312449961892 3.3012134339660406 5.7362858429551107 3.4481224091723552 3.2327810777351242 3.1450560614466667 2.7836995087564027
leaf_count=35 32 48 33 46 23 31
internal_value=0 0.0433634 -0.0248148 0.0146498 -0.0233091 -0.0671205
internal_weight=0 9.0375 15.3339 11.8858 9.16154 6.01648
internal_count=248 80 168 135 100 77
shrinkage=0.2


Tree=35
num_leaves=7
num_cat=0
split_feature=10 16 18 8 4 4
split_gain=0.617256 0.771257 1.72577 1.25382 0.924301 0.593363
threshold=-0.43620324589787113 0.18151339954684434 0.0008249819337718679 0.31959496675301075 0.1414066460028765 0.21872962157639506
decision_type=2 2 2 2 2 2
left_child=-1 3 -3 -2 -4 -5
right_child=1 2 4 5 -6 -7
leaf_value=-0.087280060191902445 -0.12896609886991484 0.16503254647464929 0.065736932074389687 -0.037111882840571597 -0.085036507265960432 0.075166448018675711
leaf_weight=2.8315594177693155 3.2387391999363917 3.517989816144107 3.2880327021703124 3.711698442697525 3.2182592004537582 3.820813478436321
leaf_count=25 28 35 32 43 37 48
internal_value=0 0.0122536 0.0521791 -0.0249032 -0.00884134 0.0198405
internal_weight=0 20.7955 10.0243 10.7713 6.50629 7.53251
internal_count=248 223 104 119 69 91
shrinkage=0.2


Tree=36
num_leaves=6
num_cat=0
split_feature=1 1 11 15 10
split_gain=0.670983 1.1339 0.811907 0.658222 0.262835
threshold=-0.0011094079343621607 0.00061497949984363012 -36.582951438480713 14.076250000000002 -0.052363155153822692
decision_type=2 2 2 2 2
left_child=4 -2 -3 -4 -1
right_child=1 2 3 -5 -6
leaf_value=-0.10291696492776642 0.1301529673544097 0.053336177492841454 -0.11155856595637625 0.0041098997555046885 -0.019758153937115955
leaf_weight=2.6985257808119059 3.1049511088058379 5.831804376095536 3.3995851026847905 4.672829027287662 3.4819472804665592
leaf_count=28 34 57 36 58 35
internal_value=0 0.020878 -0.00352424 -0.0446023 -0.0560671
internal_weight=0 17.0092 13.9042 8.07241 6.18047
internal_count=248 185 151 94 63
shrinkage=0.2


Tree=37
num_leaves=7
num_cat=0
split_feature=5 8 11 17 17 19
split_gain=0.531892 1.3833 1.13279 1.16538 1.94905 1.13713
threshold=0.049049818115743646 0.30826885825011141 -37.494728221536462 0.54304466094898574 0.67722444013792515 0.023764787749875286
decision_type=2 2 2 2 2 2
left_child=-1 -2 -3 5 -5 -4
right_child=1 2 3 4 -6 -7
leaf_value=0.075266310634543629 -0.14278032105069577 0.09595054315599176 -0.15466681965516471 0.17933580443289587 -0.079619760791966532 0.00059255513840785097
leaf_weight=3.2458549719303873 2.7811962664127376 4.4533134596422395 3.4624915402382541 2.4591349987313151 2.2051236815750599 4.1467059776186943
leaf_count=27 29 53 30 46 19 44
internal_value=0 -0.0121713 0.0095453 -0.0218061 0.0569093 -0.0700567
internal_weight=0 19.508 16.7268 12.2735 4.66426 7.6092
internal_count=248 221 192 139 65 74
shrinkage=0.2


Tree=38
num_leaves=6
num_cat=0
split_feature=12 13 10 20 4
split_gain=0.554189 0.990133 1.69835 2.30454 0.778341
threshold=2.616566268803282 0.32984364983847714 1.0000000180025095e-35 -0.040358434219664098 0.25739706391027073
decision_type=2 2 2 2 2
left_child=1 2 3 -1 -2
right_child=4 -3 -4 -5 -6
leaf_value=0.11568490002429316 0.019030864513326085 -0.0721291903042455 0.146918583927728 -0.13844861251928609 -0.10298440178727852
leaf_weight=2.7362116416916242 4.3128362204879505 3.1780579984188071 4.5429148711264133 2.9837815775536027 4.0597297232598066
leaf_count=23 50 36 57 39 43
internal_value=0 0.0254182 0.0556252 -0.0168815 -0.0401325
internal_weight=0 13.441 10.2629 5.71999 8.37257
internal_count=248 155 119 62 93
shrinkage=0.2


Tree=39
num_leaves=7
num_cat=0
split_feature=8 15 11 8 17 8
split_gain=0.4968 0.83944 0.898006 1.94613 1.07675 0.398265
threshold=0.67903457501437048 16.393750000000001 -36.582951438480713 0.30826885825011141 0.46474900006381131 0.46107160890154714
decision_type=2 2 2 2 2 2
left_child=1 2 3 -1 -4 -6
right_child=-2 -3 4 -5 5 -7
leaf_value=-0.032931780775966986 0.082552874331294226 -0.089804855292475186 -0.14101978712711721 0.19006972185454205 -0.04269072721530412 0.063802190546935172
leaf_weight=3.4429982714355019 2.5830918047577134 4.1958444006741038 2.5097123933956045 2.8703970098868012 2.5373722743242979 3.1468664081767201
leaf_count=28 35 51 35 38 29 32
internal_value=0 -0.0110184 0.0117683 0.0684563 -0.0319094 0.0162651
internal_weight=0 18.7032 14.5073 6.3134 8.19395 5.68424
internal_count=248 213 162 66 96 61
shrinkage=0.2


Tree=40
num_leaves=7
num_cat=0
split_feature=5 6 10 9 10 19
split_gain=0.485949 1.08556 0.792999 1.13155 0.642116 0.906992
threshold=0.049049818115743646 0.22598670973566418 -0.3894310099421866 -0.49234237026492611 0.16521537041289489 0.043902630704887653
decision_type=2 2 2 2 2 2
left_child=-1 -2 -3 -4 5 -5
right_child=1 2 3 4 -6 -7
leaf_value=0.073005310626835601 -0.10145786434557634 -0.10110431075519709 0.12620593873379005 0.022732431294033666 0.061818175855695635 -0.15837841324147001
leaf_weight=3.1296708462759879 4.1805771337822106 1.9873337913304592 3.7213586894795325 2.5214243307709614 3.0827611987479031 1.9703744836151598
leaf_count=27 46 21 51 41 33 29
internal_value=0 -0.0125745 0.0153994 0.0358963 -0.00847257 -0.0567137
internal_weight=0 17.4638 13.2833 11.2959 7.57456 4.4918
internal_count=248 221 175 154 103 70
shrinkage=0.2


Tree=41
num_leaves=6
num_cat=0
split_feature=1 0 17 0 22
split_gain=0.433003 1.11427 0.820895 0.832935 0.733844
threshold=-0.0011094079343621607 -1.3759536476593361 0.60411071359205437 0.37270823757724209 1.0000000180025095e-35
decision_type=2 2 2 2 2
left_child=4 -2 3 -3 -1
right_child=1 2 -4 -5 -6
leaf_value=0.021541926237835934 0.13656818830689318 0.024057040015834169 0.076768787376681788 -0.10006043466151533 -0.12602006904846161
leaf_weight=2.8579413425177362 2.6113003790378597 4.186857502441848 3.331318888347595 4.4736149744130671 2.5517045548185706
leaf_count=38 30 53 48 54 25
internal_value=0 0.0181779 -0.00760246 -0.0400565 -0.0480624
internal_weight=0 14.6031 11.9918 8.66047 5.40965
internal_count=248 185 155 107 63
shrinkage=0.2


Tree=42
num_leaves=7
num_cat=0
split_feature=18 6 11 11 17 19
split_gain=0.439244 1.20275 0.97352 0.542815 0.878202 0.86643
threshold=-0.010069279739049168 0.22598670973566418 -36.582951438480713 4.814423506505233 0.54304466094898574 0.031274057157255848
decision_type=2 2 2 2 2 2
left_child=2 -2 -1 5 -5 -3
right_child=1 3 -4 4 -6 -7
leaf_value=0.11988916872953324 -0.13795166739892595 0.15499483289661153 -0.039222359854375249 -0.086441312990807831 0.070294831460076826 -0.017757347527356738
leaf_weight=3.2455368442460895 2.7515564775094381 2.1453582984395307 2.9238727111369398 3.8954117996618152 2.2592729460448027 2.5317931156605482
leaf_count=37 28 37 32 49 36 29
internal_value=0 -0.019872 0.0444813 0.0101231 -0.0289063 0.0614822
internal_weight=0 13.5834 6.16941 10.8318 6.15468 4.67715
internal_count=248 179 69 151 85 66
shrinkage=0.2


Tree=43
num_leaves=6
num_cat=0
split_feature=17 17 13 12 10
split_gain=0.661173 0.729186 0.648822 1.03602 1.3513
threshold=0.68185620837866623 0.60411071359205437 0.36312110347107102 -1.4391198921611918 0.14752496209207189
decision_type=2 2 2 2 2
left_child=1 2 3 -1 -5
right_child=-2 -3 -4 4 -6
leaf_value=0.096694930435973298 -0.099311939500028937 0.10466200867592101 -0.084692147909940521 -0.10487161256964682 0.079278231097949473
leaf_weight=4.1551236170344081 2.3392676673829547 2.9398556421510866 3.1567513430491081 3.9569536717608598 2.6690701711922884
leaf_count=52 29 54 33 55 25
internal_value=0 0.0141456 -0.00494663 0.0184031 -0.0306931
internal_weight=0 16.8778 13.9379 10.7811 6.62602
internal_count=248 219 165 132 80
shrinkage=0.2


Tree=44
num_leaves=7
num_cat=0
split_feature=4 4 22 7 11 17
split_gain=0.414584 0.960379 0.963972 0.871501 1.5169 0.586663
threshold=-0.36194981724033753 0.13315673664931096 1.0000000180025095e-35 0.50364021666868874 17.280206346781448 0.50315037426383979
decision_type=2 2 2 2 2 2
left_child=-1 2 -2 5 -5 -3
right_child=1 3 -4 4 -6 -7
leaf_value=-0.068843624182306731 0.16271283515914634 -0.14506403171788429 -0.0093900312686979147 0.17898963996317116 -0.05517704740736723 -0.019305339419161335
leaf_weight=2.9297803295776275 2.8166454238817087 2.4987348448485118 2.4205566383898258 1.9382396275177596 2.5787486308254302 3.653015520889312
leaf_count=36 41 23 25 20 50 53
internal_value=0 0.0130274 0.0831695 -0.0214048 0.0453039 -0.0703864
internal_weight=0 15.9059 5.2372 10.6687 4.51699 6.15175
internal_count=248 212 66 146 70 76
shrinkage=0.2


Tree=45
num_leaves=7
num_cat=0
split_feature=11 3 0 9 6 6
split_gain=0.507958 0.539869 0.85311 0.753152 0.566956 0.829577
threshold=-76.161513754173157 0.26164681417038849 -0.21699397322193148 0.86605928982890334 0.33100117599555395 0.71870284813234153
decision_type=2 2 2 2 2 2
left_child=-1 -2 3 -3 -4 -6
right_child=1 2 4 -5 5 -7
leaf_value=0.080313137846894089 -0.10047494785975944 -0.11431878407584398 -0.029801929226489568 0.022775517031526991 0.19860686511319278 0.023314215377551177
leaf_weight=2.7093427702784565 2.4133950360119334 3.4035061337053776 2.2603934635408205 3.029764074832201 1.7911327355541287 2.719653241802007
leaf_count=33 27 43 27 43 28 47
internal_value=0 -0.0134969 0.00240021 -0.0497539 0.0519516 0.092919
internal_weight=0 15.6178 13.2044 6.43327 6.77118 4.51079
internal_count=248 215 188 86 102 75
shrinkage=0.2


Tree=46
num_leaves=7
num_cat=0
split_feature=13 9 17 13 17 12
split_gain=0.522899 1.86789 0.92888 0.868006 0.888925 1.06955
threshold=0.22668192534201825 -0.98302066052579573 0.64246804271182612 0.12274777631053554 0.47115540372415438 1.2517992777972944
decision_type=2 2 2 2 2 2
left_child=2 -2 3 4 -1 -6
right_child=1 -3 -4 -5 5 -7
leaf_value=-0.059384851338147963 -0.10039984976142405 0.12144861392673412 -0.13295322528944103 -0.11520363556195799 0.21178349339744695 0.010797682279102811
leaf_weight=2.4131154380738753 2.3223427925258875 4.3836158083286128 2.5178607255220404 1.8833529436960814 1.7716577639803288 2.6331913648173213
leaf_count=38 32 48 37 22 36 35
internal_value=0 0.0446202 -0.0259724 0.00498414 0.0381841 0.0916354
internal_weight=0 6.70596 11.2192 8.70132 6.81796 4.40485
internal_count=248 80 168 131 109 71
shrinkage=0.2


Tree=47
num_leaves=7
num_cat=0
split_feature=18 8 9 12 9 8
split_gain=0.403945 0.974334 0.779817 0.630609 1.25683 0.646092
threshold=-0.010069279739049168 0.30826885825011141 0.99214021352181836 2.616566268803282 0.86605928982890334 0.47215765873435228
decision_type=2 2 2 2 2 2
left_child=2 -2 -1 4 5 -3
right_child=1 3 -4 -5 -6 -7
leaf_value=-0.020346984227781834 -0.13492519660473273 -0.11892400516897353 0.13308738766821701 -0.053669801794021005 0.16335740282901967 0.058354251215669332
leaf_weight=3.0677814288064864 2.3651021160185328 1.6106042629107817 2.3322909437119961 3.8641594341024756 2.3384852581657469 1.6801651332061736
leaf_count=41 28 26 28 53 38 34
internal_value=0 -0.0200688 0.0459213 0.00854545 0.0512526 -0.0284112
internal_weight=0 11.8585 5.40007 9.49341 5.62925 3.29077
internal_count=248 179 69 151 98 60
shrinkage=0.2


Tree=48
num_leaves=7
num_cat=0
split_feature=1 13 10 9 16 15
split_gain=0.390427 0.552857 0.896815 0.861694 0.826919 0.239407
threshold=-0.0037951802602629232 0.22668192534201825 1.0000000180025095e-35 -0.97852086962987472 -0.90089779905689371 15.493750000000002
decision_type=2 2 2 2 2 2
left_child=-1 2 5 -3 -4 -2
right_child=1 3 4 -5 -6 -7
leaf_value=-0.071417315743654661 -0.12844793341221081 -0.028452555073311216 0.14255751741423578 0.13690914352201347 -0.025482153203607236 -0.033009629822572766
leaf_weight=2.5515621909871724 2.2366139073856157 2.2085180461872369 1.9653605688363311 2.9364826176315537 2.899576161056757 1.9839547467418013
leaf_count=36 28 32 33 36 43 40
internal_value=0 0.0135417 -0.0161233 0.0659268 0.0424033 -0.0835854
internal_weight=0 14.2305 9.08551 5.145 4.86494 4.22057
internal_count=248 212 144 68 76 68
shrinkage=0.2


Tree=49
num_leaves=6
num_cat=0
split_feature=12 17 6 9 13
split_gain=0.360872 0.636161 0.611002 0.599536 0.492499
threshold=2.616566268803282 0.60411071359205437 0.25499705558883262 0.9896507947652301 0.17818691395915728
decision_type=2 2 2 2 2
left_child=1 2 -1 -2 -4
right_child=3 -3 4 -5 -6
leaf_value=-0.068505318946786048 -0.10443904729657622 0.12595747292146339 0.09968376933755857 0.018429620709150718 -0.029392769564462368
leaf_weight=3.1931511480361241 2.8645112290978423 1.9798411913216103 2.7541762827895582 3.5661258930340409 2.071933523286134
leaf_count=35 36 38 55 57 27
internal_value=0 0.0244297 -0.000636097 -0.0363019 0.0442689
internal_weight=0 9.9991 8.01926 6.43064 4.82611
internal_count=248 155 117 93 82
shrinkage=0.2


Tree=50
num_leaves=8
num_cat=0
split_feature=11 10 8 11 6 17 9
split_gain=0.382094 0.587346 0.689702 0.422845 0.537414 0.937509 0.176974
threshold=-76.161513754173157 -0.3894310099421866 0.29928869372336958 -37.494728221536462 0.59009547046199151 0.47464364657417085 0.9747526479603934
decision_type=2 2 2 2 2 2 2
left_child=-1 -2 -3 -4 -5 -6 -7
right_child=1 2 3 4 5 6 -8
leaf_value=0.074414841595002335 -0.11943724075386651 -0.09640730588489492 0.10851217999519332 0.072060670585546202 -0.16004118821296093 0.075430573175504306 -0.02028229363748936
leaf_weight=2.3888402213342514 1.7797725340351469 2.2353009730577442 2.0096367639489463 2.9711431930772951 1.6156585868448017 1.5578302717767658 1.5332982284016905
leaf_count=33 23 28 38 37 29 32 28
internal_value=0 -0.0122648 0.00373321 0.0268396 0.00546239 -0.0365775 0.0279539
internal_weight=0 13.7026 11.9229 9.68757 7.67793 4.70679 3.09113
internal_count=248 215 192 164 126 89 60
shrinkage=0.2


Tree=51
num_leaves=7
num_cat=0
split_feature=17 17 11 17 17 5
split_gain=0.40498 0.579458 0.585479 1.21415 1.0921 0.235547
threshold=0.68185620837866623 0.60411071359205437 14.075055530163334 0.47464364657417085 0.47464364657417085 0.077771759382527242
decision_type=2 2 2 2 2 2
left_child=1 2 4 -4 -1 -6
right_child=-2 -3 3 -5 5 -7
leaf_value=0.10560537938712949 -0.087107206149254532 0.10015165747226584 -0.18734461106297465 0.044910207067261086 0.0061874456267708433 -0.089774996210452332
leaf_weight=3.5481906449422222 1.8647271394729621 2.4607970144134006 1.8363705412484708 1.7663119994103906 1.8899205867201088 2.2308375902939588
leaf_count=39 29 54 36 30 21 39
internal_value=0 0.0122245 -0.00697151 -0.0734754 0.0242704 -0.0457633
internal_weight=0 13.7324 11.2716 3.60268 7.66895 4.12076
internal_count=248 219 165 66 99 60
shrinkage=0.2


Tree=52
num_leaves=6
num_cat=0
split_feature=1 4 4 17 0
split_gain=0.313642 0.675827 0.816697 0.634683 0.5338
threshold=-0.0023178162713046306 -0.22708833384656937 0.13315673664931096 0.56494227211545789 -0.076149743650260629
decision_type=2 2 2 2 2
left_child=-1 -2 -3 4 -4
right_child=1 2 3 -5 -6
leaf_value=-0.056072841792259978 -0.071682171322956401 0.13857869174321563 0.028604749170880458 0.092609653187400234 -0.10918095586769459
leaf_weight=3.1515669911168525 2.7743244888260952 2.4964880796615017 2.31065063504502 2.1998959335032851 2.1912493947893399
leaf_count=48 42 42 32 47 37
internal_value=0 0.0148401 0.0409364 0.00456362 -0.0384609
internal_weight=0 11.9726 9.19828 6.7018 4.5019
internal_count=248 200 158 116 69
shrinkage=0.2


Tree=53
num_leaves=7
num_cat=0
split_feature=17 5 3 2 12 8
split_gain=0.312248 0.549142 0.631032 1.25053 0.458093 0.348561
threshold=0.43349286493830641 0.81344598229822329 0.50018323621698546 0.032702770447895706 2.5012048585045052 0.31582908995485864
decision_type=2 2 2 2 2 2
left_child=-1 2 3 -2 5 -5
right_child=1 -3 -4 4 -6 -7
leaf_value=0.078094480112757811 0.14641317557664676 0.074861247613085199 -0.11060497743227404 -0.070693497165182209 -0.12303908730574749 0.049557310754008717
leaf_weight=1.8050944162532694 1.7781116426922361 2.4366731930058441 2.8634991135913879 1.7667038934305312 1.9903115895576773 2.1226361241424456
leaf_count=30 26 53 42 22 30 45
internal_value=0 -0.0106926 -0.0305065 -0.000554925 -0.0450007 -0.00506573
internal_weight=0 12.9579 10.5213 7.65776 5.87965 3.88934
internal_count=248 218 165 123 97 67
shrinkage=0.2


Tree=54
num_leaves=6
num_cat=0
split_feature=13 9 13 4 20
split_gain=0.279415 0.775219 0.599699 0.487335 0.413222
threshold=0.22668192534201825 -0.98124881488242333 0.12274777631053554 0.13315673664931096 0.067544919641865958
decision_type=2 2 2 2 2
left_child=2 -2 3 -1 -5
right_child=1 -3 -4 4 -6
leaf_value=0.067084590047125248 -0.062115456340665821 0.092797553319693415 -0.11765512339768708 -0.089965783672756247 0.045935689975246247
leaf_weight=2.9829984898678941 2.0535099073313177 3.4850477833533668 2.0200635073706508 2.45929295453243 1.4069233967456964
leaf_count=56 33 47 33 52 27
internal_value=0 0.035361 -0.0218938 0.00634949 -0.040511
internal_weight=0 5.53856 8.86928 6.84921 3.86622
internal_count=248 80 168 135 79
shrinkage=0.2


Tree=55
num_leaves=7
num_cat=0
split_feature=11 6 0 1 1 11
split_gain=0.327421 0.426255 0.34538 0.474091 0.457666 0.393297
threshold=-76.161513754173157 0.19739343705361276 -0.37321714680561896 0.0010490105175374948 0.0041348158690877514 17.280206346781448
decision_type=2 2 2 2 2 2
left_child=-1 -2 5 -4 -5 -3
right_child=1 2 3 4 -6 -7
leaf_value=0.07041089953223785 -0.083287251329578177 0.019643677450714034 0.13392831772597438 -0.085490019916106844 0.063851480458573681 -0.10246858083612041
leaf_weight=2.2290335630532363 2.6820130613632491 2.3882935806177539 1.5741079612635074 1.4178718528710308 1.9492699864786116 1.889867636375129
leaf_count=33 35 42 32 29 42 35
internal_value=0 -0.0131116 0.00730311 0.0433225 0.000965175 -0.0342991
internal_weight=0 11.9014 9.21941 4.94125 3.36714 4.27816
internal_count=248 215 180 103 71 77
shrinkage=0.2


Tree=56
num_leaves=6
num_cat=0
split_feature=12 17 18 5 13
split_gain=0.259495 0.819314 0.515199 0.794422 0.387547
threshold=-1.4391198921611918 0.52729337677136268 -0.010069279739049168 0.26491688460906093 0.0067684680673072576
decision_type=2 2 2 2 2
left_child=1 -1 -2 -4 -5
right_child=2 -3 3 4 -6
leaf_value=-0.024745032981070239 0.055656967387546719 0.14611191228982284 -0.15692395465399772 -0.058699014260668474 0.059426285011607932
leaf_weight=3.0893712081015119 2.5675288527272633 1.7634906787425277 1.9482900872826565 2.3936942995060235 2.073151916731149
leaf_count=42 42 45 27 54 38
internal_value=0 0.037343 -0.0200542 -0.0503561 -0.00387472
internal_weight=0 4.85286 8.98267 6.41514 4.46685
internal_count=248 87 161 119 92
shrinkage=0.2


Tree=57
num_leaves=5
num_cat=0
split_feature=20 9 8 0
split_gain=0.261126 0.863099 0.650164 0.42402
threshold=0.0055009999546021511 0.86605928982890334 0.33721710368177199 -0.21699397322193148
decision_type=2 2 2 2
left_child=1 -1 -2 -4
right_child=2 -3 3 -5
leaf_value=-0.041578941755476002 -0.13233612581689722 0.10005278205973651 -0.065587246633063798 0.055882084469903129
leaf_weight=3.5355904385214671 1.7620503371581433 3.3535179598256946 1.8609402147121725 3.0068580141523853
leaf_count=56 32 58 43 59
internal_value=0 0.0273653 -0.0282371 0.00944483
internal_weight=0 6.88911 6.62985 4.8678
internal_count=248 114 134 102
shrinkage=0.2


Tree=58
num_leaves=6
num_cat=0
split_feature=12 12 4 4 3
split_gain=0.234791 0.676701 0.485979 0.800176 0.30592
threshold=-1.4391198921611918 -2.9902308341229196 0.13315673664931096 -0.22708833384656937 0.59006565460832705
decision_type=2 2 2 2 2
left_child=1 -1 3 -2 -4
right_child=2 -3 4 -5 -6
leaf_value=-0.024124782863798811 -0.051504125396743809 0.13288843961183466 -0.098717679212536366 0.13279415385294216 0.0080366448140784807
leaf_weight=2.8531193636590615 2.0343295834027235 1.7847849885001785 3.1302698770305142 1.7555032898671905 1.6343430604320017
leaf_count=57 34 30 52 34 41
internal_value=0 0.0362979 -0.0195845 0.0338654 -0.0620991
internal_weight=0 4.6379 8.55445 3.78983 4.76461
internal_count=248 87 161 68 93
shrinkage=0.2


Tree=59
num_leaves=7
num_cat=0
split_feature=15 25 5 5 5 17
split_gain=0.229826 0.532667 0.504437 0.508259 0.522701 0.944223
threshold=14.076250000000002 1.0000000180025095e-35 0.049049818115743646 0.14287783218504599 0.4121423650551454 0.54304466094898574
decision_type=2 2 2 2 2 2
left_child=1 -1 -2 -4 -5 -6
right_child=2 -3 3 4 5 -7
leaf_value=-0.10815374957872746 0.11390143230996018 0.038284584179692542 -0.11608071984075932 0.092647278521411469 -0.16262810730272473 0.052475960093960765
leaf_weight=2.1260830003302553 1.7615924952551703 1.8653049613349142 1.3506120848469434 2.361437545157969 1.3177830565255138 2.1448884853161871
leaf_count=41 22 36 23 45 26 55
internal_value=0 -0.0397184 0.0180046 -0.00554067 0.0200936 -0.0293858
internal_weight=0 3.99139 8.93631 7.17472 5.82411 3.46267
internal_count=248 77 171 149 126 81
shrinkage=0.2


Tree=60
num_leaves=7
num_cat=0
split_feature=0 9 8 9 4 16
split_gain=0.278691 0.492851 0.420027 0.648609 0.381142 0.213938
threshold=1.9189014784869676 0.998055919665643 0.41368556727288414 -0.94855447333895782 0.16557830410188279 -0.35975743599567261
decision_type=2 2 2 2 2 2
left_child=1 2 4 -4 -1 -5
right_child=-2 -3 3 5 -6 -7
leaf_value=0.009386281138935363 -0.073502906219850686 0.10851165166297588 0.11293788539610468 0.032436344532066348 -0.12458348725342899 -0.069536303190049095
leaf_weight=1.5916603971272691 1.7699602824868641 1.7725515151396383 2.1526033584959783 1.4023635522462408 1.8215938503853975 1.9918715446256143
leaf_count=23 41 34 44 30 37 39
internal_value=0 0.0121529 -0.00690954 0.0270588 -0.062111 -0.0274052
internal_weight=0 10.7326 8.96009 5.54684 3.41325 3.39424
internal_count=248 207 173 113 60 69
shrinkage=0.2


Tree=61
num_leaves=6
num_cat=0
split_feature=17 17 0 13 3
split_gain=0.25141 0.407034 0.309056 0.681988 0.936959
threshold=0.68185620837866623 0.60411071359205437 0.44077969491008495 0.27759065806596001 0.52628669041756659
decision_type=2 2 2 2 2
left_child=1 2 3 4 -1
right_child=-2 -3 -4 -5 -6
leaf_value=0.19430300264972289 -0.075843539468840579 0.095588209068317401 -0.058209793378781627 -0.073582138156951776 -0.010388349354609146
leaf_weight=1.4832052497658863 1.527509820880369 1.8725433374056581 3.0786296669393778 2.0114196590147913 2.2536523269955069
leaf_count=26 29 54 58 36 45
internal_value=0 0.0108942 -0.00707286 0.0203148 0.0708562
internal_weight=0 10.6995 8.82691 5.74828 3.73686
internal_count=248 219 165 107 71
shrinkage=0.2


Tree=62
num_leaves=7
num_cat=0
split_feature=5 11 13 9 12 17
split_gain=0.252542 0.424595 0.570223 0.709009 0.278591 0.26096
threshold=0.6786275912259957 4.814423506505233 0.052404147268546891 -0.98537104167758649 2.616566268803282 0.47115540372415438
decision_type=2 2 2 2 2 2
left_child=1 2 -1 -4 -5 -2
right_child=5 -3 3 4 -6 -7
leaf_value=-0.097386242794569436 -0.016736899557743729 -0.10794410298902535 -0.077093699472746871 0.142859890284737 0.03247933955926198 0.096077677766486833
leaf_weight=1.6739238041918705 1.451361608458684 1.6813293080776928 1.5402137394994482 1.7325126605574057 1.9374189758673308 1.8858960199868304
leaf_count=33 30 33 30 36 33 53
internal_value=0 -0.017841 0.00416538 0.036792 0.0845881 0.047015
internal_weight=0 8.5654 6.88407 5.21015 3.66993 3.33726
internal_count=248 165 132 99 69 83
shrinkage=0.2


Tree=63
num_leaves=6
num_cat=0
split_feature=12 9 17 9 3
split_gain=0.213249 0.428445 0.395397 0.482764 0.49507
threshold=2.616566268803282 0.9896507947652301 0.48380263322304445 0.99312790172921206 0.62649956298150322
decision_type=2 2 2 2 2
left_child=2 -2 -1 4 -4
right_child=1 -3 3 -5 -6
leaf_value=-0.039688661782544418 -0.10175290195063887 0.022073558212716268 0.16844428693048208 -0.038806158063267759 0.0033869830995309127
leaf_weight=2.6052727976348251 2.0279588524717838 2.4901548768393695 1.8385417533572765 1.3981261039152739 1.2021395796909926
leaf_count=47 36 57 56 25 27
internal_value=0 -0.033506 0.0221616 0.0584634 0.103189
internal_weight=0 4.51811 7.04408 4.43881 3.04068
internal_count=248 93 155 108 83
shrinkage=0.2


Tree=64
num_leaves=6
num_cat=0
split_feature=17 1 17 8 9
split_gain=0.214271 0.395083 0.389609 0.915882 0.536214
threshold=0.43349286493830641 -0.0037951802602629232 0.53930808410497166 0.46300388567829692 0.88623434209226948
decision_type=2 2 2 2 2
left_child=-1 -2 4 -4 -3
right_child=1 2 3 -5 -6
leaf_value=0.070391592880102688 -0.10693571244634906 -0.10851741205658881 -0.016576277772103128 0.18396053112960317 0.034217714953441454
leaf_weight=1.5205393657088286 1.4427371253259469 2.0797957149334234 2.7291635146830231 1.3674269951879976 2.1319578499533236
leaf_count=30 32 41 52 54 39
internal_value=0 -0.0103281 0.00644772 0.0503622 -0.036266
internal_weight=0 9.75108 8.30834 4.09659 4.21175
internal_count=248 218 186 106 80
shrinkage=0.2


Tree=65
num_leaves=6
num_cat=0
split_feature=12 16 13 10 20
split_gain=0.204166 0.41128 0.303324 0.572325 0.82761
threshold=2.616566268803282 -0.62220876459621732 0.32984364983847714 1.0000000180025095e-35 -0.040358434219664098
decision_type=2 2 2 2 2
left_child=2 -2 3 4 -1
right_child=1 -3 -4 -5 -6
leaf_value=0.10419743656317748 -0.10377171539021222 0.020532103880052433 -0.0559613324499251 0.12788698077499086 -0.10486772019726694
leaf_weight=1.4010484181344507 1.8719200193881986 2.469027717364952 1.5102445562370119 2.0472145744133741 1.6486313782515938
leaf_count=23 40 53 36 57 39
internal_value=0 -0.0330707 0.0227624 0.0460888 -0.00882144
internal_weight=0 4.34095 6.60714 5.09689 3.04968
internal_count=248 93 155 119 62
shrinkage=0.2


Tree=66
num_leaves=6
num_cat=0
split_feature=11 10 9 10 2
split_gain=0.190112 0.494362 0.455352 0.449093 0.406401
threshold=-36.582951438480713 -0.038331218035953692 -0.49234237026492611 0.14752496209207189 0.18738665629993073
decision_type=2 2 2 2 2
left_child=1 -1 -2 4 -4
right_child=2 -3 3 -5 -6
leaf_value=0.13186474446914093 0.053853278402414488 -0.016578703168023425 -0.012184219917237097 0.033455278602099549 -0.16195181720804475
leaf_weight=1.381901093060151 2.2371645272360183 2.559522598516196 1.2212381381541493 1.4827895706985144 1.7826105388812719
leaf_count=32 56 55 25 26 54
internal_value=0 0.035467 -0.0198535 -0.0566058 -0.101063
internal_weight=0 3.94142 6.7238 4.48664 3.00385
internal_count=248 87 161 105 79
shrinkage=0.2


Tree=67
num_leaves=7
num_cat=0
split_feature=10 18 3 20 6 8
split_gain=0.199817 0.272333 0.489959 0.231663 0.353568 0.867642
threshold=-0.53318110473761482 -0.010069279739049168 0.2400071692780156 0.10374208662951141 0.59009547046199151 0.53839003245542882
decision_type=2 2 2 2 2 2
left_child=-1 -2 -3 4 -4 -6
right_child=1 2 3 -5 5 -7
leaf_value=-0.074534404143881544 0.064568230453988559 -0.12539460349012319 0.06573282447600394 0.096540462601799465 -0.18832252989472237 0.049225434277877705
leaf_weight=1.2537412662059075 2.6538685529958448 1.2250221092253912 1.6348549686954355 1.1029974638950077 1.0864310036413374 1.4174631166970355
leaf_count=22 59 24 42 22 35 44
internal_value=0 0.0106207 -0.0115186 0.0150948 -0.00661083 -0.0538458
internal_weight=0 9.12064 6.46677 5.24175 4.13875 2.50389
internal_count=248 226 167 143 121 79
shrinkage=0.2


Tree=68
num_leaves=6
num_cat=0
split_feature=0 9 17 8 17
split_gain=0.188623 0.386996 0.334229 0.315324 0.496087
threshold=1.9189014784869676 0.998055919665643 0.44116103026270265 0.41368556727288414 0.5530778809519149
decision_type=2 2 2 2 2
left_child=1 2 -1 -4 -5
right_child=-2 -3 3 4 -6
leaf_value=0.081737524179438914 -0.065683005659379831 0.10521674218195859 -0.085948579526564053 -0.052191755127888199 0.10353732561181535
leaf_weight=1.3477718918584267 1.4891813640715561 1.4597723479382692 2.3146497076377273 2.0603482016013008 1.3572450148058122
leaf_count=22 41 34 56 45 50
internal_value=0 0.0114532 -0.00787922 -0.02895 0.00965367
internal_weight=0 8.53979 7.08001 5.73224 3.41759
internal_count=248 207 173 151 95
shrinkage=0.2


Tree=69
num_leaves=7
num_cat=0
split_feature=15 17 15 15 8 15
split_gain=0.178737 0.344279 0.386098 0.433699 0.350998 0.36963
threshold=11.843750000000002 0.44116103026270265 14.266250000000001 15.18125 0.48485544710833572 16.310000000000006
decision_type=2 2 2 2 2 2
left_child=-1 -2 -3 -4 5 -5
right_child=1 2 3 4 -6 -7
leaf_value=-0.070944099999614901 0.10486814632906227 -0.11169039577678973 0.090267816141039958 -0.0018275110804602942 0.06878999355370434 -0.14650390252038784
leaf_weight=1.2387458430021077 1.3060639244504253 1.1738832014380021 1.9871960042510179 1.738319226074964 1.1747433272539636 1.1898805901873855
leaf_count=38 22 28 40 36 46 38
internal_value=0 0.0103318 -0.00666573 0.0135779 -0.0235656 -0.0606171
internal_weight=0 8.57009 7.26402 6.09014 4.10294 2.9282
internal_count=248 210 188 160 120 74
shrinkage=0.2


Tree=70
num_leaves=6
num_cat=0
split_feature=11 18 9 10 2
split_gain=0.16867 0.36683 0.340467 0.278268 0.309215
threshold=-36.582951438480713 -0.013703555264276577 -0.49234237026492611 0.14752496209207189 0.14153196751924549
decision_type=2 2 2 2 2
left_child=1 -1 -2 4 -4
right_child=2 -3 3 -5 -6
leaf_value=0.10887191804544304 0.046017707778558424 -0.021681835042007123 -0.0095095503336724476 0.018308680211025132 -0.15010767877491474
leaf_weight=1.5172147129196676 2.0387903281953186 1.9900890241842715 1.0529100783169276 1.3718499422539023 1.5420663246186448
leaf_count=35 56 52 22 26 57
internal_value=0 0.034794 -0.0204061 -0.0545454 -0.0930601
internal_weight=0 3.5073 6.00562 3.96683 2.59498
internal_count=248 87 161 105 79
shrinkage=0.2


Tree=71
num_leaves=6
num_cat=0
split_feature=5 13 11 12 10
split_gain=0.167099 0.305944 0.350447 0.50919 0.285875
threshold=0.81344598229822329 0.039602750341811079 -9.5813860460931775 -2.3032701647157423 0.043448282439772369
decision_type=2 2 2 2 2
left_child=1 -1 3 -3 -5
right_child=-2 2 -4 4 -6
leaf_value=-0.074967298853627171 0.05485628360721484 -0.06815375454416292 -0.071937392072167358 0.15686185088942584 0.02696051154592425
leaf_weight=2.2499738556798548 1.7832584782736374 1.1322351734852416 1.4148196625756098 1.3476421341765679 1.363071458879858
leaf_count=59 59 30 31 32 37
internal_value=0 -0.0132498 0.0131611 0.044491 0.0915415
internal_weight=0 7.50774 5.25777 3.84295 2.71071
internal_count=248 189 130 99 69
shrinkage=0.2


Tree=72
num_leaves=7
num_cat=0
split_feature=1 1 0 22 17 4
split_gain=0.147223 0.457937 0.289631 0.287257 0.286436 0.3099
threshold=-0.0011094079343621607 0.00061497949984363012 -1.044102704055432 1.0000000180025095e-35 0.56494227211545789 0.19739875093215711
decision_type=2 2 2 2 2 2
left_child=3 -2 -3 -1 5 -4
right_child=1 2 4 -5 -6 -7
leaf_value=0.030881101869327455 0.13301896238699892 0.08311358109010708 -0.0045819591782268613 -0.10854377313339383 0.030358637042395505 -0.1412397506018559
leaf_weight=1.1188146937638521 1.1024066809040958 1.1164251193404195 1.332663535489701 1.2531354012899101 1.8200921454699708 1.3224300909787414
leaf_count=38 34 29 33 25 52 37
internal_value=0 0.0152077 -0.00801921 -0.0427791 -0.0307541 -0.0726475
internal_weight=0 6.69402 5.59161 2.37195 4.47519 2.65509
internal_count=248 185 151 63 122 70
shrinkage=0.2


Tree=73
num_leaves=6
num_cat=0
split_feature=0 9 5 9 10
split_gain=0.118849 0.297027 0.199897 0.246709 0.227191
threshold=1.9189014784869676 0.998055919665643 0.18332624824365537 -0.94855447333895782 0.062829689660568358
decision_type=2 2 2 2 2
left_child=1 2 -1 -4 -5
right_child=-2 -3 3 4 -6
leaf_value=-0.070921612734140313 -0.054414865952748449 0.10030189494089377 0.077160736006356034 -0.060977397033822024 0.050048664662072542
leaf_weight=1.516401113476604 1.3598845836240796 1.2161718765273688 1.5755204604647577 1.9846577215939771 1.1729272585362194
leaf_count=39 41 34 46 58 30
internal_value=0 0.00987067 -0.00772751 0.0125187 -0.0197353
internal_weight=0 7.46568 6.24951 4.73311 3.15758
internal_count=248 207 173 134 88
shrinkage=0.2


Tree=74
num_leaves=6
num_cat=0
split_feature=11 10 8 16 2
split_gain=0.149821 0.298547 0.241922 0.360255 0.563208
threshold=-36.582951438480713 -0.038331218035953692 0.67903457501437048 1.2193118340139826 0.91236453183736332
decision_type=2 2 2 2 2
left_child=1 -1 3 4 -2
right_child=2 -3 -4 -5 -6
leaf_value=0.1191995199434101 -0.19449097982726926 -0.0097121119817104098 0.062287825704697576 0.032144916191239305 -0.0092513935466475069
leaf_weight=1.0935196860227736 1.1256058177386876 2.0959460675949231 1.1331591219641266 1.6509177380939943 1.5754858269356191
leaf_count=32 39 55 35 42 45
internal_value=0 0.0344857 -0.0200258 -0.0414583 -0.0864449
internal_weight=0 3.18947 5.48517 4.35201 2.70109
internal_count=248 87 161 126 84
shrinkage=0.2


Tree=75
num_leaves=8
num_cat=0
split_feature=10 7 6 3 20 17 8
split_gain=0.146465 0.18789 0.465387 0.324862 0.303149 0.251767 0.591492
threshold=-0.53318110473761482 0.46583157707277939 0.59009547046199151 0.38364417558062175 0.0069268317147808791 0.46600756209105149 0.53839003245542882
decision_type=2 2 2 2 2 2 2
left_child=-1 3 -3 4 -2 -4 -7
right_child=1 2 5 -5 -6 6 -8
leaf_value=-0.071803724844698658 0.08560027528098002 0.17629490836150974 -0.088692957496249586 -0.11065713437667637 -0.041968650487310438 -0.085258690711527696 0.1550007193660291
leaf_weight=1.0078884833492336 1.3525811993749814 0.81412181130144778 0.81943454674910787 1.1244186783151233 1.6590895942645145 0.74542614072561242 0.91052117547951639
leaf_count=22 37 20 31 27 49 23 39
internal_value=0 0.00944725 0.0451207 -0.0189245 0.0153242 0.00197921 0.0468477
internal_weight=0 7.42559 3.2895 4.13609 3.01167 2.47538 1.65595
internal_count=248 226 113 113 86 93 62
shrinkage=0.2


Tree=76
num_leaves=6
num_cat=0
split_feature=20 13 15 13 20
split_gain=0.132841 0.221127 0.352053 0.266114 0.496915
threshold=0.10374208662951141 0.22668192534201825 14.266250000000001 1.0000000180025095e-35 0.010985992764029175
decision_type=2 2 2 2 2
left_child=1 3 -3 4 -1
right_child=-2 2 -4 -5 -6
leaf_value=0.10242716204288818 0.065074350392454308 -0.057983877256633336 0.082713219688728967 -0.095524111858586586 -0.093933712771546996
leaf_weight=1.0761290893424309 1.088432435179129 1.1317039567511531 1.9153105034492908 1.8875126357888801 0.98952015681425098
leaf_count=46 29 29 51 54 39
internal_value=0 -0.0100321 0.0304563 -0.0412398 0.00836325
internal_weight=0 7.00018 3.04701 3.95316 2.06565
internal_count=248 219 80 139 85
shrinkage=0.2


Tree=77
num_leaves=7
num_cat=0
split_feature=12 2 4 16 12 0
split_gain=0.116992 0.308367 0.295781 0.306044 0.259742 0.319337
threshold=2.616566268803282 0.040406248887192991 0.39180573750091091 -0.43096384751223843 4.1822689741324934 0.90966906905443745
decision_type=2 2 2 2 2 2
left_child=1 -1 3 -3 -2 -6
right_child=4 2 -4 -5 5 -7
leaf_value=-0.050299950197643828 -0.10633829869625662 -0.055267913509161354 0.13867418833459685 0.099244732402216304 -0.06196048321539363 0.10449450668683916
leaf_weight=1.6789911395171655 1.1370489941909911 1.1928881042404103 1.1153345275088211 0.89934537070803378 0.99619001906830795 0.8581477680709213
leaf_count=38 27 39 44 34 36 30
internal_value=0 0.0191427 0.0554922 0.0111493 -0.0310774 0.0150713
internal_weight=0 4.88656 3.20757 2.09223 2.99139 1.85434
internal_count=248 155 117 73 93 66
shrinkage=0.2


Tree=78
num_leaves=6
num_cat=0
split_feature=9 13 10 11 13
split_gain=0.139784 0.454061 0.242743 0.399997 0.356434
threshold=-0.98955805867682956 0.22668192534201825 0.17252760130957978 -36.582951438480713 -0.073853193613856213
decision_type=2 2 2 2 2
left_child=-1 2 3 -2 -5
right_child=1 -3 -4 4 -6
leaf_value=-0.061051404796709265 0.025615790542221968 0.088873130913291173 0.043842349602098069 -0.0063602714560118904 -0.19763222106562089
leaf_weight=1.248064716288354 1.2948189992457626 2.0814370571752079 1.3963505000574512 0.63843734277179409 1.0002853830810643
leaf_count=42 28 54 46 36 42
internal_value=0 0.012107 -0.0247956 -0.0574669 -0.123114
internal_weight=0 6.41133 4.32989 2.93354 1.63872
internal_count=248 206 152 106 78
shrinkage=0.2


Tree=79
num_leaves=5
num_cat=0
split_feature=4 4 15 4
split_gain=0.128023 0.327378 0.319657 0.46316
threshold=0.13315673664931096 -0.22708833384656937 16.310000000000006 0.40263621715911146
decision_type=2 2 2 2
left_child=1 -1 3 -2
right_child=2 -3 -4 -5
leaf_value=-0.035314776695962384 -0.077193466217752138 0.093675855111961748 -0.1296404722414731 0.07188143013301769
leaf_weight=1.5457685193396176 1.5068816679995509 1.603424316679593 0.88718511757906515 1.8659236725652588
leaf_count=48 48 54 40 58
internal_value=0 0.0303613 -0.0228196 0.00527865
internal_weight=0 3.14919 4.25999 3.37281
internal_count=248 102 146 106
shrinkage=0.2


Tree=80
num_leaves=7
num_cat=0
split_feature=17 17 8 18 13 19
split_gain=0.111637 0.241312 0.296685 0.353662 0.228551 0.106213
threshold=0.43349286493830641 0.46474900006381131 0.51584310173742021 -0.010069279739049168 0.026771652887392298 -0.0059550568438926079
decision_type=2 2 2 2 2 2
left_child=-1 -2 3 -3 -5 -6
right_child=1 2 -4 4 5 -7
leaf_value=0.061128401464706321 -0.09065310982213981 0.08691319183295565 0.10028558615544197 -0.1301624059849989 0.037898834021628434 -0.055925898395446587
leaf_weight=1.0200134664773939 1.2042418131604788 0.98273129720473607 1.110069543123245 0.98599185090279329 0.90958588605280954 1.0281428146408869
leaf_count=30 33 36 55 27 25 42
internal_value=0 -0.0102558 0.00904405 -0.0168834 -0.0517719 -0.0118838
internal_weight=0 6.22076 5.01652 3.90645 2.92372 1.93773
internal_count=248 218 185 130 94 67
shrinkage=0.2


end of trees

feature_importances:
Column_17=59
Column_8=43
Column_9=42
Column_11=35
Column_10=30
Column_12=30
Column_13=28
Column_4=25
Column_20=18
Column_0=16
Column_1=16
Column_5=16
Column_16=13
Column_15=12
Column_18=12
Column_3=10
Column_6=10
Column_7=9
Column_19=9
Column_2=7
Column_22=5
Column_24=1
Column_25=1

parameters:
[boosting: gbdt]
[objective: binary]
[metric: binary_logloss]
[tree_learner: serial]
[device_type: cpu]
[data: ]
[valid: ]
[num_iterations: 10000]
[learning_rate: 0.2]
[num_leaves: 95]
[num_threads: 0]
[force_col_wise: 0]
[force_row_wise: 0]
[histogram_pool_size: -1]
[max_depth: -1]
[min_data_in_leaf: 30]
[min_sum_hessian_in_leaf: 0.001]
[bagging_fraction: 1]
[pos_bagging_fraction: 1]
[neg_bagging_fraction: 1]
[bagging_freq: 0]
[bagging_seed: 32458]
[feature_fraction: 0.9]
[feature_fraction_bynode: 1]
[feature_fraction_seed: 15412]
[extra_trees: 0]
[extra_seed: 19498]
[early_stopping_round: 50]
[first_metric_only: 0]
[max_delta_step: 0]
[lambda_l1: 0]
[lambda_l2: 0]
[min_gain_to_split: 0]
[drop_rate: 0.1]
[max_drop: 50]
[skip_drop: 0.5]
[xgboost_dart_mode: 0]
[uniform_drop: 0]
[drop_seed: 818]
[top_rate: 0.2]
[other_rate: 0.1]
[min_data_per_group: 100]
[max_cat_threshold: 32]
[cat_l2: 10]
[cat_smooth: 10]
[max_cat_to_onehot: 4]
[top_k: 20]
[monotone_constraints: ]
[monotone_constraints_method: basic]
[monotone_penalty: 0]
[feature_contri: ]
[forcedsplits_filename: ]
[refit_decay_rate: 0.9]
[cegb_tradeoff: 1]
[cegb_penalty_split: 0]
[cegb_penalty_feature_lazy: ]
[cegb_penalty_feature_coupled: ]
[path_smooth: 0]
[interaction_constraints: ]
[verbosity: -1]
[saved_feature_importance_type: 0]
[max_bin: 255]
[max_bin_by_feature: ]
[min_data_in_bin: 3]
[bin_construct_sample_cnt: 200000]
[data_random_seed: 4078]
[is_enable_sparse: 1]
[enable_bundle: 1]
[use_missing: 1]
[zero_as_missing: 0]
[feature_pre_filter: 1]
[pre_partition: 0]
[two_round: 0]
[header: 0]
[label_column: ]
[weight_column: ]
[group_column: ]
[ignore_column: ]
[categorical_feature: ]
[forcedbins_filename: ]
[objective_seed: 21231]
[num_class: 1]
[is_unbalance: 0]
[scale_pos_weight: 1]
[sigmoid: 1]
[boost_from_average: 1]
[reg_sqrt: 0]
[alpha: 0.9]
[fair_c: 1]
[poisson_max_delta_step: 0.7]
[tweedie_variance_power: 1.5]
[lambdarank_truncation_level: 20]
[lambdarank_norm: 1]
[label_gain: ]
[eval_at: ]
[multi_error_top_k: 1]
[auc_mu_weights: ]
[num_machines: 1]
[local_listen_port: 12400]
[time_out: 120]
[machine_list_filename: ]
[machines: ]
[gpu_platform_id: -1]
[gpu_device_id: -1]
[gpu_use_dp: 0]

end of parameters

pandas_categorical:null
