tree
version=v3
num_class=1
num_tree_per_iteration=1
label_index=0
max_feature_idx=25
objective=binary sigmoid:1
feature_names=Column_0 Column_1 Column_2 Column_3 Column_4 Column_5 Column_6 Column_7 Column_8 Column_9 Column_10 Column_11 Column_12 Column_13 Column_14 Column_15 Column_16 Column_17 Column_18 Column_19 Column_20 Column_21 Column_22 Column_23 Column_24 Column_25
feature_infos=[-17.402206619859587:11.78648565257636] [-0.20812437311935808:0.071046054980364065] [0:1] [0.031338175432642196:0.93297412910361155] [-20.81243731193581:9.9823147966201748] [-0.0005393220211609898:0.99318026402695536] [-0.0012786260031591484:0.98863070968412281] [0.020904448381991552:0.94499981726285354] [0.016895569832796383:0.85268377266040474] [-0.99987531832657395:0.99998462976158686] [-1:1] [-141.02524786355616:141.90379553072478] [-18.339324394847324:24.727040250332422] [-0.8937782785959909:0.65667388740767862] none [10.56:23.837499999999999] [-15.020176356299503:18.057503506311367] [0.308687265431487:0.76334962003367635] [-0.14033198312322304:0.076224670097470026] [-0.15194500962539842:0.10760075203716812] [-0.94408923106147991:0.85731564250571679] [0:1] [0:1] [0:1] [0:1] [0:1]
tree_sizes=735 738 731 735 635 833 836 835 841 737 843 739 842 736 745 746 851 837 855 737 846 741 937 747 833 739 844 738 745 748 940 842 745 740 844 846 745 850 741 846

Tree=0
num_leaves=6
num_cat=0
split_feature=17 8 11 7 8
split_gain=37.324 22.5329 13.9188 6.30339 3.77545
threshold=0.52366065765547332 0.35790361050699554 -39.279762037170649 0.66253835127885197 0.51504381250502551
decision_type=2 2 2 2 2
left_child=2 -2 -1 -4 -3
right_child=1 4 3 -5 -6
leaf_value=0.2216625500518476 0.067406356110255666 0.342129291987186 0.0076072121678937288 -0.2193146730103413 0.50481827613620411
leaf_weight=8.1903654187917727 10.175908550620077 11.168680116534235 11.665065899491312 8.4385583102703077 11.665065899491308
leaf_count=33 41 45 47 34 47
internal_value=0.170452 0.314932 0.00189214 -0.0876439 0.425242
internal_weight=0 33.0097 28.294 20.1036 22.8337
internal_count=247 133 114 81 92
shrinkage=1


Tree=1
num_leaves=6
num_cat=0
split_feature=17 17 11 20 16
split_gain=24.2652 18.6596 8.84999 5.8732 5.43778
threshold=0.52366065765547332 0.66205351975488436 -39.279762037170649 0.017466280999543914 0.41791614102573454
decision_type=2 2 2 2 2
left_child=2 3 -1 -2 -4
right_child=1 -3 4 -5 -6
leaf_value=0.041198555946328305 0.29840320814484061 -0.12359854483139335 -0.29644861927596439 0.09326235870862247 -0.086709318929518858
leaf_weight=8.1494847536087054 13.677098885178568 9.0878850668668729 11.440260976552965 9.4325769394636136 8.7081725448369962
leaf_count=33 57 37 46 39 35
internal_value=0 0.119194 -0.134667 0.214672 -0.205799
internal_weight=0 32.1976 28.2979 23.1097 20.1484
internal_count=247 133 114 96 81
shrinkage=0.2


Tree=2
num_leaves=6
num_cat=0
split_feature=17 8 11 7 17
split_gain=16.7344 17.0229 7.91489 6.695 3.0172
threshold=0.54255577301204394 0.35790361050699554 -39.279762037170649 0.66253835127885197 0.63812491568721963
decision_type=2 2 2 2 2
left_child=2 -2 -1 -4 -3
right_child=1 4 3 -5 -6
leaf_value=0.052035009092090093 -0.11785614883812692 0.28454830582157731 -0.075031016947219267 -0.30262891394262748 0.12537209045385886
leaf_weight=9.321483716368677 8.8844171762466448 11.108174353837969 12.537556275725366 8.7973491698503476 8.3392447382211667
leaf_count=38 36 50 51 37 35
internal_value=0 0.111508 -0.101708 -0.16888 0.216292
internal_weight=0 28.3318 30.6564 21.3349 19.4474
internal_count=247 121 126 88 85
shrinkage=0.2


Tree=3
num_leaves=6
num_cat=0
split_feature=17 17 11 3 8
split_gain=11.356 13.5198 5.4908 8.91044 4.38169
threshold=0.54255577301204394 0.66205351975488436 25.917430838281636 0.30551166978715671 0.46777588376643625
decision_type=2 2 2 2 2
left_child=2 4 3 -1 -2
right_child=1 -3 -4 -5 -6
leaf_value=-0.18236066633094727 0.076911648940525573 -0.10421230169456977 -0.20106348531979434 0.092514364345303704 0.27788906970423305
leaf_weight=8.0477936863899284 7.3543025851249757 9.0622756928205472 10.437965437769888 11.398546323180197 10.583852976560591
leaf_count=33 31 37 46 47 53
internal_value=0 0.094901 -0.0840497 -0.0212416 0.195492
internal_weight=0 27.0004 29.8843 19.4463 17.9382
internal_count=247 121 126 80 84
shrinkage=0.2


Tree=4
num_leaves=5
num_cat=0
split_feature=12 17 9 20
split_gain=10.3553 12.5901 7.84052 3.10981
threshold=2.5420502398006546 0.494279692027566 0.99432106318794167 0.018454619881935478
decision_type=2 2 2 2
left_child=1 -1 -2 -3
right_child=2 3 -4 -5
leaf_value=-0.097852722132550099 -0.21040549957476973 0.22773579571159921 0.030539886490027798 0.074255432102426036
leaf_weight=11.402036666870115 12.366611585021021 12.328136071562769 9.5924958884716016 9.2374436706304532
leaf_count=48 53 59 46 41
internal_value=0 0.0721244 -0.105152 0.161994
internal_weight=0 32.9676 21.9591 21.5656
internal_count=247 148 99 100
shrinkage=0.2


Tree=5
num_leaves=7
num_cat=0
split_feature=8 11 17 8 7 4
split_gain=8.53502 10.3026 10.1607 9.94618 3.46173 2.21344
threshold=0.29587386862911719 -37.369243469929899 0.494279692027566 0.523147207135087 0.61158035701027391 0.37232395765463983
decision_type=2 2 2 2 2 2
left_child=-1 5 4 -4 -3 -2
right_child=1 2 3 -5 -6 -7
leaf_value=-0.17926757525881892 0.26804971664529348 -0.05720708656515168 -0.056014359045368591 0.24638740889849081 -0.25728317788907845 0.10477471747282585
leaf_weight=8.7641571909189206 6.4682428836822492 7.1493206918239611 10.072227463126184 7.6586508303880683 6.7015364766120911 6.8259583115577698
leaf_count=36 30 30 44 44 33 30
internal_value=0 0.0365144 -0.0256597 0.0746046 -0.154011 0.184216
internal_weight=0 44.8759 31.5817 17.7309 13.8509 13.2942
internal_count=247 211 151 88 63 60
shrinkage=0.2


Tree=6
num_leaves=7
num_cat=0
split_feature=12 17 13 19 7 8
split_gain=5.94299 7.99971 10.7013 5.0375 6.66243 2.5177
threshold=2.5420502398006546 0.52366065765547332 0.19851442884512752 -0.0063421237390245957 0.54567343615060138 0.46777588376643625
decision_type=2 2 2 2 2 2
left_child=1 2 -1 -2 -5 -3
right_child=3 5 -4 4 -6 -7
leaf_value=0.1384503559748107 0.053227587357104672 0.094396387191727618 -0.203079881929843 -0.29218654301429808 -0.0092955387241064266 0.25900386253817781
leaf_weight=6.6891273856163052 7.1575172990560558 10.07211261987686 8.1299526840448362 6.8559308946132642 6.4752567112445831 5.8904103413224211
leaf_count=30 35 44 35 29 35 39
internal_value=0 0.0569006 -0.0489179 -0.0821147 -0.15478 0.155139
internal_weight=0 30.7816 14.8191 20.4887 13.3312 15.9625
internal_count=247 148 65 99 64 83
shrinkage=0.2


Tree=7
num_leaves=7
num_cat=0
split_feature=11 9 8 17 2 5
split_gain=5.65112 8.40993 6.31806 9.91821 6.16116 1.36005
threshold=-36.002466197120164 0.87224697869056533 0.46777588376643625 0.4642982763247176 0.91945793248129959 0.78279428718788646
decision_type=2 2 2 2 2 2
left_child=1 -1 4 -4 -2 -5
right_child=2 -3 3 5 -6 -7
leaf_value=-0.099485989155425072 -0.27135720944829539 0.18939062969358367 -0.19742524092632616 0.060541787331987479 -0.010282281913500583 0.19604513877922469
leaf_weight=6.1166903525590923 7.5799350589513796 11.822883263230322 5.2156374752521542 5.5202986150979978 6.9135080873966217 6.3955579027533531
leaf_count=31 35 53 28 28 31 41
internal_value=0 0.090895 -0.0496326 0.0325908 -0.146822 0.13327
internal_weight=0 17.9396 31.6249 17.1315 14.4934 11.9159
internal_count=247 84 163 97 66 69
shrinkage=0.2


Tree=8
num_leaves=7
num_cat=0
split_feature=8 11 17 19 17 4
split_gain=5.04312 5.16083 6.52408 5.17971 4.58937 1.70155
threshold=0.29587386862911719 -37.369243469929899 0.55461762804443682 0.023764787749875286 0.64357473133024812 0.37232395765463983
decision_type=2 2 2 2 2 2
left_child=-1 5 3 -3 -4 -2
right_child=1 2 4 -5 -6 -7
leaf_value=-0.13993917232007386 0.22191304616474922 -0.2254616804738927 0.24498204123337591 -0.00016155560940027663 -0.018033045223841172 0.070353933962500878
leaf_weight=8.3723663687705976 5.5467061698436719 7.0206653848290506 5.0101003497838956 9.750555180013178 5.6422164589166641 6.3612262010574341
leaf_count=36 30 37 40 49 25 30
internal_value=0 0.0310081 -0.0167312 -0.0944753 0.105671 0.14095
internal_weight=0 39.3315 27.4235 16.7712 10.6523 11.9079
internal_count=247 211 151 86 65 60
shrinkage=0.2


Tree=9
num_leaves=6
num_cat=0
split_feature=5 8 10 12 13
split_gain=4.91835 10.9018 4.85921 3.2854 5.55895
threshold=0.050396232697674341 0.29587386862911719 -0.14304880310106402 2.5420502398006546 0.12843052620890413
decision_type=2 2 2 2 2
left_child=-1 -2 -3 4 -4
right_child=1 2 3 -5 -6
leaf_value=0.17680246934942861 -0.29463538523395127 -0.10012245105869039 0.26312901135074956 -0.028169008112805732 0.018838141054663401
leaf_weight=5.5970689728856078 5.1611148864030829 10.088534347712992 6.4454575106501606 9.4399500265717489 8.830870069563387
leaf_count=27 23 53 43 55 46
internal_value=0 -0.0233776 0.0168466 0.0645902 0.12191
internal_weight=0 39.9659 34.8048 24.7163 15.2763
internal_count=247 220 197 144 89
shrinkage=0.2


Tree=10
num_leaves=7
num_cat=0
split_feature=20 19 10 7 12 8
split_gain=3.78876 6.56176 4.15224 6.93704 5.62537 4.89315
threshold=0.10435091261162123 0.051960756685749905 0.038125946521384513 0.37781010446394131 2.8982592216393908 0.53839003245542882
decision_type=2 2 2 2 2 2
left_child=1 2 3 -1 -4 -5
right_child=-2 -3 4 5 -6 -7
leaf_value=0.26017881196292642 0.15587223398350827 -0.21539520955110039 0.042445692481219467 -0.14905254245995039 -0.20633515375187647 0.10438292371309284
leaf_weight=5.722111418843272 5.5373988896608344 5.8899678736925116 8.4426984712481481 5.4008340984582883 6.3852184116840354 6.9928155988454819
leaf_count=29 29 32 50 27 34 46
internal_value=0 -0.0209642 0.013798 0.0780367 -0.0646847 -0.00605774
internal_weight=0 38.8336 32.9437 18.1158 14.8279 12.3936
internal_count=247 218 186 102 84 73
shrinkage=0.2


Tree=11
num_leaves=6
num_cat=0
split_feature=15 17 18 16 8
split_gain=3.35073 4.60959 5.01881 4.6108 3.51631
threshold=16.486250000000002 0.574358305613201 0.029188030985684458 -0.61670898339823688 0.41590291581189021
decision_type=2 2 2 2 2
left_child=1 2 3 -1 -2
right_child=4 -3 -4 -5 -6
leaf_value=-0.076601768221411765 -0.22871478278623211 0.14812756015043679 -0.15728240390890114 0.13751999229332282 0.010045877057980955
leaf_weight=7.1155250594019916 4.6144173741340619 9.6130187399685365 7.0606941059231749 9.2546913027763384 5.3025348223745823
leaf_count=38 24 59 40 47 39
internal_value=0 0.0315057 -0.0163408 0.0444492 -0.101051
internal_weight=0 33.0439 23.4309 16.3702 9.91695
internal_count=247 184 125 85 63
shrinkage=0.2


Tree=12
num_leaves=7
num_cat=0
split_feature=10 8 20 20 9 17
split_gain=2.76058 4.42417 4.19679 5.9773 3.76681 3.71975
threshold=-0.27688153872514137 0.43785464951509678 0.0055009999546021511 0.067544919641865958 -0.94763309081126745 0.54255577301204394
decision_type=2 2 2 2 2 2
left_child=-1 2 -2 -4 -3 -6
right_child=1 4 3 -5 5 -7
leaf_value=-0.13561513695105795 0.08514876814707667 0.22583295836992187 -0.24031413910254693 0.027451254780924396 -0.10069213311089005 0.13919940615936063
leaf_weight=5.2069521248340598 6.8177728205919292 5.8677474446594742 6.7352966666221601 6.6047651916742325 4.9224861487746221 5.4459138698875904
leaf_count=29 36 37 36 33 31 45
internal_value=0 0.02008 -0.0425022 -0.107741 0.0977783 0.0253089
internal_weight=0 36.394 20.1578 13.3401 16.2361 10.3684
internal_count=247 218 105 69 113 76
shrinkage=0.2


Tree=13
num_leaves=6
num_cat=0
split_feature=17 17 8 11 13
split_gain=2.83838 4.25561 4.69524 3.6484 5.7787
threshold=0.68383350559377576 0.56877642080542434 0.40939810918160036 25.917430838281636 0.35291434743578654
decision_type=2 2 2 2 2
left_child=1 3 -3 4 -1
right_child=-2 2 -4 -5 -6
leaf_value=0.11629818354019938 -0.14349426973318374 -0.02653428383107231 0.24860621247677553 -0.14113766937077088 -0.11931848381227994
leaf_weight=10.828538179397588 4.8195139095187178 4.3689671009778959 5.7407634295523167 7.4684802144765845 6.7648366168141356
leaf_count=56 25 23 58 52 33
internal_value=0 0.0201682 0.129703 -0.0240172 0.0257011
internal_weight=0 35.1716 10.1097 25.0619 17.5934
internal_count=247 222 81 141 89
shrinkage=0.2


Tree=14
num_leaves=6
num_cat=0
split_feature=5 1 1 17 13
split_gain=2.62811 3.14159 3.24131 2.25953 3.74836
threshold=0.050396232697674341 -0.0022782299115831333 0.000571799988297511 0.56877642080542434 0.12843052620890413
decision_type=2 2 2 2 2
left_child=-1 -2 -3 4 -4
right_child=1 2 3 -5 -6
leaf_value=0.13506866534003231 -0.13962551423984601 0.12721254676795049 0.034828801608888148 0.061777756806584962 -0.18373836190592727
leaf_weight=5.0644570328295222 6.9127748496830455 7.117637017741802 5.9314485937356967 6.8676211070269337 6.6656181663274765
leaf_count=27 43 47 39 55 36
internal_value=0 -0.0195141 0.0117211 -0.0305105 -0.0808239
internal_weight=0 33.4951 26.5823 19.4647 12.5971
internal_count=247 220 177 130 75
shrinkage=0.2


Tree=15
num_leaves=6
num_cat=0
split_feature=11 16 2 21 8
split_gain=2.59893 3.00845 2.94595 2.60656 2.04779
threshold=-34.662439304546758 1.2193118340139826 0.94259623209326382 1.0000000180025095e-35 0.49105384767398569
decision_type=2 2 2 2 2
left_child=3 2 4 -1 -2
right_child=1 -3 -4 -5 -6
leaf_value=-0.019827275437455678 -0.27470956052826928 0.054095831380424057 0.0042713774585640095 0.14819288498555502 -0.074321225482199035
leaf_weight=7.2288245931267721 4.1446719691157359 8.3928715325891954 6.5138751417398444 7.5511024482548237 4.0167631935328245
leaf_count=43 25 52 44 44 39
internal_value=0 -0.0414107 -0.0960313 0.0660147 -0.176086
internal_weight=0 23.0682 14.6753 14.7799 8.16144
internal_count=247 160 108 87 64
shrinkage=0.2


Tree=16
num_leaves=7
num_cat=0
split_feature=4 4 22 15 4 19
split_gain=1.98097 3.00367 4.59639 2.99441 2.21476 1.2648
threshold=0.13603894542535411 -0.36194981724033753 1.0000000180025095e-35 16.486250000000002 0.39771319116518938 -0.0045267087081486456
decision_type=2 2 2 2 2 2
left_child=1 -1 -3 4 -2 -6
right_child=3 2 -4 -5 5 -7
leaf_value=-0.069724651504173271 -0.095762417811272482 0.22731893802990744 -0.031222187344316039 -0.18520725513311151 0.13083340125426757 -0.01168738353562521
leaf_weight=5.4661689475178745 6.0967898741364541 6.1315917056053859 4.9881441593170166 4.5108433775603762 4.8242906108498609 5.1491883285343594
leaf_count=36 44 43 29 32 28 35
internal_value=0 0.0516679 0.111341 -0.0412167 -0.000799335 0.0572516
internal_weight=0 16.5859 11.1197 20.5811 16.0703 9.97348
internal_count=247 108 72 139 107 63
shrinkage=0.2


Tree=17
num_leaves=7
num_cat=0
split_feature=10 8 9 19 11 0
split_gain=2.11614 2.46837 3.82127 6.12191 2.97432 2.475
threshold=-0.40961598108494496 0.43785464951509678 0.87224697869056533 0.02809916083958636 -23.171614595374301 -0.52482970014131791
decision_type=2 2 2 2 2 2
left_child=-1 2 -2 -4 -3 -6
right_child=1 4 3 -5 5 -7
leaf_value=-0.14840958525689663 -0.15072947255462332 0.22097240661480944 0.16884078865735519 -0.11994737800976987 -0.11058096731192076 0.094279794435984526
leaf_weight=3.4613888300955287 6.8601986393332508 4.153581701219081 6.4258953593671304 5.406759150326252 3.6931684296578133 6.5296089835464972
leaf_count=23 38 34 37 33 26 56
internal_value=0 0.0159494 -0.0319698 0.0368832 0.0782565 0.02027
internal_weight=0 33.0692 18.6929 11.8327 14.3764 10.2228
internal_count=247 224 108 70 116 82
shrinkage=0.2


Tree=18
num_leaves=7
num_cat=0
split_feature=20 19 4 25 22 18
split_gain=1.90472 2.94521 1.99911 2.00109 1.70524 1.41902
threshold=0.10435091261162123 0.051960756685749905 0.13603894542535411 1.0000000180025095e-35 1.0000000180025095e-35 -0.0060318366308414464
decision_type=2 2 2 2 2 2
left_child=1 2 4 5 -1 -4
right_child=-2 -3 3 -5 -6 -7
leaf_value=0.15629477203992109 0.12050757529555862 -0.16893030216137062 0.10618100468420764 -0.12526764113787464 -6.7042045249533219e-05 -0.058965636890775164
leaf_weight=5.1438666805625015 4.5953560248017302 4.4013342075049868 4.1752115562558183 6.340309537947177 6.0963093787431717 4.149593994021413
leaf_count=42 29 32 28 46 38 32
internal_value=0 -0.0176713 0.0080277 -0.0406128 0.0714892 0.0238618
internal_weight=0 30.3066 25.9053 14.6651 11.2402 8.32481
internal_count=247 218 186 106 80 60
shrinkage=0.2


Tree=19
num_leaves=6
num_cat=0
split_feature=12 18 17 20 8
split_gain=1.6903 3.17742 2.6851 2.24085 1.39069
threshold=2.5420502398006546 -0.01025731610623695 0.494279692027566 0.05231595338436703 0.46378336925040586
decision_type=2 2 2 2 2
left_child=2 -2 -1 -3 -4
right_child=1 3 4 -5 -6
leaf_value=-0.052219281546148279 0.089206984394691533 -0.22202167086542915 0.045496085660905489 -0.02534476114081128 0.18515365353973579
leaf_weight=8.2594429850578326 4.2210882343351832 4.4709162376821023 8.0861380212008935 4.810347031801939 4.4061884041875592
leaf_count=48 29 36 50 34 50
internal_value=0 -0.0546577 0.0362575 -0.120087 0.0947549
internal_weight=0 13.5024 20.7518 9.28126 12.4923
internal_count=247 99 148 70 100
shrinkage=0.2


Tree=20
num_leaves=7
num_cat=0
split_feature=8 3 10 22 8 13
split_gain=1.51858 2.10177 2.18075 2.00623 1.93744 1.82465
threshold=0.29587386862911719 0.42313687543083039 0.14752496209207189 1.0000000180025095e-35 0.53839003245542882 0.033689725542405798
decision_type=2 2 2 2 2 2
left_child=-1 3 4 -2 -3 -6
right_child=1 2 -4 -5 5 -7
leaf_value=-0.094935509305071941 0.18853119753793768 -0.13682387076939814 0.11329472619745584 0.0080874123886273408 0.10707476883762618 -0.090271354263902481
leaf_weight=5.5773195885121813 4.6758686006069201 6.589485105127098 3.7849775999784461 5.2118279151618481 3.8814889062196016 3.6235980074852705
leaf_count=36 31 43 39 35 40 23
internal_value=0 0.0194264 -0.0214926 0.0934189 -0.0576886 0.0117923
internal_weight=0 27.7672 17.8795 9.8877 14.0946 7.50509
internal_count=247 211 145 66 106 63
shrinkage=0.2


Tree=21
num_leaves=6
num_cat=0
split_feature=11 9 9 16 0
split_gain=1.52519 3.86744 2.47011 2.09832 0.894964
threshold=-34.662439304546758 0.87224697869056533 -0.36264063664232388 1.2193118340139826 -0.16026793138616449
decision_type=2 2 2 2 2
left_child=1 -1 -2 4 -4
right_child=2 -3 3 -5 -6
leaf_value=-0.089258184885532693 0.058094233540664043 0.1416604311017412 -0.22922556621150678 0.014909526055745538 -0.09233461783350537
leaf_weight=4.6283267643302661 7.4048680122941741 7.7740417066961527 3.3857651855796567 4.9222151581197977 4.3839188124984512
leaf_count=34 55 53 28 38 39
internal_value=0 0.055486 -0.0337031 -0.0872607 -0.151987
internal_weight=0 12.4024 20.0968 12.6919 7.76968
internal_count=247 87 160 105 67
shrinkage=0.2


Tree=22
num_leaves=8
num_cat=0
split_feature=17 17 8 13 11 16 2
split_gain=1.22211 2.3051 3.44695 1.9166 3.3007 1.51263 0.119319
threshold=0.68383350559377576 0.56877642080542434 0.35790361050699554 0.37559849979042531 26.890035984973277 0.12711656742384994 0.88401958446286433
decision_type=2 2 2 2 2 2 2
left_child=1 3 -3 4 5 -1 -4
right_child=-2 2 6 -5 -6 -7 -8
leaf_value=0.012422058458801649 -0.10589066752853955 -0.067592083454227903 0.18427590580475503 -0.12834358289422185 -0.10881104795775759 0.16766630868764332 0.24953767008184224
leaf_weight=5.5319198183715432 3.8194323703646651 2.671477682888507 2.096662200987339 4.9060164988040915 5.5688779130578032 4.5964780393987894 2.4071535225957632
leaf_count=36 25 18 39 29 49 27 24
internal_value=0 0.0147686 0.112395 -0.0192309 0.0148712 0.0828751 0.219156
internal_weight=0 27.7786 7.17529 20.6033 15.6973 10.1284 4.50382
internal_count=247 222 81 141 112 63 63
shrinkage=0.2


Tree=23
num_leaves=6
num_cat=0
split_feature=4 15 4 11 1
split_gain=1.22425 1.99972 1.89523 1.53159 2.26748
threshold=0.13603894542535411 16.600000000000005 -0.19298495731270807 -37.369243469929899 0.0012141535896980338
decision_type=2 2 2 2 2
left_child=2 3 -1 -2 -5
right_child=1 -3 -4 4 -6
leaf_value=-0.027897475857901893 0.085392215471734742 -0.17160061260946366 0.12124211385648243 0.064356295080672407 -0.14644170931207609
leaf_weight=6.9680311698466539 5.1164409331977394 3.4393506292253724 6.6715878285467642 3.6422131005674583 4.6432319656014442
leaf_count=54 40 30 54 28 41
internal_value=0 -0.0355588 0.0450516 -0.000646122 -0.0537767
internal_weight=0 16.8412 13.6396 13.4019 8.28545
internal_count=247 139 108 109 69
shrinkage=0.2


Tree=24
num_leaves=7
num_cat=0
split_feature=5 8 17 7 8 17
split_gain=1.11493 1.663 1.8769 2.33303 3.9997 2.24499
threshold=0.050396232697674341 0.3075172357541921 0.494279692027566 0.43948686346167448 0.523147207135087 0.43806724967492189
decision_type=2 2 2 2 2 2
left_child=-1 -2 5 -4 -5 -3
right_child=1 2 3 4 -6 -7
leaf_value=0.098256957414698975 -0.13617453930194881 0.059705424847736478 0.17031571480245952 -0.13691259159399874 0.16003465799251593 -0.13517137527221468
leaf_weight=4.0228039156645563 3.8507814332842853 3.9066534824669379 4.6504486966878158 4.2574756648391485 3.1618518410250545 5.9903501588851213
leaf_count=27 29 31 42 32 43 43
internal_value=0 -0.0149397 0.00631285 0.0592512 -0.0103643 -0.0582475
internal_weight=0 25.8176 21.9668 12.0698 7.41933 9.897
internal_count=247 220 191 117 75 74
shrinkage=0.2


Tree=25
num_leaves=6
num_cat=0
split_feature=20 20 9 9 3
split_gain=0.940935 1.71148 3.65219 1.7367 0.754958
threshold=0.10435091261162123 0.013328260900956403 0.87224697869056533 0.95234931663637246 0.39834381314678607
decision_type=2 2 2 2 2
left_child=1 2 -1 -3 -4
right_child=-2 3 4 -5 -6
leaf_value=-0.064718715310130515 0.092587221406046347 0.007843930171925341 0.21594777718477418 -0.14676542397518183 0.076329253793950974
leaf_weight=6.8681103549897724 3.8313091341406098 5.789437757804988 3.1388576924800873 5.8351855296641588 3.0588209154084325
leaf_count=58 29 46 26 53 35
internal_value=0 -0.0139398 0.0357278 -0.069765 0.14704
internal_weight=0 24.6904 13.0658 11.6246 6.19768
internal_count=247 218 119 99 61
shrinkage=0.2


Tree=26
num_leaves=7
num_cat=0
split_feature=8 11 17 19 17 9
split_gain=0.917508 1.18282 1.49243 2.78263 1.79007 1.0634
threshold=0.29587386862911719 -37.369243469929899 0.55461762804443682 0.023764787749875286 0.67785328981978721 0.9314717956084454
decision_type=2 2 2 2 2 2
left_child=-1 5 3 -3 -4 -2
right_child=1 2 4 -5 -6 -7
leaf_value=-0.081845776608973853 0.011724123362767468 -0.16874865200388312 0.17895737384055166 0.033436624574823201 -0.048174913555597679 0.17434177860959724
leaf_weight=4.5308179631829288 3.3707337379455629 4.7966359779238683 2.9712204225361338 6.2976686945185065 2.6046679839491844 3.0766577813774347
leaf_count=36 31 37 48 49 17 29
internal_value=0 0.0165804 -0.0115542 -0.0539784 0.0728569 0.0893243
internal_weight=0 23.1176 16.6702 11.0943 5.57589 6.44739
internal_count=247 211 151 86 65 60
shrinkage=0.2


Tree=27
num_leaves=6
num_cat=0
split_feature=16 6 8 3 5
split_gain=0.893505 1.78748 1.40922 1.22744 0.906414
threshold=0.36714608960896017 0.59708563038220774 0.32049817347163206 0.43848166707828423 0.7284417109058523
decision_type=2 2 2 2 2
left_child=2 -2 -1 -4 -5
right_child=1 -3 3 4 -6
leaf_value=-0.13723891170476424 0.10104142874593383 -0.053090281624199556 0.087261642345309365 -0.12453086376214845 0.032679580377815126
leaf_weight=3.8472607471048859 7.5193022685125452 5.0182670745998621 4.2255954146385175 3.2611896004527807 2.6664041513577104
leaf_count=30 57 50 38 32 40
internal_value=0 0.0393489 -0.0341591 0.0049 -0.053813
internal_weight=0 12.5376 14.0004 10.1532 5.92759
internal_count=247 107 140 110 72
shrinkage=0.2


Tree=28
num_leaves=6
num_cat=0
split_feature=9 8 3 23 11
split_gain=0.923871 1.59095 2.42214 1.69002 0.841631
threshold=0.99795760057335314 0.43785464951509678 0.5249657707807186 1.0000000180025095e-35 43.575477783515588
decision_type=2 2 2 2 2
left_child=1 3 -3 -1 -4
right_child=-2 2 4 -5 -6
leaf_value=-0.15017124876937007 0.094228774338757038 0.16822360293170821 0.030599444421425412 0.0050621435529800817 -0.10436411357484494
leaf_weight=5.2905691303312832 3.6194407679140559 3.8096720203757268 4.2986368341371417 5.9718835558742285 3.2421711981296539
leaf_count=38 40 39 37 50 43
internal_value=0 -0.0146029 0.0382403 -0.0678592 -0.0274282
internal_weight=0 22.6129 11.3505 11.2625 7.54081
internal_count=247 207 119 88 80
shrinkage=0.2


Tree=29
num_leaves=6
num_cat=0
split_feature=4 16 15 1 17
split_gain=0.963156 1.2454 0.921847 1.12096 0.989087
threshold=0.13603894542535411 0.36714608960896017 15.340000000000002 0.0013639355724066771 0.56877642080542434
decision_type=2 2 2 2 2
left_child=1 -1 3 -2 -4
right_child=2 -3 4 -5 -6
leaf_value=-0.019777768985107705 0.097586866463399938 0.11025493562766263 -0.18947376729120155 -0.054822872532560865 -0.024716076010939891
leaf_weight=6.1638103909790534 3.3363331798464042 5.6438899710774422 2.5338999079540372 4.5803562849760056 3.4309265129268169
leaf_count=58 27 50 25 47 40
internal_value=0 0.0423758 -0.0353299 0.00940722 -0.0947063
internal_weight=0 11.8077 13.8815 7.91669 5.96483
internal_count=247 108 139 74 65
shrinkage=0.2


Tree=30
num_leaves=8
num_cat=0
split_feature=17 17 8 8 1 16 20
split_gain=0.844147 1.33046 1.96293 1.12596 1.30415 1.2464 0.0684629
threshold=0.68383350559377576 0.56877642080542434 0.35790361050699554 0.57658951354511834 0.000571799988297511 1.2193118340139826 0.048008167049058109
decision_type=2 2 2 2 2 2 2
left_child=1 3 -3 4 -1 -6 -4
right_child=-2 2 6 -5 5 -7 -8
leaf_value=0.10183825710556278 -0.097987359030939747 -0.039140906047067145 0.17631481138632699 -0.1117773704945722 -0.092149050534769558 0.059790383510818029 0.236867072495035
leaf_weight=4.4618677664548256 3.075443757697939 2.2533869408071032 1.4281321871094408 3.6505290223285547 5.3232497815042716 3.6338475840166211 1.5657403087243436
leaf_count=36 25 18 42 32 45 28 21
internal_value=0 0.0137812 0.101858 -0.0132939 0.0134977 -0.030508 0.207983
internal_weight=0 22.3168 5.24726 17.0695 13.419 8.9571 2.99387
internal_count=247 222 81 141 109 73 63
shrinkage=0.2


Tree=31
num_leaves=7
num_cat=0
split_feature=12 18 13 16 8 20
split_gain=0.946193 2.03057 1.58718 1.74699 1.57366 1.02868
threshold=2.5420502398006546 -0.01025731610623695 0.35291434743578654 -1.3702362067956206 0.49713304934579422 0.05231595338436703
decision_type=2 2 2 2 2 2
left_child=2 -2 3 -1 -5 -3
right_child=1 5 -4 4 -6 -7
leaf_value=0.18122091448919139 0.088288549555938442 -0.19970261787426458 -0.080071836309348068 -0.065238382183220395 0.11677011310264368 -0.038859786189133209
leaf_weight=3.7133501991629592 2.9273418174125254 2.9432006953284127 3.8432113695889702 4.3487279973924187 3.3746960181742907 3.460648937150836
leaf_count=40 29 36 33 37 38 34
internal_value=0 -0.0497036 0.0311233 0.0684893 0.014289 -0.112783
internal_weight=0 9.33119 15.28 11.4368 7.72342 6.40385
internal_count=247 99 148 115 75 70
shrinkage=0.2


Tree=32
num_leaves=6
num_cat=0
split_feature=4 6 9 13 15
split_gain=0.663638 1.12784 0.71832 2.09492 0.877218
threshold=0.13603894542535411 0.59708563038220774 -0.98737708773134758 0.22668192534201825 15.340000000000002
decision_type=2 2 2 2 2
left_child=1 -1 -2 4 -4
right_child=2 -3 3 -5 -6
leaf_value=0.087681443106180479 -0.11836445077016665 -0.042858236702127128 0.010731109835930572 0.13856321414260273 -0.13114062134748886
leaf_weight=6.7078836117871123 2.8935601916164151 4.3735428294166923 3.3030190840363485 2.8784189829602838 3.6918564764782786
leaf_count=57 26 51 41 29 43
internal_value=0 0.0361609 -0.0307326 -0.00505042 -0.064148
internal_weight=0 11.0814 12.7669 9.87329 6.99488
internal_count=247 108 139 113 84
shrinkage=0.2


Tree=33
num_leaves=6
num_cat=0
split_feature=12 9 17 13 13
split_gain=0.767767 1.50204 1.35977 2.52853 0.937268
threshold=2.5420502398006546 0.99304074418071242 0.52814044656558379 0.18322207189785733 0.2081982402010045
decision_type=2 2 2 2 2
left_child=2 -2 3 -1 -4
right_child=1 -3 4 -5 -6
leaf_value=0.098585048778151871 -0.11763368973408982 0.048293056984674593 0.033890024450223676 -0.1232874998016152 0.19103487426719731
leaf_weight=3.7051458619534987 5.0564138614572567 3.8392083630897105 3.6658178130164734 4.6120198797434568 2.5913947429507971
leaf_count=30 48 51 51 38 29
internal_value=0 -0.0460224 0.0285397 -0.0244473 0.0989708
internal_weight=0 8.89562 14.5744 8.31717 6.25721
internal_count=247 99 148 68 80
shrinkage=0.2


Tree=34
num_leaves=7
num_cat=0
split_feature=17 17 8 15 20 5
split_gain=0.621668 1.31988 1.61459 1.73141 0.605627 0.579905
threshold=0.43451774738935062 0.46630246171812023 0.48656728656043319 16.340000000000003 0.017466280999543914 0.62196975338805827
decision_type=2 2 2 2 2 2
left_child=-1 -2 3 4 -3 -4
right_child=1 2 5 -5 -6 -7
leaf_value=0.082079469705629737 -0.12856033756756385 0.071294418869451467 0.019291068021513588 -0.16599527428382455 -0.03600668111266099 0.16040205982176428
leaf_weight=3.1905941888690021 3.2944362498819855 3.952020641416313 1.8963823779486109 2.8542602877132586 4.4996844865381718 3.0201479978859425
leaf_count=30 33 34 24 37 40 49
internal_value=0 -0.0131459 0.0102922 -0.0313158 0.0141674 0.105973
internal_weight=0 19.5169 16.2225 11.306 8.45171 4.91653
internal_count=247 217 184 111 74 73
shrinkage=0.2


Tree=35
num_leaves=7
num_cat=0
split_feature=15 13 15 13 1 20
split_gain=0.620012 1.9875 1.42315 1.29046 0.954525 0.764297
threshold=14.022500000000003 0.17818691395915728 15.296250000000002 0.2081982402010045 0.0047093443075235863 0.0055009999546021511
decision_type=2 2 2 2 2 2
left_child=1 -1 -2 4 5 -4
right_child=2 -3 3 -5 -6 -7
leaf_value=0.05338583770227795 0.11079144582133521 -0.15828171106980318 -0.030454303669308198 0.095483235228729577 0.035013433441813242 -0.19298825758713906
leaf_weight=3.6885944688692716 4.9629260124638668 3.4193373220041394 2.1325045432895404 2.7686020554974675 2.474944912828505 2.5305440770462155
leaf_count=43 49 35 30 29 28 33
internal_value=0 -0.0484388 0.0233734 -0.0204205 -0.0653759 -0.118658
internal_weight=0 7.10793 14.8695 9.9066 7.13799 4.66305
internal_count=247 78 169 120 91 63
shrinkage=0.2


Tree=36
num_leaves=6
num_cat=0
split_feature=16 0 3 1 16
split_gain=0.577785 1.21743 0.959764 1.0915 0.806071
threshold=1.2193118340139826 -1.0000000180025095e-35 0.65294293438618922 0.000571799988297511 -1.3406005076627479
decision_type=2 2 2 2 2
left_child=2 -2 3 -1 -5
right_child=1 -3 -4 4 -6
leaf_value=0.08998925467537669 0.11123771098383342 -0.046281480875192876 -0.12428270686464671 0.015276771442075766 -0.12604306699884435
leaf_weight=3.727561244741084 4.4908481817692518 3.4861604194156817 3.0452311290428034 3.7580414982512593 2.8304035384207964
leaf_count=43 42 41 48 40 33
internal_value=0 0.0423977 -0.0256242 0.00349927 -0.0454344
internal_weight=0 7.97701 13.3612 10.316 6.58845
internal_count=247 83 164 116 73
shrinkage=0.2


Tree=37
num_leaves=7
num_cat=0
split_feature=8 11 9 10 9 9
split_gain=0.543244 0.967893 0.904851 0.860556 1.19156 0.588392
threshold=0.28805685601478231 -37.369243469929899 0.8954207119406804 0.13123953850474804 -0.36264063664232388 0.99269401791594858
decision_type=2 2 2 2 2 2
left_child=-1 2 -2 4 -3 -6
right_child=1 3 -4 -5 5 -7
leaf_value=-0.076390937188590857 -0.0039818558390651388 0.031206101819512257 0.16533831043779901 0.054690366382571756 -0.1899659585437784 -0.047545223047013863
leaf_weight=3.1775671765208271 2.3440435985103312 3.6654852805659202 2.7360748569481075 4.4794051526114336 2.4067591945640663 2.2404926707968116
leaf_count=33 29 36 33 50 30 36
internal_value=0 0.0133549 0.0872114 -0.0159755 -0.0540546 -0.121303
internal_weight=0 17.8723 5.08012 12.7921 8.31274 4.64725
internal_count=247 214 62 152 102 66
shrinkage=0.2


Tree=38
num_leaves=6
num_cat=0
split_feature=9 13 10 11 17
split_gain=0.529397 2.02305 1.27145 1.66543 0.845145
threshold=-0.98737708773134758 0.22668192534201825 0.16954562639635509 -26.662548403445122 0.5468827990575843
decision_type=2 2 2 2 2
left_child=-1 2 3 -2 -5
right_child=1 -3 -4 4 -6
leaf_value=-0.064520428364908233 0.05243865937200775 0.11715415060385047 0.057805307927770534 -0.2286309111700765 -0.057178231275279892
leaf_weight=4.0885607441887286 2.3729990245774424 5.3236469281837335 3.9472814798355103 2.6184570733457786 2.0506456457078457
leaf_count=45 26 51 51 36 38
internal_value=0 0.0159618 -0.0330593 -0.0839913 -0.15333
internal_weight=0 16.313 10.9894 7.0421 4.6691
internal_count=247 202 151 100 74
shrinkage=0.2


Tree=39
num_leaves=7
num_cat=0
split_feature=17 17 8 0 7 7
split_gain=0.565241 1.13733 1.2854 1.13935 0.654743 1.00521
threshold=0.68383350559377576 0.56877642080542434 0.40939810918160036 -1.155959738808582 0.45762848889631391 0.66253835127885197
decision_type=2 2 2 2 2 2
left_child=1 3 -3 -1 -5 -6
right_child=-2 2 -4 4 5 -7
leaf_value=0.092605194333140614 -0.090398935678394021 -0.0054494437902633747 0.22006351812841199 -0.099043304424255296 0.088760442270563664 -0.087479475768059645
leaf_weight=2.9816996948793557 2.4531065402552477 2.0644645541906348 1.9812694527208803 5.0602208767086285 2.6329395435750484 2.5465507144108415
leaf_count=33 25 23 58 45 29 34
internal_value=0 0.012198 0.104988 -0.0161957 -0.0478774 0.00211024
internal_weight=0 17.2671 4.04573 13.2214 10.2397 5.17949
internal_count=247 222 81 141 108 63
shrinkage=0.2


end of trees

feature_importances:
Column_17=34
Column_8=31
Column_11=17
Column_9=16
Column_13=13
Column_20=13
Column_16=11
Column_4=10
Column_7=8
Column_15=8
Column_1=7
Column_10=7
Column_12=7
Column_19=7
Column_3=6
Column_5=6
Column_0=4
Column_18=4
Column_2=3
Column_22=3
Column_6=2
Column_21=1
Column_23=1
Column_25=1

parameters:
[boosting: gbdt]
[objective: binary]
[metric: binary_logloss]
[tree_learner: serial]
[device_type: cpu]
[data: ]
[valid: ]
[num_iterations: 10000]
[learning_rate: 0.2]
[num_leaves: 95]
[num_threads: 0]
[force_col_wise: 0]
[force_row_wise: 0]
[histogram_pool_size: -1]
[max_depth: -1]
[min_data_in_leaf: 30]
[min_sum_hessian_in_leaf: 0.001]
[bagging_fraction: 1]
[pos_bagging_fraction: 1]
[neg_bagging_fraction: 1]
[bagging_freq: 0]
[bagging_seed: 32458]
[feature_fraction: 0.9]
[feature_fraction_bynode: 1]
[feature_fraction_seed: 15412]
[extra_trees: 0]
[extra_seed: 19498]
[early_stopping_round: 50]
[first_metric_only: 0]
[max_delta_step: 0]
[lambda_l1: 0]
[lambda_l2: 0]
[min_gain_to_split: 0]
[drop_rate: 0.1]
[max_drop: 50]
[skip_drop: 0.5]
[xgboost_dart_mode: 0]
[uniform_drop: 0]
[drop_seed: 818]
[top_rate: 0.2]
[other_rate: 0.1]
[min_data_per_group: 100]
[max_cat_threshold: 32]
[cat_l2: 10]
[cat_smooth: 10]
[max_cat_to_onehot: 4]
[top_k: 20]
[monotone_constraints: ]
[monotone_constraints_method: basic]
[monotone_penalty: 0]
[feature_contri: ]
[forcedsplits_filename: ]
[refit_decay_rate: 0.9]
[cegb_tradeoff: 1]
[cegb_penalty_split: 0]
[cegb_penalty_feature_lazy: ]
[cegb_penalty_feature_coupled: ]
[path_smooth: 0]
[interaction_constraints: ]
[verbosity: -1]
[saved_feature_importance_type: 0]
[max_bin: 255]
[max_bin_by_feature: ]
[min_data_in_bin: 3]
[bin_construct_sample_cnt: 200000]
[data_random_seed: 4078]
[is_enable_sparse: 1]
[enable_bundle: 1]
[use_missing: 1]
[zero_as_missing: 0]
[feature_pre_filter: 1]
[pre_partition: 0]
[two_round: 0]
[header: 0]
[label_column: ]
[weight_column: ]
[group_column: ]
[ignore_column: ]
[categorical_feature: ]
[forcedbins_filename: ]
[objective_seed: 21231]
[num_class: 1]
[is_unbalance: 0]
[scale_pos_weight: 1]
[sigmoid: 1]
[boost_from_average: 1]
[reg_sqrt: 0]
[alpha: 0.9]
[fair_c: 1]
[poisson_max_delta_step: 0.7]
[tweedie_variance_power: 1.5]
[lambdarank_truncation_level: 20]
[lambdarank_norm: 1]
[label_gain: ]
[eval_at: ]
[multi_error_top_k: 1]
[auc_mu_weights: ]
[num_machines: 1]
[local_listen_port: 12400]
[time_out: 120]
[machine_list_filename: ]
[machines: ]
[gpu_platform_id: -1]
[gpu_device_id: -1]
[gpu_use_dp: 0]

end of parameters

pandas_categorical:null
