tree
version=v3
num_class=1
num_tree_per_iteration=1
label_index=0
max_feature_idx=25
objective=binary sigmoid:1
feature_names=Column_0 Column_1 Column_2 Column_3 Column_4 Column_5 Column_6 Column_7 Column_8 Column_9 Column_10 Column_11 Column_12 Column_13 Column_14 Column_15 Column_16 Column_17 Column_18 Column_19 Column_20 Column_21 Column_22 Column_23 Column_24 Column_25
feature_infos=[-17.402206619859587:27.687168402436622] [-0.20812437311935808:0.099823147966201745] [0:1] [0.031338175432642196:0.93297412910361155] [-20.81243731193581:9.9823147966201748] [-0.0005393220211609898:0.99318026402695536] [-0.0013062366946508558:0.98863070968412281] [0.020904448381991552:0.94499981726285354] [0.016895569832796383:0.85268377266040474] [-0.99987531832657395:0.99998462976158686] [-1:1] [-139.70966366406122:141.90379553072478] [-18.572536760995316:24.727040250332422] [-0.8937782785959909:0.65667388740767862] none [10.56:23.837499999999999] [-15.020176356299503:18.057503506311367] [0.29418309000114917:0.76334962003367635] [-0.14033198312322304:0.076224670097470026] [-0.15194500962539842:0.10760075203716812] [-0.94408923106147991:0.85731564250571679] [0:1] [0:1] [0:1] [0:1] [0:1]
tree_sizes=837 735 837 734 736 730 737 739 743 742 942 837 736 743 836 744 840 746 837 736 838 741 746 745 739 841

Tree=0
num_leaves=7
num_cat=0
split_feature=17 17 11 8 13 7
split_gain=33.0466 21.3207 12.0043 10.7501 10.5572 0.633148
threshold=0.52729337677136268 0.67441189212982078 23.113057717398501 0.42772218528438527 0.27759065806596001 0.66253835127885197
decision_type=2 2 2 2 2 2
left_child=2 3 4 -2 -1 -5
right_child=1 -3 -4 5 -6 -7
leaf_value=0.26343177956356695 0.22573237241452793 0.019221708656586151 -0.14409061619425201 0.53910869434091513 -0.046945725885055717 0.45852621155984419
leaf_weight=9.4313298761844688 8.9349440932273883 7.693979635834693 11.41687300801277 8.1903654187917692 8.1903654187917692 7.4457867443561545
leaf_count=38 36 31 46 33 33 30
internal_value=0.170452 0.309759 0.0156669 0.400735 0.119172 0.500736
internal_weight=0 32.2651 29.0386 24.5711 17.6217 15.6362
internal_count=247 130 117 99 71 63
shrinkage=1


Tree=1
num_leaves=6
num_cat=0
split_feature=17 8 12 11 16
split_gain=21.5256 14.7609 19.6311 8.80117 5.72349
threshold=0.52729337677136268 0.51872738463166557 1.5769831244818344 -37.494728221536462 0.30884334922256718
decision_type=2 2 2 2 2
left_child=3 2 -2 -1 -5
right_child=1 -3 -4 4 -6
leaf_value=0.055897898166962182 0.17812334653177336 0.30419572993503435 -0.2190323802293076 -0.28268843635001917 -0.072538850131244753
leaf_weight=7.9333455413579967 12.181325048208242 10.832830011844633 8.4190918505191785 11.910555705428125 9.1791418194770795
leaf_count=32 50 46 34 48 37
internal_value=0 0.115197 0.0158116 -0.123673 -0.191222
internal_weight=0 31.4332 20.6004 29.023 21.0897
internal_count=247 130 84 117 85
shrinkage=0.2


Tree=2
num_leaves=7
num_cat=0
split_feature=17 17 11 13 8 18
split_gain=14.3312 11.6809 6.48013 7.0351 5.86302 1.07102
threshold=0.52729337677136268 0.67441189212982078 23.113057717398501 0.27759065806596001 0.3790880372059412 0.0054590781873694602
decision_type=2 2 2 2 2 2
left_child=2 4 3 -1 -2 -6
right_child=1 -3 -4 -5 5 -7
leaf_value=0.093772795588145746 0.030263414644257764 -0.11574198705866577 -0.21929285438466689 -0.16000073818193086 0.29680388273049074 0.18853988752225115
leaf_weight=9.3830647021532112 7.8213487267494264 7.6740644723176947 11.162712708115576 8.1778734624385816 7.6010822355747205 7.0404679477214813
leaf_count=38 32 31 46 33 35 32
internal_value=0 0.0972868 -0.100144 -0.0244058 0.170064 0.244745
internal_weight=0 30.137 28.7237 17.5609 22.4629 14.6416
internal_count=247 130 117 71 99 67
shrinkage=0.2


Tree=3
num_leaves=6
num_cat=0
split_feature=12 9 10 8 15
split_gain=11.7554 12.896 8.09107 5.72534 4.14894
threshold=2.3489662297865421 0.99561821362557457 -0.18396731828359852 0.48485544710833572 14.891250000000001
decision_type=2 2 2 2 2
left_child=2 -2 -1 4 -4
right_child=1 -3 3 -5 -6
leaf_value=-0.081177050312094379 -0.2368606275950251 0.063787614527615777 -0.043108651875722701 0.2701484345931468 0.16360456277228577
leaf_weight=9.3086504489183408 13.301935166120531 9.9949199408292753 7.3391067683696773 8.5230970531702024 8.2493875473737699
leaf_count=40 56 45 31 40 35
internal_value=0 -0.107875 0.077202 0.138347 0.0662834
internal_weight=0 23.2969 33.4202 24.1116 15.5885
internal_count=247 101 146 106 66
shrinkage=0.2


Tree=4
num_leaves=6
num_cat=0
split_feature=11 17 5 9 11
split_gain=9.00462 9.71033 11.2646 6.49373 4.78978
threshold=-34.662439304546758 0.49289352101319839 0.78561411092541367 0.84962604866039715 23.113057717398501
decision_type=2 2 2 2 2
left_child=3 4 -3 -1 -2
right_child=1 2 -4 -5 -6
leaf_value=-0.035400694132285103 -0.063122477952150299 -0.076547024748655684 0.23463717356869573 0.20341028653087775 -0.28272748973926748
leaf_weight=7.392478376626971 7.8246413916349402 13.086533665657045 7.2203479111194602 11.864069744944571 8.070152670145033
leaf_count=34 32 58 37 50 36
internal_value=0 -0.0575426 0.0340981 0.111732 -0.174621
internal_weight=0 36.2017 20.3069 19.2565 15.8948
internal_count=247 163 95 84 68
shrinkage=0.2


Tree=5
num_leaves=6
num_cat=0
split_feature=8 17 11 8 3
split_gain=8.00897 10.4903 8.16665 6.26984 16.7526
threshold=0.2948469889117355 0.49689299053897867 23.113057717398501 0.51872738463166557 0.42854829724443749
decision_type=2 2 2 2 2
left_child=-1 2 -2 4 -3
right_child=1 3 -4 -5 -6
leaf_value=-0.17514216766560947 0.031492539667253197 0.23522789327458155 -0.2363568198698619 0.25382412917922148 -0.15641071246565214
leaf_weight=8.6599027067422849 10.99922998249531 9.091323867440229 7.7695611566305152 8.8192372322082502 8.4107105582952482
leaf_count=36 46 41 38 50 36
internal_value=0 0.0348535 -0.0793868 0.116314 0.0470235
internal_weight=0 45.0901 18.7688 26.3213 17.502
internal_count=247 211 84 127 77
shrinkage=0.2


Tree=6
num_leaves=6
num_cat=0
split_feature=12 9 1 17 13
split_gain=6.03906 6.88703 5.91717 4.87524 5.03691
threshold=2.443957852917011 0.99561821362557457 -0.0012762242937063518 0.56978488523077286 0.17499699324253129
decision_type=2 2 2 2 2
left_child=2 -2 -1 4 -4
right_child=1 -3 3 -5 -6
leaf_value=-0.12664171144676992 -0.18334807335581974 0.05307430337635545 0.14297087591273167 0.2090593140912633 -0.085701163897678775
leaf_weight=5.7287866771221188 11.700308546423914 8.5154555886983854 7.6958122104406375 9.7727213799953443 7.7161884754896164
leaf_count=28 54 44 37 50 34
internal_value=0 -0.0837602 0.0568219 0.0985546 0.0284837
internal_weight=0 20.2158 30.9135 25.1847 15.412
internal_count=247 98 149 121 71
shrinkage=0.2


Tree=7
num_leaves=6
num_cat=0
split_feature=11 8 7 17 9
split_gain=5.51203 6.42657 7.70466 6.51136 4.7387
threshold=-34.662439304546758 0.38969463788772651 0.61652390061257101 0.55920817480985274 0.84962604866039715
decision_type=2 2 2 2 2
left_child=4 -2 -3 -4 -1
right_child=1 2 3 -5 -6
leaf_value=-0.041594865601163794 -0.20564563163313609 0.14182451363619725 -0.19013026981403014 0.086509424195983384 0.17169283587388687
leaf_weight=6.7123036459088352 7.8390226364135733 9.6092830821871775 9.2752654477953893 5.3758430108427993 10.986522808670996
leaf_count=34 34 48 48 33 50
internal_value=0 -0.0482151 0.00265388 -0.0886245 0.0908032
internal_weight=0 32.0994 24.2604 14.6511 17.6988
internal_count=247 163 129 81 84
shrinkage=0.2


Tree=8
num_leaves=6
num_cat=0
split_feature=8 17 17 11 18
split_gain=5.44708 5.42817 5.93492 5.46757 2.24781
threshold=0.2948469889117355 0.49689299053897867 0.67441189212982078 23.113057717398501 -1.0000000180025095e-35
decision_type=2 2 2 2 2
left_child=-1 3 4 -2 -3
right_child=1 2 -4 -5 -6
leaf_value=-0.14791810172537295 0.033329212792486289 0.24022431403157496 -0.076487963207307219 -0.20148237919551881 0.093122374258764851
leaf_weight=8.1722862720489484 10.563608899712564 7.1208294406533268 6.0224246680736533 6.3515422344207755 9.9766607880592364
leaf_count=36 46 43 27 38 57
internal_value=0 0.0312565 0.0942479 -0.0548412 0.154388
internal_weight=0 40.0351 23.1199 16.9152 17.0975
internal_count=247 211 127 84 100
shrinkage=0.2


Tree=9
num_leaves=6
num_cat=0
split_feature=5 8 10 12 18
split_gain=4.22778 9.60939 3.78414 3.46839 2.93132
threshold=0.049049818115743646 0.30306547247085353 -0.14989918072144329 2.6481370242822622 0.0067315979806534818
decision_type=2 2 2 2 2
left_child=-1 -2 -3 4 -4
right_child=1 2 3 -5 -6
leaf_value=0.15867115436019952 -0.2724506876601569 -0.081062859290152986 0.019419670522030398 -0.036473414722276658 0.19861648073085669
leaf_weight=5.9208291098475447 5.3313959389924994 11.051174879074095 6.4978354722261455 9.1465805023908597 8.3355245441198331
leaf_count=29 24 58 38 51 47
internal_value=0 -0.0223036 0.0157663 0.0603901 0.120118
internal_weight=0 40.3625 35.0311 23.9799 14.8334
internal_count=247 218 194 136 85
shrinkage=0.2


Tree=10
num_leaves=8
num_cat=0
split_feature=20 8 9 11 9 17 16
split_gain=3.71565 9.20598 7.25756 5.5485 6.44341 1.81919 1.68446
threshold=0.015085548794804672 0.30306547247085353 0.84962604866039715 -9.9719297200591885 0.97429297684231198 0.53484227231812154 -0.39224940797116353
decision_type=2 2 2 2 2 2 2
left_child=2 -2 5 -3 -5 -1 -4
right_child=1 3 6 4 -6 -7 -8
leaf_value=-0.13617563513561037 -0.30374821501102162 0.14935288893609119 0.099310717301776499 0.067553533625003589 -0.22972590085096428 0.026025814720229842 0.25711304211068386
leaf_weight=5.459911562502386 4.7362297624349621 6.9927966594696107 5.545975036919117 6.0435054078698105 5.6362626627087593 5.6053829044103622 5.2835324481129629
leaf_count=26 23 35 32 35 30 35 31
internal_value=0 -0.0547129 0.0599054 0.00845406 -0.0759035 -0.0540087 0.1763
internal_weight=0 23.4088 21.8948 18.6726 11.6798 11.0653 10.8295
internal_count=247 123 124 100 65 61 63
shrinkage=0.2


Tree=11
num_leaves=7
num_cat=0
split_feature=20 20 9 8 3 8
split_gain=3.44818 6.0072 4.91895 3.28722 1.60951 1.3642
threshold=0.10374208662951141 0.015085548794804672 0.84962604866039715 0.46300388567829692 0.42854829724443749 0.49443211437906898
decision_type=2 2 2 2 2 2
left_child=1 2 5 -3 -4 -1
right_child=-2 3 4 -5 -6 -7
leaf_value=-0.11200896085310315 0.14861507686822903 -0.17667858989977153 0.23000758873585575 0.0068881371228847093 0.072219499616788752 0.029800178231095487
leaf_weight=5.6701768487691897 5.4841622039675704 10.752392545342447 5.0031963065266591 6.1249004304409018 5.3520021811127663 5.2038283944129944
leaf_count=28 30 57 26 36 37 33
internal_value=0 -0.0210009 0.049802 -0.110061 0.148456 -0.0441452
internal_weight=0 38.1065 21.2292 16.8773 10.3552 10.874
internal_count=247 217 124 93 63 61
shrinkage=0.2


Tree=12
num_leaves=6
num_cat=0
split_feature=12 13 4 4 17
split_gain=2.6068 4.71664 3.41836 5.63048 2.69843
threshold=-1.4643989200979639 0.17499699324253129 0.1023632763427129 -0.22782299115831334 0.56978488523077286
decision_type=2 2 2 2 2
left_child=1 -1 3 -2 -4
right_child=2 -3 4 -5 -6
leaf_value=0.23117517628951784 -0.084911351241994157 -0.010865538374427462 -0.16240963230143468 0.1978962022827514 0.00064039666755711473
leaf_weight=4.8036417439579955 5.9266332909464836 9.7713113948702794 9.5583409443497676 5.3650634437799471 7.0580075606703749
leaf_count=32 35 52 53 32 43
internal_value=0 0.0689067 -0.0354507 0.04946 -0.093152
internal_weight=0 14.575 27.908 11.2917 16.6163
internal_count=247 84 163 67 96
shrinkage=0.2


Tree=13
num_leaves=6
num_cat=0
split_feature=11 21 10 8 17
split_gain=2.63248 3.53734 3.50662 5.60046 5.46327
threshold=-34.662439304546758 1.0000000180025095e-35 0.13123953850474804 0.48485544710833572 0.49289352101319839
decision_type=2 2 2 2 2
left_child=1 -1 3 -2 -5
right_child=2 -3 -4 4 -6
leaf_value=-0.03317071885549442 -0.19506597149500701 0.16264080199986741 0.077854303259420832 -0.12228260119836952 0.17439239108820581
leaf_weight=7.1315211132168752 9.2051717638969475 7.6476636528968811 7.6074073426425448 5.1254809051752073 4.8155854977667332
leaf_count=42 48 42 48 31 36
internal_value=0 0.0681543 -0.0370156 -0.082657 0.0214307
internal_weight=0 14.7792 26.7536 19.1462 9.94107
internal_count=247 84 163 115 67
shrinkage=0.2


Tree=14
num_leaves=7
num_cat=0
split_feature=20 20 9 8 8 16
split_gain=2.02287 3.74607 3.3921 1.89611 1.7972 1.37368
threshold=0.10374208662951141 0.015085548794804672 0.84962604866039715 0.45215068481094906 0.48485544710833572 -0.39224940797116353
decision_type=2 2 2 2 2 2
left_child=1 2 4 -3 -1 -4
right_child=-2 3 5 -5 -6 -7
leaf_value=-0.12506806936696374 0.11841569863569056 -0.14851207695176555 0.056226263350888261 -0.006301373826075438 0.04271874881192772 0.21126340405158561
leaf_weight=4.88751468062401 5.0649701170623294 9.1380816772580129 4.7965920716524098 6.3606017604470244 5.347234059125185 4.367443125694991
leaf_count=25 30 54 32 39 36 31
internal_value=0 -0.0168398 0.041731 -0.0901493 -0.0374064 0.130115
internal_weight=0 34.8975 19.3988 15.4987 10.2347 9.16404
internal_count=247 217 124 93 61 63
shrinkage=0.2


Tree=15
num_leaves=6
num_cat=0
split_feature=12 17 18 4 5
split_gain=2.15156 2.93363 2.45572 2.66881 1.61341
threshold=-1.4643989200979639 0.52729337677136268 -0.010069279739049168 0.1023632763427129 0.52974810518239668
decision_type=2 2 2 2 2
left_child=1 -1 -2 -4 -5
right_child=2 -3 3 4 -6
leaf_value=-0.013750509806251554 0.066929767319520703 0.17566474989075057 0.019989468285862098 -0.21385612080831293 -0.060649631429015007
leaf_weight=7.8738540038466436 7.0102134048938778 5.5945209823548794 7.4947079233825233 5.3240040466189367 5.6858161352574825
leaf_count=41 44 43 50 30 39
internal_value=0 0.0649292 -0.0338787 -0.0720688 -0.134735
internal_weight=0 13.4684 25.5147 18.5045 11.0098
internal_count=247 84 163 119 69
shrinkage=0.2


Tree=16
num_leaves=7
num_cat=0
split_feature=11 11 15 7 16 1
split_gain=2.12172 3.73155 2.72406 3.60215 3.42227 2.84065
threshold=43.391361491028171 58.968116650815595 15.792500000000002 0.42147776339933934 1.2193118340139826 0.00054570259660137476
decision_type=2 2 2 2 2 2
left_child=2 -2 4 -4 5 -1
right_child=1 -3 3 -5 -6 -7
leaf_value=0.13982291782883963 -0.22769777957024112 0.050151654685942099 0.052859444682878787 -0.17837006832198898 0.19572047147726146 -0.051423838167923189
leaf_weight=4.7138843238353791 3.9953016750514498 3.7464576959609985 5.6870026960968953 5.1219625547528267 5.9006232507526866 9.1113754734396917
leaf_count=27 27 34 37 33 34 55
internal_value=0 -0.0932385 0.0239872 -0.0567115 0.0682068 0.013784
internal_weight=0 7.74176 30.5348 10.809 19.7259 13.8253
internal_count=247 61 186 70 116 82
shrinkage=0.2


Tree=17
num_leaves=6
num_cat=0
split_feature=1 1 17 11 17
split_gain=1.79424 3.89854 3.18548 2.68363 1.28293
threshold=-0.0020295558815514934 0.00054570259660137476 0.56978488523077286 8.6813087769166071 0.64246804271182612
decision_type=2 2 2 2 2
left_child=-1 -2 3 -3 -4
right_child=1 2 4 -5 -6
leaf_value=-0.084007483204828579 0.1620841308971008 -0.0038890668079549287 0.16472865315487362 -0.17978463032929692 0.0073984543948076706
leaf_weight=7.9797526560723773 6.319587871432307 9.055596202611925 4.0273811481893045 5.6245268583297721 4.2726390957832336
leaf_count=51 43 50 35 42 26
internal_value=0 0.0229668 -0.0152908 -0.0712815 0.0837391
internal_weight=0 29.2997 22.9801 14.6801 8.30002
internal_count=247 196 153 92 61
shrinkage=0.2


Tree=18
num_leaves=7
num_cat=0
split_feature=8 7 9 13 10 8
split_gain=1.8145 1.52744 2.42611 3.82245 5.17517 1.20675
threshold=0.2948469889117355 0.65809372809267908 -0.98870985981219683 0.21856179209048859 0.18097447662376479 0.53367927501455237
decision_type=2 2 2 2 2 2
left_child=-1 2 -2 4 -4 -3
right_child=1 5 3 -5 -6 -7
leaf_value=-0.10457377119702763 -0.069566301910692546 -0.13006664556695879 -0.11411032931838627 0.22136170362973934 0.17795111489370974 0.01148645644709316
leaf_weight=5.5967659875750533 5.0656530819833305 3.985421344637869 5.5012336820364016 5.6286393962800494 4.3424245566129684 6.0903197340667248
leaf_count=36 32 26 38 33 29 53
internal_value=0 0.0192771 0.0505678 0.0898998 0.0147295 -0.0445043
internal_weight=0 30.6137 20.538 15.4723 9.84366 10.0757
internal_count=247 211 132 100 67 79
shrinkage=0.2


Tree=19
num_leaves=6
num_cat=0
split_feature=0 4 11 13 12
split_gain=1.75561 1.53926 2.08171 3.21849 1.69596
threshold=1.8839943839943845 0.26706979879602705 -9.9719297200591885 0.048828459994326522 2.443957852917011
decision_type=2 2 2 2 2
left_child=1 2 -1 -4 -3
right_child=-2 4 3 -5 -6
leaf_value=0.13093969808499589 -0.10613186833371419 0.02296971984991374 0.10465706361899858 -0.13527467213489391 -0.12765463611308456
leaf_weight=8.2126933336257952 5.2638414762914172 7.9726989530026895 4.7458131797611731 4.2292541302740574 4.7844950035214424
leaf_count=52 41 58 40 24 32
internal_value=0 0.019112 0.0581774 -0.00840418 -0.0335209
internal_weight=0 29.945 17.1878 8.97507 12.7572
internal_count=247 206 116 64 90
shrinkage=0.2


Tree=20
num_leaves=7
num_cat=0
split_feature=17 17 8 4 4 7
split_gain=1.4913 3.67049 3.34083 1.95013 1.72613 1.56637
threshold=0.68577984807616155 0.56978488523077286 0.40954976404461735 0.1023632763427129 -0.19298495731270807 0.50364021666868874
decision_type=2 2 2 2 2 2
left_child=1 3 -3 4 -1 -5
right_child=-2 2 -4 5 -6 -7
leaf_value=-0.04095496563478887 -0.11182625012439051 -0.0066262766507013951 0.24272242853576209 -0.1529024591324849 0.13283963371836291 -0.011482288276395816
leaf_weight=4.789555661380291 4.1723288074135771 4.0404291376471502 4.5920874960720539 6.0249721892178041 4.3730530515313202 6.526232048869133
leaf_count=31 25 26 52 36 29 48
internal_value=0 0.0156994 0.126015 -0.0281577 0.0419923 -0.0793684
internal_weight=0 30.3463 8.63252 21.7138 9.16261 12.5512
internal_count=247 222 78 144 60 84
shrinkage=0.2


Tree=21
num_leaves=6
num_cat=0
split_feature=0 11 10 8 10
split_gain=1.27262 1.61315 2.72707 3.08898 1.54404
threshold=1.5494066390985115 -34.662439304546758 0.13123953850474804 0.48485544710833572 0.046764132498671195
decision_type=2 2 2 2 2
left_child=1 4 3 -3 -1
right_child=-2 2 -4 -5 -6
leaf_value=0.15801273972335916 -0.08131373215389362 -0.16500968721487441 0.12280752471604134 0.028867066937681474 -0.00059294125080421338
leaf_weight=5.2535313218832034 6.1705469749867907 6.1898822784423846 4.2103434577584258 7.0097518526017666 4.6092400550842285
leaf_count=37 50 42 32 56 30
internal_value=0 0.0192652 -0.0173451 -0.0620502 0.0838904
internal_weight=0 27.2727 17.41 13.1996 9.86277
internal_count=247 197 130 98 67
shrinkage=0.2


Tree=22
num_leaves=6
num_cat=0
split_feature=16 11 17 21 19
split_gain=1.26554 1.76988 1.77581 1.88383 1.67582
threshold=1.2193118340139826 -37.494728221536462 0.48380263322304445 1.0000000180025095e-35 0.030321274874474179
decision_type=2 2 2 2 2
left_child=1 -1 -3 -4 -2
right_child=4 2 3 -5 -6
leaf_value=0.047520809110131138 0.1194858900998525 -0.15586256596941697 0.076320187387629357 -0.11514664275696439 -0.046886346469934587
leaf_weight=8.1541212350130081 6.5601130742579681 5.6818230785429487 4.5221520941704494 3.7683351635932922 3.8388809487223625
leaf_count=56 50 45 37 31 28
internal_value=0 -0.0265236 -0.0697353 -0.0107086 0.0580681
internal_weight=0 22.1264 13.9723 8.29049 10.399
internal_count=247 169 113 68 78
shrinkage=0.2


Tree=23
num_leaves=6
num_cat=0
split_feature=1 1 15 8 5
split_gain=1.21791 2.45804 1.60193 1.46927 1.73972
threshold=-0.0020295558815514934 0.00054570259660137476 14.351250000000002 0.31838746953810454 0.41354112351198208
decision_type=2 2 2 2 2
left_child=-1 -2 -3 -4 -5
right_child=1 2 3 4 -6
leaf_value=-0.074421701264062765 0.14182175252302617 -0.082558385888070865 -0.062301218806506735 0.17691596765174464 -0.013501257054734404
leaf_weight=6.8434883840382126 5.2889799308031824 7.7419646494090584 4.0904162935912591 4.0218233540654182 3.6710929907858372
leaf_count=51 43 59 27 29 38
internal_value=0 0.0208771 -0.0118842 0.0345507 0.086048
internal_weight=0 24.8143 19.5253 11.7833 7.69292
internal_count=247 196 153 94 67
shrinkage=0.2


Tree=24
num_leaves=6
num_cat=0
split_feature=0 4 11 15 10
split_gain=1.13887 1.33641 1.69562 1.41882 1.302
threshold=1.5494066390985115 0.68150530595894188 43.391361491028171 15.261250000000002 0.028802095859571466
decision_type=2 2 2 2 2
left_child=1 2 3 4 -1
right_child=-2 -3 -4 -5 -6
leaf_value=0.19787932720920853 -0.078465338600384626 -0.077628069837565372 -0.078265719011918908 -0.00026763072300859032 0.050509507813446534
leaf_weight=4.4497365616262083 5.9219251181930295 4.6571027301251879 3.8602986615151158 6.9081280417740336 5.2008323930203915
leaf_count=27 50 37 38 53 42
internal_value=0 0.0190501 0.0411002 0.0689277 0.11846
internal_weight=0 25.0761 20.419 16.5587 9.65057
internal_count=247 197 160 122 69
shrinkage=0.2


Tree=25
num_leaves=7
num_cat=0
split_feature=20 20 9 17 8 2
split_gain=1.0534 1.44093 2.4928 2.63559 1.02706 0.491846
threshold=0.10374208662951141 0.015085548794804672 0.84962604866039715 0.50563502127967819 0.46300388567829692 0.16903300509301314
decision_type=2 2 2 2 2 2
left_child=1 2 3 -1 -3 -4
right_child=-2 4 5 -5 -6 -7
leaf_value=-0.17337595988053045 0.096515308121153442 -0.11499995596538473 0.16536996835591786 0.054142714100952151 0.0071731533026412816 0.059658558054077361
leaf_weight=3.7040349468588882 3.9740853868424884 7.0238430611789209 3.6088061556220046 4.5240534581243992 4.5258423313498497 3.4375141803175211
leaf_count=22 30 57 32 39 36 31
internal_value=0 -0.0138181 0.02649 -0.0482793 -0.0671254 0.113799
internal_weight=0 26.8241 15.2744 8.22809 11.5497 7.04632
internal_count=247 217 124 61 93 63
shrinkage=0.2


end of trees

feature_importances:
Column_8=21
Column_17=21
Column_11=17
Column_9=10
Column_4=7
Column_10=7
Column_12=7
Column_20=7
Column_1=6
Column_13=6
Column_7=5
Column_16=5
Column_5=4
Column_15=4
Column_18=4
Column_0=3
Column_3=2
Column_21=2
Column_2=1
Column_19=1

parameters:
[boosting: gbdt]
[objective: binary]
[metric: binary_logloss]
[tree_learner: serial]
[device_type: cpu]
[data: ]
[valid: ]
[num_iterations: 10000]
[learning_rate: 0.2]
[num_leaves: 95]
[num_threads: 0]
[force_col_wise: 0]
[force_row_wise: 0]
[histogram_pool_size: -1]
[max_depth: -1]
[min_data_in_leaf: 30]
[min_sum_hessian_in_leaf: 0.001]
[bagging_fraction: 1]
[pos_bagging_fraction: 1]
[neg_bagging_fraction: 1]
[bagging_freq: 0]
[bagging_seed: 32458]
[feature_fraction: 0.9]
[feature_fraction_bynode: 1]
[feature_fraction_seed: 15412]
[extra_trees: 0]
[extra_seed: 19498]
[early_stopping_round: 50]
[first_metric_only: 0]
[max_delta_step: 0]
[lambda_l1: 0]
[lambda_l2: 0]
[min_gain_to_split: 0]
[drop_rate: 0.1]
[max_drop: 50]
[skip_drop: 0.5]
[xgboost_dart_mode: 0]
[uniform_drop: 0]
[drop_seed: 818]
[top_rate: 0.2]
[other_rate: 0.1]
[min_data_per_group: 100]
[max_cat_threshold: 32]
[cat_l2: 10]
[cat_smooth: 10]
[max_cat_to_onehot: 4]
[top_k: 20]
[monotone_constraints: ]
[monotone_constraints_method: basic]
[monotone_penalty: 0]
[feature_contri: ]
[forcedsplits_filename: ]
[refit_decay_rate: 0.9]
[cegb_tradeoff: 1]
[cegb_penalty_split: 0]
[cegb_penalty_feature_lazy: ]
[cegb_penalty_feature_coupled: ]
[path_smooth: 0]
[interaction_constraints: ]
[verbosity: -1]
[saved_feature_importance_type: 0]
[max_bin: 255]
[max_bin_by_feature: ]
[min_data_in_bin: 3]
[bin_construct_sample_cnt: 200000]
[data_random_seed: 4078]
[is_enable_sparse: 1]
[enable_bundle: 1]
[use_missing: 1]
[zero_as_missing: 0]
[feature_pre_filter: 1]
[pre_partition: 0]
[two_round: 0]
[header: 0]
[label_column: ]
[weight_column: ]
[group_column: ]
[ignore_column: ]
[categorical_feature: ]
[forcedbins_filename: ]
[objective_seed: 21231]
[num_class: 1]
[is_unbalance: 0]
[scale_pos_weight: 1]
[sigmoid: 1]
[boost_from_average: 1]
[reg_sqrt: 0]
[alpha: 0.9]
[fair_c: 1]
[poisson_max_delta_step: 0.7]
[tweedie_variance_power: 1.5]
[lambdarank_truncation_level: 20]
[lambdarank_norm: 1]
[label_gain: ]
[eval_at: ]
[multi_error_top_k: 1]
[auc_mu_weights: ]
[num_machines: 1]
[local_listen_port: 12400]
[time_out: 120]
[machine_list_filename: ]
[machines: ]
[gpu_platform_id: -1]
[gpu_device_id: -1]
[gpu_use_dp: 0]

end of parameters

pandas_categorical:null
