tree
version=v3
num_class=1
num_tree_per_iteration=1
label_index=0
max_feature_idx=23
objective=binary sigmoid:1
feature_names=Column_0 Column_1 Column_2 Column_3 Column_4 Column_5 Column_6 Column_7 Column_8 Column_9 Column_10 Column_11 Column_12 Column_13 Column_14 Column_15 Column_16 Column_17 Column_18 Column_19 Column_20 Column_21 Column_22 Column_23
feature_infos=[-5.3046753822291155:19.062817859773407] [-0.081937065794850786:0.20851601136403489] [-8.1937065794850792:8.1030910032809587] [-0.00027215408592063837:1.0001242361615796] [-0.00062895379970555007:0.99963433012055358] [0.058480570655491795:0.96999081987301827] [0.11553137031170593:0.95434861859732745] [-0.99993920395189151:0.99995113224908738] [-1:1] [-139.44211251698357:153.5747041781774] [-24.172641985931559:16.224098901811949] [-0.61688198280944229:0.7324655007988653] none [10.890000000000001:25.965] [-16.968796433878151:18.057503506311367] [0.34278507652536305:0.81836312381434928] [-0.10296892144070657:0.10325406556870176] [-0.091538908265989039:0.13067260325331798] [-0.59379515687928852:0.89349910924965281] [0:1] [0:1] [0:1] [0:1] [0:1]
tree_sizes=844 848 745 850 744 850 845 850 847 849 851 750 747 753 848 747 856 754 748 853 952 748 850 758 849 746 745 852 751 852 745 854 855 853 859 853 750 855 851 853 853 853 745 851 750 850

Tree=0
num_leaves=7
num_cat=0
split_feature=2 7 2 11 8 2
split_gain=31.7123 9.04179 6.3309 4.62621 3.55009 1.26088
threshold=-0.022849607993656484 0.99455088111984991 0.53517936415082079 0.11014750049413083 -0.057269258832264476 0.18814916380230404
decision_type=2 2 2 2 2 2
left_child=4 2 5 -4 -1 -2
right_child=1 -3 3 -5 -6 -7
leaf_value=-0.24541803185549979 -0.21172022376956809 -0.1554049038157907 -0.20690625118586356 -0.15401272742241004 -0.29320765059554837 -0.24063511715943206
leaf_weight=7.4188801646232596 7.4188801646232623 14.590464323759077 8.6553601920604724 7.9134721755981436 8.1607681810855848 7.6661761701107025
leaf_count=30 30 59 35 32 33 31
internal_value=-0.208755 -0.18797 -0.20298 -0.181644 -0.270451 -0.226415
internal_weight=0 46.2444 31.6539 16.5688 15.5796 15.0851
internal_count=250 187 128 67 63 61
shrinkage=1


Tree=1
num_leaves=7
num_cat=0
split_feature=2 7 2 11 1 6
split_gain=28.7927 8.36836 5.88886 4.14253 2.61737 1.08106
threshold=-0.043960772267415474 0.99455088111984991 0.53517936415082079 0.11014750049413083 0.0033014493552013633 0.50921242061093552
decision_type=2 2 2 2 2 2
left_child=5 2 4 -4 -2 -1
right_child=1 -3 3 -5 -6 -7
leaf_value=-0.074566883307093879 -0.036081898804073205 0.050430792287225329 0.0017557933811740527 0.051741064332554536 0.0047096572318646272 -0.04747384773889865
leaf_weight=7.3630694448947889 8.3875621855258924 14.661301568150519 8.6570166051387805 7.952746868133544 7.4035755097866049 7.3646396398544312
leaf_count=30 34 59 35 32 30 30
internal_value=0 0.0190874 0.00490458 0.0256887 -0.016957 -0.0610189
internal_weight=0 47.0622 32.4009 16.6098 15.7911 14.7277
internal_count=250 190 131 67 64 60
shrinkage=0.05


Tree=2
num_leaves=6
num_cat=0
split_feature=2 7 11 5 13
split_gain=26.1695 7.51327 5.46627 5.5766 1.09814
threshold=-0.043960772267415474 0.99455088111984991 0.18136111456159026 0.69547123292686519 16.008750000000003
decision_type=2 2 2 2 2
left_child=4 2 3 -2 -1
right_child=1 -3 -4 -5 -6
leaf_value=-0.072229452079697012 -0.033909001989655796 0.047748069109485924 0.031178018977010936 0.019133600332460816 -0.044798145558211183
leaf_weight=7.2973732501268369 11.598823606967928 14.709439560770987 12.145625844597815 8.6510248333215696 7.2962489426136017
leaf_count=30 47 59 49 35 30
internal_value=0 0.0181137 0.00465797 -0.0112484 -0.0585149
internal_weight=0 47.1049 32.3955 20.2498 14.5936
internal_count=250 190 131 82 60
shrinkage=0.05


Tree=3
num_leaves=7
num_cat=0
split_feature=2 7 2 3 8 17
split_gain=23.8327 6.53187 5.11806 3.68869 3.34483 1.25887
threshold=-0.022849607993656484 0.99455088111984991 0.53517936415082079 0.63981469452047279 -0.057269258832264476 0.0055264070156262899
decision_type=2 2 2 2 2 2
left_child=4 2 5 -4 -1 -2
right_child=1 -3 3 -5 -6 -7
leaf_value=-0.029907558195737479 -0.030414349290574301 0.045270446284857158 0.045912130942070126 -0.0013157289029688268 -0.076898555964372825 -0.001467017436310914
leaf_weight=7.262947604060173 7.635648578405382 14.737930774688719 8.9447950869798678 7.6878947913646689 7.9124895781278592 7.3915645927190781
leaf_count=30 31 59 36 31 33 30
internal_value=0 0.017774 0.0049742 0.0240827 -0.0544087 -0.0161758
internal_weight=0 46.3978 31.6599 16.6327 15.1754 15.0272
internal_count=250 187 128 67 63 61
shrinkage=0.05


Tree=4
num_leaves=6
num_cat=0
split_feature=2 7 11 5 6
split_gain=21.7791 6.07775 4.82188 4.28927 1.04574
threshold=-0.043960772267415474 0.99455088111984991 0.16448578471433131 0.69547123292686519 0.50921242061093552
decision_type=2 2 2 2 2
left_child=4 2 3 -2 -1
right_child=1 -3 -4 -5 -6
leaf_value=-0.067691615059953927 -0.03132754436337315 0.042972193143769127 0.028330319397900955 0.015823545052274315 -0.040626975967519297
leaf_weight=7.1193501651287061 11.305630668997766 14.749472498893736 12.659723922610281 8.4120333194732648 7.1572326570749283
leaf_count=30 46 59 51 34 30
internal_value=0 0.0163686 0.0042494 -0.0112117 -0.0541234
internal_weight=0 47.1269 32.3774 19.7177 14.2766
internal_count=250 190 131 80 60
shrinkage=0.05


Tree=5
num_leaves=7
num_cat=0
split_feature=2 7 2 3 1 13
split_gain=19.8587 5.48616 4.73382 3.29738 2.33999 1.05731
threshold=-0.043960772267415474 0.99455088111984991 0.53517936415082079 0.63981469452047279 0.0033014493552013633 16.008750000000003
decision_type=2 2 2 2 2 2
left_child=5 2 4 -4 -2 -1
right_child=1 -3 3 -5 -6 -7
leaf_value=-0.065822706659526456 -0.033820125499741692 0.040831993251923708 0.043235111224311451 -0.0014085702230908497 0.0048273557072367711 -0.038436700818427427
leaf_weight=7.0271220803260785 8.3249527513980848 14.746453434228895 8.9583957642316836 7.6835675835609427 7.3963993936777106 7.0706516802310944
leaf_count=30 34 59 36 31 30 30
internal_value=0 0.0155546 0.00403693 0.0226232 -0.0156377 -0.0520874
internal_weight=0 47.1098 32.3633 16.642 15.7214 14.0978
internal_count=250 190 131 67 64 60
shrinkage=0.05


Tree=6
num_leaves=7
num_cat=0
split_feature=2 7 11 7 7 6
split_gain=18.1228 5.00262 8.61927 4.75951 3.86513 1.01765
threshold=-0.043960772267415474 -0.96501661224322832 0.18136111456159026 0.99455088111984991 0.92518833498160358 0.50921242061093552
decision_type=2 2 2 2 2 2
left_child=5 -2 3 4 -3 -1
right_child=1 2 -4 -5 -6 -7
leaf_value=-0.063778096370052925 -0.016831035691984644 0.017320387175820098 0.06440892271502946 0.034231030271455722 -0.031136868740303348 -0.03672929697581967
leaf_weight=6.912260949611662 9.8822366744279844 7.8862778097391191 9.4581457227468473 11.235493943095205 8.605721563100813 6.9974124431610107
leaf_count=30 40 32 38 45 35 30
internal_value=0 0.0147893 0.0231925 0.0091332 -0.00796519 -0.0501709
internal_weight=0 47.0679 37.1856 27.7275 16.492 13.9097
internal_count=250 190 150 112 67 60
shrinkage=0.05


Tree=7
num_leaves=7
num_cat=0
split_feature=2 7 2 8 0 5
split_gain=16.5927 4.27448 3.99256 3.2818 3.10109 1.18167
threshold=-0.022849607993656484 0.99455088111984991 0.53517936415082079 -0.057269258832264476 -0.051412707293289228 0.58992436417439353
decision_type=2 2 2 2 2 2
left_child=3 2 5 -1 -4 -2
right_child=1 -3 4 -5 -6 -7
leaf_value=-0.02217932584431645 -0.028413415523683233 0.036836481351696496 0.042943357856997363 -0.069878757381720752 -0.00023097141991381437 -0.00028969929975647461
leaf_weight=6.9790257215499878 7.5825478136539477 14.70221498608589 8.2003830522298813 7.4610693007707578 8.439597561955452 7.3607182055711746
leaf_count=30 31 59 33 33 34 30
internal_value=0 0.0145662 0.00419919 -0.0468252 0.0210459 -0.0145603
internal_weight=0 46.2855 31.5832 14.4401 16.64 14.9433
internal_count=250 187 128 63 67 61
shrinkage=0.05


Tree=8
num_leaves=7
num_cat=0
split_feature=2 7 11 7 7 13
split_gain=15.186 4.28515 8.44097 3.98037 3.43828 1.03659
threshold=-0.043960772267415474 -0.95587750780045211 0.18136111456159026 0.99455088111984991 0.92518833498160358 16.008750000000003
decision_type=2 2 2 2 2 2
left_child=5 -2 3 4 -3 -1
right_child=1 2 -4 -5 -6 -7
leaf_value=-0.060699468674660501 -0.014997753530062911 0.015949659062700627 0.063693046542492485 0.030800854219223125 -0.029781994199974893 -0.033003368569302541
leaf_weight=6.7027964591979963 10.348867252469061 7.8999441713094773 8.9351622313261014 11.192749589681624 8.5673238784074766 6.8116612732410431
leaf_count=30 42 32 36 45 35 30
internal_value=0 0.0134094 0.0214428 0.00779449 -0.00784287 -0.0467399
internal_weight=0 46.944 36.5952 27.66 16.4673 13.5145
internal_count=250 190 148 112 67 60
shrinkage=0.05


Tree=9
num_leaves=7
num_cat=0
split_feature=2 18 8 15 15 8
split_gain=13.934 3.82971 4.17536 4.804 4.76487 3.15809
threshold=-0.022849607993656484 0.065215275473774814 0.056202107172668374 0.58987929072328027 0.57396019321214908 -0.057269258832264476
decision_type=2 2 2 2 2 2
left_child=5 2 3 -2 -4 -1
right_child=1 -3 4 -5 -6 -7
leaf_value=-0.019385008804973645 0.0019933818928222682 0.042739894434782516 0.014984537922975378 0.050677457728130121 -0.040028664707822591 -0.066839616158133094
leaf_weight=6.8514407277107239 13.305017396807672 8.8800151050090772 7.6420689970254889 8.184131592512129 8.1162641197442991 7.180111959576605
leaf_count=30 54 36 31 33 33 33
internal_value=0 0.0132336 0.00619915 0.0205347 -0.0133498 -0.0436681
internal_weight=0 46.1275 37.2475 21.4891 15.7583 14.0316
internal_count=250 187 151 87 64 63
shrinkage=0.05


Tree=10
num_leaves=7
num_cat=0
split_feature=2 7 11 7 7 6
split_gain=12.7517 3.75926 7.45544 3.52824 3.01515 1.02896
threshold=-0.043960772267415474 -0.95587750780045211 0.18136111456159026 0.99455088111984991 0.92518833498160358 0.50921242061093552
decision_type=2 2 2 2 2 2
left_child=5 -2 3 4 -3 -1
right_child=1 2 -4 -5 -6 -7
leaf_value=-0.057822846691511665 -0.014464703137363448 0.014380721635544153 0.059557299763395591 0.028600144560447651 -0.028464153627910979 -0.029798212624831601
leaf_weight=6.4714896976947767 10.328509658575056 7.9190542399883332 8.8789364695548993 11.146912291646002 8.5287689566612226 6.6319625526666641
leaf_count=30 42 32 36 45 35 30
internal_value=0 0.0121646 0.0197053 0.0068825 -0.00783584 -0.0436389
internal_weight=0 46.8022 36.4737 27.5947 16.4478 13.1035
internal_count=250 190 148 112 67 60
shrinkage=0.05


Tree=11
num_leaves=6
num_cat=0
split_feature=2 17 8 1 0
split_gain=11.7231 3.61604 3.06259 2.86474 3.02648
threshold=-0.022849607993656484 0.035472381454029929 -0.057269258832264476 0.00085897825423100706 0.40566905210628251
decision_type=2 2 2 2 2
left_child=2 3 -1 -2 -5
right_child=1 -3 -4 4 -6
leaf_value=-0.01679107084788653 0.024488076092801014 0.036941622282021712 -0.06422794175068397 -0.023023337626115858 0.013035858987174593
leaf_weight=6.7226792722940445 11.560003802180288 11.059647381305693 6.8893023878335935 12.288474753499033 11.05279056727886
leaf_count=30 47 45 33 50 45
internal_value=0 0.0120277 -0.0407998 0.00413289 -0.00594822
internal_weight=0 45.9609 13.612 34.9013 23.3413
internal_count=250 187 63 142 95
shrinkage=0.05


Tree=12
num_leaves=6
num_cat=0
split_feature=2 7 11 11 13
split_gain=10.7227 3.422 6.17771 3.56256 1.03575
threshold=-0.043960772267415474 -0.94016235172582829 0.18136111456159026 -0.13471414562814382 16.008750000000003
decision_type=2 2 2 2 2
left_child=4 -2 3 -3 -1
right_child=1 2 -4 -5 -6
leaf_value=-0.055321552915926532 -0.013619450596759937 0.024132553910782773 0.055519147719697681 -0.01202949573573282 -0.026745818116231279
leaf_weight=6.242218464612959 10.814844250679014 14.245760709047314 8.5636405199766141 13.049700722098354 6.4451308846473694
leaf_count=30 44 58 35 53 30
internal_value=0 0.0110331 0.0184682 0.00684382 -0.0408052
internal_weight=0 46.6739 35.8591 27.2955 12.6873
internal_count=250 190 146 111 60
shrinkage=0.05


Tree=13
num_leaves=6
num_cat=0
split_feature=2 17 8 1 0
split_gain=9.87116 3.27121 2.97113 2.63849 2.76232
threshold=-0.022849607993656484 0.035472381454029929 -0.057269258832264476 0.00085897825423100706 0.40566905210628251
decision_type=2 2 2 2 2
left_child=2 3 -1 -2 -5
right_child=1 -3 -4 4 -6
leaf_value=-0.014451352741299453 0.022943787839911491 0.034609597882135495 -0.061910189184425826 -0.022624758725616194 0.011851669728379477
leaf_weight=6.5995224714279175 11.539413958787916 11.052961662411688 6.591790094971655 12.263304069638254 11.040474638342856
leaf_count=30 47 45 33 50 45
internal_value=0 0.0109092 -0.0381669 0.00339095 -0.00629109
internal_weight=0 45.8962 13.1913 34.8432 23.3038
internal_count=250 187 63 142 95
shrinkage=0.05


Tree=14
num_leaves=7
num_cat=0
split_feature=2 1 11 6 2 8
split_gain=9.03278 3.13001 3.43836 3.73353 2.95215 2.83408
threshold=-0.022849607993656484 0.0087770850562991377 0.10110027436837918 0.61472782158969463 0.57250908885551455 -0.057269258832264476
decision_type=2 2 2 2 2 2
left_child=5 2 3 -2 -4 -1
right_child=1 -3 4 -5 -6 -7
leaf_value=-0.0137982340862546 0.022286745883018058 -0.016340909083488602 0.012976543714845254 -0.019364614241880827 0.057089242797104471 -0.060535667955511289
leaf_weight=6.5671527981758118 12.294410452246668 8.8539380729198438 7.5829223543405515 9.5668237060308439 7.5879502445459366 6.4090426266193372
leaf_count=30 50 36 31 39 31 33
internal_value=0 0.010366 0.0167513 0.00405945 0.0350402 -0.0368822
internal_weight=0 45.886 37.0321 21.8612 15.1709 12.9762
internal_count=250 187 151 89 62 63
shrinkage=0.05


Tree=15
num_leaves=6
num_cat=0
split_feature=2 8 18 13 6
split_gain=8.30537 3.24087 5.19125 5.65359 1.06583
threshold=-0.043960772267415474 0.30122195311928285 0.03817187368682224 14.543750000000001 0.50921242061093552
decision_type=2 2 2 2 2
left_child=4 2 3 -2 -1
right_child=1 -3 -4 -5 -6
leaf_value=-0.052180535996354173 -0.016137405284618645 -0.014535971805599058 0.050845535174732309 0.029436473623344457 -0.022456517684715904
leaf_weight=5.9089444279670698 13.932179570198061 10.746344342827795 8.5181010663509351 13.30264402925968 6.1597111076116562
leaf_count=30 57 44 35 54 30
internal_value=0 0.00954107 0.016778 0.00612281 -0.0370097
internal_weight=0 46.4993 35.7529 27.2348 12.0687
internal_count=250 190 146 111 60
shrinkage=0.05


Tree=16
num_leaves=7
num_cat=0
split_feature=2 7 8 16 11 13
split_gain=7.60364 3.0875 4.02069 5.62821 5.24478 1.04154
threshold=-0.043960772267415474 0.99852009950111331 -0.093735227619797842 -0.010126194773322271 0.14348227008226153 16.008750000000003
decision_type=2 2 2 2 2 2
left_child=5 2 -2 -4 -5 -1
right_child=1 -3 3 4 -6 -7
leaf_value=-0.050955527317250018 0.026584836602738172 0.038922468488655958 -0.044735746968036026 -0.014526277567445373 0.039143381615370086 -0.021325712422749013
leaf_weight=5.7838221192359907 12.732814684510226 7.303329959511756 7.3653931170701972 11.487595081329355 7.5398104339838019 6.0875480473041534
leaf_count=30 52 30 30 47 31 30
internal_value=0 0.00907901 0.00350832 -0.00762461 0.00674089 -0.0357616
internal_weight=0 46.4289 39.1256 26.3928 19.0274 11.8714
internal_count=250 190 160 108 78 60
shrinkage=0.05


Tree=17
num_leaves=6
num_cat=0
split_feature=2 17 8 1 0
split_gain=6.97125 2.96879 2.81364 2.19256 2.70116
threshold=-0.022849607993656484 0.035472381454029929 -0.057269258832264476 0.00085897825423100706 0.40566905210628251
decision_type=2 2 2 2 2
left_child=2 3 -1 -2 -5
right_child=1 -3 -4 4 -6
leaf_value=-0.010188571002375817 0.019662902818415474 0.031632903389058345 -0.057902296457010276 -0.023244507808561576 0.010935577612618288
leaf_weight=6.3658991605043411 11.482893690466879 10.976337909698485 6.0036821961402875 12.202438622713091 10.982619911432264
leaf_count=30 47 45 33 50 45
internal_value=0 0.00897072 -0.0333468 0.00179557 -0.00705361
internal_weight=0 45.6443 12.3696 34.668 23.1851
internal_count=250 187 63 142 95
shrinkage=0.05


Tree=18
num_leaves=6
num_cat=0
split_feature=2 7 10 7 6
split_gain=6.40875 2.93712 5.36298 3.45687 1.0674
threshold=-0.043960772267415474 -0.94016235172582829 -0.73576944710006409 0.99714044858725226 0.50921242061093552
decision_type=2 2 2 2 2
left_child=4 -2 -3 -4 -1
right_child=1 2 3 -5 -6
leaf_value=-0.049181159019580201 -0.014635191402501186 0.040191223559804611 -0.015110210231402544 0.025736928851666348 -0.018678425801522906
leaf_weight=5.5764222443103773 10.770359396934508 13.362745091319079 13.91940693557263 8.2493518441915494 5.9052315801382065
leaf_count=30 44 55 57 34 30
internal_value=0 0.00823782 0.0151711 8.96675e-05 -0.033493
internal_weight=0 46.3019 35.5315 22.1688 11.4817
internal_count=250 190 146 91 60
shrinkage=0.05


Tree=19
num_leaves=7
num_cat=0
split_feature=2 9 8 7 10 8
split_gain=5.87618 2.87605 4.77185 3.72503 3.36136 2.74223
threshold=-0.022849607993656484 -46.624208310053632 0.30122195311928285 -0.7841551658986442 4.9374889195274827 -0.057269258832264476
decision_type=2 2 2 2 2 2
left_child=5 -2 3 -3 -5 -1
right_child=1 2 -4 4 -6 -7
leaf_value=-0.0083345491663105002 -0.017535983636630427 -0.0066281215431958172 -0.019129646298166107 0.050660168267309895 0.0097463715274475633 -0.056223722858458086
leaf_weight=6.2581831365823746 8.7949014455080015 7.3541875630617097 8.2720310986042005 12.865905627608308 8.232283413410185 5.7229121923446638
leaf_count=30 36 30 34 53 34 33
internal_value=0 0.00814624 0.0142967 0.0240148 0.0346961 -0.0312094
internal_weight=0 45.5193 36.7244 28.4524 21.0982 11.9811
internal_count=250 187 151 117 87 63
shrinkage=0.05


Tree=20
num_leaves=8
num_cat=0
split_feature=2 7 1 3 13 5 13
split_gain=5.40442 2.58113 3.49521 3.2137 4.1524 3.67429 1.04586
threshold=-0.043960772267415474 0.99852009950111331 0.0087770850562991377 0.63981469452047279 15.113750000000001 0.67572889105771228 16.008750000000003
decision_type=2 2 2 2 2 2 2
left_child=6 2 3 4 -2 -5 -1
right_child=1 -3 -4 5 -6 -7 -8
leaf_value=-0.047274499111733169 0.053421635911424764 0.035026622768678739 -0.028572496429063815 -0.031724375345638697 0.0012737837924911453 0.016008169017089926 -0.016570476128121608
leaf_weight=5.3514494597911817 7.2840014398098019 7.1830736100673667 7.3792110979557028 7.4342797100544002 8.0210457146167737 8.8086637407541257 5.7572395205497742
leaf_count=30 30 30 30 31 33 36 30
internal_value=0 0.00748769 0.00240604 0.00965206 0.0260921 -0.00583868 -0.0313617
internal_weight=0 46.1103 38.9272 31.548 15.305 16.2429 11.1087
internal_count=250 190 160 130 63 67 60
shrinkage=0.05


Tree=21
num_leaves=6
num_cat=0
split_feature=2 8 17 13 6
split_gain=4.94784 2.44381 4.33735 3.56318 1.06687
threshold=-0.043960772267415474 0.30122195311928285 -0.02392838667172292 14.543750000000001 0.50921242061093552
decision_type=2 2 2 2 2
left_child=4 2 -2 -4 -1
right_child=1 -3 3 -5 -6
leaf_value=-0.046502138279393118 -0.011463295967652118 -0.013854960224515973 0.0080804126426155375 0.047053793834435052 -0.015241449052672287
leaf_weight=5.2627188265323621 11.685647249221796 10.65817169845104 12.921839341521268 10.738252624869345 5.6697023957967758
leaf_count=30 48 44 54 44 30
internal_value=0 0.00713124 0.0134594 0.0257687 -0.0302899
internal_weight=0 46.0039 35.3457 23.6601 10.9324
internal_count=250 190 146 98 60
shrinkage=0.05


Tree=22
num_leaves=7
num_cat=0
split_feature=2 7 11 5 6 13
split_gain=4.52843 2.34993 5.71457 3.18148 2.78808 1.02811
threshold=-0.043960772267415474 -0.95587750780045211 0.18136111456159026 0.51172024917918002 0.61472782158969463 16.008750000000003
decision_type=2 2 2 2 2 2
left_child=5 -2 3 -3 -5 -1
right_child=1 2 -4 4 -6 -7
leaf_value=-0.045406655823573699 -0.014331691734000158 -0.026576261869282011 0.048727660415113408 0.028989552814671783 -0.0085725467881984391 -0.014466679652428592
leaf_weight=5.1413489729166013 10.2380955517292 7.2902095317840603 8.463532403111456 10.935896143317224 9.0107326209545118 5.6198427677154541
leaf_count=30 42 30 36 45 37 30
internal_value=0 0.00678547 0.0128414 0.00169018 0.0120212 -0.0292488
internal_weight=0 45.9385 35.7004 27.2368 19.9466 10.7612
internal_count=250 190 148 112 82 60
shrinkage=0.05


Tree=23
num_leaves=6
num_cat=0
split_feature=2 8 17 11 20
split_gain=4.14954 2.76886 2.72818 2.1377 2.95577
threshold=-0.022849607993656484 -0.057269258832264476 0.041683012328118725 0.16448578471433131 1.0000000180025095e-35
decision_type=2 2 2 2 2
left_child=1 -1 3 4 -2
right_child=2 -3 -4 -5 -6
leaf_value=-0.0039982524439156246 -0.023798405959551298 -0.053674868993205338 0.032411894882405388 0.016090581970076609 0.012980610046667798
leaf_weight=6.0079894810914993 13.311559408903122 5.2615688294172269 8.4110321253538114 14.134098395705221 9.2647858411073685
leaf_count=30 55 33 35 59 38
internal_value=0 -0.0271914 0.00672655 0.000841574 -0.00870519
internal_weight=0 11.2696 45.1215 36.7104 22.5763
internal_count=250 63 187 152 93
shrinkage=0.05


Tree=24
num_leaves=7
num_cat=0
split_feature=0 14 8 9 18 1
split_gain=3.93107 5.46809 4.8063 6.75098 2.44503 1.79359
threshold=-1.5329272539584691 1.173184475412125 0.30122195311928285 -11.751325120930984 0.014992965243899261 0.0037678612269467764
decision_type=2 2 2 2 2 2
left_child=-1 2 3 -2 -3 -5
right_child=1 4 -4 5 -6 -7
leaf_value=-0.036922734522845654 -0.0058852418939342576 -0.029994990253270161 -0.017638557290707287 0.032476056254156033 0.0071791607415209215 0.067500402763268449
leaf_weight=6.4050310999155036 8.7688091099262273 12.056362718343737 7.3115526735782614 7.4769535660743713 6.986471250653266 7.1514893025159836
leaf_count=30 40 53 32 32 32 31
internal_value=0 0.00469342 0.0177467 0.0288044 -0.0163565 0.0495986
internal_weight=0 49.7516 30.7088 23.3973 19.0428 14.6284
internal_count=250 220 135 103 85 63
shrinkage=0.05


Tree=25
num_leaves=6
num_cat=0
split_feature=2 9 5 3 3
split_gain=3.74432 3.47116 2.32407 3.98154 4.37925
threshold=-0.043960772267415474 -11.751325120930984 0.73457967754853581 0.63981469452047279 0.2940748664149257
decision_type=2 2 2 2 2
left_child=1 -1 3 4 -2
right_child=2 -3 -4 -5 -6
leaf_value=-0.055671767863852452 -0.011644286049187588 0.002147893578880965 0.029700751813426598 -0.020287352079702819 0.032345088644648502
leaf_weight=5.2618422955274582 9.9062323719263095 5.1230437606573087 8.4998665601015073 14.034066140651701 13.192261531949041
leaf_count=31 41 29 35 59 55
internal_value=0 -0.0271483 0.00611609 0.000717425 0.0134794
internal_weight=0 10.3849 45.6324 37.1326 23.0985
internal_count=250 60 190 155 96
shrinkage=0.05


Tree=26
num_leaves=6
num_cat=0
split_feature=0 14 8 2 13
split_gain=3.48606 4.99756 4.63803 3.33197 2.28848
threshold=-1.5329272539584691 1.173184475412125 -0.087194525448296908 0.25649330664507269 15.862500000000002
decision_type=2 2 2 2 2
left_child=-1 2 -2 -4 -3
right_child=1 4 3 -5 -6
leaf_value=-0.034988714514885798 0.048451691392083412 -0.029689061371781674 -0.019716427580125987 0.020207275060621296 0.0059064342479371382
leaf_weight=6.330460123717784 8.4443000108003634 11.532482877373697 8.4799994379282015 13.619866549968718 7.4210205823183051
leaf_count=30 37 51 41 57 34
internal_value=0 0.00441655 0.0169317 0.00488804 -0.0157521
internal_weight=0 49.4977 30.5442 22.0999 18.9535
internal_count=250 220 135 98 85
shrinkage=0.05


Tree=27
num_leaves=7
num_cat=0
split_feature=2 9 8 16 11 7
split_gain=3.42043 3.2299 2.10316 5.91222 5.41525 2.41055
threshold=-0.043960772267415474 -11.751325120930984 -0.093735227619797842 -0.012714523146505339 0.15433084647055798 0.96255346273809406
decision_type=2 2 2 2 2 2
left_child=1 -1 -2 -4 5 -5
right_child=2 -3 3 4 -6 -7
leaf_value=-0.054524066484341577 0.023020948709172297 0.0017404537451726589 -0.036264224652566117 -0.02674981184287456 0.044034628781332019 0.01262968292146938
leaf_weight=5.0701000988483429 12.773065179586409 5.1330975890159589 8.68566951155662 7.235995948314673 8.474348917603491 8.3942805975675565
leaf_count=31 53 29 36 30 36 35
internal_value=0 -0.0262181 0.00580926 -0.000895347 0.0118492 -0.00560095
internal_weight=0 10.2032 45.5634 32.7903 24.1046 15.6303
internal_count=250 60 190 137 101 65
shrinkage=0.05


Tree=28
num_leaves=6
num_cat=0
split_feature=11 11 5 7 23
split_gain=3.32942 3.43842 3.47397 3.58044 4.24827
threshold=0.44054439598472372 0.23511007764764971 0.44092351406866626 0.99455088111984991 1.0000000180025095e-35
decision_type=2 2 2 2 2
left_child=1 2 -1 4 -4
right_child=-2 -3 3 -5 -6
leaf_value=-0.030543295788913512 -0.032788135234040783 0.0367588687755478 -0.024267711738621377 0.02970001822301124 0.019287058433957172
leaf_weight=8.0078756064176542 6.8133054822683325 7.0733682513236991 12.776063203811646 10.874578297138212 9.9657154083251953
leaf_count=38 32 33 56 48 43
internal_value=0 0.00452919 -0.000947723 0.00610235 -0.0051815
internal_weight=0 48.6976 41.6242 33.6164 22.7418
internal_count=250 218 185 147 99
shrinkage=0.05


Tree=29
num_leaves=7
num_cat=0
split_feature=0 14 8 9 20 1
split_gain=3.07882 4.4771 4.21688 5.49467 2.23738 1.69158
threshold=-1.5329272539584691 1.173184475412125 0.30122195311928285 -11.751325120930984 1.0000000180025095e-35 0.0037678612269467764
decision_type=2 2 2 2 2 2
left_child=-1 2 3 -2 -3 -5
right_child=1 4 -4 5 -6 -7
leaf_value=-0.033185489090818213 -0.005146198413059775 -0.0023511096665523928 -0.017288973059820252 0.028597874439133794 -0.038491300618105677 0.062796229055344308
leaf_weight=6.2221750393509856 8.6128716543316877 12.226146191358568 7.2279146090149871 7.4070061445236206 6.5912660136818877 7.0649010837078094
leaf_count=30 40 55 32 32 30 31
internal_value=0 0.00414686 0.0160391 0.0264742 -0.0150101 0.0452928
internal_weight=0 49.1301 30.3127 23.0848 18.8174 14.4719
internal_count=250 220 135 103 85 63
shrinkage=0.05


Tree=30
num_leaves=6
num_cat=0
split_feature=2 9 5 3 3
split_gain=3.00213 2.94641 2.12422 3.84955 3.67088
threshold=-0.043960772267415474 -11.751325120930984 0.73457967754853581 0.63981469452047279 0.2940748664149257
decision_type=2 2 2 2 2
left_child=1 -1 3 4 -2
right_child=2 -3 -4 -5 -6
leaf_value=-0.052923571068502179 -0.010150483438846957 0.001471575555436143 0.028055803354436609 -0.020549416966402362 0.030254594202268417
leaf_weight=4.8299003019928932 9.8868133425712603 5.1376089900732023 8.4366296380758268 13.872740074992178 13.029400318861006
leaf_count=31 41 29 35 59 55
internal_value=0 -0.0248864 0.00542753 0.000238293 0.0128225
internal_weight=0 9.96751 45.2256 36.789 22.9162
internal_count=250 60 190 155 96
shrinkage=0.05


Tree=31
num_leaves=7
num_cat=0
split_feature=11 11 8 7 16 4
split_gain=2.83373 3.33071 3.38867 3.77788 4.05639 3.40583
threshold=0.44054439598472372 0.23511007764764971 -0.087194525448296908 0.99814616915529197 0.025366345809068162 0.67723149121202098
decision_type=2 2 2 2 2 2
left_child=1 2 5 4 -4 -1
right_child=-2 -3 3 -5 -6 -7
leaf_value=-0.0050579139747470572 -0.030491901393461047 0.035982548344924474 -0.04048581359321847 0.018275282251069554 0.0075929046151792445 0.043411745121764267
leaf_weight=7.5514871925115568 6.7108493447303763 7.0349079072475424 12.451992198824888 7.5087333247065535 6.7734883725643149 6.9690329879522324
leaf_count=34 32 33 57 34 30 30
internal_value=0 0.00418315 -0.0012394 -0.0118004 -0.0235468 0.0182048
internal_weight=0 48.2896 41.2547 26.7342 19.2255 14.5205
internal_count=250 218 185 121 87 64
shrinkage=0.05


Tree=32
num_leaves=7
num_cat=0
split_feature=0 14 8 17 1 18
split_gain=2.80402 4.13181 3.75466 2.80291 5.00032 2.14034
threshold=-1.5329272539584691 1.173184475412125 -0.087194525448296908 -0.0063174489333104869 0.0037678612269467764 0.014992965243899261
decision_type=2 2 2 2 2 2
left_child=-1 2 -2 -4 -5 -3
right_child=1 5 3 4 -6 -7
leaf_value=-0.031903108983678118 0.043874397696843551 -0.027473095915902836 -0.019054093608280066 -0.012825457599319379 0.047705330025885784 0.0075867578985668802
leaf_weight=6.1350528374314299 8.3769142776727694 11.765855215489866 7.9973374977707889 6.6522785276174528 7.0040247589349747 6.9095477759838095
leaf_count=30 37 53 37 30 31 32
internal_value=0 0.00396538 0.0154496 0.00445324 0.0182195 -0.0145016
internal_weight=0 48.706 30.0306 21.6536 13.6563 18.6754
internal_count=250 220 135 98 61 85
shrinkage=0.05


Tree=33
num_leaves=7
num_cat=0
split_feature=2 8 10 8 1 7
split_gain=2.71479 2.04857 1.93995 3.72558 3.41996 2.00891
threshold=-0.043960772267415474 -0.081133999488965561 6.5690830404106828 0.056202107172668374 0.0037678612269467764 0.2864764581728883
decision_type=2 2 2 2 2 2
left_child=1 -1 3 5 -5 -2
right_child=2 -3 -4 4 -6 -7
leaf_value=-0.0030933410241160142 0.0067029484895633432 -0.049100445247702219 -0.01832598458507061 -0.030125566977446616 0.012993042477063892 0.039551435866140475
leaf_weight=5.3391749858856201 8.2023786455392855 4.4247791618108732 7.3621740192174903 8.266495034098627 10.364373996853827 10.760560318827627
leaf_count=28 34 32 31 35 44 46
internal_value=0 -0.0239426 0.00514478 0.00974117 -0.00613863 0.0253429
internal_weight=0 9.76395 44.956 37.5938 18.6309 18.9629
internal_count=250 60 190 159 79 80
shrinkage=0.05


Tree=34
num_leaves=7
num_cat=0
split_feature=10 10 8 16 7 21
split_gain=2.60186 3.10115 3.11418 5.46653 5.68684 3.12366
threshold=-5.4535530677154886 8.7197384849908275 -0.16280321191591801 -0.016288984685497495 0.99239314233746911 1.0000000180025095e-35
decision_type=2 2 2 2 2 2
left_child=-1 2 -2 -4 5 -5
right_child=1 -3 3 4 -6 -7
leaf_value=-0.030173579209881257 0.032790644066379625 -0.027134443809669773 -0.040542881783478035 0.013306595508555017 0.050995621622416526 -0.029757986230069151
leaf_weight=6.3333575651049605 10.382059231400488 6.8911491408944121 6.2700360342860213 11.148586891591558 6.7141197025775901 6.7664748877286902
leaf_count=30 46 31 29 52 31 31
internal_value=0 0.00391563 0.00909887 0.00113849 0.0117496 -0.00295879
internal_weight=0 48.1724 41.2813 30.8992 24.6292 17.9151
internal_count=250 220 189 143 114 83
shrinkage=0.05


Tree=35
num_leaves=7
num_cat=0
split_feature=0 14 14 8 20 2
split_gain=2.57425 3.70249 3.67705 4.99179 2.1621 2.09967
threshold=-1.5329272539584691 1.173184475412125 -2.9758761609422102 -0.087194525448296908 1.0000000180025095e-35 0.37678612269467765
decision_type=2 2 2 2 2 2
left_child=-1 2 -2 -4 -3 -5
right_child=1 4 3 5 -6 -7
leaf_value=-0.030771156387398985 -0.010921511884967294 -0.0012419578735050876 0.063426594761651148 -0.0095077161312715763 -0.037092434836293452 0.029389221666227029
leaf_weight=6.0560545921325675 9.5020468458533305 12.065792486071588 6.3694325089454678 6.9314968064427358 6.4557566717267028 6.9462911933660507
leaf_count=30 43 55 28 34 30 30
internal_value=0 0.0038121 0.0147384 0.0267807 -0.0137378 0.00996149
internal_weight=0 48.2708 29.7493 20.2472 18.5215 13.8778
internal_count=250 220 135 92 85 64
shrinkage=0.05


Tree=36
num_leaves=6
num_cat=0
split_feature=2 8 5 3 3
split_gain=2.48046 2.02797 1.82853 3.79168 2.95285
threshold=-0.043960772267415474 -0.087194525448296908 0.73457967754853581 0.63981469452047279 0.2940748664149257
decision_type=2 2 2 2 2
left_child=1 -1 3 4 -2
right_child=2 -3 -4 -5 -6
leaf_value=-0.0020755899440794917 -0.0079897402578001358 -0.048311316769267899 0.026045708922375621 -0.020719584362904248 0.028431351219029701
leaf_weight=5.2019422501325607 9.8360708504915255 4.3588947877287847 8.3232937604188901 13.681240171194075 12.816596403717993
leaf_count=27 41 33 35 59 55
internal_value=0 -0.023155 0.00490676 6.42896e-05 0.0126169
internal_weight=0 9.56084 44.6572 36.3339 22.6527
internal_count=250 60 190 155 96
shrinkage=0.05


Tree=37
num_leaves=7
num_cat=0
split_feature=10 10 10 8 23 7
split_gain=2.39534 3.17247 4.64775 3.9787 2.60661 1.37654
threshold=-5.4535530677154886 -0.73576944710006409 -2.3949489980123215 0.30122195311928285 1.0000000180025095e-35 -0.87889742399614146
decision_type=2 2 2 2 2 2
left_child=-1 2 5 4 -3 -2
right_child=1 3 -4 -5 -6 -7
leaf_value=-0.029117688705014123 -0.015726418261894595 0.020496312939401864 0.051592467975505596 -0.039427305279613779 -0.015783266395568672 0.016189359673504645
leaf_weight=6.2623540684580794 6.2599501386284837 10.891738273203377 7.0206347331404677 7.1649643033742896 9.0771114975214005 7.3395484387874612
leaf_count=30 30 50 33 32 42 33
internal_value=0 0.00377072 0.0185541 -0.0074638 0.00400494 0.00149829
internal_weight=0 47.7539 20.6201 27.1338 19.9688 13.5995
internal_count=250 220 96 124 92 63
shrinkage=0.05


Tree=38
num_leaves=7
num_cat=0
split_feature=0 14 14 8 13 17
split_gain=2.37877 3.39031 3.31458 4.45658 2.05566 1.91704
threshold=-1.5329272539584691 1.173184475412125 -2.9758761609422102 -0.087194525448296908 15.862500000000002 0.0055264070156262899
decision_type=2 2 2 2 2 2
left_child=-1 2 -2 -4 -3 -5
right_child=1 4 3 5 -6 -7
leaf_value=-0.029754494514575631 -0.010273415284179896 -0.026568730392377417 0.060392473672000124 -0.010564958941809066 0.0077013255513192283 0.026920895857756977
leaf_weight=5.9869361072778693 9.4255462288856524 11.198766306042673 6.3275516331195858 6.3166785761713964 7.1822828501462928 7.4135037735104561
leaf_count=30 43 51 28 30 34 34
internal_value=0 0.00367545 0.0141825 0.0256748 -0.0131779 0.00967523
internal_weight=0 47.8643 29.4833 20.0577 18.381 13.7302
internal_count=250 220 135 92 85 64
shrinkage=0.05


Tree=39
num_leaves=7
num_cat=0
split_feature=2 11 7 11 0 8
split_gain=2.31424 1.82545 3.19128 3.05589 3.77056 0.752368
threshold=-0.043960772267415474 0.16448578471433131 -0.91636950049948107 -0.12657281841057255 0.37625083839795231 -0.093735227619797842
decision_type=2 2 2 2 2 2
left_child=5 3 -3 4 -2 -1
right_child=1 2 -4 -5 -6 -7
leaf_value=-0.0092738959364107882 -0.015095223914734397 -0.0058695367801974005 0.039329887386187888 -0.022980403016333972 0.031723528845956098 -0.037621930255274577
leaf_weight=4.9868007302284241 7.891760557889941 7.263130545616149 8.44666640460491 11.320547893643381 9.4496829211711866 4.4108392745256406
leaf_count=26 34 30 38 48 40 34
internal_value=0 0.0047344 0.0184328 -0.00277376 0.0104172 -0.0225792
internal_weight=0 44.3718 15.7098 28.662 17.3414 9.39764
internal_count=250 190 68 122 74 60
shrinkage=0.05


Tree=40
num_leaves=7
num_cat=0
split_feature=10 10 10 8 23 13
split_gain=2.22839 2.95324 4.24659 3.59461 2.30166 1.23813
threshold=-5.4535530677154886 -0.73576944710006409 -2.3949489980123215 0.30122195311928285 1.0000000180025095e-35 15.182500000000003
decision_type=2 2 2 2 2 2
left_child=-1 2 5 4 -3 -2
right_child=1 3 -4 -5 -6 -7
leaf_value=-0.028256997011074036 0.016510818641088366 0.019281161278515271 0.049771388882800069 -0.037776276967179112 -0.014923541672815352 -0.013781700593107538
leaf_weight=6.1874902844429007 6.8706545606255549 10.795401059091095 6.9380891025066367 7.0932035893201819 9.0339895933866501 6.626358650624752
leaf_count=30 32 50 33 32 42 31
internal_value=0 0.00364904 0.0179806 -0.0072291 0.00369798 0.00163871
internal_weight=0 47.3577 20.4351 26.9226 19.8294 13.497
internal_count=250 220 96 124 92 63
shrinkage=0.05


Tree=41
num_leaves=7
num_cat=0
split_feature=0 14 5 7 4 20
split_gain=2.21191 3.08836 3.03407 2.52188 2.31585 2.01034
threshold=-1.5329272539584691 1.173184475412125 0.67572889105771228 0.99455088111984991 0.31241871210338684 1.0000000180025095e-35
decision_type=2 2 2 2 2 2
left_child=-1 2 3 4 -2 -3
right_child=1 5 -4 -5 -6 -7
leaf_value=-0.028871163195877372 0.012075812011890064 -0.00048087944203185689 0.042427051187327473 0.024311282097044293 -0.030381632000883303 -0.035344000307915291
leaf_weight=5.9141337573528281 6.2422539070248657 11.910038352012636 6.9676364511251441 9.3938412293791753 6.6156340017914772 6.3341550230979911
leaf_count=30 30 55 31 43 31 30
internal_value=0 0.00355594 0.0136341 0.0046182 -0.00976937 -0.0125849
internal_weight=0 47.4636 29.2194 22.2517 12.8579 18.2442
internal_count=250 220 135 104 61 85
shrinkage=0.05


Tree=42
num_leaves=6
num_cat=0
split_feature=14 9 2 0 6
split_gain=2.18703 3.78625 3.54097 2.84638 3.29457
threshold=-3.8865450977574749 -46.624208310053632 0.72668237426129212 0.46309773160243378 0.55093769190311903
decision_type=2 2 2 2 2
left_child=-1 -2 3 4 -3
right_child=1 2 -4 -5 -6
leaf_value=-0.027058318076642152 -0.022728957113397202 0.010926500865288454 0.038209607667888418 0.019790755436792977 -0.036741890829420115
leaf_weight=6.5640168860554686 10.46006855368614 7.2893705666065234 9.2017602920532209 12.486300781369208 7.2100319340825081
leaf_count=30 51 36 40 58 35
internal_value=0 0.00376654 0.0114251 0.00229197 -0.0127773
internal_weight=0 46.6475 36.1875 26.9857 14.4994
internal_count=250 220 169 129 71
shrinkage=0.05


Tree=43
num_leaves=7
num_cat=0
split_feature=10 10 2 8 11 3
split_gain=2.18915 3.17209 4.8852 2.99233 3.72718 2.52299
threshold=8.7197384849908275 4.1830234595944003 -0.26193479147309368 0.056202107172668374 0.10110027436837918 0.63981469452047279
decision_type=2 2 2 2 2 2
left_child=1 2 -1 5 -5 -4
right_child=-2 -3 3 4 -6 -7
leaf_value=-0.045056016816876654 -0.026597524080738979 0.034084919989681141 0.041619837490814056 -0.035891019188172973 0.012324735929099854 0.0030931811041065567
leaf_weight=5.5950589030981055 6.7674729004502288 7.3050905615091315 7.5298619419336346 7.4855076968669918 8.6280579343438131 9.7542141228914243
leaf_count=38 31 33 33 33 40 42
internal_value=0 0.00384773 -0.00181705 0.00542671 -0.0100737 0.0198774
internal_weight=0 46.2978 38.9927 33.3976 16.1136 17.2841
internal_count=250 219 186 148 73 75
shrinkage=0.05


Tree=44
num_leaves=6
num_cat=0
split_feature=11 11 5 7 23
split_gain=2.07968 2.9367 2.52331 2.31529 3.2407
threshold=0.44054439598472372 0.23511007764764971 0.44092351406866626 0.99455088111984991 1.0000000180025095e-35
decision_type=2 2 2 2 2
left_child=1 2 -1 4 -4
right_child=-2 -3 3 -5 -6
leaf_value=-0.027620620881394053 -0.026667020647812234 0.034200802229024545 -0.021693510704521773 0.024061095678326736 0.017165442344872547
leaf_weight=7.5081900581717482 6.4375182241201392 6.7291967123746863 12.246842667460442 10.338469386100767 9.548539474606514
leaf_count=38 32 33 56 48 43
internal_value=0 0.00366058 -0.00152359 0.00457408 -0.00466943
internal_weight=0 46.3712 39.642 32.1339 21.7954
internal_count=250 218 185 147 99
shrinkage=0.05


Tree=45
num_leaves=7
num_cat=0
split_feature=10 10 2 8 11 3
split_gain=2.00533 2.8708 4.49539 2.70224 3.32261 2.32175
threshold=8.7197384849908275 4.1830234595944003 -0.26193479147309368 0.056202107172668374 0.10110027436837918 0.63981469452047279
decision_type=2 2 2 2 2 2
left_child=1 2 -1 5 -5 -4
right_child=-2 -3 3 4 -6 -7
leaf_value=-0.04392095698666687 -0.025517326493153632 0.032506400759753341 0.039899914859371458 -0.034115434149942392 0.011568085231502951 0.0028311583028838225
leaf_weight=5.4255276545882216 6.7331379055976859 7.2787169739603987 7.4684824645519283 7.4213341698050526 8.5837077349424344 9.7240487933158857
leaf_count=38 31 33 33 33 40 42
internal_value=0 0.00370242 -0.00172584 0.00517017 -0.00961478 0.0189339
internal_weight=0 45.9018 38.6231 33.1976 16.005 17.1925
internal_count=250 219 186 148 73 75
shrinkage=0.05


end of trees

feature_importances:
Column_2=42
Column_7=32
Column_8=32
Column_11=24
Column_10=15
Column_0=13
Column_13=13
Column_1=11
Column_3=11
Column_5=11
Column_6=10
Column_14=10
Column_17=8
Column_9=7
Column_16=4
Column_18=4
Column_20=4
Column_23=4
Column_4=2
Column_15=2
Column_21=1

parameters:
[boosting: gbdt]
[objective: binary]
[metric: binary_logloss]
[tree_learner: serial]
[device_type: cpu]
[data: ]
[valid: ]
[num_iterations: 10000]
[learning_rate: 0.05]
[num_leaves: 15]
[num_threads: 0]
[force_col_wise: 0]
[force_row_wise: 0]
[histogram_pool_size: -1]
[max_depth: -1]
[min_data_in_leaf: 30]
[min_sum_hessian_in_leaf: 0.001]
[bagging_fraction: 0.5]
[pos_bagging_fraction: 1]
[neg_bagging_fraction: 1]
[bagging_freq: 0]
[bagging_seed: 31412]
[feature_fraction: 1]
[feature_fraction_bynode: 1]
[feature_fraction_seed: 28720]
[extra_trees: 0]
[extra_seed: 10290]
[early_stopping_round: 50]
[first_metric_only: 0]
[max_delta_step: 0]
[lambda_l1: 0]
[lambda_l2: 0]
[min_gain_to_split: 0]
[drop_rate: 0.1]
[max_drop: 50]
[skip_drop: 0.5]
[xgboost_dart_mode: 0]
[uniform_drop: 0]
[drop_seed: 9699]
[top_rate: 0.2]
[other_rate: 0.1]
[min_data_per_group: 100]
[max_cat_threshold: 32]
[cat_l2: 10]
[cat_smooth: 10]
[max_cat_to_onehot: 4]
[top_k: 20]
[monotone_constraints: ]
[monotone_constraints_method: basic]
[monotone_penalty: 0]
[feature_contri: ]
[forcedsplits_filename: ]
[refit_decay_rate: 0.9]
[cegb_tradeoff: 1]
[cegb_penalty_split: 0]
[cegb_penalty_feature_lazy: ]
[cegb_penalty_feature_coupled: ]
[path_smooth: 0]
[interaction_constraints: ]
[verbosity: -1]
[saved_feature_importance_type: 0]
[max_bin: 255]
[max_bin_by_feature: ]
[min_data_in_bin: 3]
[bin_construct_sample_cnt: 200000]
[data_random_seed: 4097]
[is_enable_sparse: 1]
[enable_bundle: 1]
[use_missing: 1]
[zero_as_missing: 0]
[feature_pre_filter: 1]
[pre_partition: 0]
[two_round: 0]
[header: 0]
[label_column: ]
[weight_column: ]
[group_column: ]
[ignore_column: ]
[categorical_feature: ]
[forcedbins_filename: ]
[objective_seed: 17583]
[num_class: 1]
[is_unbalance: 0]
[scale_pos_weight: 1]
[sigmoid: 1]
[boost_from_average: 1]
[reg_sqrt: 0]
[alpha: 0.9]
[fair_c: 1]
[poisson_max_delta_step: 0.7]
[tweedie_variance_power: 1.5]
[lambdarank_truncation_level: 20]
[lambdarank_norm: 1]
[label_gain: ]
[eval_at: ]
[multi_error_top_k: 1]
[auc_mu_weights: ]
[num_machines: 1]
[local_listen_port: 12400]
[time_out: 120]
[machine_list_filename: ]
[machines: ]
[gpu_platform_id: -1]
[gpu_device_id: -1]
[gpu_use_dp: 0]

end of parameters

pandas_categorical:null
