tree
version=v3
num_class=1
num_tree_per_iteration=1
label_index=0
max_feature_idx=25
objective=binary sigmoid:1
feature_names=Column_0 Column_1 Column_2 Column_3 Column_4 Column_5 Column_6 Column_7 Column_8 Column_9 Column_10 Column_11 Column_12 Column_13 Column_14 Column_15 Column_16 Column_17 Column_18 Column_19 Column_20 Column_21 Column_22 Column_23 Column_24 Column_25
feature_infos=[-17.402206619859587:27.687168402436622] [-0.20812437311935808:0.099823147966201745] [0:1] [0.031338175432642196:0.93297412910361155] [-20.81243731193581:9.9823147966201748] [-0.00043899757001424051:0.99318026402695536] [-0.0013062366946508558:0.98863070968412281] [0.020904448381991552:0.94499981726285354] [0.016895569832796383:0.85268377266040474] [-0.99987531832657395:0.99998462976158686] [-1:1] [-141.02524786355616:141.90379553072478] [-18.572536760995316:24.727040250332422] [-0.8937782785959909:0.65667388740767862] none [10.56:23.837499999999999] [-15.020176356299503:18.057503506311367] [0.29418309000114917:0.76334962003367635] [-0.14033198312322304:0.076224670097470026] [-0.15194500962539842:0.10760075203716812] [-0.94408923106147991:0.85731564250571679] [0:1] [0:1] [0:1] [0:1] [0:1]
tree_sizes=1663 1667 1650 1658 1659 1666 1666 1661 1659 1655 1663 1655 1666 1682 1677 1655 1668 1678 1687 1671 1685 1687 1700 1699 1691 1702 1688 1689 1699 1695 1696 1704 1701 1714

Tree=0
num_leaves=15
num_cat=0
split_feature=17 17 13 8 11 13 9 17 15 16 17 8 10 1
split_gain=35.5401 19.9975 15.1972 12.7101 9.87678 10.904 8.30244 6.90707 6.77117 2.99786 2.77904 3.67042 1.97793 7.10543e-15
threshold=0.52366065765547332 0.65856568354213318 0.21805170560646522 0.29466400996219161 24.652008464021517 0.27759065806596001 0.92156477422861849 0.48318188800736711 15.837500000000002 0.12711656742384994 0.5530778809519149 0.42382538244026186 0.056521266562106487 0.0026353201277613575
decision_type=2 2 2 2 2 2 2 2 2 2 2 2 2 2
left_child=4 3 12 -2 5 8 -7 -6 9 -1 -5 -12 -3 -13
right_child=1 2 -4 10 7 6 -8 -9 -10 -11 11 13 -14 -15
leaf_value=0.25131411297994721 0.055613797654489303 -0.26671613346979495 0.40480455637246349 0.31526846439349565 -0.26671613346979484 -0.26671613346979495 0.1361962804355602 0.078637364163366641 0.0018921424671085596 0.53910869434091502 0.30887302925214077 0.53910869434091524 -0.024968685126581763 0.53910869434091513
leaf_weight=3.4747004806995445 3.7228933721780804 2.9783146977424604 2.9783146977424622 4.4674720466136959 6.9494009613990766 4.2192791551351529 3.9710862636566162 3.4747004806995392 2.9783146977424622 2.4819289147853851 3.4747004806995418 6.4530151784419996 2.4819289147853851 7.1975938528776169
leaf_count=14 15 12 12 18 28 17 16 14 12 10 14 26 10 29
internal_value=0.170452 0.308027 0.0413934 0.396904 0.00189214 0.0953211 -0.0713647 -0.151598 0.248116 0.371229 0.455748 0.492394 -0.156831 0.539109
internal_weight=0 33.7542 8.43856 25.3157 27.5494 17.1253 8.19037 10.4241 8.93494 5.95663 21.5928 17.1253 5.46024 13.6506
internal_count=247 136 34 102 111 69 33 42 36 24 87 69 22 55
shrinkage=1


Tree=1
num_leaves=15
num_cat=0
split_feature=17 17 13 20 12 11 3 9 7 16 20 3 20 13
split_gain=23.3191 13.4084 12.1645 7.36885 13.8552 6.63245 13.1287 5.58095 5.28085 6.19168 3.76906 2.79279 0.870162 0.7422
threshold=0.52366065765547332 0.64357473133024812 0.20536490868032461 0.016485054718486162 0.64023867106533061 -37.761588559397183 0.31036987800237831 -0.99278043583069775 0.64664645048311842 1.2545874487053787 0.073936325108818104 0.39948727062537098 -1.0000000180025095e-35 -1.0000000180025095e-35
decision_type=2 2 2 2 2 2 2 2 2 2 2 2 2 2
left_child=5 3 10 13 -5 6 -1 -7 9 11 12 -9 -3 -2
right_child=1 2 -4 4 -6 7 -8 8 -10 -11 -12 -13 -14 -15
leaf_value=-0.27591407249112165 0.32943124344421215 -0.22944252960318426 0.22657522234065197 0.28148873651981271 -0.2703920120668275 0.027056635720331103 0.26309881989068767 -0.094745118461657618 -0.35305724881581768 0.13674740028311391 -0.010868705683543792 -0.38831760600603249 -0.39784886854449891 0.23540669608811179
leaf_weight=3.2187843620777157 8.5015199929475767 2.4345639199018478 3.8225514888763428 4.2667066603898993 3.1726800054311752 3.675246059894568 4.1225938647985458 2.4740449488162986 8.6301247179508191 2.4571122676134109 2.4560301303863525 2.7225817143917084 2.4748852103948575 5.5506749302148846
leaf_count=13 36 10 16 18 13 15 17 10 35 10 10 11 10 23
internal_value=0 0.114649 -0.0629084 0.207081 0.0461278 -0.135769 0.0267718 -0.195556 -0.245799 -0.124857 -0.213145 -0.248552 -0.314337 0.292291
internal_weight=0 32.6796 11.188 21.4916 7.43939 27.3005 7.34138 19.9591 16.2839 7.65374 7.36548 5.19663 4.90945 14.0522
internal_count=247 136 46 90 31 111 30 81 66 31 30 21 20 59
shrinkage=0.2


Tree=2
num_leaves=15
num_cat=0
split_feature=17 17 3 20 12 13 16 11 16 20 15 4 6 11
split_gain=15.8606 10.6492 6.82597 5.72641 5.62027 10.0207 4.24866 4.97988 4.94101 4.15853 3.20784 2.39255 1.93708 1.1812
threshold=0.52366065765547332 0.67722444013792515 0.4135202409673559 0.12057819836499868 0.64023867106533061 -0.070013567749896075 0.36714608960896017 41.351733931666082 4.3173535940023795 0.031520139726736618 15.763750000000002 0.4095916309954501 0.9046560133526208 -30.170595316493621
decision_type=2 2 2 2 2 2 2 2 2 2 2 2 2 2
left_child=3 4 -3 6 -2 12 11 8 9 -8 -7 13 -6 -1
right_child=1 2 -4 -5 5 10 7 -9 -10 -11 -12 -13 -14 -15
leaf_value=-0.17656306523521825 0.2510596570291535 0.12070874205549785 -0.32086445981749923 0.17045896377658243 0.30762083563830772 0.051772736673975028 0.25023377454026707 -0.32130098549628794 -0.19959803027102974 -0.074016989231042607 -0.24526698798370386 -0.091224640489094011 0.081778661769511679 -0.3379437259480671
leaf_weight=2.6648632586002368 12.338613286614423 2.3272823989391318 3.515550896525383 2.5762400925159445 4.4041608422994614 2.4404977858066541 3.5557736754417402 2.3257451057434073 3.1615082919597626 2.8503589183092117 3.5986707210540771 3.5923993289470664 2.3190589100122452 5.6831319779157674
leaf_count=11 56 10 15 11 20 10 15 10 13 12 15 15 10 24
internal_value=0 0.0982042 -0.14498 -0.112804 0.154811 0.0617578 -0.143423 -0.0588138 0.00499275 0.105961 -0.12523 -0.227699 0.22972 -0.286427
internal_weight=0 30.9438 5.84283 26.41 25.101 12.7624 23.8338 11.8934 9.56764 6.40613 6.03917 11.9404 6.72322 8.348
internal_count=247 136 25 111 111 55 100 50 40 27 25 50 30 35
shrinkage=0.2


Tree=3
num_leaves=15
num_cat=0
split_feature=17 8 11 11 13 9 9 7 10 21 16 16 0 10
split_gain=11.5083 9.82242 5.71748 5.36938 9.28296 5.18996 4.97914 5.68791 5.94444 4.55052 2.72785 0.838401 0.606601 0.587283
threshold=0.5530778809519149 0.48302297766077823 -34.662439304546758 -37.761588559397183 0.38652633820209548 0.62787719133810949 -0.99278043583069775 0.64664645048311842 0.14232066468029472 1.0000000180025095e-35 0.19174651370129683 0.67756188583712829 -1.4104989018694987 -0.20876154728671056
decision_type=2 2 2 2 2 2 2 2 2 2 2 2 2 2
left_child=3 2 9 4 11 -4 -5 8 10 -2 -8 -1 -9 -3
right_child=1 13 5 6 -6 -7 7 12 -10 -11 -12 -13 -14 -15
leaf_value=0.3153845772208585 -0.03017868924277213 0.15747593264552104 0.084192830686594403 0.064647002150806987 -0.18478552746142216 -0.28876200945507641 -0.3169680955497618 -0.2053399663975827 0.14295953108520085 0.27142374298342004 -0.028637121455976418 0.14934290547497062 -0.32828496630961279 0.27961290706287067
leaf_weight=2.4718691557645815 4.3345209062099439 1.9590943008661259 2.4258682578802135 4.0271524190902737 3.7577526122331619 3.879014328122139 3.1679919511079806 2.136389017105107 3.3042633235454559 3.7169229388237 2.2408991008996964 2.3949603885412216 6.4566665589809356 8.0270274430513364
leaf_count=11 19 10 11 17 16 17 14 10 14 17 10 11 29 41
internal_value=0 0.103324 -0.0026344 -0.0818159 0.0513511 -0.145264 -0.135652 -0.182262 -0.0683965 0.109055 -0.197513 0.233676 -0.297719 0.255652
internal_weight=0 24.3424 14.3563 29.9579 8.62458 6.30488 21.3334 17.3062 8.71315 8.05144 5.40889 4.86683 8.59306 9.98612
internal_count=247 115 64 132 38 28 94 77 38 36 24 22 39 51
shrinkage=0.2


Tree=4
num_leaves=15
num_cat=0
split_feature=17 17 5 23 12 13 9 11 17 11 12 9 4 20
split_gain=8.10447 7.9234 4.62817 5.08479 4.22347 7.97033 10.5763 5.17852 6.52349 3.78343 2.74404 2.48684 1.55845 0.72156
threshold=0.5530778809519149 0.67722444013792515 0.17738342384687408 1.0000000180025095e-35 -1.3686668241765216 0.12843052620890413 0.87298681256315291 -8.69434405864199 0.44888988931224377 -16.993406578454469 8.8030736095905251 -0.98680614271218148 -0.024012301208231737 0.08710112668566708
decision_type=2 2 2 2 2 2 2 2 2 2 2 2 2 2
left_child=4 2 3 -2 5 -1 11 8 -6 -3 -4 -7 -9 -14
right_child=1 9 10 -5 7 6 -8 12 -10 -11 -12 -13 13 -15
leaf_value=0.26037474941025546 -0.16469079834632172 0.013434396993469867 0.26989533392646298 0.21776400839217913 0.2431309154438456 -0.34066815477424534 0.25807253036417882 -0.077171587708237788 -0.17894387673219581 -0.33161601383125849 0.00055792847050122767 -0.075576303244698675 -0.30209321229213848 -0.1678690311865576
leaf_weight=3.7721966207027462 3.0909081548452439 3.2188802510499954 9.833035394549368 2.5275892317295074 2.6745294034481093 3.5524083226919165 2.4664640575647354 2.2784554064273861 3.2381715178489685 2.100616142153739 1.7882243692874897 2.3531853407621375 5.7545523345470366 2.2200890183448792
leaf_count=17 14 15 55 12 13 16 12 11 14 10 9 11 28 10
internal_value=0 0.0905574 0.156398 0.00736386 -0.0701321 0.0189945 -0.0897642 -0.137087 0.0119759 -0.122823 0.228451 -0.235038 -0.223047 -0.264726
internal_weight=0 22.5593 17.2398 5.6185 28.3101 12.1443 8.37206 16.1658 5.9127 5.3195 11.6213 5.90559 10.2531 7.97464
internal_count=247 115 90 26 132 56 39 76 27 25 64 27 49 38
shrinkage=0.2


Tree=5
num_leaves=15
num_cat=0
split_feature=17 8 12 17 20 10 12 12 18 8 17 18 1 0
split_gain=5.78827 7.37802 6.57213 6.40891 3.08126 3.72893 2.91869 6.04352 4.30174 3.14074 2.79664 1.71871 0.869679 0.434052
threshold=0.5530778809519149 0.35790361050699554 4.0477087031952816 0.7347033254506059 0.10435091261162123 0.42092695231034694 -1.3007075876132488 -3.1057167771585581 -0.040559406087847728 0.53839003245542882 0.43349286493830641 0.006506352008840339 -0.0034211107099379151 0.34412032976425116
decision_type=2 2 2 2 2 2 2 2 2 2 2 2 2 2
left_child=4 2 -2 12 5 6 7 9 -8 -1 -10 -9 -3 -12
right_child=1 3 -4 -5 -6 -7 8 11 10 -11 13 -13 -14 -15
leaf_value=-0.29837481672945743 0.086269904257487443 0.092710899239377767 -0.29776061980389718 -0.1647844980828736 0.10872698587334742 -0.31219466419230746 0.13442918839331316 0.32230420558349382 -0.014179145380684644 0.018207979868951722 -0.29934817026219895 0.068825436648701291 0.24700865068163363 -0.18557574531820073
leaf_weight=2.2928751409053802 4.0459762066602734 1.7153211385011662 3.1862915605306625 1.9853535890579213 3.6864704340696326 2.6329351514577857 1.9998162984848065 2.1747468411922526 2.5436045527458138 2.7651325166225433 4.2287717014551163 2.1062998175621033 9.8616261929273588 1.964377626776695
leaf_count=11 19 10 15 10 18 13 10 10 14 14 21 11 61 10
internal_value=0 0.0802168 -0.0829209 0.167212 -0.0608717 -0.088404 -0.0590537 0.022712 -0.130176 -0.125304 -0.190744 0.197591 0.224147 -0.263261
internal_weight=0 20.7946 7.23227 13.5623 26.395 22.7086 20.0756 9.33905 10.7366 5.05801 8.73675 4.28105 11.5769 6.19315
internal_count=247 115 34 81 132 114 101 46 55 25 45 21 71 31
shrinkage=0.2


Tree=6
num_leaves=15
num_cat=0
split_feature=17 8 13 15 19 20 16 5 13 0 15 1 10 4
split_gain=4.20986 5.04686 5.08722 4.24152 2.24474 2.1057 3.04712 3.62444 3.17912 1.96676 1.70896 1.39531 1.12198 1.15903
threshold=0.52814044656558379 0.51504381250502551 0.20536490868032461 16.291250000000002 0.034036080690100869 0.10435091261162123 0.36714608960896017 0.050841898007379219 0.31584055132150762 -1.1858944353002498 12.488750000000001 0.0044593647852870242 0.031059264508438184 0.4095916309954501
decision_type=2 2 2 2 2 2 2 2 2 2 2 2 2 2
left_child=5 2 3 4 11 6 12 -8 10 -4 -9 -2 13 -1
right_child=1 -3 9 -5 -6 -7 7 8 -10 -11 -12 -13 -14 -15
leaf_value=-0.19799598854226863 0.22173152115067368 0.20925649908366709 0.0073159300364235222 -0.25439053636997155 -0.11669776748802303 0.080522093700804598 0.22418833483016437 0.13557083543521492 -0.27962718764347644 0.26743666879258371 -0.089851868782512626 -0.01399002794952315 -0.25011056980962548 0.016718459297831521
leaf_weight=2.2793277725577408 2.1281044036149996 6.5686506330966941 1.8781561627984045 3.5901525393128395 3.0615447834134102 3.4804806113243094 2.0319602042436582 2.3208459615707397 2.1952296197414398 3.0521119162440291 3.2001155093312263 1.9023749381303785 4.249752588570118 1.7995664179325102
leaf_count=14 11 47 10 19 17 17 10 13 11 18 16 11 24 9
internal_value=0 0.0621789 0.00029876 -0.0772617 0.0124052 -0.0619311 -0.0893588 -0.0134591 -0.0760405 0.168345 0.00490905 0.110472 -0.178195 -0.103266
internal_weight=0 22.1811 15.6124 10.6822 7.09202 21.5573 18.0768 9.74815 7.71619 4.93027 5.52096 4.03048 8.32865 4.07889
internal_count=247 133 86 58 39 114 97 50 40 28 29 22 47 23
shrinkage=0.2


Tree=7
num_leaves=15
num_cat=0
split_feature=11 11 10 8 6 20 20 17 7 8 20 20 5 11
split_gain=3.38973 4.78063 3.55321 4.02616 3.15548 3.3409 3.07796 2.97344 2.85917 2.71843 1.96992 1.77545 1.68562 1.32246
threshold=-36.002466197120164 72.339734106391504 0.14232066468029472 0.48302297766077823 0.38022659638034895 0.0069268317147808791 0.091562704041927248 0.46630246171812023 0.37781010446394131 0.30443145935147892 0.072364834695002975 -0.03982005331037803 0.33196948489762351 44.082033513326913
decision_type=2 2 2 2 2 2 2 2 2 2 2 2 2 2
left_child=4 2 3 12 5 8 10 13 -1 -7 -4 -9 -2 -5
right_child=1 -3 6 7 -6 9 -8 11 -10 -11 -12 -13 -14 -15
leaf_value=0.18389341553097366 -0.10880009920363261 0.16254280756363249 0.075610181799955531 -0.030000641301960836 0.26046369257887048 -0.29036005937633558 0.24445719565575721 -0.073747537917034409 -0.089686688262179931 0.061432325178517981 -0.21691020750235121 0.19063974830891309 -0.2850795006548103 -0.27567844730801777
leaf_weight=5.3733800426125509 3.6340678557753652 3.9389898777008048 2.0846414044499393 1.7194488644599908 3.0469448193907729 1.9224236309528353 2.2035912275314331 1.6177950277924535 2.1352188289165497 1.6182260066270826 1.649522617459297 2.7311782240867615 5.3849850744009018 1.787536673247814
leaf_count=31 20 29 14 10 19 10 13 11 13 11 9 16 31 10
internal_value=0 -0.0409238 -0.0760555 -0.122877 0.0802673 0.0305763 0.057009 -0.0182037 0.106095 -0.129576 -0.0536072 0.0922891 -0.214051 -0.155224
internal_weight=0 26.7518 22.8128 16.875 14.0962 11.0492 5.93776 7.85596 7.5086 3.54065 3.73416 4.34897 9.01905 3.50699
internal_count=247 163 134 98 84 65 36 47 44 21 23 27 51 20
shrinkage=0.2


Tree=8
num_leaves=15
num_cat=0
split_feature=12 17 8 8 17 19 11 3 13 10 8 13 5 11
split_gain=2.90939 2.83209 2.51606 2.97906 2.22953 1.80901 2.14772 1.72463 1.65556 2.31021 1.64324 1.50725 3.22791 1.31831
threshold=2.5012048585045052 0.56560676514236385 0.48302297766077823 0.60514131590203257 0.7347033254506059 -0.016548850237560638 72.339734106391504 0.5249657707807186 0.38652633820209548 0.15922207321646556 0.29466400996219161 0.2477798235411092 0.18098440689940498 -1.0000000180025095e-35
decision_type=2 2 2 2 2 2 2 2 2 2 2 2 2 2
left_child=1 2 7 -4 10 11 13 8 9 -1 -3 12 -2 -7
right_child=5 4 3 -5 -6 6 -8 -9 -10 -11 -12 -13 -14 -15
leaf_value=-0.084471837289356505 -0.21931817084037469 0.014554568809381489 0.22980322568930497 -0.045593113889328567 -0.097438616219307814 -0.086682840682829859 0.089980099757748178 -0.27167819405271221 -0.21000190087024886 0.18681869182251407 0.23653613414266339 0.19442753845960659 0.23011637897186801 -0.24479846117880188
leaf_weight=3.3462280109524745 1.7052207216620456 1.7759712636470775 3.0458458811044684 3.2451541498303413 1.3680968731641767 4.8218238577246648 1.7042377889156348 1.5247788429260252 1.6845497637987135 2.0096209943294525 5.3590252324938774 1.5842670947313306 1.022518955171108 3.7493702396750415
leaf_count=20 10 9 17 21 8 30 11 10 11 11 46 8 10 25
internal_value=0 0.0443892 -0.00829598 0.0877426 0.136438 -0.0694518 -0.115077 -0.0788349 -0.0370698 0.0173218 0.181283 0.0392712 -0.0508434 -0.155849
internal_weight=0 23.3593 14.8562 6.291 8.50309 14.5874 10.2754 8.56518 7.0404 5.35585 7.135 4.31201 2.72774 8.57119
internal_count=247 153 90 38 63 94 66 52 42 31 55 28 20 55
shrinkage=0.2


Tree=9
num_leaves=15
num_cat=0
split_feature=17 8 17 12 11 20 18 12 12 5 13 3 8 17
split_gain=2.28186 3.80415 3.8439 3.73135 2.76416 1.93022 2.283 2.8208 2.52358 3.59339 1.6316 1.0439 0.832888 0.0133267
threshold=0.5530778809519149 0.41378449680346469 0.72163189151256579 4.3856369531330035 43.391361491028171 0.10678580478651363 0.030041261837262332 -3.5877278002080275 -1.0488328324542937 0.4554507640723035 0.026771652887392298 0.68222591927256826 0.48873122199194891 0.64567980587465512
decision_type=2 2 2 2 2 2 2 2 2 2 2 2 2 2
left_child=4 3 13 10 5 6 7 -1 12 -10 -2 -6 -9 -3
right_child=1 2 -4 -5 11 -7 -8 8 9 -11 -12 -13 -14 -15
leaf_value=-0.1763886213000069 -0.068426724557444377 0.22468843978145292 -0.087026714316814122 -0.25562969043492179 -0.071306831621595776 0.19600469878882376 -0.21554892974182083 0.09579851405428863 0.11602093003149386 -0.20239209219032095 0.17883973294160416 -0.26601699884090868 0.28610626703532588 0.24563535829316918
leaf_weight=2.640094414353368 2.0745583474636069 4.495412237942217 2.0292910784482956 2.334266684949398 1.9497369229793537 1.7289548814296711 2.1915872842073432 1.92755667865276 3.1917940229177546 2.5505824238061905 2.1988121718168259 2.5313074961304665 1.7596329450607298 1.6648407876491544
leaf_count=16 11 50 13 16 12 11 16 14 17 19 13 18 9 12
internal_value=0 0.0606183 0.151707 -0.0522771 -0.0424692 -0.00356452 -0.0277592 0.00633934 0.0574996 -0.0254081 0.0588013 -0.181297 0.186619 0.230349
internal_weight=0 14.7972 8.18954 6.60764 20.4712 15.9902 14.2612 12.0697 9.42957 5.74238 4.27337 4.48104 3.68719 6.16025
internal_count=247 115 75 40 132 102 91 75 59 36 24 30 23 62
shrinkage=0.2


Tree=10
num_leaves=15
num_cat=0
split_feature=1 17 1 8 12 4 11 13 11 16 16 7 6 6
split_gain=1.89778 2.82595 2.85821 2.58773 2.57514 2.12815 2.05815 2.17132 2.10458 1.26558 1.07707 0.970339 0.740886 0.597886
threshold=-0.0022782299115831333 0.56560676514236385 0.00054570259660137476 0.35790361050699554 4.0477087031952816 0.1023632763427129 41.351733931666082 0.41519683881144009 -37.761588559397183 1.1637031402723674 2.5403681659007176 0.5520832896283856 0.67038441703433904 0.15624326415837936
decision_type=2 2 2 2 2 2 2 2 2 2 2 2 2 2
left_child=5 2 10 4 -3 12 7 8 13 -10 -2 -7 -1 -4
right_child=1 3 6 -5 -6 11 -8 -9 9 -11 -12 -13 -14 -15
leaf_value=0.13236769388248529 0.2010656482432395 0.11374069704432893 0.059119810260762552 0.19975085802919443 -0.23916335491903645 -0.2772138640804766 -0.22037869126555024 -0.24741125065979694 -0.13849966813261985 0.066856515161484331 -0.0097353207355924051 -0.080065801232209508 -0.081057213393632199 0.24259105839243197
leaf_weight=1.5719861611723893 2.5422263294458451 2.1962609067559229 1.3940236046910297 5.5831333659589291 1.3266939893364904 2.159130685031414 2.8668583035469046 1.5039274543523786 3.2174899429082844 1.9148255139589307 1.5672058910131452 1.8579180762171743 1.1100254729390142 1.4488947242498396
leaf_count=11 18 13 10 59 11 13 21 11 23 12 10 15 9 11
internal_value=0 0.0256658 -0.0238028 0.11506 -0.0191579 -0.0939224 -0.0718922 -0.0269842 0.0145827 -0.0618829 0.120673 -0.186031 0.0440358 0.152626
internal_weight=0 25.5615 16.4555 9.10609 3.52295 6.69906 12.346 9.47916 7.97523 5.13232 4.10943 4.01705 2.68201 2.84292
internal_count=247 199 116 83 24 48 88 67 56 35 28 28 20 21
shrinkage=0.2


Tree=11
num_leaves=15
num_cat=0
split_feature=12 13 9 9 9 3 17 13 6 20 2 15 3 6
split_gain=1.39666 1.9358 1.60668 1.47952 2.34675 2.58397 3.24676 3.43166 1.47474 1.26396 1.89107 1.23593 0.876188 0.456953
threshold=2.5012048585045052 -0.077714379104552506 0.99704608019723684 0.9942825227526525 0.87298681256315291 0.6747158195147972 0.53533459477504597 0.30294171337482839 0.79203763770113711 0.055848968289888674 0.0711764957490605 13.868750000000002 0.57231747039853154 0.52505539680667945
decision_type=2 2 2 2 2 2 2 2 2 2 2 2 2 2
left_child=1 -1 9 4 5 6 7 12 -6 10 -2 -4 -3 -13
right_child=2 3 11 -5 8 -7 -8 -9 -10 -11 -12 13 -14 -15
leaf_value=0.19107669183994658 0.038039500250135368 0.17012242978083214 -0.085265935863311104 -0.11664960575160957 0.2528550267933834 -0.24641934086957307 0.2371023004526833 -0.24641053719024597 -0.013973320666472555 0.011086934576669667 -0.24069374525398957 0.2403933049964275 -0.043368704015756258 0.056843206713377774
leaf_weight=2.6840999945998254 1.324703898280857 1.8308323845267316 1.5454956144094469 3.0954279229044905 2.6227195039391513 1.6265505664050577 2.1819910481572151 2.1665730327367783 1.2111478224396703 2.3475672081112862 3.6736484058201313 1.0867536813020708 1.3257747292518614 1.0833619907498357
leaf_count=31 11 12 14 18 20 13 25 17 8 18 30 10 9 11
internal_value=0 0.0338582 -0.0557566 0.00758403 0.0372438 -0.0178889 0.0316391 -0.052581 0.168562 -0.109967 -0.166822 0.0514187 0.0804562 0.148762
internal_weight=0 18.7451 11.0615 16.061 12.9656 9.13172 7.50517 5.32318 3.83387 7.34592 4.99835 3.71561 3.15661 2.17012
internal_count=247 153 94 122 104 76 63 38 28 59 41 35 21 21
shrinkage=0.2


Tree=12
num_leaves=15
num_cat=0
split_feature=7 12 10 13 13 11 9 13 13 17 7 7 11 17
split_gain=1.58077 1.87029 2.01735 1.9514 1.9491 3.31869 3.39875 1.85572 1.61397 1.4445 0.821399 0.760338 1.61623 0.68222
threshold=0.086488401772562118 -1.4391198921611918 0.17200531287647264 -0.046103773502330019 0.039602750341811079 26.718206066542887 -0.98870985981219683 -0.15205213138450793 0.30294171337482839 0.61466998060008182 0.32475623221773214 0.45762848889631391 -6.3686979357662903 0.61466998060008182
decision_type=2 2 2 2 2 2 2 2 2 2 2 2 2 2
left_child=-1 4 7 -4 -2 6 10 9 11 -3 -6 13 -13 -9
right_child=1 2 3 -5 5 -7 -8 8 -10 -11 -12 12 -14 -15
leaf_value=0.17545235372226536 0.23012043403811627 -0.12745134107446932 -0.086645337631321678 0.17937059298345395 -0.20329376749871866 -0.25051809351111659 0.20083780497243386 -0.31905205494787142 0.052683611837952685 0.22008027010335018 0.02813990433318422 0.051624990211754297 -0.20782020313903896 -0.1440320579149886
leaf_weight=1.924506932497027 2.0423866510391271 0.81663634628057735 2.0163750201463699 2.4351933449506769 1.4114508479833605 1.5558670982718465 3.6076638996601105 2.0046540349721824 1.4983210153877733 1.1550380662083624 1.0849502980709074 1.4855782650411127 2.7170555517077446 1.6034069396555422
leaf_count=12 23 10 21 16 13 11 31 12 14 16 12 15 27 14
internal_value=0 -0.0125412 -0.0551318 0.0588765 0.0565193 0.0102316 0.0766942 -0.100122 -0.137454 0.0761382 -0.102711 -0.173928 -0.11611 -0.241274
internal_weight=0 25.4346 15.7323 4.45157 9.70232 7.65993 6.10407 11.2807 9.30902 1.97167 2.4964 7.81069 4.20263 3.60806
internal_count=247 235 145 37 90 67 56 108 82 26 25 68 42 26
shrinkage=0.2


Tree=13
num_leaves=15
num_cat=0
split_feature=11 11 9 13 6 10 24 23 25 13 10 10 17 13
split_gain=1.16172 1.72089 1.60537 2.07821 1.53294 1.32311 1.35573 1.76805 1.10466 1.00321 1.24921 0.754847 0.723118 0.551346
threshold=-37.761588559397183 72.339734106391504 -0.37870213703654931 0.17434018492949296 0.38022659638034895 -0.038339106715235584 1.0000000180025095e-35 1.0000000180025095e-35 1.0000000180025095e-35 0.26085910682274188 0.36019375806410214 -0.14304880310106402 0.55628198744400981 -0.20798641669535137
decision_type=2 2 2 2 2 2 2 2 2 2 2 2 2 2
left_child=4 2 3 -2 5 11 -7 -8 -5 10 13 -1 -3 -4
right_child=1 12 9 8 -6 6 7 -9 -10 -11 -12 -13 -14 -15
leaf_value=0.021539359379952744 0.17394836571715191 -0.0029367441381109084 -0.045732551192816794 0.065478169584009621 0.22914144410517526 -0.16852535609326533 -0.11664934600238859 0.22690566461660994 -0.17352593911802014 0.029557960673639951 0.025649838142688425 0.23862206882659873 0.21871091153613134 -0.21435514441351447
leaf_weight=1.2543620578944685 2.2670757826417711 1.0170114189386361 0.93034396879375059 1.304354228079319 1.7147327773272989 2.0272500962018984 1.2085723206400871 1.188350573182106 1.9007312171161175 1.6422118321061132 1.3881517015397546 1.3097130097448824 1.3982217237353323 4.6639642678201172
leaf_count=11 24 7 15 11 18 18 10 11 16 12 11 13 22 48
internal_value=0 -0.0306074 -0.0573328 0.0273995 0.0596901 0.0181112 -0.0481398 0.053679 -0.0762599 -0.111094 -0.144174 0.132424 0.125379 -0.186313
internal_weight=0 16.5121 14.0968 5.47216 8.70298 6.98825 4.42417 2.39692 3.20509 8.62467 6.98246 2.56408 2.41523 5.59431
internal_count=247 166 137 51 81 63 39 21 27 86 74 24 29 63
shrinkage=0.2


Tree=14
num_leaves=15
num_cat=0
split_feature=1 1 12 4 9 8 16 9 6 13 9 15 10 18
split_gain=1.12325 1.4942 1.38573 1.24621 0.980408 0.917552 0.866348 0.832878 2.08409 1.12298 1.49281 1.25937 0.805643 0.575726
threshold=-0.0022782299115831333 0.00054570259660137476 3.1015722431499171 -0.28877975872744904 0.99888520216508725 0.47034198514680287 3.366080951484681 0.9909353064095201 0.10997416222936383 0.17434018492949296 0.87298681256315291 14.858750000000002 -0.20121275699300248 0.034251687644079688
decision_type=2 2 2 2 2 2 2 2 2 2 2 2 2 2
left_child=3 6 7 -1 13 -5 -2 9 -9 12 11 -11 -3 -4
right_child=1 2 4 5 -6 -7 -8 8 -10 10 -12 -13 -14 -15
leaf_value=0.15555110636528605 0.18289207935366347 -0.0016054209665945535 -0.21163674762070045 -0.20827544114250657 0.06101217232559894 -0.024822354131002963 -0.014139170839253807 0.11567681776673773 -0.23118751235795487 -0.18202973571914371 0.24122854756783157 0.078480633021772439 0.22995700269058156 -0.017027173147160631
leaf_weight=0.75468301400542248 3.1030694618821171 0.83901008963584933 2.3074528537690635 2.3380685113370445 1.0748393088579176 2.0438379310071468 1.2531400546431539 1.3808728307485583 1.3906773664057253 1.6523008681833751 0.80832412838935841 1.3477050587534902 2.1184491422027332 0.82563237287104119
leaf_count=6 33 9 26 22 14 20 12 10 13 19 9 16 29 9
internal_value=0 0.0241423 -0.00820625 -0.0818254 -0.103809 -0.122708 0.126213 0.0339743 -0.0583689 0.071802 -2.17648e-06 -0.0649996 0.164264 -0.160353
internal_weight=0 18.1015 13.7453 5.13659 4.20792 4.38191 4.35621 9.53734 2.77155 6.76579 3.80833 3.00001 2.95746 3.13309
internal_count=247 199 154 48 49 42 45 105 23 82 44 35 38 35
shrinkage=0.2


Tree=15
num_leaves=15
num_cat=0
split_feature=17 8 12 11 8 4 11 12 5 17 11 7 12 6
split_gain=0.926983 1.41828 1.50875 2.30478 1.44756 1.0075 1.22243 1.07099 1.21491 0.623029 0.618186 1.47245 0.503838 0.445874
threshold=0.56560676514236385 0.51055025265353227 4.3856369531330035 -1.4110301013483089 0.15899598837453924 0.1023632763427129 6.0947765947615791 -1.8117539794327673 0.69029739188652528 0.47304307711137406 -8.69434405864199 0.51985004020243597 2.1849762228335066 0.36952953003613992
decision_type=2 2 2 2 2 2 2 2 2 2 2 2 2 2
left_child=5 2 3 4 -2 6 13 8 -7 -8 11 -9 -12 -1
right_child=1 -3 -4 -5 -6 7 9 10 -10 -11 12 -13 -14 -15
leaf_value=0.044109423811963561 -0.045213495465179533 0.21326054490721549 -0.18082536459403115 -0.17578492776046512 0.22977610120505176 -0.081310140687155183 -0.1806845738462918 -0.18428052252760574 0.19015622638562302 0.019354819987106656 -0.061340802317240831 0.16132275926884637 -0.23525390639532648 0.19542202779755047
leaf_weight=1.6023682318627863 1.1176132708787916 1.764548337087035 1.306681267917156 1.2167119346559041 2.4317964091897011 1.6978545151650908 1.1214899569749834 1.2098470553755762 1.0782073661684988 1.400514770299196 0.94352810457348679 0.83236677944660176 2.2680015787482262 1.5159155949950216
leaf_count=13 7 37 17 14 31 19 12 12 10 16 10 9 25 15
internal_value=0 0.055425 0.00956342 0.0617605 0.143189 -0.030851 0.0339333 -0.0763567 0.0241259 -0.0695991 -0.129451 -0.0434193 -0.184159 0.117668
internal_weight=0 7.83735 6.0728 4.76612 3.54941 13.6701 5.64029 8.02981 2.77606 2.522 5.25374 2.04221 3.21153 3.11828
internal_count=247 106 69 52 38 141 56 85 29 28 56 21 35 28
shrinkage=0.2


Tree=16
num_leaves=15
num_cat=0
split_feature=11 11 8 17 17 11 2 4 13 16 11 2 4 2
split_gain=0.835275 1.37244 1.17691 1.45057 1.25635 1.26087 1.0464 1.10698 1.06878 0.75607 0.91761 0.701805 0.694982 0.452124
threshold=-78.41718042521056 -112.62280803466965 0.29466400996219161 0.54317869879226788 0.67722444013792515 -16.993406578454469 0.93622531700013722 0.3071649545967638 0.17434018492949296 -0.90270518330599236 43.391361491028171 0.037330231809417976 -0.48085059416503739 0.43557275398917922
decision_type=2 2 2 2 2 2 2 2 2 2 2 2 2 2
left_child=1 -1 13 6 12 -6 9 8 -8 -4 11 -11 -5 -2
right_child=2 -3 3 4 5 -7 7 -9 -10 10 -12 -13 -14 -15
leaf_value=-0.10196869274419913 -0.043103285176095213 0.19017716374359245 -0.22519740084824147 -0.044983436271210542 0.11044102412959761 -0.23090740105151997 0.24140884159267154 -0.11586616132850686 -0.025413994613865301 -0.11838773704806232 -0.2258261105273725 0.087278192372977292 0.18436064715323891 -0.22524586329386223
leaf_weight=0.93851131945848498 0.92063216120004954 2.0442195273935821 1.4759311694651867 0.63116636127233539 0.87820898741483688 0.85353213362395741 1.2675856798887259 1.2680432870984075 1.1410114243626592 1.126630384474989 0.94437588751316059 1.615058936178684 3.2496986910700789 1.3364750668406484
leaf_count=9 6 24 21 10 12 10 13 14 11 10 12 18 60 17
internal_value=0 0.098254 -0.0166423 0.00433547 0.0838519 -0.0578011 -0.0461581 0.0353816 0.115008 -0.104235 -0.0558006 0.00276479 0.147061 -0.150953
internal_weight=0 2.98273 16.7084 14.4512 5.61261 1.73174 8.83864 3.67664 2.4086 5.162 3.68607 2.74169 3.88087 2.25711
internal_count=247 33 214 191 92 22 99 38 24 61 40 28 70 23
shrinkage=0.2


Tree=17
num_leaves=15
num_cat=0
split_feature=11 11 8 17 8 3 11 5 12 12 13 18 24 10
split_gain=0.622332 1.15399 0.784366 1.03201 0.938596 1.65285 0.838608 1.07507 1.38506 0.942665 1.68716 0.797998 0.793414 0.330154
threshold=-81.693291093807872 -112.62280803466965 0.29466400996219161 0.54317869879226788 0.51055025265353227 0.45121594811982485 24.652008464021517 0.6657389714977946 2.8083201115997394 2.1849762228335066 0.039602750341811079 0.006506352008840339 1.0000000180025095e-35 -0.10578283616960461
decision_type=2 2 2 2 2 2 2 2 2 2 2 2 2 2
left_child=1 -1 12 6 5 -5 7 8 11 10 -8 -4 -2 -7
right_child=2 -3 3 4 -6 13 9 -9 -10 -11 -12 -13 -14 -15
leaf_value=-0.082370222612684826 -0.22665643926267856 0.19948302232276821 -0.23231890809222067 0.17750000605399124 0.21095060927274628 -0.17610251311876637 0.18516165717532918 0.19454015470739844 0.17844851224611455 -0.22236384175584956 -0.22036368471994147 -0.01747372767733343 0.011011759106850691 -0.015959973136348251
leaf_weight=0.93048181757330928 1.2829373087733977 1.5472793057560945 1.1566652264446009 1.5375920962542289 1.4551570285111664 1.036398231983185 0.85573574900627158 1.032556779682636 0.9166177101433276 1.678897690027952 0.788508590310812 1.7196423336863516 0.99961502104997624 1.0234724339097736
leaf_count=9 15 21 13 28 39 13 10 12 9 26 11 19 10 12
internal_value=0 0.0936377 -0.0143177 0.00440001 0.0754147 0.0205911 -0.0396332 0.0136109 -0.0356439 -0.116948 -0.00931079 -0.103871 -0.122573 -0.0965337
internal_weight=0 2.47776 15.4838 13.2012 5.05262 3.59746 8.14862 4.82548 3.79293 3.32314 1.64424 2.87631 2.28255 2.05987
internal_count=247 30 217 192 92 53 100 53 41 47 21 32 25 25
shrinkage=0.2


Tree=18
num_leaves=15
num_cat=0
split_feature=18 8 11 16 12 13 11 10 11 13 1 12 0 24
split_gain=0.590588 1.40808 1.00766 0.942728 0.840771 0.969661 1.45654 1.10697 0.698339 0.623718 0.60423 0.485453 0.309548 0.264712
threshold=-0.0088500651857981432 0.29466400996219161 -55.807369829884202 1.4305126226403793 2.1849762228335066 0.12843052620890413 8.6813087769166071 -0.3894310099421866 73.768295917937124 0.039602750341811079 0.0044593647852870242 -2.9295349700401903 -0.44018359619171504 1.0000000180025095e-35
decision_type=2 2 2 2 2 2 2 2 2 2 2 2 2 2
left_child=2 -2 11 12 5 7 10 -3 9 -6 13 -1 -4 -7
right_child=1 4 3 -5 8 6 -8 -9 -10 -11 -12 -13 -14 -15
leaf_value=0.027049699434692171 -0.19693032502102098 -0.17003720935094979 -0.21142955685879605 0.10709616829563379 -0.19411314287929399 0.19481542575087307 -0.22251333156611774 0.20938157483702577 0.11282666910094422 -0.0079981788060699294 -0.083670754469448272 0.22988499827533915 -0.031736757443451585 0.047030147080702411
leaf_weight=0.7083730194717649 1.6264208517968644 0.36417875811457667 0.80435460433363914 1.2699933964759109 1.6777101121842868 0.9792913235723979 0.98422525450587262 1.9790683602914194 0.66437477245926846 1.262070048600435 0.8138968814164399 1.4142957795411346 0.73283387534320643 0.96013833209872246
leaf_count=12 19 6 13 17 32 10 14 41 12 14 11 18 15 13
internal_value=0 -0.0247363 0.0582119 -0.0204157 0.00418069 0.0495478 -0.0136897 0.150414 -0.0723611 -0.114213 0.0609579 0.162195 -0.125763 0.121653
internal_weight=0 11.3114 4.92985 2.80718 9.68495 6.0808 3.73755 2.34325 3.60415 2.93978 2.75333 2.12267 1.53719 1.93943
internal_count=247 172 75 45 153 95 48 47 58 46 34 30 28 23
shrinkage=0.2


Tree=19
num_leaves=15
num_cat=0
split_feature=11 11 16 16 15 8 4 15 15 19 13 11 16 4
split_gain=0.546671 1.2331 0.533468 0.663629 0.59345 0.58829 0.573782 0.45199 0.870356 1.02761 1.14293 0.874563 0.327862 0.321423
threshold=-117.25544906213209 -81.693291093807872 1.1637031402723674 4.1461721198074146 17.430000000000003 0.29466400996219161 0.3071649545967638 15.837500000000002 14.858750000000002 0.016859640625263465 0.19851442884512752 34.94685509838245 -1.9780769784452714 0.35555998089637569
decision_type=2 2 2 2 2 2 2 2 2 2 2 2 2 2
left_child=-1 -2 4 5 7 -4 -5 8 9 13 11 -11 -9 -3
right_child=1 2 3 6 -6 -7 -8 12 -10 10 -12 -13 -14 -15
leaf_value=-0.18280850855110317 0.18132468227931461 -0.25392741035675703 -0.094901331642512021 0.092171446782018329 0.1537393625224982 0.14099294391744141 -0.1431656053424511 -0.033490991464746253 0.11543590824196093 0.23034013047680243 -0.22283811555852717 -0.061384862776481246 -0.19462014080221937 -0.072262538500274698
leaf_weight=0.62400753051042634 1.4786455146968354 1.1082780789583906 0.51195145398378317 0.66244135983288277 0.56924733985215414 2.430558493360877 1.1067805029451845 0.8016514424234632 1.301078053191304 0.92333731055259727 0.5932960808277129 0.74089751951396465 1.3656276958063243 0.60075441002845753
leaf_count=6 24 15 7 11 16 41 16 14 25 15 8 15 25 9
internal_value=0 0.00845857 -0.0116429 0.0417494 -0.0430727 0.099951 -0.0550495 -0.0581415 -0.026511 -0.0730712 0.0155005 0.100468 -0.13502 -0.190069
internal_weight=0 14.1945 12.7159 4.71173 8.00417 2.94251 1.76922 7.43492 5.26764 3.96656 2.25753 1.66423 2.16728 1.70903
internal_count=247 241 217 75 142 48 27 126 87 62 38 30 39 24
shrinkage=0.2


Tree=20
num_leaves=15
num_cat=0
split_feature=1 1 4 12 17 12 9 9 5 1 17 7 11 3
split_gain=0.430672 0.783149 0.704664 0.677189 0.74177 0.750692 0.555745 0.691963 0.538495 0.416189 0.381936 0.31277 0.308706 0.290443
threshold=-0.0022782299115831333 0.00054570259660137476 0.1023632763427129 -1.4391198921611918 0.52814044656558379 -2.9902308341229196 0.99795760057335314 0.99903571736502317 0.22007944683753558 0.0055758421987024938 0.52366065765547332 0.5520832896283856 -10.600698983549334 0.46054191886875456
decision_type=2 2 2 2 2 2 2 2 2 2 2 2 2 2
left_child=2 10 13 4 5 -3 8 -8 -5 12 -2 -4 -10 -1
right_child=1 3 11 6 -6 -7 7 -9 9 -11 -12 -13 -14 -15
leaf_value=0.15863997610183853 0.047051481958163478 -0.16770828689259762 -0.22394918825573162 -0.20790961675124109 0.17660031811216156 0.099858226950068518 0.22224726410601875 -0.062171618854976442 0.015315245686288026 0.071062884568923179 0.20231017516295738 -0.057056750981535932 -0.1711588911571762 -0.035365740895164276
leaf_weight=0.54710799455642811 1.4414426703006022 0.78085267916321754 0.9609701996669171 1.200196919962764 1.310107047203928 0.90617307089269006 0.55993003770709016 0.87974459119141102 0.55170896556228233 0.82642093114554871 1.1311149168759582 0.84338010847568512 0.99656526278704594 0.7082469817250967
leaf_count=7 21 14 13 19 36 13 6 19 11 14 24 15 22 13
internal_value=0 0.0193097 -0.0658833 -0.0115181 0.0636938 -0.023987 -0.0564711 0.0484469 -0.0987236 -0.0435397 0.115316 -0.145941 -0.104711 0.0491857
internal_weight=0 10.5843 3.05971 8.0117 2.99713 1.68703 5.01457 1.43967 3.57489 2.3747 2.57256 1.80435 1.54827 1.25535
internal_count=247 199 48 154 63 27 91 25 66 47 45 28 33 20
shrinkage=0.2


Tree=21
num_leaves=15
num_cat=0
split_feature=6 8 20 11 9 8 10 9 17 13 6 17 11 11
split_gain=0.447556 0.553603 0.547867 0.438714 1.07731 0.777469 0.932487 0.882393 1.14896 0.593983 0.573128 0.379297 0.33232 0.105566
threshold=0.0067032847377834362 0.29466400996219161 0.0069268317147808791 -10.600698983549334 -0.98870985981219683 0.48302297766077823 0.18821282827240413 -0.93639516181549809 0.5530778809519149 0.039602750341811079 0.19609551820926799 0.52366065765547332 35.862224912047871 79.478553467739104
decision_type=2 2 2 2 2 2 2 2 2 2 2 2 2 2
left_child=-1 2 -2 4 11 6 -5 -7 12 -6 -11 -3 -9 -10
right_child=1 3 -4 5 9 7 -8 8 13 10 -12 -13 -14 -15
leaf_value=0.1461445955814856 0.018233693664671254 -0.21674628005712882 -0.21435045965312197 -0.21869809216223457 -0.069122774263767381 0.21140582007114858 0.034275263855137628 -0.0043821226361739031 0.063690682152525269 0.020153688585241431 0.20578733490409593 0.030846831767339336 -0.20370685291193449 0.2111908200764816
leaf_weight=0.78714463301003057 0.69875839725136646 0.66374388895928838 0.96399923879653215 1.4293719194829466 0.64377187239006017 0.8361052628606539 0.9841429516673087 0.51226077228784805 0.30317971576005209 1.0069090127944949 1.9607482124119995 0.39464600384235382 0.9645714033395052 0.53939633723348379
leaf_count=13 7 12 21 25 16 19 13 9 10 14 38 12 21 17
internal_value=0 -0.00957126 -0.116609 0.00781137 0.0530214 -0.0300988 -0.115545 0.0352552 -0.028244 0.105025 0.142803 -0.124425 -0.134568 0.158117
internal_weight=0 11.9016 1.66276 10.2388 4.66982 5.56903 2.41351 3.15551 2.31941 3.61143 2.96766 1.05839 1.47683 0.842576
internal_count=247 234 28 206 92 114 38 76 57 68 52 24 30 27
shrinkage=0.2


Tree=22
num_leaves=15
num_cat=0
split_feature=18 8 11 20 7 8 7 16 9 11 18 11 0 13
split_gain=0.393733 0.712714 0.530371 0.47635 0.511616 0.782925 0.44872 0.386684 0.383282 0.376956 0.287591 0.261521 0.242122 0.21635
threshold=-0.0088500651857981432 0.29466400996219161 -55.807369829884202 0.10435091261162123 0.36341939764709658 0.46386344386748773 0.61967585920565804 1.4305126226403793 0.87298681256315291 73.768295917937124 0.039381184104891852 -100.30772982563235 -0.44018359619171504 -0.20798641669535137
decision_type=2 2 2 2 2 2 2 2 2 2 2 2 2 2
left_child=2 -2 11 4 8 -6 -7 12 -3 13 -5 -1 -4 -8
right_child=1 3 7 10 5 6 9 -9 -10 -11 -12 -13 -14 -15
leaf_value=0.035300330328220879 -0.17344043677394641 -0.0075834913830557342 -0.19340607239417382 0.21544067938095793 -0.15406072241001878 0.16999731712588248 -0.18560317121589609 0.081939046215806624 0.21690546268937028 0.11464721513411878 0.016617268640880214 0.21684814808142103 -0.001797951277611018 -0.025518186698826578
leaf_weight=0.49309077672660351 1.106927553191779 0.70342329330742337 0.49902189895510707 0.58235738612711407 1.8798269387334583 0.58213342726230655 0.51608450803905592 0.98611021414399136 0.53605826012790203 0.53617533575743426 0.58166247233748436 0.89067897759377979 0.55962742399424392 0.97690081689506925
leaf_count=12 19 10 13 15 36 18 13 17 10 21 9 18 15 21
internal_value=0 -0.0244713 0.0565342 -0.000554396 -0.0242473 -0.0556411 0.0152095 -0.00817657 0.0895048 -0.0291966 0.116088 0.152156 -0.0921174 -0.0808552
internal_weight=0 8.00155 3.42853 6.89462 5.7306 4.49112 2.61129 2.04476 1.23948 2.02916 1.16402 1.38377 1.05865 1.49299
internal_count=247 172 75 153 129 109 73 45 20 55 24 30 28 34
shrinkage=0.2


Tree=23
num_leaves=15
num_cat=0
split_feature=5 12 7 8 12 12 13 10 9 3 20 13 5 18
split_gain=0.453547 0.443953 0.362212 0.443651 0.296003 0.675885 0.441496 0.731736 0.568846 1.1381 0.836258 0.440564 0.157299 0.123508
threshold=0.0021003358476086548 10.179902530225114 0.086488401772562118 0.29466400996219161 4.7852563222599667 2.1849762228335066 0.12843052620890413 -0.43620324589787113 -0.98870985981219683 0.42207161681538907 -0.077114371523253095 0.048828459994326522 0.53677898167539573 -0.004150293660511061
decision_type=2 2 2 2 2 2 2 2 2 2 2 2 2 2
left_child=-1 2 -2 -4 5 6 7 -5 13 -10 -11 -7 -6 -8
right_child=1 -3 3 4 12 11 8 -9 9 10 -12 -13 -14 -15
leaf_value=0.22336113722090475 0.21132806321362196 -0.19981182521013774 -0.14269055479580739 -0.098304454004450037 0.03205224853481952 -0.17283571581933418 -0.075086768750372235 0.1846341725900203 0.19222720259446088 0.084589335344315952 -0.22110782307699917 0.0042525444715107623 0.20914131402252178 -0.21579904181640486
leaf_weight=0.35186744481325227 0.31821079179644307 0.45898577477783042 0.85870117880403896 0.49251780472695816 0.38787669502198685 1.2843038523569705 0.61092962790280581 1.4190501808188836 1.1408869018778252 0.68391186837106943 0.75100888218730666 0.9990794714540242 0.41561561916023493 0.42176610510795887
leaf_count=4 7 13 18 10 11 32 18 48 27 8 13 14 15 9
internal_value=0 -0.00757177 0.0014467 -0.00560897 0.00806744 -0.00383404 0.0340224 0.111735 -0.00714486 0.0431349 -0.0754065 -0.0953519 0.123654 -0.132555
internal_weight=0 10.2428 9.78386 9.46565 8.60695 7.80345 5.52007 1.91157 3.6085 2.57581 1.43492 2.28338 0.803492 1.0327
internal_count=247 243 230 223 205 179 133 58 75 48 21 46 26 27
shrinkage=0.2


Tree=24
num_leaves=15
num_cat=0
split_feature=20 18 11 12 11 17 0 2 18 15 9 11 18 4
split_gain=0.31043 0.43203 0.396415 0.404824 0.66589 0.692145 0.82773 0.330647 0.418772 0.302403 0.293032 0.337153 0.254953 0.248342
threshold=-0.15769664954683069 -0.0088500651857981432 72.339734106391504 4.3856369531330035 -8.69434405864199 0.61169777278011039 0.99782926007710038 0.95926331096013884 0.028218862512392587 12.488750000000001 -0.99603497183345013 41.351733931666082 0.019753542395588856 0.60260372527421524
decision_type=2 2 2 2 2 2 2 2 2 2 2 2 2 2
left_child=-1 10 3 4 5 6 12 9 -9 -6 -2 -12 -3 -4
right_child=1 2 13 -5 7 -7 -8 8 -10 -11 11 -13 -14 -15
leaf_value=-0.1668493069442461 -0.083787296699348437 0.20043471374992758 0.21122295005041303 -0.16404382987342853 -0.014337502282198497 0.22786861570272554 -0.18239020358830033 0.11573535714742594 -0.13408180174733525 -0.2122028810399661 0.14526824498233387 -0.054576667153651441 0.0082502584591454785 -0.02091667455406826
leaf_weight=0.42493448592722494 0.38044554181396995 0.52238688245415577 0.45217932062223543 0.85235313139855851 0.44983312953263588 0.69564160890877236 0.67270218906924117 0.56186280958354451 0.51390213239938021 0.98660003207623959 1.7432187544181936 0.41880217473953951 0.58566928654909134 0.31120239105075598
leaf_count=9 12 15 17 28 11 14 9 13 12 27 42 13 16 9
internal_value=0 0.00801916 -0.0189499 -0.036664 -0.0148999 0.0586969 -0.00738893 -0.0874479 -0.00360444 -0.150239 0.0780742 0.106557 0.0988545 0.116588
internal_weight=0 9.1468 6.60433 5.84095 4.9886 2.4764 1.78076 2.5122 1.07576 1.43643 2.54247 2.16202 1.10806 0.763382
internal_count=247 238 171 145 117 54 40 63 25 38 67 55 31 26
shrinkage=0.2


Tree=25
num_leaves=15
num_cat=0
split_feature=11 11 8 4 16 7 4 22 19 8 13 17 4 12
split_gain=0.249718 0.525114 0.278265 0.346452 0.339326 0.471343 0.384243 0.501579 0.380177 0.302657 0.352881 0.289568 0.284509 0.221527
threshold=-117.25544906213209 -84.426705887282111 0.67903457501437048 0.67256419385807986 0.36714608960896017 0.6722134582790299 -0.22444830384418241 1.0000000180025095e-35 0.050926793495891111 0.29928869372336958 0.10603555148871842 0.54317869879226788 0.13639355724066773 5.0995528730887969
decision_type=2 2 2 2 2 2 2 2 2 2 2 2 2 2
left_child=-1 -2 3 4 6 8 -3 12 13 -9 -11 -4 -8 -6
right_child=1 2 11 -5 5 -7 7 9 -10 10 -12 -13 -14 -15
leaf_value=-0.15669403219292927 0.18699367968279504 -0.17093900777616977 -0.0044619471125037068 -0.11107733221336323 0.20776255009579137 -0.12139711050835739 0.19054151859679824 -0.25043861935837397 -0.034041998394724819 0.096852434655403011 -0.15926802508440505 0.20541548248305058 -0.036018846581761708 0.030536442348946171
leaf_weight=0.38709579966962415 0.60556535236537357 0.72532744426280116 0.59327095001935937 1.3724114866927264 0.98506221035495423 0.4810818932019173 0.59478740487247805 0.33360854908823967 0.59675768110901106 0.44826898188330233 0.41382354963570833 0.47227996028959751 0.35346924606710672 0.39534234069287777
leaf_count=6 21 18 11 34 25 15 17 5 15 16 13 26 15 10
internal_value=0 0.00761507 -0.00637316 -0.0214714 0.00161174 0.0561436 -0.0451081 -0.00253794 0.0993427 -0.0886855 -0.0260911 0.0885612 0.10609 0.157006
internal_weight=0 8.37106 7.76549 6.69994 5.32753 2.45824 2.86929 2.14396 1.97716 1.1957 0.862093 1.06555 0.948257 1.3804
internal_count=247 241 220 183 149 65 84 66 50 34 29 37 32 35
shrinkage=0.2


Tree=26
num_leaves=15
num_cat=0
split_feature=5 12 9 8 7 17 13 8 7 8 1 17 3 12
split_gain=0.295581 0.332811 0.294667 0.33071 0.305646 0.29399 0.642464 0.453009 0.697509 0.529268 0.667594 0.359157 0.290711 0.243541
threshold=0.0021003358476086548 2.616566268803282 0.99919332915711789 0.35126321800868604 0.42456736035615933 0.49689299053897867 0.31584055132150762 0.48302297766077823 0.61967585920565804 0.30826885825011141 0.003730017198377792 0.45734247825027768 0.53382118525261879 4.0477087031952816
decision_type=2 2 2 2 2 2 2 2 2 2 2 2 2 2
left_child=-1 5 3 -3 -5 6 11 8 9 10 -7 -2 -13 -6
right_child=1 2 -4 4 13 7 -8 -9 -10 -11 -12 12 -14 -15
leaf_value=0.21572281046656908 0.15438898412397994 -0.21039749774310812 0.085077644895071247 0.1536946616966175 -0.17914984825926847 0.14092447210266495 -0.21038872658477073 0.20642990130425135 -0.21081650245326058 0.18504282245481843 -0.17729777397495786 0.055063532340277103 -0.18959252142354949 -0.0088786855577819498
leaf_weight=0.24793393537402142 0.6054473780095575 0.66154631320387203 0.4552771970629691 0.26520684082061041 0.58157266955822684 0.50976156163960762 0.59054630808532227 0.68616202613338817 0.42326176352798928 0.89997282158583392 0.54630604479461908 0.45153906755149364 0.34097288083285093 0.79577297158539295
leaf_count=4 13 23 20 7 15 10 16 39 12 31 11 12 11 23
internal_value=0 -0.0060887 -0.0619513 -0.0910034 -0.0429169 0.0244113 -0.0354801 0.0632617 0.0219737 0.0723464 -0.0236926 0.0384073 -0.0501981 -0.0807743
internal_weight=0 7.81335 2.75938 2.3041 1.64255 5.05397 1.98851 3.06546 2.3793 1.95604 1.05607 1.39796 0.792512 1.37735
internal_count=247 243 88 68 45 155 52 103 64 52 21 36 23 38
shrinkage=0.2


Tree=27
num_leaves=15
num_cat=0
split_feature=1 1 8 11 0 9 8 13 15 9 4 9 15 16
split_gain=0.238602 0.29239 0.272696 0.252054 0.391251 0.333697 0.611191 0.279749 0.276109 0.239146 0.230786 0.188072 0.184379 0.169883
threshold=-0.0022782299115831333 0.00054570259660137476 0.51055025265353227 8.6813087769166071 2.0353941806281921 0.99795760057335314 0.3209676058876702 -0.20798641669535137 14.442500000000001 0.69433589033783616 0.1023632763427129 0.95142841413256007 14.858750000000002 4.3173535940023795
decision_type=2 2 2 2 2 2 2 2 2 2 2 2 2 2
left_child=2 13 10 4 5 6 -3 8 -5 12 -1 -9 -8 -2
right_child=1 3 -4 7 -6 -7 9 11 -10 -11 -12 -13 -14 -15
leaf_value=0.0038158048483849013 0.13920652344316392 -0.14594539449585264 0.042231379007393349 -0.14610320675576902 -0.16606487769619926 0.19766341781231289 -0.074727468703492436 -0.031387363862594671 0.20397570686971098 0.20085231096351341 -0.19614712537677698 -0.2102401971255656 0.10878290940613117 -0.035151028795996124
leaf_weight=0.34785993769764878 1.0442850331310181 0.62561803031712893 0.58207190129905928 0.14723784802481532 0.36558361910283554 0.52267197053879488 0.38649846077896632 0.40767662879079558 0.23229405889287591 0.51100705284625292 0.68648957274854183 0.55579716525971889 0.50535022048279643 0.28440106753259886
leaf_count=9 36 19 20 8 11 14 18 19 18 14 19 16 17 9
internal_value=0 0.0199739 -0.0672745 -0.00557583 0.0274365 0.0551656 0.0184485 -0.0772717 0.068164 0.0917617 -0.128898 -0.134562 0.0292554 0.101886
internal_weight=0 5.58842 1.61642 4.25974 2.91673 2.55115 2.02847 1.34301 0.379532 1.40286 1.03435 0.963474 0.891849 1.32869
internal_count=247 199 48 154 93 82 68 61 26 49 28 35 35 45
shrinkage=0.2


Tree=28
num_leaves=15
num_cat=0
split_feature=20 19 10 10 20 18 12 22 9 9 10 13 13 9
split_gain=0.19889 0.350062 0.313227 0.282796 0.223742 0.311085 0.235794 0.422219 0.400535 0.310307 0.32518 0.276724 0.171235 0.170446
threshold=0.10435091261162123 0.054019164723588288 0.42092695231034694 0.13123953850474804 -0.15769664954683069 -0.0088500651857981432 3.8524326103252169 1.0000000180025095e-35 0.9874199777083158 0.80738996793814832 -0.13845741495131383 -0.010854470282949766 -0.39023845058693413 -0.99603497183345013
decision_type=2 2 2 2 2 2 2 2 2 2 2 2 2 2
left_child=1 2 4 -2 -1 13 7 11 9 10 -9 -7 -8 -6
right_child=3 -3 -4 -5 5 6 12 8 -10 -11 -12 -13 -14 -15
leaf_value=-0.15049443989732669 -0.066277675573083755 -0.14829966149269835 -0.15981658947069172 0.18114352365952438 -0.044038707968344692 -0.022871252333655237 0.042329952195868582 -0.200215567812841 -0.21609749693161839 0.18261285957383744 0.10147791382580591 0.21612136824583869 -0.17021548027296809 0.1331998706705195
leaf_weight=0.28920591343194146 0.28645105659961689 0.67264539515599597 0.42254319926723827 0.52062135189771652 0.2610240327194332 0.29524360434152186 0.21631224406883121 0.3115117037668822 0.39052148116752505 0.32511716242879629 0.26403096155263506 0.56398229580372761 0.50694741355255235 1.287855859845876
leaf_count=9 9 28 17 20 11 18 14 11 8 13 10 13 20 46
internal_value=0 -0.012632 0.00514183 0.0933273 0.0199351 0.0310801 -0.00786246 0.0253625 -0.0469309 0.0264188 -0.0618133 0.134 -0.106647 0.103331
internal_weight=0 5.80694 5.1343 0.807072 4.71175 4.42255 2.87367 2.15041 1.29118 0.90066 0.575543 0.859226 0.72326 1.54888
internal_count=247 218 190 29 173 164 107 73 42 34 21 31 34 57
shrinkage=0.2


Tree=29
num_leaves=15
num_cat=0
split_feature=11 11 8 20 17 8 17 16 18 15 16 19 17 11
split_gain=0.172594 0.282459 0.327775 0.271815 0.268157 0.330817 0.236874 0.230068 0.223588 0.247016 0.258786 0.256001 0.202436 0.162856
threshold=72.339734106391504 26.718206066542887 0.4315599215753711 -0.15769664954683069 0.48318188800736711 0.53839003245542882 0.54317869879226788 -1.1759281716960148 0.014484475200938542 15.837500000000002 0.36714608960896017 0.010237680366913466 0.46080574641711652 -23.812896752020794
decision_type=2 2 2 2 2 2 2 2 2 2 2 2 2 2
left_child=1 2 8 -4 -3 -6 -2 13 9 10 11 -1 -10 -5
right_child=6 4 3 7 5 -7 -8 -9 12 -11 -12 -13 -14 -15
leaf_value=-0.083202994517361142 -0.082264834378608612 -0.20537307445596376 -0.15365130984834069 0.13204341043562803 -0.1330251049732441 0.14915038329098271 0.20566251133579369 0.17831797551573458 0.018392014941120954 -0.10729278185767555 0.20852890687675499 0.13083579279892293 -0.17052221332381207 -0.094323533203297727
leaf_weight=0.53685867972672008 0.17050201445817936 0.51296623237431027 0.16740666236728419 0.23499472066760063 0.39373301761224866 0.28757526725530624 0.34667126857675612 0.87685721786692727 0.35118773486465205 0.47783610131591547 0.3473622165620327 0.38296798383817077 0.64106212370097637 0.27695027645677317
leaf_count=15 4 26 5 12 18 13 25 38 9 24 12 11 25 10
internal_value=0 -0.0101211 0.0138097 0.0870987 -0.0961537 -0.0139209 0.110738 0.116119 -0.0278569 0.0152458 0.0614531 0.00591162 -0.10366 0.00958419
internal_weight=0 5.48776 4.29348 1.55621 1.19427 0.681308 0.517173 1.3888 2.73727 1.74502 1.26719 0.919827 0.99225 0.511945
internal_count=247 218 161 65 57 31 29 60 96 62 38 26 34 22
shrinkage=0.2


Tree=30
num_leaves=15
num_cat=0
split_feature=20 19 10 10 0 9 17 13 13 16 4 3 6 1
split_gain=0.168627 0.232763 0.213751 0.188046 0.14557 0.214288 0.197539 0.180794 0.205468 0.226894 0.15409 0.202377 0.167607 0.142061
threshold=0.10435091261162123 0.054019164723588288 0.42092695231034694 0.13123953850474804 2.9277160616294742 0.99704608019723684 0.46285016487761044 -0.057038069529549665 0.22668192534201825 1.1637031402723674 0.83189494973607159 0.6747158195147972 0.12721003200656669 0.00066048731350549399
decision_type=2 2 2 2 2 2 2 2 2 2 2 2 2 2
left_child=1 2 4 -2 5 7 -7 -1 9 13 11 12 -10 -9
right_child=3 -3 -4 -5 -6 6 -8 8 10 -11 -12 -13 -14 -15
leaf_value=0.12617880578607729 -0.048431596270700289 -0.1365166429446362 -0.14534421557559332 0.17147378011219019 -0.12598824328239433 -0.028713094175446402 0.2086331705642287 -0.045120374775223814 0.0089523210510064552 0.06042333767121108 -0.10452868609146548 -0.086390708000080502 0.18865266901361868 -0.21052489903660493
leaf_weight=0.41919715679250735 0.24076118785887946 0.53953360160812724 0.35593531373888243 0.4394515564199537 0.2666363262105732 0.20718792546540488 0.43424615450203419 0.39042788324877686 0.35019412916153647 0.3414916917681694 0.25101121701300133 0.25827134773135185 0.50991931091994047 0.44379001157358289
leaf_count=30 9 28 17 20 11 9 21 14 14 15 10 7 25 17
internal_value=0 -0.0128081 0.00297715 0.0936383 0.0166103 0.0271552 0.131969 0.00447503 -0.0155705 -0.0768991 0.0370839 0.0688676 0.115488 -0.133113
internal_weight=0 4.76784 4.22831 0.680213 3.87237 3.60574 0.641434 2.9643 2.54511 1.17571 1.3694 1.11838 0.860113 0.834218
internal_count=247 218 190 29 173 162 30 132 102 46 56 46 39 31
shrinkage=0.2


Tree=31
num_leaves=15
num_cat=0
split_feature=1 17 0 10 1 0 5 8 17 23 20 3 4 8
split_gain=0.182629 0.176664 0.19151 0.206011 0.179818 0.163772 0.148519 0.147871 0.143101 0.132803 0.197103 0.127068 0.203463 0.191189
threshold=-0.0022782299115831333 0.60669019909389743 0.44077969491008495 -0.028270626637962169 0.0038989792938401175 0.44077969491008495 0.083276691028067965 0.3916545041245556 0.52814044656558379 1.0000000180025095e-35 -0.06560342558297115 0.31036987800237831 0.39415533611046627 0.5595352047518215
decision_type=2 2 2 2 2 2 2 2 2 2 2 2 2 2
left_child=6 2 8 -4 -5 7 -1 -3 11 -8 -11 -2 13 -13
right_child=1 5 3 4 -6 -7 9 -9 -10 10 -12 12 -14 -15
leaf_value=0.086402354418572122 -0.092835209833855334 -0.15946702552074693 -0.17198850745627126 -0.088189001208357973 0.10230274288206652 0.16642249106415696 -0.16946100455805174 0.10706898005406187 0.1456876376572179 -0.1659414151318401 0.11555661566242237 0.042999428453501409 0.16098918511633584 -0.20575660549423383
leaf_weight=0.19948151940479852 0.35786934709176499 0.14877945743501175 0.44084339856635779 0.43657663301564731 0.36305106070358306 0.55310927191749215 0.52964249532669783 0.18905955296941102 0.39904999407008279 0.18769636191427708 0.21173153445124626 0.45725521771237232 0.38173114135861397 0.16936395317316055
leaf_count=7 15 8 15 18 20 31 21 20 28 8 12 23 13 8
internal_value=0 0.0211895 -0.00199545 -0.0622184 -0.00170096 0.0994074 -0.0701764 -0.0103097 0.0403238 -0.103796 -0.016723 0.00954874 0.0458854 -0.0242349
internal_weight=0 3.89669 3.00574 1.24047 0.799628 0.890948 1.12855 0.337839 1.76527 0.92907 0.399428 1.36622 1.00835 0.626619
internal_count=247 199 140 53 38 59 48 28 87 41 20 59 44 31
shrinkage=0.2


Tree=32
num_leaves=15
num_cat=0
split_feature=20 20 1 13 15 1 3 3 13 13 10 13 15 15
split_gain=0.132852 0.181716 0.202857 0.198803 0.209423 0.176479 0.180691 0.163828 0.139462 0.131655 0.12868 0.122076 0.117915 0.0479345
threshold=0.10435091261162123 0.016485054718486162 0.0063633901120893248 -0.11074751684452901 16.380000000000003 0.0040959163099545011 0.50867305020254538 0.43474953427072843 0.22668192534201825 0.26085910682274188 0.13123953850474804 0.38652633820209548 15.073750000000002 15.410000000000002
decision_type=2 2 2 2 2 2 2 2 2 2 2 2 2 2
left_child=1 3 8 -1 5 6 -5 -6 13 -8 -2 -10 -7 -3
right_child=10 2 -4 4 7 12 9 -9 11 -11 -12 -13 -14 -15
leaf_value=0.17912508657319984 -0.031459501003303324 -0.1083236395349627 0.078096723989609651 0.17703907737958288 0.0416066760529685 -0.13422498122366694 -0.097802552455935901 -0.18890878209606729 0.088033733771675227 0.092519535970956662 0.16240010383661152 -0.12120578830726542 0.053423653304104306 -0.20526661531915336
leaf_weight=0.284741727169603 0.21930932905524958 0.50863008899614193 0.32055640406906594 0.47235587239265509 0.19155512819997955 0.31672392226755608 0.2535624485462904 0.3462277608923614 0.2397035239264369 0.34077561274170876 0.36475061113014817 0.20858848141506314 0.23211476625874639 0.34067047969438136
leaf_count=33 9 28 17 19 12 14 11 16 11 11 20 11 12 23
internal_value=0 -0.0124153 -0.0643764 0.0220716 0.00130378 0.0372898 0.0847055 -0.106801 -0.0995729 0.0113224 0.0896075 -0.00932458 -0.0548647 -0.147209
internal_weight=0 4.05621 1.61815 2.43806 2.15332 1.61553 1.06669 0.537783 1.29759 0.594338 0.58406 0.448292 0.548839 0.849301
internal_count=247 218 90 128 95 67 41 28 73 22 29 22 26 51
shrinkage=0.2


Tree=33
num_leaves=15
num_cat=0
split_feature=18 12 4 9 15 18 1 1 10 21 20 8 5 23
split_gain=0.129799 0.160904 0.184955 0.149754 0.128006 0.146936 0.12415 0.136419 0.171121 0.159132 0.123467 0.103321 0.124067 0.0975565
threshold=0.054374502421954581 2.616566268803282 0.1023632763427129 0.99795760057335314 16.955000000000002 0.00701699411236656 -0.0022782299115831333 0.0030219790671926995 -0.028270626637962169 1.0000000180025095e-35 -0.045208502254722387 0.30826885825011141 0.55442322500369434 1.0000000180025095e-35
decision_type=2 2 2 2 2 2 2 2 2 2 2 2 2 2
left_child=1 6 4 -4 5 -3 10 -8 11 -10 -1 -9 -13 -11
right_child=-2 2 3 -5 -6 -7 7 8 9 13 -12 12 -14 -15
leaf_value=-0.2060896451453636 0.16017335057378079 0.098616880322102987 -0.18090457539291149 -0.0044506453169513458 0.16564391604787249 -0.13027377106535876 0.089554501068492096 -0.21685693990969857 0.18481309993588174 -0.17381566661817965 0.016768900004853229 0.076039041614916425 -0.14964178145122162 0.080923727571227844
leaf_weight=0.17419707821682096 0.1939147941302507 0.19371318118646719 0.56182486214675009 0.29257337003946304 0.17834997875615954 0.26655038422904909 1.1388501906767494 0.16871203109622002 0.25646219018381067 0.11582260811701417 0.23170367768034328 0.20811803545802832 0.1832165289670229 0.1250704990234226
leaf_count=7 14 10 29 18 10 17 60 4 19 8 14 11 13 13
internal_value=0 -0.00728522 -0.0596227 -0.120481 0.0217995 -0.0339395 0.0227439 0.0415244 -0.0102054 0.0751715 -0.0788735 -0.0860252 -0.0296211 -0.0415562
internal_weight=0 4.09516 1.49301 0.854398 0.638614 0.460264 2.60215 2.19625 1.0574 0.497355 0.405901 0.560047 0.391335 0.240893
internal_count=247 233 84 47 37 27 149 128 68 40 21 28 24 21
shrinkage=0.2


end of trees

feature_importances:
Column_11=52
Column_17=46
Column_13=43
Column_8=39
Column_12=33
Column_9=30
Column_20=26
Column_10=24
Column_1=21
Column_16=21
Column_4=19
Column_15=17
Column_18=16
Column_3=15
Column_7=15
Column_5=13
Column_6=12
Column_0=10
Column_19=7
Column_2=5
Column_23=4
Column_24=3
Column_21=2
Column_22=2
Column_25=1

parameters:
[boosting: gbdt]
[objective: binary]
[metric: binary_logloss]
[tree_learner: serial]
[device_type: cpu]
[data: ]
[valid: ]
[num_iterations: 10000]
[learning_rate: 0.2]
[num_leaves: 15]
[num_threads: 0]
[force_col_wise: 0]
[force_row_wise: 0]
[histogram_pool_size: -1]
[max_depth: -1]
[min_data_in_leaf: 10]
[min_sum_hessian_in_leaf: 0.001]
[bagging_fraction: 0.8]
[pos_bagging_fraction: 1]
[neg_bagging_fraction: 1]
[bagging_freq: 0]
[bagging_seed: 10961]
[feature_fraction: 0.8]
[feature_fraction_bynode: 1]
[feature_fraction_seed: 53]
[extra_trees: 0]
[extra_seed: 11644]
[early_stopping_round: 50]
[first_metric_only: 0]
[max_delta_step: 0]
[lambda_l1: 0]
[lambda_l2: 0]
[min_gain_to_split: 0]
[drop_rate: 0.1]
[max_drop: 50]
[skip_drop: 0.5]
[xgboost_dart_mode: 0]
[uniform_drop: 0]
[drop_seed: 30626]
[top_rate: 0.2]
[other_rate: 0.1]
[min_data_per_group: 100]
[max_cat_threshold: 32]
[cat_l2: 10]
[cat_smooth: 10]
[max_cat_to_onehot: 4]
[top_k: 20]
[monotone_constraints: ]
[monotone_constraints_method: basic]
[monotone_penalty: 0]
[feature_contri: ]
[forcedsplits_filename: ]
[refit_decay_rate: 0.9]
[cegb_tradeoff: 1]
[cegb_penalty_split: 0]
[cegb_penalty_feature_lazy: ]
[cegb_penalty_feature_coupled: ]
[path_smooth: 0]
[interaction_constraints: ]
[verbosity: -1]
[saved_feature_importance_type: 0]
[max_bin: 255]
[max_bin_by_feature: ]
[min_data_in_bin: 3]
[bin_construct_sample_cnt: 200000]
[data_random_seed: 4071]
[is_enable_sparse: 1]
[enable_bundle: 1]
[use_missing: 1]
[zero_as_missing: 0]
[feature_pre_filter: 1]
[pre_partition: 0]
[two_round: 0]
[header: 0]
[label_column: ]
[weight_column: ]
[group_column: ]
[ignore_column: ]
[categorical_feature: ]
[forcedbins_filename: ]
[objective_seed: 602]
[num_class: 1]
[is_unbalance: 0]
[scale_pos_weight: 1]
[sigmoid: 1]
[boost_from_average: 1]
[reg_sqrt: 0]
[alpha: 0.9]
[fair_c: 1]
[poisson_max_delta_step: 0.7]
[tweedie_variance_power: 1.5]
[lambdarank_truncation_level: 20]
[lambdarank_norm: 1]
[label_gain: ]
[eval_at: ]
[multi_error_top_k: 1]
[auc_mu_weights: ]
[num_machines: 1]
[local_listen_port: 12400]
[time_out: 120]
[machine_list_filename: ]
[machines: ]
[gpu_platform_id: -1]
[gpu_device_id: -1]
[gpu_use_dp: 0]

end of parameters

pandas_categorical:null
