tree
version=v3
num_class=1
num_tree_per_iteration=1
label_index=0
max_feature_idx=9
objective=binary sigmoid:1
feature_names=Column_0 Column_1 Column_2 Column_3 Column_4 Column_5 Column_6 Column_7 Column_8 Column_9
feature_infos=[-20.81243731193581:9.9823147966201748] [-0.0013062366946508558:0.98863070968412281] [0.034183147716191312:0.94357116730990453] [-1:1] [-139.70966366406122:141.90379553072478] [-18.572536760995316:24.727040250332422] [-0.8937782785959909:0.65667388740767862] [-15.020176356299503:18.057503506311367] [0.29418309000114917:0.76334962003367635] [0:1]
tree_sizes=751 638 746 747 642 743 744 748 744 745 742 745 743 747

Tree=0
num_leaves=6
num_cat=0
split_feature=6 7 1 0 5
split_gain=10.9302 8.07065 11.0924 10.2977 3.53485
threshold=-0.18530441156506616 3.2394589183729088 0.46693525538875741 0.38834996648544229 -0.43461505839631082
decision_type=2 2 2 2 2
left_child=-1 2 3 -2 -4
right_child=1 -3 4 -5 -6
leaf_value=-0.098531087520928068 -0.11096457805453312 0.0030498453673135847 0.0015433484812591228 -0.035688645988371792 -0.044131650514610911
leaf_weight=11.241632178425787 10.991818130016329 7.7442355006933203 7.4944214522838619 7.7442355006933203 9.7427478879690153
leaf_count=45 44 31 30 31 39
internal_value=-0.054559 -0.0432519 -0.0532196 -0.0798505 -0.024273
internal_weight=0 43.7175 35.9732 18.7361 17.2372
internal_count=220 175 144 75 69
shrinkage=1


Tree=1
num_leaves=5
num_cat=0
split_feature=6 8 0 1
split_gain=9.87826 7.29048 8.62917 10.0158
threshold=-0.18530441156506616 0.46538548509057992 0.26706979879602705 0.50380197723758535
decision_type=2 2 2 2
left_child=-1 -2 3 -3
right_child=1 2 -4 -5
leaf_value=-0.041845492122774879 0.044927278721851253 -0.058882299784906438 0.027609057289834527 0.016028122040162702
leaf_weight=11.222739368677138 11.494937300682066 9.7208157628774661 14.24492986500263 8.248290151357649
leaf_count=45 46 39 57 33
internal_value=0 0.0107426 -0.00145559 -0.0244965
internal_weight=0 43.709 32.214 17.9691
internal_count=220 175 129 72
shrinkage=0.05


Tree=2
num_leaves=6
num_cat=0
split_feature=6 7 1 0 9
split_gain=8.93469 7.01385 9.28909 7.98246 4.2923
threshold=-0.18530441156506616 3.2394589183729088 0.80011846563051747 -0.032345364296655549 1.0000000180025095e-35
decision_type=2 2 2 2 2
left_child=-1 2 3 -2 -5
right_child=1 -3 -4 4 -6
leaf_value=-0.03985504179386419 -0.056355131221993753 0.053360236413377615 0.046581417483542359 0.026656986126357071 -0.020011716269676731
leaf_weight=11.194759234786032 7.7167855501174918 7.7475653141736975 8.4986620098352414 9.9864430129528081 9.724856972694397
leaf_count=45 31 31 34 40 39
internal_value=0 0.0102121 0.000907309 -0.0132449 0.0036323
internal_weight=0 43.6743 35.9267 27.4281 19.7113
internal_count=220 175 144 110 79
shrinkage=0.05


Tree=3
num_leaves=6
num_cat=0
split_feature=0 7 8 5 0
split_gain=7.05218 7.27398 3.92979 3.33651 2.40717
threshold=0.020414770116392807 -0.85272058710742427 0.53533459477504597 1.0000000180025095e-35 0.4095916309954501
decision_type=2 2 2 2 2
left_child=1 -1 3 -2 -4
right_child=2 -3 4 -5 -6
leaf_value=-0.059364913381357867 0.052267036582031662 0.0037290451479763051 0.015445831318241766 0.0088197479873480499 -0.020481501974572911
leaf_weight=8.4445629715919512 8.4807167351245898 9.9512797594070417 8.9611499160528201 9.2259561866521818 9.7186169326305372
leaf_count=34 34 40 36 37 39
internal_value=0 -0.0252341 0.0127518 0.0296291 -0.00324626
internal_weight=0 18.3958 36.3864 17.7067 18.6798
internal_count=220 74 146 71 75
shrinkage=0.05


Tree=4
num_leaves=5
num_cat=0
split_feature=6 8 0 1
split_gain=7.94265 6.27411 7.21044 8.48054
threshold=-0.18530441156506616 0.46538548509057992 0.26706979879602705 0.50380197723758535
decision_type=2 2 2 2
left_child=-1 -2 3 -3
right_child=1 2 -4 -5
leaf_value=-0.037661624355612044 0.041361023145140237 -0.054688742881720792 0.024841762649354018 0.014397130017226315
leaf_weight=11.150269910693167 11.475951761007307 9.6393941044807452 14.233695834875105 8.2386283725500089
leaf_count=45 46 39 57 33
internal_value=0 0.00962872 -0.00171164 -0.0228523
internal_weight=0 43.5877 32.1117 17.878
internal_count=220 175 129 72
shrinkage=0.05


Tree=5
num_leaves=6
num_cat=0
split_feature=6 7 0 0 4
split_gain=7.51174 12.4951 3.91973 4.47726 3.54174
threshold=0.061332102193506342 -1.1759281716960148 0.020414770116392807 0.39614236977664491 -17.972690331333123
decision_type=2 2 2 2 2
left_child=2 -2 -1 -4 -3
right_child=1 4 3 -5 -6
leaf_value=-0.047035781560613409 -0.021715504867186868 0.024271551631190269 0.020984958815876566 -0.028253012092622456 0.071134814704904292
leaf_weight=8.4201219230890292 11.401435092091562 8.4457063972949999 8.4466199725866336 10.182849526405333 7.7143399119377127
leaf_count=34 46 34 34 41 31
internal_value=0 0.0183648 -0.0187245 -0.00592847 0.0466427
internal_weight=0 27.5615 27.0496 18.6295 16.16
internal_count=220 111 109 75 65
shrinkage=0.05


Tree=6
num_leaves=6
num_cat=0
split_feature=6 0 1 0 0
split_gain=6.79015 5.81696 13.2203 3.55715 4.04353
threshold=0.061332102193506342 0.39614236977664491 0.46693525538875741 0.020414770116392807 0.39614236977664491
decision_type=2 2 2 2 2
left_child=3 2 -2 -1 -5
right_child=1 -3 -4 4 -6
leaf_value=-0.044844636179725096 -0.04159381844188894 0.048631858144740185 0.044558144989532818 0.019924269936268047 -0.026873764420946751
leaf_weight=8.3906916379928607 9.1106320768594795 9.6998124122619611 8.7103371471166593 8.4513380676507968 10.170499846339224
leaf_count=34 37 39 35 34 41
internal_value=0 0.0174737 0.00051459 -0.0178143 -0.00563494
internal_weight=0 27.5208 17.821 27.0125 18.6218
internal_count=220 111 72 109 75
shrinkage=0.05


Tree=7
num_leaves=6
num_cat=0
split_feature=6 7 9 4 0
split_gain=6.36957 5.35293 6.29855 3.58114 1.94423
threshold=-0.18530441156506616 3.2394589183729088 1.0000000180025095e-35 -29.033464818901745 0.18075964627270652
decision_type=2 2 2 2 2
left_child=-1 2 4 -4 -2
right_child=1 -3 3 -5 -6
leaf_value=-0.033919296632708117 0.0066237030169464684 0.046526059262896172 -0.041418811333580906 0.0025011321024569575 0.040404616317280706
leaf_weight=11.036297067999838 9.1436061114072817 7.6688133329153052 9.3802289366722089 9.1868796050548571 7.9738083332777014
leaf_count=45 37 31 38 37 32
internal_value=0 0.00862685 0.000482082 -0.0196875 0.0223599
internal_weight=0 43.3533 35.6845 18.5671 17.1174
internal_count=220 175 144 75 69
shrinkage=0.05


Tree=8
num_leaves=6
num_cat=0
split_feature=6 7 0 7 4
split_gain=5.91739 10.7176 3.18965 4.36876 3.01352
threshold=0.061332102193506342 -1.1759281716960148 0.020414770116392807 -0.62220876459621732 -17.972690331333123
decision_type=2 2 2 2 2
left_child=2 -2 -1 -4 -3
right_child=1 4 3 -5 -6
leaf_value=-0.042368111739207084 -0.020850604979857357 0.022012106813871661 0.018193109923521477 -0.030351836249631798 0.065419738309434095
leaf_weight=8.3295516371727008 11.33387912809849 8.3994559645652789 9.6471905857324618 8.9196157455444318 7.6308243572711936
leaf_count=34 46 34 39 36 31
internal_value=0 0.0163637 -0.0166611 -0.0051282 0.0426753
internal_weight=0 27.3642 26.8964 18.5668 16.0303
internal_count=220 111 109 75 65
shrinkage=0.05


Tree=9
num_leaves=6
num_cat=0
split_feature=6 1 0 6 4
split_gain=5.48814 5.15541 6.33599 5.60624 5.34556
threshold=-0.18530441156506616 0.80011846563051747 0.19439334165686675 0.15852396017294648 -29.033464818901745
decision_type=2 2 2 2 2
left_child=-1 2 4 -4 -2
right_child=1 -3 3 -5 -6
leaf_value=-0.031624413036581082 -0.055039907738364882 0.039649414749733533 -0.01192841998408432 0.044007406880784895 0.0042543695477234222
leaf_weight=10.948469594120978 7.5547063797712326 9.9181116223335248 8.2094379961490649 9.8592755049467069 7.6502269953489286
leaf_count=45 31 40 33 40 31
internal_value=0 0.00800938 -0.00142178 0.0185932 -0.0252065
internal_weight=0 43.1918 33.2736 18.0687 15.2049
internal_count=220 175 135 73 62
shrinkage=0.05


Tree=10
num_leaves=6
num_cat=0
split_feature=6 7 0 7 3
split_gain=5.02368 9.44511 2.94238 3.96348 2.75973
threshold=0.061332102193506342 -1.1759281716960148 0.020414770116392807 -0.62220876459621732 -0.03694678475870674
decision_type=2 2 2 2 2
left_child=2 -2 -1 -4 -3
right_child=1 4 3 -5 -6
leaf_value=-0.040196507088773821 -0.019871925747372319 0.061830460435762014 0.017918759105480433 -0.028386001985582332 0.020132230318272562
leaf_weight=8.2595468759536761 11.277727663517 7.5593204945325843 9.6270250678062457 8.887733191251753 8.3521466702222806
leaf_count=34 46 31 39 36 34
internal_value=0 0.0151322 -0.01538 -0.00430915 0.0399425
internal_weight=0 27.1892 26.7743 18.5148 15.9115
internal_count=220 111 109 75 65
shrinkage=0.05


Tree=11
num_leaves=6
num_cat=0
split_feature=6 1 7 0 4
split_gain=4.73709 4.69797 5.70701 4.09224 1.96738
threshold=-0.18530441156506616 0.80011846563051747 -0.30279523307430528 0.26706979879602705 -25.37364387613346
decision_type=2 2 2 2 2
left_child=-1 2 3 -2 -4
right_child=1 -3 4 -5 -6
leaf_value=-0.029522722344407511 -0.042241286317966753 0.037733518747634837 0.0030895583386041439 0.0063203593345258621 0.03876428647150592
leaf_weight=10.851622879505156 9.9277384877204877 9.8658330738544446 7.8763282299041748 7.7053654342889777 7.5875708460807818
leaf_count=45 41 40 32 31 31
internal_value=0 0.00745002 -0.00157714 -0.0210207 0.0205938
internal_weight=0 42.9628 33.097 17.6331 15.4639
internal_count=220 175 135 72 63
shrinkage=0.05


Tree=12
num_leaves=6
num_cat=0
split_feature=0 7 0 0 4
split_gain=4.56471 5.08485 3.30997 4.4889 4.96129
threshold=0.020414770116392807 -0.85272058710742427 0.77330126980015435 0.44593647852870238 -5.901408565996511
decision_type=2 2 2 2 2
left_child=1 -1 3 4 -2
right_child=2 -3 -4 -5 -6
leaf_value=-0.049792217566884275 -0.015762635618791061 0.0037816200156592693 -0.015332297205038609 0.05262650222990968 0.035593155525824677
leaf_weight=8.1434989571571368 10.806435018777849 9.7102818638086301 9.3142202198505384 7.3198537826538077 8.3262311965227145
leaf_count=34 44 40 38 30 34
internal_value=0 -0.0206546 0.0103009 0.0193266 0.00658659
internal_weight=0 17.8538 35.7667 26.4525 19.1327
internal_count=220 74 146 108 78
shrinkage=0.05


Tree=13
num_leaves=6
num_cat=0
split_feature=6 7 2 9 3
split_gain=4.52296 7.66845 2.53676 2.23238 4.0015
threshold=0.061332102193506342 -1.1759281716960148 0.38069020683561289 1.0000000180025095e-35 -0.030299892905410322
decision_type=2 2 2 2 2
left_child=3 -2 -3 4 -1
right_child=1 2 -4 -5 -6
leaf_value=-0.027851706417410357 -0.01722235920542568 0.016089007868966224 0.056273093150279702 -0.031280397506499989 0.023566691167734334
leaf_weight=7.5334250628948212 11.176576480269434 7.5679514408111563 8.1644594371318799 11.457855671644211 7.6020181477069855
leaf_count=31 46 31 34 47 31
internal_value=0 0.0144455 0.0369429 -0.0146304 -0.00202599
internal_weight=0 26.909 15.7324 26.5933 15.1354
internal_count=220 111 65 109 62
shrinkage=0.05


end of trees

feature_importances:
Column_0=19
Column_6=13
Column_7=12
Column_1=7
Column_4=6
Column_8=3
Column_9=3
Column_3=2
Column_5=2
Column_2=1

parameters:
[boosting: gbdt]
[objective: binary]
[metric: binary_logloss]
[tree_learner: serial]
[device_type: cpu]
[data: ]
[valid: ]
[num_iterations: 10000]
[learning_rate: 0.05]
[num_leaves: 63]
[num_threads: 0]
[force_col_wise: 0]
[force_row_wise: 0]
[histogram_pool_size: -1]
[max_depth: -1]
[min_data_in_leaf: 30]
[min_sum_hessian_in_leaf: 0.001]
[bagging_fraction: 0.8]
[pos_bagging_fraction: 1]
[neg_bagging_fraction: 1]
[bagging_freq: 0]
[bagging_seed: 9915]
[feature_fraction: 0.9]
[feature_fraction_bynode: 1]
[feature_fraction_seed: 13361]
[extra_trees: 0]
[extra_seed: 2437]
[early_stopping_round: 50]
[first_metric_only: 0]
[max_delta_step: 0]
[lambda_l1: 0]
[lambda_l2: 0]
[min_gain_to_split: 0]
[drop_rate: 0.1]
[max_drop: 50]
[skip_drop: 0.5]
[xgboost_dart_mode: 0]
[uniform_drop: 0]
[drop_seed: 6739]
[top_rate: 0.2]
[other_rate: 0.1]
[min_data_per_group: 100]
[max_cat_threshold: 32]
[cat_l2: 10]
[cat_smooth: 10]
[max_cat_to_onehot: 4]
[top_k: 20]
[monotone_constraints: ]
[monotone_constraints_method: basic]
[monotone_penalty: 0]
[feature_contri: ]
[forcedsplits_filename: ]
[refit_decay_rate: 0.9]
[cegb_tradeoff: 1]
[cegb_penalty_split: 0]
[cegb_penalty_feature_lazy: ]
[cegb_penalty_feature_coupled: ]
[path_smooth: 0]
[interaction_constraints: ]
[verbosity: -1]
[saved_feature_importance_type: 0]
[max_bin: 255]
[max_bin_by_feature: ]
[min_data_in_bin: 3]
[bin_construct_sample_cnt: 200000]
[data_random_seed: 4091]
[is_enable_sparse: 1]
[enable_bundle: 1]
[use_missing: 1]
[zero_as_missing: 0]
[feature_pre_filter: 1]
[pre_partition: 0]
[two_round: 0]
[header: 0]
[label_column: ]
[weight_column: ]
[group_column: ]
[ignore_column: ]
[categorical_feature: ]
[forcedbins_filename: ]
[objective_seed: 29722]
[num_class: 1]
[is_unbalance: 0]
[scale_pos_weight: 1]
[sigmoid: 1]
[boost_from_average: 1]
[reg_sqrt: 0]
[alpha: 0.9]
[fair_c: 1]
[poisson_max_delta_step: 0.7]
[tweedie_variance_power: 1.5]
[lambdarank_truncation_level: 20]
[lambdarank_norm: 1]
[label_gain: ]
[eval_at: ]
[multi_error_top_k: 1]
[auc_mu_weights: ]
[num_machines: 1]
[local_listen_port: 12400]
[time_out: 120]
[machine_list_filename: ]
[machines: ]
[gpu_platform_id: -1]
[gpu_device_id: -1]
[gpu_use_dp: 0]

end of parameters

pandas_categorical:null
