tree
version=v3
num_class=1
num_tree_per_iteration=1
label_index=0
max_feature_idx=23
objective=binary sigmoid:1
feature_names=Column_0 Column_1 Column_2 Column_3 Column_4 Column_5 Column_6 Column_7 Column_8 Column_9 Column_10 Column_11 Column_12 Column_13 Column_14 Column_15 Column_16 Column_17 Column_18 Column_19 Column_20 Column_21 Column_22 Column_23
feature_infos=[-10.995312238406155:7.8958729062338211] [-0.081937065794850786:0.081030910032809586] [-2.6310438778414862:20.851601136403488] [-0.00027215408592063837:1.0001242361615796] [-0.00062895379970555007:0.99945529035644709] [0.059744769547386008:0.96999081987301827] [0.11553137031170593:0.95434861859732745] [-0.99993920395189151:0.99995113224908738] [-1:1] [-136.63287010932476:151.80075703079373] [-24.172641985931559:16.224098901811949] [-0.61688198280944229:0.7324655007988653] none [10.8675:25.965] [-16.968796433878151:18.057503506311367] [0.34278507652536305:0.81836312381434928] [-0.10296892144070657:0.10325406556870176] [-0.091538908265989039:0.13067260325331798] [-0.9111099270495131:0.65108846399054054] [0:1] [0:1] [0:1] [0:1] [0:1]
tree_sizes=3298 3310 3307 3307 3291 3298 3290

Tree=0
num_leaves=31
num_cat=0
split_feature=2 7 6 6 16 1 9 1 3 17 7 1 4 2 0 7 4 7 0 7 0 9 15 3 6 4 0 6 17 2
split_gain=19.5843 11.3479 10.9721 7.53446 6.55586 6.04373 5.86212 5.28734 5.15992 4.97473 5.5841 5.5692 4.73513 4.48264 4.14803 5.77075 3.9023 5.99579 5.5184 5.39577 3.83952 3.80224 3.21735 3.46871 3.06707 1.61873 0.784839 0.520306 0.404683 3.55271e-15
threshold=-1.0000000180025095e-35 -0.96395766206061928 0.56171750279157884 0.82784232452108697 0.028875248327136119 0.0072098907780901713 -17.084774410617062 0.0032068779445825024 0.71428354730150545 -0.044621109781541761 -0.99848158761320005 0.0025750529660754106 0.519987232587246 0.63591682804272709 1.2914579816734559 0.99647154538088778 0.68915651766940123 0.91440909061623532 0.47094405137336498 0.99313064874033663 1.210783384547647 -43.0329157023234 0.61529034607800159 0.59934221409388622 0.43409190364868605 0.29403088058212135 0.10391874006105034 0.69073393545001416 -0.01080341363573342 -0.26577012969677011
decision_type=2 2 2 2 2 2 2 2 2 2 2 2 2 2 2 2 2 2 2 2 2 2 2 2 2 2 2 2 2 2
left_child=14 9 4 6 5 7 -4 8 20 11 26 -2 13 -7 15 22 27 -18 -19 -20 24 -9 29 -24 25 -3 -11 -8 -16 -1
right_child=1 2 3 -5 -6 12 16 21 -10 10 -12 -13 -14 -15 28 -17 17 18 19 -21 -22 -23 23 -25 -26 -27 -28 -29 -30 -31
leaf_value=-0.39655060379000939 -0.049679738893708608 -0.23467753350506881 -0.093038597005746099 0.008132071922341666 0.008132071922341666 -0.39655060379000928 -0.39655060379000939 -0.16530336052580877 -0.32910349117128407 -0.1537409983625988 -0.39655060379000939 -0.29537993486192154 -0.072804463220128651 -0.15374099836259877 -0.2346775335050689 -0.16530336052580874 -0.059315040696383575 -0.39655060379000928 -0.32910349117128407 -0.059315040696383575 -0.26165637855255897 0.0081320719223416105 -0.19420926593383384 -0.39655060379000917 0.0081320719223415827 -0.072804463220128651 -0.26165637855255897 -0.31561406864753905 -0.15374099836259872 -0.39655060379000917
leaf_weight=6.1776798218488667 1.7297503501176836 1.2355359643697794 1.9768575429916371 1.2355359643697728 3.7066078931093207 1.9768575429916375 2.2239647358655916 1.7297503501176832 1.4826431572437284 1.2355359643697741 4.2008222788572294 1.976857542991638 1.2355359643697736 1.2355359643697736 1.2355359643697741 1.7297503501176823 1.4826431572437284 2.4710719287395477 1.4826431572437289 1.4826431572437284 1.4826431572437284 4.6950366646051407 1.9768575429916384 1.4826431572437284 2.223964735865593 1.2355359643697736 1.4826431572437284 1.2355359643697736 1.2355359643697728 1.7297503501176841
leaf_count=25 7 5 8 5 15 8 9 7 6 5 17 8 5 5 5 7 6 10 6 6 6 19 8 6 9 5 6 5 5 7
internal_value=-0.215975 -0.183446 -0.156532 -0.22732 -0.113273 -0.137554 -0.250865 -0.105463 -0.161574 -0.274205 -0.324286 -0.18072 -0.239174 -0.303162 -0.313045 -0.335466 -0.280927 -0.237568 -0.286183 -0.194209 -0.121366 -0.0385621 -0.361361 -0.280927 -0.0770643 -0.153741 -0.212604 -0.367645 -0.194209 -0.396551
internal_weight=0 46.4562 35.8305 13.5909 22.2396 18.533 12.3554 14.0851 7.66032 10.6256 6.919 3.70661 4.44793 3.21239 15.5678 13.0967 10.3785 6.919 5.43636 2.96529 6.17768 6.42479 11.3669 3.4595 4.69504 2.47107 2.71818 3.4595 2.47107 7.90743
internal_count=251 188 145 55 90 75 50 57 31 43 28 15 18 13 63 53 42 28 22 12 25 26 46 14 19 10 11 14 10 32
shrinkage=1


Tree=1
num_leaves=31
num_cat=0
split_feature=18 8 17 8 10 0 17 15 0 0 16 0 3 0 0 11 8 11 3 17 3 0 16 16 1 10 16 16 11 4
split_gain=7.36641 6.27216 5.94043 5.84556 5.59562 5.4782 4.56384 5.71958 7.92991 4.2943 9.9753 10.4185 4.27837 4.03292 3.72247 3.53639 3.43429 3.39763 3.26821 3.25426 3.01102 2.76195 3.87122 3.45168 2.57765 2.05412 1.82763 1.59449 1.38231 0.582169
threshold=0.068755424915738036 -0.15230759409569697 -0.0061960729009330464 0.79337461072410598 14.168552319534859 -2.9044805676418797 -0.024449636032155119 0.49816915354400632 -0.33006154892218581 0.033468830213357371 0.027524341614950768 0.35168720469656728 0.64556747251655977 -1.8677054491117955 -1.0005962803861508 0.076368826738659509 -0.093995444723673702 0.390801937467603 0.98098669015737749 1.0000000180025095e-35 0.2523080463720408 1.2914579816734559 -0.0090050976707392854 -0.022295079611207465 0.0056066334632820063 -3.6772980836954239 0.04150830164089931 -1.0000000180025095e-35 -0.24611791153685272 0.40864850152797433
decision_type=2 2 2 2 2 2 2 2 2 2 2 2 2 2 2 2 2 2 2 2 2 2 2 2 2 2 2 2 2 2
left_child=1 5 -2 17 9 -1 7 -7 13 12 11 27 20 -9 15 -8 -13 -4 21 -16 25 -18 23 -23 -22 -3 -12 -11 -21 -24
right_child=2 4 3 -5 -6 6 14 8 -10 10 26 16 -14 -15 19 -17 18 -19 -20 28 24 22 29 -25 -26 -27 -28 -29 -30 -31
leaf_value=-0.17415221009969936 -0.10857122663079069 -0.010646120735610387 0.18612922978852811 -0.056816839408828868 0.14775151784094684 0.13139847631413373 -0.10599502401018489 -0.097912309613326254 -0.17594533578882021 0.21718965767636941 0.21260354731522826 0.046578092902546914 -0.17073688857519234 0.12804319888023349 0.20955561695339978 0.10549881889438391 -0.17072950819374055 0.015406089383702136 0.050278513520212342 0.13157372984133689 0.081966304619566221 -0.096224332099901819 -0.089926102800092847 0.1408955341391098 -0.09851713731287258 -0.17268637502518433 0.053685912180331058 0.056600045589198802 -0.018191517288175984 -0.1780365896908036
leaf_weight=1.219719305634501 1.4631465077400196 1.2183281332254412 5.4869915097951871 1.7030147463083265 1.4867036640644062 2.2187278866767919 1.4579690098762541 1.2250899374485018 2.9306804984807968 1.2385361939668658 1.7364548146724694 1.7306202501058603 4.8409228175878525 2.2236530631780624 3.238244444131845 1.7272572815418241 5.5725125074386543 1.4801771640777586 1.2399759143590916 1.2389398366212847 2.2266421765089039 1.2223819643259051 1.214196249842644 1.2332459688186643 1.2275734543800352 2.1859598755836505 1.2407745867967603 1.2346052825450957 1.2262816280126569 1.9609759896993635
leaf_count=5 6 5 22 7 6 9 6 5 12 5 7 7 20 9 13 7 23 6 5 5 9 5 5 5 5 9 5 5 5 8
internal_value=0 -0.0154602 0.0778103 0.109263 -0.0418068 0.0307505 0.0450426 -0.0069003 -0.0549998 -0.0508037 -0.0222149 -0.0523661 -0.0987576 0.0477775 0.0952876 0.00869205 -0.0854116 0.149859 -0.103769 0.143649 -0.0479526 -0.120819 -0.0714246 0.0228601 0.0178254 -0.114695 0.146374 0.137022 0.0570756 -0.144343
internal_weight=0 51.517 10.1333 8.67018 32.8104 18.7066 17.4868 8.59815 6.37942 31.3237 19.6243 16.6471 11.6994 3.44874 8.88869 3.18523 14.1739 6.96717 12.4433 5.70347 6.8585 11.2033 5.6308 2.45563 3.45422 3.40429 2.97723 2.47314 2.46522 3.17517
internal_count=251 210 41 35 134 76 71 35 26 128 80 68 48 14 36 13 58 28 51 23 28 46 23 10 14 14 12 10 10 13
shrinkage=0.1


Tree=2
num_leaves=31
num_cat=0
split_feature=2 6 9 10 17 18 15 5 1 2 10 4 6 1 18 18 17 5 10 14 1 15 10 14 18 5 8 1 17 2
split_gain=15.1368 7.47137 7.53197 5.80761 6.02394 5.44757 5.47347 6.23485 5.06552 4.77458 5.71138 3.81297 4.06217 3.42887 4.95079 4.42995 4.69379 4.22441 3.34332 7.25681 3.07811 2.25126 3.02098 1.73743 1.65132 1.47848 1.44768 1.34343 0.919501 0.689376
threshold=-0.01933674307990917 0.60348801643798888 -106.13162171427648 3.495825314514577 -0.01022839771694589 0.02121870361413403 0.76993118015495998 0.50697587575242054 0.0087027762333857523 0.53047050222728431 1.0000000180025095e-35 0.40864850152797433 0.48401577252738531 0.0034483568684692848 -0.0520890091500507 -0.037570569887391318 0.043040163843152145 0.16947005034007581 -0.25802262883959143 -1.0000000180025095e-35 0.008539696998788442 0.66313507562150897 0.22028356380529959 2.12419238051729 0.10256932638735881 0.82619878552997861 -0.063548632720269185 0.0011740603210455892 -0.0087737214876376628 -0.19637094944434422
decision_type=2 2 2 2 2 2 2 2 2 2 2 2 2 2 2 2 2 2 2 2 2 2 2 2 2 2 2 2 2 2
left_child=3 2 -2 21 -5 6 7 -3 13 27 25 23 -13 15 -15 26 17 -17 -19 -20 -7 29 -23 -10 -18 -11 -4 -9 -16 -1
right_child=1 5 8 4 -6 20 -8 9 11 10 -12 12 -14 14 28 16 24 18 19 -21 -22 22 -24 -25 -26 -27 -28 -29 -30 -31
leaf_value=-0.1662160008150593 -0.16684039820601076 0.19385620301657666 0.19095944159314815 -0.07694268446452647 0.19911253105040824 -0.16397729448238169 0.19072954316785731 -0.050016376738975271 -0.16403893194855057 0.20393133499954572 -0.11140356194086201 0.20023600677173206 -0.045623098860010369 1.4892851912476666e-05 0.11469714050306334 0.13840160310805003 0.19902356093246754 -0.1636117367422506 -0.12250941737679998 0.18702693660435943 0.00049154366474783153 0.023134581973923235 -0.17743898846648976 -0.0060744655700143042 0.042677038369012321 0.049246945594118997 0.058294981120994238 -0.16506632941797042 0.19058979391825248 -0.083395775968977612
leaf_weight=6.6636801809072486 1.4307263791561151 1.2461250722408319 2.4886982142925267 2.1509281396865849 1.24977347254753 3.5429815500974646 1.4942588508129109 1.6649767607450465 1.6626322120428079 1.2465118020772936 1.6872184723615644 1.246888339519501 1.4576305001974104 2.2070306986570358 2.216271698474884 1.2381686419248596 1.491072863340378 2.1319384425878547 1.9421882480382944 1.2415709048509551 1.6763423681259153 1.9547398239374163 1.2193592637777326 1.1979865580797193 1.2351403832435606 1.2252905517816541 1.2286370396614099 2.5996621400117874 5.7082460224628431 1.1835470795631398
leaf_count=28 6 5 10 9 5 15 6 7 7 5 7 5 6 9 9 5 6 9 8 5 7 8 5 5 5 5 5 11 23 5
internal_value=0 0.0275305 0.0570885 -0.0897312 0.0245089 -0.0268191 0.0126082 -0.0149167 0.0682539 -0.0458008 0.0304356 -0.0174018 0.0677275 0.0888637 0.132474 0.0548694 0.0179197 -0.0279491 -0.0666967 -0.00179949 -0.111153 -0.124981 -0.0539176 -0.0978857 0.128189 0.127253 0.147112 -0.120149 0.169365 -0.153725
internal_weight=0 46.5082 30.1248 14.422 3.4007 16.3834 11.164 9.66978 28.6941 8.42366 4.15902 5.56514 2.70452 23.129 10.1315 12.9974 9.28008 6.55387 5.3157 3.18376 5.21932 11.0213 3.1741 2.86062 2.72621 2.4718 3.71734 4.26464 7.92452 7.84723
internal_count=251 191 123 60 14 68 46 40 117 35 17 23 11 94 41 53 38 27 22 13 22 46 13 12 11 10 15 18 32 33
shrinkage=0.1


Tree=3
num_leaves=31
num_cat=0
split_feature=2 7 6 5 11 18 1 4 1 4 0 7 1 18 0 17 8 16 16 21 17 3 5 13 0 2 2 1 16 2
split_gain=12.5899 6.83955 7.51354 5.91104 4.1707 3.4695 3.57677 4.75139 3.45451 5.87589 3.20628 3.91009 2.85563 3.23539 2.48443 2.78224 3.38311 3.13378 3.17759 3.12177 2.48286 2.48233 2.74542 2.05179 2.5218 1.63259 1.60805 1.56774 1.10208 0.615053
threshold=-0.01933674307990917 -0.96395766206061928 0.60348801643798888 0.84845564672414509 0.15459418093171998 0.02121870361413403 0.0025750529660754106 0.61186985737308597 0.0091165460883716552 0.40864850152797433 1.2914579816734559 0.99647154538088778 -0.0034571547348378616 -0.025042574172700057 1.5538188594825664 0.043040163843152145 -0.1909597491657741 -0.013052247882634259 -0.031072101910141977 1.0000000180025095e-35 0.043040163843152145 0.65076004590937908 0.53164306588309684 18.027500000000003 -0.75522929511712034 0.60918919996079557 0.44591833944848719 -0.00026420347352225788 0.017253211296318797 0.11804591343619651
decision_type=2 2 2 2 2 2 2 2 2 2 2 2 2 2 2 2 2 2 2 2 2 2 2 2 2 2 2 2 2 2
left_child=10 5 8 4 20 6 7 27 12 -10 11 23 13 -3 15 16 -14 18 -18 21 29 22 -19 -1 -25 -8 -22 -2 -5 -4
right_child=1 2 3 28 -6 -7 25 -9 9 -11 -12 -13 14 -15 -16 -17 17 19 -20 -21 26 -23 -24 24 -26 -27 -28 -29 -30 -31
leaf_value=-0.15611935619852671 0.041799626305914217 0.11916001793853548 -0.070075246785471904 0.045321732620171168 0.10657281872685841 -0.15577575538913763 -0.15442694064398318 -0.10067745131086876 -0.15635479811712646 0.10172845168487724 0.020880826498920813 0.034935519891593436 0.16073855919521068 -0.078018023788674284 0.1874540185563332 0.17707869000766691 0.053835335751891769 -0.014676666749571594 -0.17465797769868296 0.17930586585622157 -0.09184315012545817 -0.096292666038642241 0.17345188790880117 -0.16104762027587471 0.037508703816485016 -0.022219142206187301 0.072371582918977509 0.1946646649999694 0.18016347058924498 -0.15431831249197153
leaf_weight=7.3186707496643049 1.2190515100955961 1.469204977154732 1.1376933455467204 1.1926019191741937 1.2318161427974699 2.2831727117300034 1.8187274336814883 1.4047272950410841 1.6088415533304208 1.9531300067901609 2.4506577253341666 1.7035779356956471 2.9474947005510321 1.9192249327898014 3.1987920850515357 2.9380434304475775 1.2270882874727251 1.652988001704226 1.2075775861740101 1.9470259249210355 1.1865567117929461 1.1879339814186094 1.4616073518991468 1.1692906618118288 1.4121647477149961 1.9201540648937223 1.1987622529268263 1.4920317828655227 1.2325796484947202 3.6377394646406174
leaf_count=32 5 6 5 5 5 10 8 6 7 8 10 7 12 8 13 12 5 7 5 8 5 5 6 5 6 8 5 6 5 16
internal_value=0 0.0251812 0.0458498 -0.0236574 -0.0633938 -0.0472693 -0.0157291 0.0485876 0.0762683 -0.0148404 -0.0830519 -0.105002 0.0916073 0.00747731 0.107651 0.0901299 0.0681676 0.0367482 -0.0594958 0.0742424 -0.092632 0.026698 0.0736077 -0.129082 -0.052429 -0.0865298 -0.00931564 0.125928 0.113854 -0.134248
internal_weight=0 45.6746 35.5367 10.8177 8.39257 10.1379 7.85469 4.11581 24.719 3.56197 14.0544 11.6037 21.157 3.38843 17.7686 14.5698 11.6317 8.68422 2.43467 6.24956 7.16075 4.30253 3.1146 9.90013 2.58146 3.73888 2.38532 2.71108 2.42518 4.77543
internal_count=251 191 148 46 36 43 33 17 102 15 60 50 87 14 73 60 48 36 10 26 31 18 13 43 11 16 10 11 10 21
shrinkage=0.1


Tree=4
num_leaves=31
num_cat=0
split_feature=2 7 11 14 6 15 10 1 11 1 0 15 13 11 14 2 14 5 21 0 7 9 4 1 6 5 2 15 15 14
split_gain=10.5725 5.60415 6.50032 5.22158 5.64751 6.38801 4.9783 3.9182 3.59627 3.20446 3.16169 2.9969 2.74103 2.73103 2.62322 2.89178 3.63138 2.68189 2.61406 2.3279 1.6966 1.50708 3.31836 1.53998 1.90595 1.44599 1.10756 1.07933 0.552929 0.436642
threshold=-0.043960772267415474 -0.93510191870127335 0.18136111456159026 4.9550278299965287 0.60348801643798888 0.76993118015495998 3.495825314514577 0.0072098907780901713 0.5392004771549368 0.0049132307539591575 -1.4033388407194434 0.4624729929285129 18.027500000000003 -0.19290422994505463 -5.2103298924719352 0.53047050222728431 0.67361752059790658 0.27540229201704536 1.0000000180025095e-35 -0.75522929511712034 0.95031295246746084 3.761029993368004 0.39628770367213823 0.0032068779445825024 0.48992740428206466 0.67694973109683054 0.63591682804272709 0.57005426740471277 0.39511521841152092 1.0000000180025095e-35
decision_type=2 2 2 2 2 2 2 2 2 2 2 2 2 2 2 2 2 2 2 2 2 2 2 2 2 2 2 2 2 2
left_child=6 14 3 4 7 11 12 10 28 -8 -3 -6 -1 -9 -2 17 27 -16 -18 -14 -7 22 26 24 -23 -19 -12 -17 -4 -15
right_child=1 2 8 -5 5 20 9 13 -10 -11 21 -13 19 29 15 16 18 25 -20 -21 -22 23 -24 -25 -26 -27 -28 -29 -30 -31
leaf_value=-0.15206589306813914 -0.15715069840495488 -0.083038442142571986 0.09977433315438855 0.1791073931746425 0.026031481485455133 0.00050615777179674286 -0.062556612923013719 -0.15705461006415758 -0.029061020716104453 0.13577097492036375 0.052092063531554392 -0.1382135497066129 -0.15202713771622875 0.063752526156195588 0.062446973740208668 0.18964418732461708 -0.15879231926311854 -0.15177268786120934 0.055028666692649809 0.029598324572047703 0.17033001558371336 0.16571194189872959 -0.068290646660055299 0.16375539555236632 0.0038055929772319898 -0.025494588902173522 0.18223425929514767 0.05567893644870088 0.17665808433704056 -0.02210538267969658
leaf_weight=6.6432158648967725 1.589074671268462 1.1848697215318651 1.1714482456445683 1.9271464645862568 1.4027806222438792 1.1511827707290652 1.8201785385608666 1.375793591141701 1.1987296491861341 1.4747598469257353 1.4074955135583951 5.3397922217845917 1.1174505203962328 1.1642655730247491 1.1830299496650676 1.2264772504568102 1.1450335085391998 2.6622627824544907 1.1420144289731979 1.9150936752557752 1.2030728757381437 1.1914964467287066 1.6523064970970152 3.5476080924272537 1.8654043823480604 1.3752082884311674 1.2214000672101972 1.1800646036863325 4.6423269063234329 1.205786347389221
leaf_count=30 7 5 5 8 6 5 8 6 5 6 6 24 5 5 5 5 5 12 5 8 5 5 7 15 8 6 5 5 19 5
internal_value=0 0.0224294 0.0429197 0.0205215 0.00825425 -0.0545259 -0.0799525 0.0443623 0.128649 0.0262115 0.0720891 -0.104043 -0.116105 -0.0449843 -0.0378719 -0.0187534 0.0382053 -0.0699631 -0.052023 -0.0373281 0.0872896 0.0889742 0.0427598 0.118931 0.0669123 -0.108761 0.112557 0.123953 0.161166 0.0200715
internal_weight=0 45.3561 33.8529 26.8404 24.9133 9.09683 12.9707 15.8164 7.0125 3.29494 12.0706 6.74257 9.67576 3.74585 11.5032 9.91409 4.69359 5.2205 2.28705 3.03254 2.35426 10.8857 4.2812 6.60451 3.0569 4.03747 2.6289 2.40654 5.81378 2.37005
internal_count=251 194 144 115 107 40 57 67 29 14 51 30 43 16 50 43 20 23 10 13 10 46 18 28 13 18 11 10 24 10
shrinkage=0.1


Tree=5
num_leaves=31
num_cat=0
split_feature=2 7 11 14 10 17 8 14 11 2 18 3 14 10 14 3 2 18 5 16 16 14 15 14 5 18 17 10 16 15
split_gain=8.88624 4.68206 5.40429 4.38389 4.27849 4.43921 3.40326 3.16815 3.0459 2.89436 3.1706 3.16247 3.14405 2.72047 3.11983 2.98287 3.058 2.56347 2.62375 2.7023 3.28977 2.35097 2.165 2.14639 2.24028 1.91371 1.85129 1.41351 1.26765 0.490152
threshold=-0.043960772267415474 -0.93510191870127335 0.18136111456159026 4.9550278299965287 3.495825314514577 -0.01022839771694589 0.84938592480796771 -1.7542619501563663 0.5392004771549368 0.58920726342802976 0.048846006409201344 0.37335645240312404 0.73228743360055648 -0.51182418783334283 -5.0312054661336907 0.71428354730150545 0.34989938533797543 0.02121870361413403 0.78804466812461638 -0.014568661353738464 0.0030187736756232268 -1.0000000180025095e-35 0.76363765916973059 2.3802397668256794 0.68972367465447204 0.06165212203396641 -0.073729766827851026 -3.8184075850380661 -0.023327858435997103 0.39511521841152092
decision_type=2 2 2 2 2 2 2 2 2 2 2 2 2 2 2 2 2 2 2 2 2 2 2 2 2 2 2 2 2 2
left_child=4 17 3 6 25 -6 7 13 29 10 22 -11 -13 -3 -15 -16 -17 18 19 21 -21 -2 28 -14 -25 26 -1 -22 -9 -4
right_child=1 2 8 -5 5 -7 -8 9 -10 11 -12 12 23 14 15 16 -18 -19 -20 20 27 -23 -24 24 -26 -27 -28 -29 -30 -31
leaf_value=-0.019302940753765714 0.023327524873922575 0.16370121854893785 0.09126816412121716 0.16660171171308177 -0.066333324786591763 0.17469593244695045 -0.14872522887608214 -0.026153586403288017 -0.026206301715806957 0.16660732728274175 0.097545721790657486 -0.1190347442801276 0.12638026530081689 -0.092166595615384136 0.16103642776876459 -0.099907703415158061 0.11980076947931795 -0.11763188202945676 -0.15183626014473015 0.1753368854437623 0.06923676082887345 -0.1457166934199699 0.035485671262167409 -0.10462256940006474 0.076199725760395465 0.014541207506109833 -0.1471976941528976 -0.088594028614406073 -0.14558084174886562 0.16433539456178445
leaf_weight=1.3569917678832988 1.841273218393326 2.1202724277973175 1.1535032987594593 1.8675921261310566 2.0433706641197209 1.2205615490674961 1.3169439136981953 1.1792930364608758 1.1964989751577375 1.4104101359844206 1.1128005236387251 1.6200190186500547 1.8458409756422041 1.5165144503116605 2.1068607717752474 1.3890559524297716 1.1646495163440702 2.819805607199668 1.093973711133003 1.6964813768863671 1.1485583633184426 1.4872214794158924 1.1719261705875395 1.353906109929085 1.3871727436780927 1.099582403898238 6.8200403451919556 1.121507108211518 3.6077828407287655 4.498545840382576
leaf_count=6 8 9 5 8 9 5 6 5 5 6 5 7 8 7 9 6 5 13 5 7 5 7 5 6 6 5 32 5 17 19
internal_value=0 0.0206976 0.0396543 0.018959 -0.074671 0.0238006 0.00761341 0.0165704 0.118739 -0.0113318 -0.0574014 0.0314384 0.000723766 0.0659667 0.0324195 0.0729589 0.000293111 -0.035146 -0.00741996 0.0142369 0.0699902 -0.052204 -0.0863366 0.0430204 -0.0131142 -0.109318 -0.125973 -0.00873824 -0.11616 0.149423
internal_weight=0 44.2284 33.0196 26.171 12.5405 3.26393 24.3034 22.9865 6.84855 14.6892 7.0718 7.61735 6.20694 8.29735 6.17708 4.66057 2.55371 11.2088 8.38902 7.29504 3.96655 3.32849 5.959 4.58692 2.74108 9.27661 8.17703 2.27007 4.78708 5.65205
internal_count=251 194 144 115 57 14 107 101 29 65 32 33 27 36 27 20 11 50 37 32 17 15 27 20 12 43 38 10 22 24
shrinkage=0.1


Tree=6
num_leaves=31
num_cat=0
split_feature=2 7 6 11 6 10 1 13 14 0 11 8 0 14 8 14 4 10 0 1 22 8 13 7 14 4 6 9 4 6
split_gain=7.50056 3.93261 4.60875 4.30513 4.76373 3.66701 2.5218 2.42236 2.38913 3.524 3.54591 3.09081 2.88367 2.18347 2.48109 3.31113 2.17896 2.78686 2.0811 2.06779 1.97346 1.89251 1.68944 1.59882 3.29666 1.26058 1.02931 0.950017 0.0378576 0.0272423
threshold=-0.043960772267415474 -0.93510191870127335 0.60348801643798888 0.16527951184087569 0.82784232452108697 3.495825314514577 0.0049132307539591575 18.027500000000003 2.6918084059816731 -0.24461387229727646 -0.33390576414491963 -0.1909597491657741 1.8010765432687184 -5.2103298924719352 0.058496101619796494 0.67361752059790658 0.33234355649795694 -3.3335182418002964 -0.75522929511712034 0.0091165460883716552 1.0000000180025095e-35 0.096413345135652154 12.933750000000002 0.91440909061623532 -3.189884263786178 0.96935090087520948 0.56171750279157884 -65.96296872849743 0.3600985110647319 0.44080407168063851
decision_type=2 2 2 2 2 2 2 2 2 2 2 2 2 2 2 2 2 2 2 2 2 2 2 2 2 2 2 2 2 2
left_child=5 13 8 4 23 7 -7 -1 9 11 12 22 -11 -2 15 -15 17 -16 -9 27 -17 -13 -3 24 -4 -25 29 -12 -29 -10
right_child=1 2 3 -5 -6 6 -8 18 26 10 19 21 -14 14 16 20 -18 -19 -20 -21 -22 -23 -24 25 -26 -27 -28 28 -30 -31
leaf_value=-0.13946878894898948 -0.14606182983398128 0.15704870835731857 -0.1415788707781932 0.16131093658103557 0.15003837840333836 -0.058537423912038145 0.12016319702348632 -0.1424259946755658 0.14933570157245168 -0.14810320084908521 0.059781559033917769 -0.15722305698966269 0.063741674690795988 0.14100203640564291 -0.097328968935917873 0.048696831536746484 -0.14098627183145376 0.086826001782322831 0.034279215393085566 0.013322807310464433 -0.14143847819200248 -0.0079764393305626832 0.0015904431812989795 -0.14263330714792166 0.070992315022000055 -0.028185436130950699 0.050205647509842126 0.16761885726389247 0.14752086608315568 0.16915039945888274
leaf_weight=5.9734595119953138 1.4696478992700566 1.1400886327028277 1.2280639559030535 1.159612402319907 1.1081598103046415 1.7525784075260156 1.4373454749584196 1.0316393822431567 1.0981114059686654 1.0775206685066252 1.4000958353281028 1.602395474910739 1.5917652547359464 1.8832164704799632 1.7239433228969563 1.1734439581632614 2.0436591804027557 1.5702911168336879 1.883015379309654 1.7853041589260099 1.0207310318946838 1.8085751533508299 1.8071308583021162 3.255801796913147 1.797315925359724 1.3662547767162321 1.141762316226959 1.1794313043355948 4.5640551596879959 1.8847731202840803
leaf_count=30 7 5 6 5 5 8 6 5 5 5 6 7 7 8 8 5 10 7 8 8 5 8 8 16 8 6 5 5 21 8
internal_value=0 0.0192222 0.0368854 -0.0197517 -0.043732 -0.0699924 0.0219832 -0.103002 0.0623176 0.0465526 0.0793531 -0.0132799 -0.0217745 -0.0326989 -0.0150039 0.0437313 -0.0598692 -0.00954623 -0.0282654 0.109585 -0.0397542 -0.0780891 0.0617272 -0.0718105 -0.0152947 -0.108803 0.130949 0.133643 0.151648 0.161856
internal_weight=0 42.8812 31.9962 9.91521 8.7556 12.078 3.18992 8.88811 22.081 17.9564 11.5982 6.35819 2.66929 10.8849 9.41529 4.07739 5.33789 3.29423 2.91465 8.92889 2.19417 3.41097 2.94722 7.64744 3.02538 4.62206 4.12465 7.14358 5.74349 2.98288
internal_count=251 194 144 46 41 57 14 43 98 80 52 28 12 50 43 18 25 15 13 40 10 15 13 36 14 22 18 32 26 13
shrinkage=0.1


end of trees

feature_importances:
Column_0=19
Column_1=17
Column_2=17
Column_14=16
Column_6=13
Column_7=12
Column_10=12
Column_16=12
Column_17=12
Column_4=11
Column_11=11
Column_15=10
Column_18=10
Column_5=9
Column_8=9
Column_3=8
Column_9=5
Column_13=4
Column_21=2
Column_22=1

parameters:
[boosting: gbdt]
[objective: binary]
[metric: binary_logloss]
[tree_learner: serial]
[device_type: cpu]
[data: ]
[valid: ]
[num_iterations: 10000]
[learning_rate: 0.1]
[num_leaves: 31]
[num_threads: 0]
[force_col_wise: 0]
[force_row_wise: 0]
[histogram_pool_size: -1]
[max_depth: -1]
[min_data_in_leaf: 5]
[min_sum_hessian_in_leaf: 0.001]
[bagging_fraction: 0.8]
[pos_bagging_fraction: 1]
[neg_bagging_fraction: 1]
[bagging_freq: 0]
[bagging_seed: 20664]
[feature_fraction: 0.8]
[feature_fraction_bynode: 1]
[feature_fraction_seed: 4656]
[extra_trees: 0]
[extra_seed: 6363]
[early_stopping_round: 50]
[first_metric_only: 0]
[max_delta_step: 0]
[lambda_l1: 0]
[lambda_l2: 0]
[min_gain_to_split: 0]
[drop_rate: 0.1]
[max_drop: 50]
[skip_drop: 0.5]
[xgboost_dart_mode: 0]
[uniform_drop: 0]
[drop_seed: 24603]
[top_rate: 0.2]
[other_rate: 0.1]
[min_data_per_group: 100]
[max_cat_threshold: 32]
[cat_l2: 10]
[cat_smooth: 10]
[max_cat_to_onehot: 4]
[top_k: 20]
[monotone_constraints: ]
[monotone_constraints_method: basic]
[monotone_penalty: 0]
[feature_contri: ]
[forcedsplits_filename: ]
[refit_decay_rate: 0.9]
[cegb_tradeoff: 1]
[cegb_penalty_split: 0]
[cegb_penalty_feature_lazy: ]
[cegb_penalty_feature_coupled: ]
[path_smooth: 0]
[interaction_constraints: ]
[verbosity: -1]
[saved_feature_importance_type: 0]
[max_bin: 255]
[max_bin_by_feature: ]
[min_data_in_bin: 3]
[bin_construct_sample_cnt: 200000]
[data_random_seed: 4094]
[is_enable_sparse: 1]
[enable_bundle: 1]
[use_missing: 1]
[zero_as_missing: 0]
[feature_pre_filter: 1]
[pre_partition: 0]
[two_round: 0]
[header: 0]
[label_column: ]
[weight_column: ]
[group_column: ]
[ignore_column: ]
[categorical_feature: ]
[forcedbins_filename: ]
[objective_seed: 7268]
[num_class: 1]
[is_unbalance: 0]
[scale_pos_weight: 1]
[sigmoid: 1]
[boost_from_average: 1]
[reg_sqrt: 0]
[alpha: 0.9]
[fair_c: 1]
[poisson_max_delta_step: 0.7]
[tweedie_variance_power: 1.5]
[lambdarank_truncation_level: 20]
[lambdarank_norm: 1]
[label_gain: ]
[eval_at: ]
[multi_error_top_k: 1]
[auc_mu_weights: ]
[num_machines: 1]
[local_listen_port: 12400]
[time_out: 120]
[machine_list_filename: ]
[machines: ]
[gpu_platform_id: -1]
[gpu_device_id: -1]
[gpu_use_dp: 0]

end of parameters

pandas_categorical:null
