tree
version=v3
num_class=1
num_tree_per_iteration=1
label_index=0
max_feature_idx=25
objective=binary sigmoid:1
feature_names=Column_0 Column_1 Column_2 Column_3 Column_4 Column_5 Column_6 Column_7 Column_8 Column_9 Column_10 Column_11 Column_12 Column_13 Column_14 Column_15 Column_16 Column_17 Column_18 Column_19 Column_20 Column_21 Column_22 Column_23 Column_24 Column_25
feature_infos=[-17.402206619859587:27.687168402436622] [-0.20812437311935808:0.099823147966201745] [0:1] [0.031338175432642196:0.93297412910361155] [-20.81243731193581:9.9823147966201748] [-0.0005393220211609898:0.99318026402695536] [-0.0013062366946508558:0.98863070968412281] [0.020904448381991552:0.94499981726285354] [0.016895569832796383:0.85268377266040474] [-0.99983565700695942:0.99997572745767271] [-1:1] [-141.02524786355616:141.90379553072478] [-18.572536760995316:24.727040250332422] [-0.8937782785959909:0.65667388740767862] none [10.56:23.837499999999999] [-15.020176356299503:18.057503506311367] [0.29418309000114917:0.76334962003367635] [-0.13992627761372112:0.076224670097470026] [-0.15194500962539842:0.10760075203716812] [-0.94408923106147991:0.85731564250571679] [0:1] [0:1] [0:1] [0:1] [0:1]
tree_sizes=1855 2080 2191 2190 2077 2184 1975 2109 2083 2193 2091 2094 2189 2288 2082 2511 2207 2188 2301 2102 2196 2220 2097 2088 2316 2091 2301 2215 2299 2419 2200 2115 2101 2215 2209 2326 2133 2330 2111 2126 2339 2337 2229 2231 2145 2229 2335 2141 2447 2119 2242 2241 2341 2231 2357 1934 2445 2454 2137 2239 2127 2249 2440 2239 2247 2147 2134 2254 2369 2257 2151 2367 2471 2142 2277 2365 2357 2361 2481 2368 2367 2153 2268 2269 2277 2265 2167 2373 2391 2704 2272 2531 2398 2599 2513 2076 2513 2425 2404 2076 2277 1959 2402 2191 2617 2506 2625

Tree=0
num_leaves=17
num_cat=0
split_feature=17 17 13 11 13 17 9 15 18 12 11 18 21 13 9 1
split_gain=36.3949 22.0985 13.5836 8.75913 12.9413 10.129 7.79524 7.18962 5.27305 9.1326 11.9729 4.51655 3.16343 1.05514 0.306757 0.284201
threshold=0.52729337677136268 0.65856568354213318 0.21508148419471027 24.520953225654129 0.27759065806596001 0.494279692027566 0.93009052791111224 15.812500000000002 0.0023862892208796897 0.74425788056661057 74.91617623339387 0.01399368737775117 1.0000000180025095e-35 0.0947770304689564 0.99887447352295144 0.0042460362252414808
decision_type=2 2 2 2 2 2 2 2 2 2 2 2 2 2 2 2
left_child=3 8 11 4 7 15 -6 12 14 13 -11 -3 -1 -10 -2 -5
right_child=1 2 -4 5 6 -7 -8 -9 9 10 -12 -13 -14 -15 -16 -17
leaf_value=0.20292366098984593 0.34671598182477925 -0.055902516513034017 0.27961289876847706 -0.05590251651303399 -0.055902516513034017 0.18566858248965398 0.13356501211652522 0.064883032988310052 0.34671598182477936 0.030372875987926068 0.31011430015770536 0.11185519112772158 0.34671598182477925 0.26619228215721658 0.30645413199099791 -0.015640666679252568
leaf_weight=3.4772372543811851 7.9479708671569842 3.477237254381178 2.9804890751838684 5.960978150367735 4.4707336127758008 2.4837408959865561 4.2223595231771469 2.483740895986557 4.7191077023744565 3.4772372543811798 2.7321149855852127 2.9804890751838684 2.7321149855852127 2.483740895986557 2.483740895986557 2.483740895986557
leaf_count=14 32 14 12 24 18 10 17 10 19 14 11 12 11 10 10 10
internal_value=0.161641 0.232541 0.103026 0.0783036 0.1224 0.00815043 0.0361246 0.208675 0.283807 0.242333 0.153459 0.0215241 0.266192 0.318949 0.33713 -0.0440608
internal_weight=0 33.2821 9.43822 28.3146 17.3862 10.9285 8.69309 8.69309 23.8439 13.4122 6.20935 6.45773 6.20935 7.20285 10.4317 8.44472
internal_count=248 134 38 114 70 44 35 35 96 54 25 26 25 29 42 34
shrinkage=1


Tree=1
num_leaves=19
num_cat=0
split_feature=11 11 9 13 20 9 13 15 10 13 7 9 25 9 9 11 16 16
split_gain=15.143 19.0214 12.9823 17.4892 8.80466 7.3166 7.19076 7.91806 6.27263 3.82991 2.81377 2.06816 0.996419 0.364851 0.276538 0.0214488 0.0169709 0.00271216
threshold=74.91617623339387 -37.749414255159984 -0.47490490420265791 0.18153254297943947 -0.012578878932856632 -0.98979466881738387 0.45795400964911753 16.362500000000001 0.36400708653203134 0.22163595931235777 0.21200773588994515 -0.91945826115304985 1.0000000180025095e-35 0.93009052791111224 0.9927973578517747 34.460042135322439 1.585925934833889 -1.0319001617672143
decision_type=2 2 2 2 2 2 2 2 2 2 2 2 2 2 2 2 2 2
left_child=1 6 3 11 -4 -5 7 10 9 13 -1 -3 -2 -6 16 -15 -12 -17
right_child=12 2 4 5 8 -7 -8 -9 -10 -11 14 -13 -14 15 -16 17 -18 -19
leaf_value=0.054773066126894233 0.17322318110867396 0.1755958333519145 0.013388459413871701 -0.19654095484670753 -0.15898303599920266 0.0087214105814677791 -0.067170030038650907 -0.025851501731902746 -0.0096443381633422691 -0.05623484244550625 0.17234918836009186 0.059846945704496828 0.092656636880475249 -0.20734190551477225 0.13697112232688924 -0.19534057673233521 0.18323459832299863 -0.20000079491456613
leaf_weight=3.1949342191219356 4.1444223225116721 4.1601104289293289 4.6769275665283194 3.4949060678482056 2.4908777773380342 3.4516148567199707 3.4765117168426505 4.1971537619829169 2.9875106960535041 2.4831431359052649 3.4076725542545301 2.4543748348951322 2.4381830394268036 4.2382244616746885 2.4563251435756683 2.4984076619148246 2.4706354588270187 2.4969157129526147
leaf_count=13 17 17 19 14 10 14 14 17 12 10 14 10 10 17 10 10 10 10
internal_value=0 -0.017168 -0.0606054 0.0162669 -0.108268 -0.0945494 0.0629809 0.0917518 -0.141357 -0.169053 0.134563 0.132646 0.143382 -0.192947 0.16515 -0.202109 0.176924 -0.19767
internal_weight=0 54.6362 35.433 13.561 21.872 6.94652 19.2032 15.7267 17.1951 14.2076 11.5296 6.61449 6.58261 11.7244 8.33463 9.23355 5.87831 4.99532
internal_count=248 221 143 55 88 28 78 64 69 57 47 27 27 47 34 37 24 20
shrinkage=0.1


Tree=2
num_leaves=20
num_cat=0
split_feature=20 9 20 12 9 18 12 18 9 9 18 12 5 19 18 10 9 18 3
split_gain=11.6545 13.0613 11.8313 10.234 7.01737 6.67897 5.15274 4.046 4.99865 3.98924 3.02122 3.36097 2.94325 2.85297 1.77336 2.33719 1.07556 0.0418461 0.00332063
threshold=0.012205654397982154 0.86605928982890334 0.11535509547780882 -1.4225275071301675 -0.94000075618215539 -0.037241317182351207 -5.50633084085612 0.049503015203885843 0.97459802466493051 -0.97905437730813083 0.013386426086787169 2.684676145403905 0.032361887879147087 0.053690322533003383 0.0023862892208796897 1.0000000180025095e-35 0.99887447352295144 0.019753542395588856 0.4571170391519605
decision_type=2 2 2 2 2 2 2 2 2 2 2 2 2 2 2 2 2 2 2
left_child=1 4 3 9 5 -1 -7 8 10 -2 -5 -12 -3 -4 18 -16 17 -10 -14
right_child=2 12 13 7 -6 6 -8 -9 16 -11 11 -13 14 -15 15 -17 -18 -19 -20
leaf_value=-0.11721590860273934 -0.045067434642546936 0.029100518718578706 0.023193781368543519 -0.1505750844039391 -0.12522469954565343 0.16444153303166673 -0.0075036459935747066 0.015440339368155302 -0.18393986356157016 0.11416257015065689 0.065606102696482801 -0.096058836960737609 0.17161870026312204 0.1764067926840476 0.042029967689050145 0.16917131919650533 -0.11684474247990068 -0.2003071986335091 0.16692187492404079
leaf_weight=2.462776005268096 2.9378148019313812 3.6998714804649344 2.4295139014720908 2.7009300887584748 4.6909324973821667 3.3244116902351371 3.6633993089199066 2.3954358249902716 2.4743617027997953 3.3878078013658586 2.4272866994142532 2.7349490523338318 3.1592410951852781 2.4319440126419067 3.6274152547121048 2.4040706157684326 2.448677271604538 4.2366731464862823 2.8751654326915741
leaf_count=10 12 15 10 11 19 14 15 10 10 14 10 11 13 10 15 10 10 17 12
internal_value=0 0.0445385 -0.0432388 -0.0702574 -0.0252388 0.0243907 0.0742983 -0.106243 -0.123366 0.0402112 -0.0648802 -0.0200439 0.107127 0.0998386 0.131053 0.0927068 -0.173574 -0.194273 0.169381
internal_weight=0 29.9073 30.6054 25.7439 14.1415 9.45059 6.98781 19.4183 17.0229 6.32562 7.86317 5.16224 15.7658 4.86146 12.0659 6.03149 9.15971 6.71103 6.03441
internal_count=248 123 125 105 58 39 29 79 69 26 32 21 65 20 50 25 37 27 25
shrinkage=0.1


Tree=3
num_leaves=20
num_cat=0
split_feature=11 11 12 13 7 7 6 6 13 21 4 16 16 4 1 18 12 7 4
split_gain=11.2512 14.5013 8.91297 15.3349 8.58399 6.62208 7.17876 6.20309 5.31103 3.97653 4.5747 2.95318 2.76788 2.06078 1.44388 0.249825 0.0168046 0.0108265 0.0028765
threshold=72.655367446573266 -34.662439304546758 -1.3364614763132614 0.036608787644987949 0.58278738822993559 0.30830586101639801 0.063386198123029744 0.64375709613906695 -0.046103773502330019 1.0000000180025095e-35 0.22162061807687211 -1.0319001617672143 0.19174651370129683 0.6168944530513335 0.0049387102360450652 0.01656726959472932 3.3434956323272038 0.42147776339933934 0.031161229550419878
decision_type=2 2 2 2 2 2 2 2 2 2 2 2 2 2 2 2 2 2 2
left_child=1 5 3 -3 -5 6 11 8 -4 10 -7 -1 -10 18 15 -9 -17 -11 -2
right_child=13 2 7 4 -6 9 -8 14 12 17 -12 -13 -14 -15 -16 16 -18 -19 -20
leaf_value=-0.024957415430291424 0.15565857517876674 0.16417403302693645 0.090463147396812008 0.056994819086078723 -0.15759129324806545 0.12952597052061396 -0.11908310987562438 -0.14630654931280071 -0.1553458896337726 0.16910658633594211 -0.057799149155404989 0.11991749964056851 -0.028807568895640592 0.043017019006516027 -0.080180122147932353 -0.18662181904870004 -0.17520143344391448 0.16017284954516475 0.16064132971230533
leaf_weight=2.4114948362112045 2.2904588282108298 4.2529025524854642 2.4103564023971558 3.1009483635425568 4.6740108132362366 2.8182514160871488 3.6779991835355759 3.3960238099098188 2.9527415186166781 2.8743505030870438 2.4258267283439636 3.3779647350311297 4.1697303801774979 2.3375105261802673 2.4400451481342307 2.7241101711988449 2.4447717368602753 2.5688410848379135 2.3444916158914566
leaf_count=10 10 18 10 13 19 12 15 14 12 12 10 14 17 10 10 11 10 11 10
internal_value=0 -0.0155982 -0.0568577 0.0115042 -0.0720062 0.051068 -0.00983317 -0.0968935 -0.0378448 0.105018 0.0428724 0.0595725 -0.0812662 0.119571 -0.148043 -0.167377 -0.18122 0.16489 0.158179
internal_weight=0 52.7204 32.5656 12.0279 7.77496 20.1547 9.46746 20.5378 9.53283 10.6873 5.24408 5.78946 7.12247 6.97246 11.005 8.56491 5.16888 5.44319 4.63495
internal_count=248 218 134 50 32 84 39 84 39 45 22 24 29 30 45 35 21 23 20
shrinkage=0.1


Tree=4
num_leaves=19
num_cat=0
split_feature=17 17 8 20 8 17 10 8 8 8 17 17 7 1 9 8 17 1
split_gain=21.459 12.1974 6.10306 5.3039 5.03782 11.0182 3.46005 6.80914 5.44204 9.79716 2.66875 2.21841 1.93137 0.99198 0.636939 0.360641 0.0089366 0.00267861
threshold=0.52729337677136268 0.65856568354213318 0.29587386862911719 0.10419053906530736 0.35790361050699554 0.73193266748536934 0.034764955597009588 0.36558406161421364 0.49987493327589361 0.56227006054663431 0.44807911598161726 0.56494227211545789 0.55008823040060351 -0.0036194981724033755 0.78541733311165285 0.39088495839135567 0.63151426765153307 0.0029797473074839962
decision_type=2 2 2 2 2 2 2 2 2 2 2 2 2 2 2 2 2 2
left_child=3 2 -2 6 -3 -6 7 -1 -9 -10 -8 12 -4 -13 -11 -12 17 -15
right_child=1 4 11 -5 5 -7 10 8 9 14 15 13 -14 16 -16 -17 -18 -19
leaf_value=0.10090500228921127 -0.022539526857786589 -0.14333408952424251 0.12157933283351222 0.04203453059720802 0.16708930280861417 -0.1060131137451448 -0.045664641102465091 -0.175828677415059 0.12721854424582829 -0.14670699142848645 -0.18185457272439642 0.081925256412690856 -0.0055512040279703662 0.14906337041161224 -0.07591900813374125 -0.13317182182913104 0.15727623624588527 0.1530160339994622
leaf_weight=2.4330455660820069 3.5496450811624589 3.1124923378229123 2.5597241669893291 4.0119480788707724 2.625737801194191 3.3774841576814651 2.6709003597497922 4.1010090559720975 2.5446815341711044 2.6725407391786575 4.1925162971019745 2.3320150971412721 2.241352379322052 2.8595683425664813 2.4239706248044968 2.3886536061763763 4.1322615444660187 4.2814167588949203
leaf_count=10 15 13 11 17 11 14 11 17 11 11 17 10 10 13 10 10 18 19
internal_value=0 0.0571468 0.0975178 -0.0642072 -0.0400902 0.0134386 -0.0824012 -0.0513532 -0.0829018 -0.0330282 -0.12997 0.120671 0.0622292 0.141294 -0.113039 -0.164185 0.153575 0.151433
internal_weight=0 31.0717 21.956 27.4393 9.11571 6.00322 23.4273 14.1752 11.7422 7.64119 9.25207 18.4063 4.80108 13.6053 5.09651 6.58117 11.2732 7.14099
internal_count=248 134 96 114 38 25 97 59 49 32 38 81 21 60 21 27 50 32
shrinkage=0.1


Tree=5
num_leaves=20
num_cat=0
split_feature=17 17 11 11 9 8 17 10 11 12 12 8 17 18 17 17 0 2 2
split_gain=17.8807 10.3038 5.98911 5.4308 4.27827 3.94107 3.48449 4.97887 4.54199 4.21202 5.08463 3.07864 2.30432 1.65517 0.745834 0.522781 0.292913 0.0164771 0.00314871
threshold=0.52729337677136268 0.64567980587465512 -26.662548403445122 43.391361491028171 0.78541733311165285 0.28805685601478231 0.43660646945671883 0.034764955597009588 -8.4781032246654711 -3.2326573082434389 -1.296830569953165 0.39088495839135567 0.56494227211545789 0.011253060435569675 0.45759381978560049 0.69975905412967665 -1.8478736523849344 0.23060008888280778 0.72868859955687637
decision_type=2 2 2 2 2 2 2 2 2 2 2 2 2 2 2 2 2 2 2
left_child=3 5 -3 6 -4 -2 8 9 -1 -8 -11 -9 13 -7 -5 -6 -14 -18 -19
right_child=1 2 4 14 15 12 7 11 -10 10 -12 -13 16 -15 -16 -17 17 18 -20
leaf_value=0.12505134027597395 -0.011479313986668953 0.073901585523622776 0.028754899966463073 -0.1716222308058736 -0.10215520279460757 -0.005113541040799645 -0.113275871140889 -0.16918036339250112 -0.064453727312943049 0.15620090702354372 -0.032459657879606994 -0.032619591387630049 0.10676931026521666 0.1134771901507742 -0.099345668429113868 -0.16962839964039078 0.1525755390950847 0.14139266998920821 0.14613264069619875
leaf_weight=2.7239750921726227 2.8432774543762269 3.9548051208257675 2.3769833594560605 3.6132964342832556 2.2557820379734039 2.2438582032918957 2.6229952871799496 4.5721027404069892 2.3609401285648408 2.2854567915201214 3.8101169615983892 2.5837648957967758 2.172463968396193 2.4750907421112061 2.3604117780923843 2.338941901922226 3.7964585423469455 2.4781647622585297 3.2256494760513306
leaf_count=12 12 17 10 15 10 10 11 19 10 10 16 11 10 11 10 10 17 12 15
internal_value=0 0.0531521 -0.024397 -0.0589518 -0.0801584 0.0972042 -0.0349788 -0.0580555 0.0370636 -0.00731849 0.0382762 -0.119872 0.116056 0.0570873 -0.143063 -0.136502 0.139896 0.147471 0.144073
internal_weight=0 30.1615 10.9265 26.9331 6.97171 19.235 20.9594 15.8744 5.08492 8.71857 6.09557 7.15587 16.3917 4.71895 5.97371 4.59472 11.6727 9.50027 5.70381
internal_count=248 134 47 114 30 87 89 67 22 37 26 30 75 21 25 20 54 44 27
shrinkage=0.1


Tree=6
num_leaves=18
num_cat=0
split_feature=11 11 9 13 8 9 2 18 3 10 9 3 8 18 1 1 19
split_gain=7.02708 9.46954 8.221 8.93298 6.5682 10.0651 5.04437 4.72287 8.84208 4.67083 3.87289 1.45761 0.838123 0.651204 1.03032 0.191287 0.0156554
threshold=74.91617623339387 -34.662439304546758 -0.47490490420265791 0.18153254297943947 0.43146224570095287 0.86605928982890334 0.092589026048850054 -0.0088500651857981432 0.2016986841237122 0.36400708653203134 -0.98979466881738387 0.61352709028518537 0.65902613562792467 0.01656726959472932 0.0035425996973794905 0.00031161229550419881 0.054253918219409565
decision_type=2 2 2 2 2 2 2 2 2 2 2 2 2 2 2 2 2
left_child=1 4 3 11 5 -1 -4 -7 -9 13 -5 -3 -2 14 -8 -6 -15
right_child=12 2 6 10 15 7 9 8 -10 -11 -12 -13 -14 16 -16 -17 -18
leaf_value=-0.12324224500153809 0.058157341207124326 0.1475609076148626 0.01060720366436347 -0.15385667236781522 0.1096732882729234 0.16112255724906996 -0.068780942383628071 -0.13633585630148617 0.11735294200268959 0.0018696281975987079 0.0094515291808819485 0.044358839017726179 0.13839198807760553 -0.15425578886290495 -0.15780469507987072 0.14726233541249109 -0.16371640738061827
leaf_weight=4.1563713401556042 2.1143026649951926 3.6387113779783267 4.3189594298601177 2.7060371488332748 2.1609926372766486 3.2572879791259766 2.6899393945932371 2.3848143815994245 3.2410611361265182 2.9231913685798636 3.1340295374393463 2.1936004459857941 3.3883634507656097 4.0813815891742706 2.5160882472991943 3.6245536357164383 3.0609856098890305
leaf_count=18 10 17 19 12 10 14 12 10 15 12 13 10 17 18 11 17 13
internal_value=0 -0.0114883 -0.0452288 0.0212053 0.0445447 0.00519914 -0.0848113 0.065296 0.009814 -0.111797 -0.0662185 0.108745 0.107563 -0.138704 -0.111806 0.133222 -0.15831
internal_weight=0 50.088 31.2629 11.6724 18.8251 13.0395 19.5905 8.88316 5.62588 15.2716 5.84007 5.83231 5.50267 12.3484 5.20603 5.78555 7.14237
internal_count=248 221 137 52 84 57 85 39 25 66 25 27 27 54 23 27 31
shrinkage=0.1


Tree=7
num_leaves=19
num_cat=0
split_feature=11 11 9 9 12 22 19 10 16 21 16 25 12 12 16 12 9 9
split_gain=5.99501 7.96656 6.85489 5.47079 4.38879 3.73533 2.91715 3.66488 2.82079 2.38835 1.9155 0.951471 0.711298 0.73435 0.471401 0.00885482 0.00489475 0.00346462
threshold=74.91617623339387 -34.662439304546758 -0.47490490420265791 -0.98774538195491479 4.4084328825733836 1.0000000180025095e-35 -0.031852203256211124 0.36400708653203134 -0.61670898339823688 1.0000000180025095e-35 -0.70894868575222703 1.0000000180025095e-35 -1.0000000180025095e-35 8.0290601501925369 4.7644539546861759 4.1259852057570168 0.98690956583182776 0.99624290349801281
decision_type=2 2 2 2 2 2 2 2 2 2 2 2 2 2 2 2 2 2
left_child=1 3 5 -1 9 -3 -4 12 -7 10 -5 -2 -8 15 -10 17 -11 -14
right_child=11 2 6 4 -6 8 7 -9 14 16 -12 -13 13 -15 -16 -17 -18 -19
leaf_value=-0.072008211383094975 0.13531916560832832 0.10799001612880468 -0.0033026505885328781 0.11173680437753251 -0.026198864799874034 -0.088122892296208635 -0.077707036963619511 0.0016826406613275589 0.064110034380869457 0.13931538169220367 -0.013327516080541566 0.047632785599401484 -0.14618603937177374 -0.084323398270261765 0.00027969503461716688 -0.15627090269895325 0.14514004122382515 -0.15144228805676388
leaf_weight=3.4261453896760967 3.2442137598991385 3.3680043816566485 4.0618916302919414 2.3976915180683136 3.6833429634571067 3.3133849799633026 2.6890591979026821 2.9232367873191825 2.3538385033607483 3.7942104190587997 2.5032111555337888 2.0005376487970352 2.5709419697523064 2.1274773478507996 2.2755121737718582 2.2749139070510864 2.3279439955949783 2.4481406509876251
leaf_count=16 17 16 18 11 16 15 12 12 11 19 11 10 12 10 10 10 11 11
internal_value=0 -0.0106691 -0.0419542 0.0417927 0.0683049 0.0197394 -0.0784965 -0.0988127 -0.0176821 0.0998832 0.0478583 0.101872 -0.12307 -0.136018 0.0327349 -0.151096 0.14153 -0.14875
internal_weight=0 48.5389 30.4064 18.1325 14.7064 11.3107 19.0957 15.0338 7.94274 11.0231 4.9009 5.24475 12.1105 9.42147 4.62935 7.294 6.12215 5.01908
internal_count=248 221 137 84 68 52 85 67 36 52 22 27 55 43 21 33 30 23
shrinkage=0.1


Tree=8
num_leaves=19
num_cat=0
split_feature=17 17 11 17 17 10 16 15 17 12 17 10 11 5 5 17 6 4
split_gain=12.363 7.32712 4.1755 5.46354 5.18625 4.57628 4.14545 3.94115 2.77475 2.49071 5.29629 2.04842 1.53399 0.757302 0.671516 0.492806 0.0390135 0.00565833
threshold=0.52729337677136268 0.65856568354213318 21.780210474910863 0.44807911598161726 0.47315906338954777 0.046764132498671195 2.1635339416979478 15.682500000000003 0.73193266748536934 0.74425788056661057 0.57341576195421629 -0.03861502817806832 -34.662439304546758 0.17738342384687408 0.28633336227350009 0.56494227211545789 0.88382330415666521 0.42920602224009025
decision_type=2 2 2 2 2 2 2 2 2 2 2 2 2 2 2 2 2 2
left_child=2 9 3 12 16 7 8 -5 -3 15 -11 -12 -1 -13 -7 -2 -4 -17
right_child=1 6 4 5 -6 14 -8 -9 -10 10 11 13 -14 -15 -16 17 -18 -19
leaf_value=0.13942414717158558 0.087680425131164835 -0.023265995705022621 -0.15755349943471764 0.10748210994951864 -0.00060303799685351494 -0.1487495146325977 0.078286989211590427 -0.080037808426853901 -0.1646859865287312 -0.096862597981997658 0.14114707027658785 -0.0022490636755568018 0.024061293616552921 0.080746690026232013 -0.077086972791160557 0.13779655188126314 -0.14218149221853968 0.13145336117349393
leaf_weight=1.9588442146778104 3.4689070731401497 3.6251541525125486 3.8505529612302762 2.299603343009947 3.4773931205272675 3.2868646234273911 2.4134572446346283 2.1864511370658875 2.2475914061069489 2.067079544067381 3.4219894558191299 2.2671756446361542 2.800517842173579 2.1344439387321472 2.1714393347501755 3.5017456412315369 2.8903363943099976 2.3500522822141647
leaf_count=10 17 17 17 10 16 15 11 10 10 10 17 10 12 11 10 18 14 13
internal_value=0 0.0465528 -0.0506928 -0.0165705 -0.0997934 -0.058741 -0.0320469 0.0160871 -0.0773896 0.0804542 0.0455005 0.0831143 0.071542 0.0379974 -0.120241 0.117545 -0.150962 0.135249
internal_weight=0 27.4976 24.922 14.7037 10.2183 9.94436 8.2862 4.48605 5.87275 19.2114 9.89069 7.82361 4.75936 4.40162 5.4583 9.3207 6.74089 5.8518
internal_count=248 134 114 67 47 45 38 20 27 96 48 38 22 21 25 48 31 31
shrinkage=0.1


Tree=9
num_leaves=20
num_cat=0
split_feature=11 11 12 2 15 5 18 12 12 18 5 12 4 11 22 18 12 11 2
split_gain=4.65268 6.18055 4.45941 8.67902 5.3953 3.77359 4.41346 4.56574 4.18733 2.41586 2.20263 2.30285 1.86054 0.748055 0.685564 0.166135 0.148703 0.0204694 0.00395196
threshold=72.655367446573266 -34.662439304546758 -1.3364614763132614 0.8089560258123728 16.955000000000002 0.29521762974407845 -0.013703555264276577 1.7455792750701848 -0.98693631023991812 0.003661020690260836 0.55442322500369434 1.5975673198507883 0.6168944530513335 -11.584674568014911 1.0000000180025095e-35 0.0059084926725784534 -4.830225758787889 34.460042135322439 0.71189989813465571
decision_type=2 2 2 2 2 2 2 2 2 2 2 2 2 2 2 2 2 2 2
left_child=1 5 3 9 10 6 8 14 -1 -3 11 -4 18 -13 -8 -7 -5 -12 -2
right_child=12 2 4 16 -6 15 7 -9 -10 -11 17 13 -14 -15 -16 -17 -18 -19 -20
leaf_value=-0.037112503974182434 0.12774258318608298 -0.011669488002199066 0.023561870921151779 0.10733042239446003 0.038482328628708443 0.09584250382912958 0.06459281932783216 -0.13776869645816392 0.14347598600420408 -0.13804335566255457 -0.15175293752312607 -0.14442382456193492 0.0088250233276050954 -0.070241710710739105 -0.016488516841770825 0.13509978066786651 0.14528808647798452 -0.13950583049985749 0.13446771711499683
leaf_weight=2.0333020836114883 1.6781013011932364 3.9451075196266192 2.2034373283386248 2.1200601756572723 3.6846156269311896 1.9399845898151387 2.1336390674114236 2.9376983940601349 3.4840734750032434 2.4534831196069717 2.1373727619647971 2.0814209580421457 1.9235362559556959 3.9185234904289237 2.0397212952375412 2.4261759519577026 2.0112101435661316 3.775063157081604 1.8230915367603302
leaf_count=10 10 18 10 11 17 10 11 13 17 11 10 10 10 18 10 13 10 19 10
internal_value=0 -0.0101604 -0.038761 0.0128233 -0.0692757 0.0375173 0.00980983 -0.0422633 0.0769242 -0.0601264 -0.0974035 -0.063868 0.0878361 -0.095976 0.0249645 0.117657 0.125809 -0.143933 0.131244
internal_weight=0 45.3249 28.3303 10.5299 17.8004 16.9946 12.6284 7.11106 5.51738 6.39859 14.1158 8.20338 5.42473 5.99994 4.17336 4.36616 4.13127 5.91244 3.50119
internal_count=248 218 134 50 84 84 61 34 27 29 67 38 30 28 21 23 21 29 20
shrinkage=0.1


Tree=10
num_leaves=19
num_cat=0
split_feature=11 11 9 13 9 12 9 20 10 13 13 9 4 9 10 13 10 5
split_gain=4.00467 5.01241 4.70456 6.28448 3.93476 3.11993 3.10509 2.61282 3.2832 1.74688 1.30873 1.16025 0.83659 0.380534 0.159188 0.0118113 0.0044363 0.00211948
threshold=74.91617623339387 -34.662439304546758 -0.47490490420265791 0.18153254297943947 -0.98774538195491479 4.4084328825733836 -0.98979466881738387 -0.012578878932856632 0.36400708653203134 0.036608787644987949 0.20960657455927353 -0.91945826115304985 0.49378737428587011 0.98690956583182776 0.11933380051599736 0.30725928276190972 -0.023921175917087988 0.62196975338805827
decision_type=2 2 2 2 2 2 2 2 2 2 2 2 2 2 2 2 2 2
left_child=1 4 3 11 -1 9 -5 -4 10 -6 14 -3 -2 15 16 -11 17 -9
right_child=12 2 7 6 5 -7 -8 8 -10 13 -12 -13 -14 -15 -16 -17 -18 -19
leaf_value=-0.064247047310471345 0.12524480616887476 0.13497913533928604 0.0067598018532438187 -0.14132085140708278 0.030280094115888324 -0.023329587546555123 0.010550647573819731 -0.13713697197643682 0.0086265160762407766 0.12948826424548313 -0.043024152306575823 0.036999905353444502 0.037964574640097504 0.080597557246753909 -0.10497074663828276 0.13971494033541909 -0.14035104961084285 -0.13263262906952958
leaf_weight=3.2094119936227825 2.695966348052024 3.1757594048976898 3.8308651149272945 2.4097682982683182 3.4337055832147581 3.4023602753877631 3.0503318756818771 2.1650798469781876 2.8605412095785132 2.3657319843769073 2.2029833495616904 1.9511549025774018 1.853027746081352 1.8554923832416532 2.0407864153385162 2.1609270572662354 2.4083682000637037 2.018614798784256
leaf_count=16 17 17 18 12 17 16 13 11 12 14 10 10 10 10 11 11 12 11
internal_value=0 -0.00880993 -0.0344526 0.0181814 0.035075 0.0591906 -0.0564765 -0.0662452 -0.0866647 0.0877936 -0.11182 0.0976911 0.0896913 0.118737 -0.129376 0.13437 -0.136932 -0.134964
internal_weight=0 44.5419 28.1143 10.587 16.4276 13.2182 5.4601 17.5272 13.6964 9.81586 10.8358 5.12691 4.54899 6.38215 8.63285 4.52666 6.59206 4.18369
internal_count=248 221 137 52 84 68 25 85 67 52 55 27 27 35 45 25 34 22
shrinkage=0.1


Tree=11
num_leaves=19
num_cat=0
split_feature=20 9 20 13 13 12 19 18 9 16 13 20 13 19 7 16 22 3
split_gain=3.40833 6.26179 5.49864 4.0539 3.68586 2.99255 2.42763 2.286 1.66737 1.56426 1.88344 1.13333 2.21505 2.32761 0.75929 0.663893 0.70366 0.653959
threshold=0.012205654397982154 0.86605928982890334 0.10419053906530736 -0.057038069529549665 0.25490267354119872 -1.4225275071301675 0.047405775953705882 -0.033061453714657567 -0.97905437730813083 0.91578959726089948 0.014668084625487163 0.026668816261048965 -0.35415208616591815 0.030705030950377406 0.7598398419564133 1.4402759839083241 1.0000000180025095e-35 0.65294293438618922
decision_type=2 2 2 2 2 2 2 2 2 2 2 2 2 2 2 2 2 2
left_child=1 3 5 -1 17 8 -4 -6 -2 10 -3 -7 -13 -14 -11 16 -15 -5
right_child=2 9 6 4 7 11 -8 -9 -10 14 -12 12 13 15 -16 -17 -18 -19
leaf_value=0.099635708039569393 -0.043271983482581766 0.099829700062720225 -0.020099782391566443 -0.081099662722420376 -0.077797181640809954 -0.13972756665699784 0.11396938316452448 0.057143422295900984 0.079692886742506741 0.14594364678541669 -0.0040032968798973606 0.045992577694595214 -0.007537080200959426 -0.051190332874911017 0.064240182240983185 -0.15610587825007227 -0.13156529893074029 -0.15900069891650123
leaf_weight=2.1253991574049005 2.2056443989276886 3.3995309919118863 2.2632795125246039 2.078830286860466 2.0881278812885276 2.3496463000774375 3.3492093533277512 3.1481713950634012 2.2052756845951142 3.459382638335228 3.5936564356088638 1.5906043946743036 2.9703463315963692 2.2250538468360901 1.6946218162775037 2.391320675611496 2.1337963342666626 2.2374666482210159
leaf_count=12 11 19 12 10 10 12 17 16 12 18 18 10 15 12 10 12 12 10
internal_value=0 0.0270129 -0.026556 -0.0252731 -0.0530646 -0.0534081 0.059905 0.0033319 0.0182053 0.0772792 0.046472 -0.0765313 -0.0634036 -0.0813045 0.11908 -0.113765 -0.0905364 -0.121482
internal_weight=0 23.8252 23.6842 11.678 9.5526 18.0717 5.61249 5.2363 4.41092 12.1472 6.99319 13.6608 11.3111 9.72052 5.154 6.75017 4.35885 4.3163
internal_count=248 123 125 58 46 96 29 26 23 65 37 73 61 51 28 36 24 20
shrinkage=0.1


Tree=12
num_leaves=20
num_cat=0
split_feature=8 15 15 9 15 13 19 9 13 13 2 13 13 15 21 5 5 1 15
split_gain=3.04838 4.95946 4.54064 3.38513 3.30371 6.5735 3.79492 3.93321 3.23181 1.87527 1.74473 1.6345 1.60377 1.59621 1.33658 1.4463 1.21669 1.87079 0.0107328
threshold=0.48560080349410983 16.525000000000002 16.841250000000006 -0.85214912239112883 14.543750000000001 0.19851442884512752 0.027831179789343661 0.97459802466493051 -0.4713052299211396 0.34279750132627418 0.073857328397633079 -0.70631152333647151 0.13530999081229381 13.916250000000002 1.0000000180025095e-35 0.45146407794980553 0.86979121009514593 0.002573970639102707 18.357500000000005
decision_type=2 2 2 2 2 2 2 2 2 2 2 2 2 2 2 2 2 2 2
left_child=1 4 3 10 5 -1 9 -8 11 12 -2 -5 -6 -7 -3 -16 17 -10 -4
right_child=2 14 18 8 6 13 7 -9 16 -11 -12 -13 -14 -15 15 -17 -18 -19 -20
leaf_value=0.1011014170565262 0.0056201710014861508 -0.1530283191946987 0.13482333556592871 -0.012992493287314503 0.09072239821139616 -0.14269707940902249 0.073188459187437008 -0.11478267799219095 0.040787175666556742 0.15069297684790511 0.13214476989996321 0.1275773546492468 -0.021219321755126995 -0.03821274922653576 -0.0046326865033565964 -0.12290510900408502 -0.13016356841880153 -0.081157413871642867 0.12406377197053807
leaf_weight=2.2283844947814995 1.8631953746080423 2.5410233139991751 2.0296527892351146 1.6352948173880579 3.1378681585192663 3.5643492788076401 1.9120267927646635 2.6643735617399216 1.9730269759893397 2.4614207744598389 2.6258966475725174 1.6738726720213888 2.1614398211240768 2.4790774136781693 2.1725867539644241 1.9727564156055448 1.8861206173896787 3.4717353135347366 1.7066515386104582
leaf_count=12 9 12 11 10 17 18 10 15 11 12 15 11 11 13 11 10 11 18 11
internal_value=0 -0.0210876 0.0311873 0.00680704 0.00319192 -0.0457048 0.0359763 -0.0362481 -0.0239177 0.078566 0.0796308 0.0581118 0.0450645 -0.0998365 -0.0959228 -0.0609182 -0.0609459 -0.0369682 0.129909
internal_weight=0 27.2953 18.8654 15.1291 20.6089 8.27181 12.3371 4.5764 10.6401 7.76073 4.48909 3.30917 5.29931 6.04343 6.68637 4.14534 7.33088 5.44476 3.7363
internal_count=248 141 107 85 108 43 65 25 61 40 24 21 28 31 33 21 40 29 22
shrinkage=0.1


Tree=13
num_leaves=21
num_cat=0
split_feature=17 17 13 13 13 15 9 20 10 18 10 17 4 3 15 4 18 6 20 4
split_gain=7.05326 5.21611 3.76923 2.61507 4.9672 3.94919 2.61542 2.58528 2.259 2.23756 2.73791 1.63158 1.12478 1.484 2.4508 0.243194 0.199545 0.0151629 0.00591014 0.00120496
threshold=0.52729337677136268 0.69098704773896247 0.19851442884512752 -0.064233430436596781 0.20536490868032461 15.981250000000001 0.99432106318794167 0.10419053906530736 0.4253279939438081 0.030668559430630713 -0.24433747487944671 0.5702966831658024 0.4095916309954501 0.31236381025770327 12.868750000000002 0.26353201277613575 0.037747470241700352 0.87533150620256828 -0.032138910510396516 0.42920602224009025
decision_type=2 2 2 2 2 2 2 2 2 2 2 2 2 2 2 2 2 2 2 2
left_child=7 3 -3 11 5 6 -5 8 9 10 -1 -2 13 -12 -15 -6 -11 18 -13 -19
right_child=1 2 -4 4 15 -7 -8 -9 -10 16 12 17 -14 14 -16 -17 -18 19 -20 -21
leaf_value=-0.091281059175161147 0.018138037920437385 -0.14157970415181506 0.042198704867823268 0.12810192424586761 0.13701513950281574 -0.12348531191216799 -0.040335367579157927 0.043519484424736188 -0.14518725955838285 -0.13394698840099803 0.057337421621254769 0.12601167189422188 0.071057566075239373 0.037767542806233713 -0.11802624396349613 0.086949793653269297 -0.08694902755451972 0.1180270025182369 0.13380251047832917 0.1222302061152323
leaf_weight=3.8328306078910854 1.7795577198267034 2.4556075632572165 2.045717179775238 1.7286638617515548 2.2588727027177815 2.5470556318759918 1.9751883447170255 3.0856617763638488 2.4314815849065772 1.8340462744235986 2.0750859826803225 1.9136803299188612 2.258344829082489 1.8648576438426969 2.2020453810691833 1.7007505968213079 1.7803718000650404 1.2796928137540819 1.9823659807443621 1.460387699306011
leaf_count=18 11 13 10 11 12 14 10 17 12 10 10 12 11 11 13 10 12 10 11 10
internal_value=0 0.0385473 -0.0580579 0.0618935 0.0278762 -0.0276358 0.0382778 -0.0411464 -0.0554387 -0.0416686 -0.0212439 0.103166 0.010712 -0.0114764 -0.0465878 0.115511 -0.110797 0.125967 0.129976 0.120267
internal_weight=0 23.1275 4.50132 18.6262 10.2105 6.25091 3.70385 21.3647 18.2791 15.8476 12.2332 8.41568 8.40033 6.14199 4.0669 3.95962 3.61442 6.63613 3.89605 2.74008
internal_count=248 134 23 111 57 35 21 114 97 85 63 54 45 34 24 22 22 43 23 20
shrinkage=0.1


Tree=14
num_leaves=19
num_cat=0
split_feature=12 8 13 11 11 13 9 2 8 8 9 5 9 15 15 5 9 11
split_gain=2.87957 4.23843 4.1383 3.49538 3.03945 2.5535 2.35403 1.56031 1.54083 2.98615 2.73842 2.65186 3.73121 0.994734 1.13617 0.233421 0.0690263 0.00590591
threshold=2.595614117813815 0.62954573720799456 -0.089653603652169109 44.082033513326913 -32.728774368519126 0.4852383684316483 0.99366919016422572 0.39953605802591691 0.60514131590203257 0.48560080349410983 -0.98774538195491479 0.55442322500369434 0.99432106318794167 14.487500000000002 16.291250000000002 0.22868259255338338 0.9721766161232932 -31.035686433572391
decision_type=2 2 2 2 2 2 2 2 2 2 2 2 2 2 2 2 2 2
left_child=2 4 16 5 6 8 -2 -3 9 10 -4 12 15 -6 -15 -12 -1 -11
right_child=1 7 3 -5 13 -7 -8 -9 -10 17 11 -13 -14 14 -16 -17 -18 -19
leaf_value=0.12626343238101953 -0.047620815091682332 0.12419301413603873 -0.074670905572534793 -0.10779046846317385 -0.14031408303788837 -0.087296854812887237 0.10538819581260753 -0.0074557250306953472 -0.041753680424450205 0.12323368215247153 0.096600734942737465 -0.065732065255583644 -0.014299979029765897 -0.015961826961423783 -0.10741710425151554 0.14282939575371215 0.097924149965099544 0.13186520049173853
leaf_weight=2.5463101267814667 2.7105739265680322 1.9404513835906976 2.4557312130928119 2.4711890816688529 2.9942627847194672 2.0548080503940573 1.598432309925556 1.6794865578413007 2.5398124456405631 1.4210106283426287 1.7400336638092992 1.8070380985736845 3.2181743234395981 2.3492431938648224 3.2206431329250336 2.9338443353772163 1.2974109947681425 1.7928355485200871
leaf_count=17 14 13 14 15 16 11 10 10 13 10 11 10 17 13 18 16 10 10
internal_value=0 -0.0324829 0.020825 0.00439901 -0.0593647 0.0182866 0.00913811 0.063114 0.0304011 0.0423254 0.0196594 0.043543 0.0685637 -0.0938316 -0.0688435 0.125619 0.116698 0.128049
internal_weight=0 16.4931 26.2782 22.4345 12.8732 19.9633 4.30901 3.61994 17.9085 15.3687 12.1548 9.69909 7.89205 8.56415 5.56989 4.67388 3.84372 3.21385
internal_count=248 94 154 127 71 112 24 23 101 88 68 54 44 47 31 27 27 20
shrinkage=0.1


Tree=15
num_leaves=23
num_cat=0
split_feature=12 10 9 2 13 19 13 18 9 7 10 16 19 9 16 18 13 9 19 16 13 5
split_gain=2.44136 3.70152 3.46005 3.49497 2.66569 1.71001 2.31778 1.85526 1.67355 2.24044 1.59996 1.2063 1.29923 0.796951 0.688193 0.560863 0.841946 0.496872 0.200743 0.177559 0.0160326 0.00976222
threshold=2.595614117813815 -0.53318110473761482 0.99432106318794167 0.55112329686775952 -0.064233430436596781 0.056203546238770503 0.4852383684316483 -0.029927739928949645 0.994627177459111 0.69528707781020327 0.042690152006019465 -1.566045999923148 0.043249747718789873 0.98550630480621049 -0.85272058710742427 0.0031615047943006906 0.28675596206626602 0.99945985136251381 0.045639081549231304 2.3619549466180048 0.13530999081229381 0.91100791339059006
decision_type=2 2 2 2 2 2 2 2 2 2 2 2 2 2 2 2 2 2 2 2 2 2
left_child=1 14 11 19 18 6 7 -6 9 15 -7 -2 13 -13 -1 16 -9 -5 21 -4 -17 -3
right_child=2 4 3 17 5 10 -8 8 -10 -11 -12 12 -14 -15 -16 20 -18 -19 -20 -21 -22 -23
leaf_value=-0.027049868630702502 -0.12343439845966012 0.12827291437062086 0.081477527437205877 -0.067844108715598414 -0.040991190292964087 -0.12398866347535892 -0.072735263580322035 0.021384345994344609 -0.022526828308162588 -0.033644442174410406 0.014650024086065886 -0.11637352898446103 0.021825204125511526 -0.027075085803595935 -0.11396020106431998 0.12429291783573065 0.12421155524643208 0.0053472612676951923 0.075034298442868436 0.13023931800563288 0.13678963153988652 0.11632107252974044
leaf_weight=1.7099534049630167 2.9726790338754645 1.6365831047296553 1.6323287114500993 2.4006197080016141 1.927264586091044 1.4659193307161325 1.7850495725870121 1.5429271087050422 1.779872104525565 1.3652264103293417 1.9262076914310453 2.3045615404844275 1.9385477006435392 1.7646998241543768 1.9502300173044229 2.1217085495591164 1.6455112919211385 1.5115306451916692 1.2441839724779127 1.3764853775501249 1.9890793487429617 1.1733925715088842
leaf_count=10 16 10 11 15 10 10 10 10 9 9 10 12 11 10 10 14 11 10 10 9 11 10
internal_value=0 0.0196356 -0.0303812 0.0227548 0.0353914 0.0185074 0.0337877 0.0491575 0.0657924 0.0839352 -0.0452632 -0.0713314 -0.0455507 -0.0776478 -0.0733577 0.105927 0.0744521 -0.0395653 0.108475 0.103785 0.13034 0.123282
internal_weight=0 25.2631 15.9015 6.92096 21.6029 17.5488 14.1566 12.3716 10.4443 8.66445 3.39213 8.98049 6.00781 4.06926 3.66018 7.29923 3.18844 3.91215 4.05416 3.00881 4.11079 2.80998
internal_count=248 154 94 45 134 104 84 74 64 55 20 49 33 22 20 46 21 25 30 20 25 20
shrinkage=0.1


Tree=16
num_leaves=20
num_cat=0
split_feature=17 17 1 18 9 15 15 15 16 0 10 10 10 10 1 0 18 17 16
split_gain=4.92928 4.5912 1.40407 1.62354 3.51636 2.44762 1.48881 2.51856 1.38472 1.31169 1.30831 3.02109 1.39211 1.39382 0.753757 0.451715 0.273522 0.17232 0.00853743
threshold=0.54955531356041032 0.69098704773896247 0.0089507336411230251 0.029698194560754152 0.70290631158174088 13.087500000000002 13.916250000000002 15.223750000000001 0.19174651370129683 0.19533878692458181 -0.03861502817806832 0.17842188975953169 0.10949049444105254 0.02152496095391351 -0.0013800653303859712 -0.94553267583312839 0.011253060435569675 0.60167585556669179 -1.3761654488753137
decision_type=2 2 2 2 2 2 2 2 2 2 2 2 2 2 2 2 2 2 2
left_child=2 10 3 4 5 -1 -6 -8 -3 14 16 12 13 -12 -5 -7 18 -13 -2
right_child=1 8 -4 9 6 15 7 -9 -10 -11 11 17 -14 -15 -16 -17 -18 -19 -20
leaf_value=0.022924792172029348 0.12823959493334516 -0.11778729833106211 -0.11461942221050488 -0.08804790826358673 -0.013111762833407994 -0.069921719788766781 0.12933834929133395 -0.026782709948411389 -0.0006821116623104452 -0.14331157129494485 -0.037986069203693767 0.082490299470494091 -0.083238400092238179 0.089662468952986338 -0.00049073320695606657 -0.13556343066258336 0.069008211534134264 0.12578172128289644 0.11838451826256693
leaf_weight=2.3049936741590553 1.5697118118405342 1.8590796440839756 1.8615955784916867 1.7191953733563421 3.1640327647328377 1.949290484189987 3.0259255543351173 1.5691430941224096 2.2101838812232018 1.6752353161573408 1.6287482231855395 1.4622099176049235 1.6279155090451238 1.8016210868954656 2.2967126592993727 2.2682128921151161 1.2912120521068571 2.4770957231521606 1.9978047087788591
leaf_count=13 10 11 11 12 17 11 16 10 12 10 10 11 10 12 16 13 10 17 16
internal_value=0 0.0392056 -0.0315577 -0.0238158 -0.00581775 -0.0599376 0.0396768 0.0760255 -0.0541827 -0.0689807 0.0666315 0.0440512 -0.00708482 0.0290546 -0.0379736 -0.105224 0.108447 0.109713 0.122721
internal_weight=0 17.9256 21.8343 19.9727 14.2816 6.5225 7.7591 4.59507 4.06926 5.69114 13.8563 8.99759 5.05828 3.43037 4.01591 4.2175 4.85873 3.93931 3.56752
internal_count=248 119 129 118 80 37 43 26 23 38 96 60 32 22 28 24 36 28 26
shrinkage=0.1


Tree=17
num_leaves=20
num_cat=0
split_feature=17 17 7 12 7 9 6 17 12 18 12 22 20 17 9 4 1 6 6
split_gain=4.18425 3.79835 2.42438 3.74484 2.25009 2.46088 2.91621 2.15829 1.96101 1.90288 1.6154 1.58061 1.14068 0.927912 0.219313 0.186444 0.113735 0.00871776 0.00151248
threshold=0.54402872644971068 0.69098704773896247 0.48158563250983671 4.4084328825733836 0.67428898481299437 -0.98604160854931344 0.64375709613906695 0.60167585556669179 1.9610659066740794 0.031536358062958438 -1.296830569953165 1.0000000180025095e-35 0.046640906763062158 0.44116103026270265 -0.91945826115304985 0.52162731055120615 0.002573970639102707 0.69132477324159336 0.88842974273930542
decision_type=2 2 2 2 2 2 2 2 2 2 2 2 2 2 2 2 2 2 2
left_child=4 2 3 7 5 6 -1 -2 -3 10 -7 16 -12 -13 -4 -9 -6 -16 -19
right_child=1 8 14 -5 11 9 -8 15 -10 -11 12 13 -14 -15 17 -17 -18 18 -20
leaf_value=-0.12711201394327995 -0.0088934690775313557 0.010696321220223712 0.073957735265562916 -0.10042068749851706 -0.10513012469162085 0.11095185998673412 0.045845426130363597 0.1299154557747054 -0.13117265125114821 -0.072336780566306325 -0.022029748147245797 0.027050550452385635 0.072312188341827496 -0.079737722933556479 0.12591533685002101 0.081493178972050703 -0.14255758995269199 0.11919940410872343 0.11468979187505252
leaf_weight=2.937073916196824 2.4671720638871211 2.27799230068922 1.3550661355257032 1.8379678055644033 1.4000683277845376 2.3574562221765518 1.4591735377907751 2.2957419231534009 1.7025098875164983 1.7992724999785421 3.538594514131546 1.5525030121207239 2.0093418806791306 1.7098518088459966 1.5355378016829488 1.2165357768535612 1.9327532202005384 1.3219441473484042 1.7003151029348371
leaf_count=18 15 13 11 12 10 14 11 15 10 12 19 10 10 11 10 10 11 10 16
internal_value=0 0.0360273 0.0609623 0.0244173 -0.0301867 -0.00763673 -0.0697051 0.0627901 -0.0499828 0.0204805 0.0416057 -0.0784 0.0121388 -0.0289189 0.109279 0.113144 -0.126835 0.11978 0.116662
internal_weight=0 17.7108 13.7303 7.81742 20.6961 14.1009 4.39625 5.97945 3.9805 9.70467 7.90539 6.59518 5.54794 3.26235 5.91286 3.51228 3.33282 4.5578 3.02226
internal_count=248 122 99 52 126 84 29 40 23 55 43 42 29 21 47 25 21 36 26
shrinkage=0.1


Tree=18
num_leaves=21
num_cat=0
split_feature=12 13 8 10 13 19 19 13 12 10 10 0 10 3 3 10 19 19 3 12
split_gain=1.90441 2.87535 2.7305 2.60689 1.96586 1.90044 1.61408 1.58741 1.55326 1.3653 1.3384 1.26086 2.39051 1.19726 0.781308 0.743165 0.560401 0.0540167 0.0186402 0.00790198
threshold=2.595614117813815 -0.089653603652169109 0.62954573720799456 -0.53318110473761482 0.36079800829464603 0.038924781884516042 0.056203546238770503 0.4852383684316483 -6.9244176165480988 0.17342201223306727 0.042690152006019465 0.19533878692458181 -0.023921175917087988 0.80678783353383798 0.58125413454679975 0.15347965152531906 -0.027306483857280735 0.037614524621867602 0.67966064279732419 -0.34172566814155519
decision_type=2 2 2 2 2 2 2 2 2 2 2 2 2 2 2 2 2 2 2 2
left_child=1 17 4 -3 5 16 7 8 -5 -7 -8 14 -13 -4 19 -14 -2 -1 -18 -10
right_child=2 3 13 6 -6 9 10 -9 11 -11 -12 12 15 -15 -16 -17 18 -19 -20 -21
leaf_value=0.11876542508304094 -0.059407800771632484 -0.080516884285053325 0.11017092838021601 -0.026130749231651429 0.03185757217180242 -0.0822251023211098 -0.11866461921902041 -0.058976958488021404 0.12005411015156076 0.039539391924100463 0.012129436739608306 -0.079205517895134137 0.12881184983748456 -0.017638585837895734 0.033752134232627906 0.030110074025664891 -0.13730962859161233 0.090892599140171948 -0.12304372062429172 0.12949321887575319
leaf_weight=1.961391009390357 1.5271677002310733 3.0559858009219196 1.7418347969651216 2.2825258746743229 2.2894772291183463 1.7195476070046427 1.3670360669493669 1.5748653113841999 2.2062193751335171 1.9824990630149839 1.8292727470397947 1.4341163039207456 1.4611205160617831 1.2653816789388654 1.3022607266902921 1.5962246209383009 2.1618181839585309 1.0771154314279554 1.5892212539911268 1.4831069782376247
leaf_count=17 10 18 14 15 13 13 11 10 17 12 10 9 9 9 8 11 12 10 11 9
internal_value=0 0.0183723 -0.0282689 0.00433529 -0.0508596 -0.071948 0.0200159 0.0353084 0.0479288 -0.0170185 -0.0438101 0.0657546 0.0273145 0.056391 0.100343 0.0772801 -0.110475 0.108885 -0.131266 0.123849
internal_weight=0 22.6312 14.2769 19.5927 11.2697 8.98025 16.5367 13.3404 11.7656 3.70205 3.19631 9.48305 4.49146 3.00722 4.99159 3.05735 5.27821 3.03851 3.75104 3.68933
internal_count=248 154 94 127 71 58 109 88 78 25 21 63 29 23 34 20 33 27 23 26
shrinkage=0.1


Tree=19
num_leaves=19
num_cat=0
split_feature=11 6 18 11 7 8 18 8 9 10 9 11 18 18 13 13 9 18
split_gain=1.55379 2.53409 3.11732 2.36539 2.14018 2.72881 2.18225 1.92551 1.69879 1.91538 1.10401 1.03097 0.913967 1.36761 0.493426 0.40685 0.128702 0.124681
threshold=-37.749414255159984 0.38022659638034895 -0.013703555264276577 72.655367446573266 0.64664645048311842 0.39088495839135567 0.003661020690260836 0.30806422588979537 -0.98979466881738387 -0.21383988291695766 -1.0000000180025095e-35 44.082033513326913 0.029698194560754152 0.011253060435569675 -0.11307084087433163 -0.30801361048283421 0.99624290349801281 0.037747470241700352
decision_type=2 2 2 2 2 2 2 2 2 2 2 2 2 2 2 2 2 2
left_child=1 2 10 4 5 12 11 -4 -7 -10 -1 -6 13 -2 -11 16 -5 -8
right_child=3 -3 7 15 6 8 17 -9 9 14 -12 -13 -14 -15 -16 -17 -18 -19
leaf_value=0.019376908490813628 -0.082271968805394044 0.12069427016041107 -0.1074434490000479 0.11194690384843556 0.038348069144650276 -0.044308694014904809 -0.12997422322757302 0.015130038947218176 -0.021118581099780081 0.057653831953755286 0.12516352915998297 -0.075238755322922221 -0.12063531525951308 0.037843700109724682 0.12943825866223926 0.01800650400590327 0.062251913438660524 -0.090715184010361258
leaf_weight=1.9477618411183359 2.2164991945028363 2.4537405744194976 2.5267008244991294 1.2014995142817504 1.8986061066389077 2.0303062126040476 2.9397463649511337 2.600757822394371 1.8931640386581436 1.5870523154735581 1.9990227296948422 1.3798035010695455 1.6057737022638319 1.6561825722455976 2.4141004085540718 1.2246411070227612 0.92034558206796635 1.1160634830594061
leaf_count=13 14 18 15 13 11 15 19 18 11 11 14 10 12 10 17 8 9 10
internal_value=0 0.0305319 0.00615131 -0.0141112 -0.0267006 -0.00293643 -0.0701291 -0.0452715 0.0345803 0.0617537 0.0729572 -0.00945788 -0.0572046 -0.0309036 0.100965 0.0639025 0.0903918 -0.119171
internal_weight=0 11.528 9.07424 24.0838 20.7373 13.4031 7.33422 5.12746 7.92462 5.89432 3.94678 3.27841 5.47846 3.87268 4.00115 3.34649 2.12185 4.05581
internal_count=248 78 60 170 140 90 50 33 54 39 27 21 36 24 28 30 22 29
shrinkage=0.1


Tree=20
num_leaves=20
num_cat=0
split_feature=17 17 13 11 13 13 13 15 13 19 15 13 7 13 7 17 5 7 11
split_gain=2.83125 3.01031 3.01519 2.62352 2.57611 2.29649 2.22024 1.28365 1.66866 3.28861 2.03066 1.88211 1.48603 0.94963 0.912763 0.452012 0.00349576 0.00214773 0.000237854
threshold=0.54402872644971068 0.69098704773896247 -0.064233430436596781 43.391361491028171 0.20536490868032461 0.19851442884512752 0.13530999081229381 15.812500000000002 0.18611602218449014 -0.010656575955663493 13.816250000000002 -0.010854470282949766 0.42722054598352582 0.030181112306750153 0.68065858365302623 0.50801440836732192 0.8778152305046415 0.55008823040060351 85.113263018927597
decision_type=2 2 2 2 2 2 2 2 2 2 2 2 2 2 2 2 2 2 2
left_child=3 2 16 7 6 -3 13 8 11 10 -10 -1 -9 -4 -5 -11 17 -2 -18
right_child=1 5 4 14 -6 -7 -8 12 9 15 -12 -13 -14 -15 -16 -17 18 -19 -20
leaf_value=-0.028515446777902888 0.11354032671953913 -0.12553316770194486 -0.036697129419301706 -0.03223333919219605 0.097843597576181399 0.034035255645843566 -0.13399472965041259 0.0065182540726345583 -0.032598436888006281 -0.11997613198044282 0.1176690004993602 0.11017961199792203 -0.12552201295390947 0.073671971877898021 -0.13126520687767271 -0.044698729157758313 0.11236385949139537 0.11887499945129579 0.11017361800562178
leaf_weight=1.5361553207039831 1.3182962611317628 1.8617343753576272 1.622123979032039 1.4308485016226757 2.3565454408526421 1.7494572624564169 1.4330799579620359 1.6971203237771981 1.7075183093547806 2.064940392971041 1.8999746590852735 2.6948148682713526 1.7123260870575903 1.5008925870060918 2.6625646874308586 1.2997407168149946 0.94631638377904881 1.7652052640914915 1.041536573320627
leaf_count=11 13 13 10 10 17 10 10 10 9 16 11 19 12 12 19 9 10 14 13
internal_value=0 0.0318065 0.0559241 -0.0258912 0.0129609 -0.0482296 -0.0309429 -0.00606994 0.0102806 -0.0197836 0.0465436 0.059823 -0.0597963 0.0163452 -0.0966487 -0.0908973 0.114486 0.116594 0.111216
internal_weight=0 15.5952 11.984 18.706 6.91264 3.61119 4.5561 14.6126 11.2031 6.97217 3.60749 4.23097 3.40945 3.12302 4.09341 3.36468 5.07135 3.0835 1.98785
internal_count=248 122 99 126 49 23 32 97 75 45 20 30 22 22 29 25 50 27 23
shrinkage=0.1


Tree=21
num_leaves=20
num_cat=0
split_feature=12 1 19 1 20 20 19 1 11 1 11 4 20 4 22 18 25 2 6
split_gain=1.53271 1.90884 1.77931 1.38459 1.22449 1.08833 1.12808 0.986614 0.936205 0.85276 0.887222 0.774271 0.731442 0.94447 0.727691 0.817542 0.40676 0.261568 0.0108139
threshold=2.595614117813815 -0.0022444830384418242 -0.017983593676184181 -0.0054351735310178432 0.11535509547780882 0.091562704041927248 0.058069026262840669 0.00090225870891857019 61.525608122581751 0.0042955121108427521 -37.749414255159984 0.3731172407678694 0.053764266611838585 0.18661133447893793 1.0000000180025095e-35 -0.0088500651857981432 1.0000000180025095e-35 0.44948784788071755 0.70155047405739424
decision_type=2 2 2 2 2 2 2 2 2 2 2 2 2 2 2 2 2 2 2
left_child=1 3 7 -1 8 6 9 -2 12 10 17 16 18 -14 -11 -16 -12 -3 -4
right_child=2 5 4 -5 -6 -7 -8 -9 -10 14 11 -13 13 -15 15 -17 -18 -19 -20
leaf_value=0.021687420943591919 0.081141713593445297 0.12264434438652401 -0.12841633111382542 -0.098438754751434931 0.033563017669110816 0.095711605473814923 -0.0559051463202958 -0.01976097971495756 -0.00093654046782797463 0.055210884238691041 -0.044625640275474089 0.085520815716518844 -0.0056505502115212066 -0.12470922138872176 0.02677673255029028 -0.072298106002651352 0.030955999803240944 0.062957780923747916 -0.11616380404872784
leaf_weight=1.7174410969018938 1.8870873674750321 1.6571304723620426 1.549411959946154 2.1741597652435329 1.4011852890253065 2.3361212871968737 1.6415497213602055 1.9919060766696928 1.6029591485857961 1.6352814212441442 1.3550164327025422 1.4165103696286676 1.7425178140401842 1.0788006931543348 1.5583277717232704 1.7891095578670502 1.5005745962262154 1.3183605521917341 1.3461661934852598
leaf_count=13 14 13 10 15 10 18 15 13 14 14 11 10 13 8 12 13 10 10 12
internal_value=0 0.0174667 -0.0270191 -0.0454247 -0.0520811 0.0325672 0.0219333 0.0293271 -0.0684753 0.0323807 0.054275 0.0250753 -0.0874125 -0.0511756 0.000534453 -0.0261759 -0.00490851 0.0961988 -0.12272
internal_weight=0 20.0996 12.6 3.8916 8.72104 16.208 13.8719 3.87899 7.31986 12.2303 7.24759 4.2721 5.7169 2.82132 4.98272 3.34744 2.85559 2.97549 2.89558
internal_count=248 154 94 28 67 126 108 27 57 93 54 31 43 21 39 25 21 23 22
shrinkage=0.1


Tree=22
num_leaves=19
num_cat=0
split_feature=1 1 15 8 16 16 2 22 15 1 7 19 16 7 7 22 22 3
split_gain=1.21806 1.91675 1.77341 1.71741 1.30021 1.45324 1.41331 1.26789 1.05368 0.872745 0.754749 0.748362 0.73403 0.565713 1.14734 1.51252 0.237925 0.156656
threshold=-0.0022444830384418242 0.000571799988297511 14.658750000000003 0.54034297672017362 0.19174651370129683 -2.612038644239179 0.39953605802591691 1.0000000180025095e-35 17.015000000000004 -0.00020020020822423718 0.43948686346167448 0.04234339346833655 1.4402759839083241 0.39436431299651004 0.56389174673135611 1.0000000180025095e-35 1.0000000180025095e-35 0.70805543092071399
decision_type=2 2 2 2 2 2 2 2 2 2 2 2 2 2 2 2 2 2
left_child=3 9 13 10 5 -4 -7 -5 11 12 -1 -6 -2 -3 -15 17 -11 -16
right_child=1 2 4 7 8 6 -8 -9 -10 16 -12 -13 -14 14 15 -17 -18 -19
leaf_value=-0.036154198937452996 0.076174719261626514 -0.087425484918033536 0.074448082161587006 0.1076540415182044 0.11779117398085091 -0.10608872150143629 0.010719661859395428 -0.03323279702591115 -0.019026664467159018 0.068513060567533327 -0.11688955615269009 0.02036345414569209 -0.021556352933709153 0.044778123752560899 -0.073690839947987877 0.02573872041633481 0.12738586496212642 -0.12058620503881573
leaf_weight=2.635588280856612 1.4441375732421877 1.9175412654876725 1.4931915588676981 1.1570455282926559 2.5009431019425397 1.8413047567009853 2.3678940162062645 1.4260275959968567 1.2583911865949629 1.2294635176658657 2.0652491673827171 1.1513548418879507 1.642665162682533 1.6968630030751226 1.5411276593804362 1.6110290512442587 1.5542423464357853 1.3245945721864698
leaf_count=18 13 15 16 11 19 12 18 11 10 12 14 10 11 15 10 12 11 10
internal_value=0 0.0109311 -0.004715 -0.0356297 0.0221706 -0.0103103 -0.0403779 0.0298752 0.0598881 0.0607817 -0.0716242 0.0870779 0.0241664 -0.0399805 -0.025244 -0.0517851 0.101384 -0.0953668
internal_weight=0 24.5747 18.7042 7.28391 10.6131 5.70239 4.2092 2.58307 4.91069 5.87051 4.70084 3.6523 3.0868 8.09116 6.17361 4.47675 2.78371 2.86572
internal_count=248 194 147 54 85 46 30 22 39 47 32 29 24 62 47 32 23 20
shrinkage=0.1


Tree=23
num_leaves=19
num_cat=0
split_feature=8 1 9 4 7 10 16 9 9 2 4 16 7 1 1 8 16 9
split_gain=1.0969 1.66298 1.58631 2.0223 2.68376 1.67864 1.88417 1.44823 1.71062 2.01359 1.38992 0.766158 0.642903 0.521958 0.496667 0.356389 0.242662 0.226939
threshold=0.51432735486420467 -0.0022444830384418242 -0.98979466881738387 -0.13800653303859708 0.68477797102639482 0.071356883978512933 0.19174651370129683 -0.94855447333895782 0.81030472827009126 0.24877011565306298 0.1023632763427129 1.2545874487053787 0.3211925392969267 0.0013639355724066771 0.0042460362252414808 0.63626636135404813 1.585925934833889 0.9896507947652301
decision_type=2 2 2 2 2 2 2 2 2 2 2 2 2 2 2 2 2 2
left_child=1 10 12 11 5 6 -5 15 -9 -10 -1 -4 -3 -11 -15 -2 -7 -12
right_child=7 2 3 4 -6 16 -8 8 9 13 17 -13 -14 14 -16 -17 -18 -19
leaf_value=0.012196327203047745 0.11942334124549155 -0.11978231775326478 -0.087862425444085138 -0.038947693225801105 -0.081622712601921263 0.13197248377223494 0.086585406054042302 -0.071767049361254789 0.11996340845836768 0.044164172975972298 -0.12766438382245857 0.0075427988848484201 -0.016999577420353778 -0.080384551283433692 0.0077457206662620778 0.046959761761469584 0.075942572703784128 -0.072342233557740651
leaf_weight=1.5094205588102383 1.5891554504632952 1.3078118860721635 2.0997940376400979 2.4300475418567569 1.5580701008439053 2.3792634867131714 2.353767916560173 2.1421666368842107 1.8153158165514467 1.2882154807448389 1.8117259405553343 1.4049123376607893 1.1381988823413847 1.211021136492491 1.3548983708024023 1.1846721395850179 1.1449327170848844 1.2552421689033506
leaf_count=10 13 10 16 19 13 18 19 16 18 12 13 10 10 11 12 10 9 9
internal_value=0 -0.013272 0.00208842 0.0156336 0.0388127 0.061399 0.022818 0.0264031 0.00436206 0.033127 -0.0663603 -0.0496179 -0.0719546 -0.00777341 -0.0338486 0.0884749 0.11377 -0.105022
internal_weight=0 20.3932 15.8168 13.3708 9.86608 8.30801 4.78382 10.5854 7.81162 5.66945 4.57639 3.50471 2.44601 3.85413 2.56592 2.77383 3.5242 3.06697
internal_count=248 156 124 104 78 65 38 92 69 53 32 26 20 35 23 23 27 22
shrinkage=0.1


Tree=24
num_leaves=21
num_cat=0
split_feature=17 8 1 13 13 13 9 13 25 9 9 17 8 1 20 17 18 2 13 2
split_gain=2.17662 3.77834 2.00658 3.13154 1.47266 1.11539 1.09691 1.88679 1.34224 1.30795 1.07566 0.953129 1.01403 0.925634 0.387776 0.19396 0.00762553 0.00171177 0.000373839 6.44095e-05
threshold=0.54402872644971068 0.48560080349410983 -0.0030979843222524958 0.20536490868032461 0.13530999081229381 -0.12510568483260714 0.70290631158174088 0.13879661085550146 1.0000000180025095e-35 0.99874160234451892 0.98550630480621049 0.66601139439135226 0.20800081669062953 -0.00079779997784598861 0.024120247373583981 0.64246804271182612 0.0059084926725784534 0.062201754806086626 -0.40589625394708501 0.46961099055302813
decision_type=2 2 2 2 2 2 2 2 2 2 2 2 2 2 2 2 2 2 2 2
left_child=5 2 -2 4 11 -1 7 -7 9 10 -8 12 -4 -9 -10 17 -15 -3 19 -19
right_child=1 15 3 -5 -6 6 8 13 14 -11 -12 -13 -14 16 -16 -17 -18 18 -20 -21
leaf_value=-0.090045131292596406 -0.10938413394229918 0.11560840813817375 -0.014319792377539629 0.12401293204038898 -0.12149387533557471 0.029603200404033966 0.00019772231602137075 -0.020322346131685622 0.088886546832498289 0.053358864301294134 -0.123221082510962 -0.062235465876830369 0.1128239870984243 -0.12468841917655432 0.024457563460183275 0.061329526481752931 -0.11362145942491314 0.10869788275597735 0.11166088240151273 0.11002873349328797
leaf_weight=2.2222135812044188 1.6230379007756699 0.86332166194915716 1.4722591936588285 1.893308065831661 1.2356409654021261 2.1911421269178391 1.3060897178947928 1.4170201271772382 1.7339732497930529 1.3381607010960577 1.5374456346035001 1.4212592542171476 1.0929486937820909 1.6405150890350344 2.0252030789852142 0.95644759386777867 1.0034241452813146 0.67969351634383224 1.4897461868822572 0.78210824355483055
leaf_count=18 11 8 9 14 10 18 12 10 11 9 12 11 12 11 15 10 10 10 17 10
internal_value=0 0.0300272 -0.00905046 0.0138358 -0.0261096 -0.024168 -0.0138535 -0.0451842 0.0108141 -0.0281667 -0.0665325 0.0034556 0.0398519 -0.0855367 0.0541763 0.101596 -0.120488 0.111692 0.110546 0.10941
internal_weight=0 13.5098 8.73845 7.11542 5.22211 16.4152 14.193 6.2521 7.94087 4.1817 2.84354 3.98647 2.56521 4.06096 3.75918 4.77132 2.64394 3.81487 2.95155 1.4618
internal_count=248 122 67 56 42 126 108 49 59 33 24 32 21 31 26 55 21 45 37 20
shrinkage=0.1


Tree=25
num_leaves=19
num_cat=0
split_feature=17 17 13 11 5 17 7 12 10 5 4 3 5 3 6 5 3 2
split_gain=1.87664 2.31235 2.18722 1.76819 2.29474 2.13648 1.66102 1.58357 1.25432 1.13191 1.39763 1.00535 0.861867 0.0656759 0.00619961 0.000488589 0.0010151 0.000236584
threshold=0.56494227211545789 0.64567980587465512 0.20536490868032461 21.780210474910863 0.6657389714977946 0.47315906338954777 0.69528707781020327 -2.9655714234534316 0.21823394800316118 0.4275496853505325 0.16614259497339753 0.28209064855695065 0.17738342384687408 0.40645874688513084 0.85033094410949539 0.8778152305046415 0.45121594811982485 0.72868859955687637
decision_type=2 2 2 2 2 2 2 2 2 2 2 2 2 2 2 2 2 2
left_child=3 12 8 4 7 14 -7 -1 13 10 -9 -12 -2 -3 -5 16 -14 -17
right_child=1 2 -4 5 -6 6 -8 9 -10 -11 11 -13 15 -15 -16 17 -18 -19
leaf_value=-0.08895135744932893 0.030940102258824199 -0.083883256891575539 0.069614071372241695 -0.12055214840767983 0.12912773013097842 0.080236623259513182 -0.067804482206704306 0.088828785660509099 0.019688309728588829 -0.059648572709218306 -0.07666458661246757 0.036413037545747311 0.10768282130068177 -0.11759095628924271 -0.11187611195215766 0.10704347079833867 0.1124072028200903 0.10973896807488087
leaf_weight=2.1218840852379817 2.3819516301155073 1.0155308768153197 2.0392411798238754 1.9462475851178163 1.2943067327141751 1.3719178885221484 1.6933833509683607 2.4049923345446622 1.2867054715752599 1.8153611123561857 1.3745604828000071 1.8370794542133806 0.69679488241672594 1.3417079411447046 1.4278430081903932 0.70756077766418435 1.3095164671540258 0.60321671143174171
leaf_count=17 18 11 14 15 10 12 13 17 10 14 12 12 11 12 16 12 14 8
internal_value=0 0.0318215 -0.013314 -0.0204689 0.00417109 -0.061979 -0.00154664 -0.0127573 -0.0597226 0.00899656 0.0311835 -0.0119834 0.0768315 -0.103069 -0.116881 0.109785 0.110766 0.108284
internal_weight=0 11.3822 5.68319 17.2876 10.8482 6.43939 3.0653 9.55388 3.64394 7.43199 5.61663 3.21164 5.69904 2.35724 3.37409 3.31709 2.00631 1.31078
internal_count=248 110 47 138 82 56 25 72 33 55 41 24 63 23 31 45 25 20
shrinkage=0.1


Tree=26
num_leaves=21
num_cat=0
split_feature=17 5 9 20 15 7 16 16 20 17 12 7 5 9 16 12 15 20 5 2
split_gain=1.60123 2.15036 1.75992 1.8096 1.4493 0.91055 1.73478 1.22104 1.15946 1.43805 0.981887 0.740117 0.632325 0.429393 0.348387 0.264708 0.21262 0.0597449 0.00154362 0.000172034
threshold=0.56494227211545789 0.6862909250580902 1.0000000180025095e-35 0.016485054718486162 16.362500000000001 0.67428898481299437 0.30884334922256718 4.1814167528606019 0.10419053906530736 0.51409153082444126 2.595614117813815 0.49999536737543138 0.38162241356052201 0.88623434209226948 1.741276065279856 6.5667005810431904 12.360000000000001 0.058342472332280397 0.8778152305046415 0.72868859955687637
decision_type=2 2 2 2 2 2 2 2 2 2 2 2 2 2 2 2 2 2 2 2
left_child=5 2 4 12 -2 6 8 11 9 17 13 14 -4 -7 -8 -5 -12 -1 -3 -20
right_child=1 18 3 15 -6 10 7 -9 -10 -11 16 -13 -14 -15 -16 -17 -18 -19 19 -21
leaf_value=-0.12061523978529734 0.11786055951155539 0.11235617641211629 0.067873074724739399 -0.12422112326724206 -0.013958826955031338 -0.045636079978668614 0.061245370025318935 -0.050866256211516393 0.042638270289849567 0.011994048418370878 -0.069389707611200196 0.10696446944871707 -0.035841188569489695 0.037912754410025722 -0.0071468973347554934 -0.057673981080433562 -0.12796394086219104 -0.08901370608102635 0.10633237719366878 0.10873960993124326
leaf_weight=1.9517858922481592 1.9215207137167438 1.3740162029862397 1.4986731857061388 1.3401914574205878 1.473790295422077 1.4878406897187226 1.4363124370574953 1.3657562434673307 1.1810103282332418 1.4379755072295664 1.2027173116803171 1.8007167875766752 0.96723981946706761 1.048734053969383 1.5470548570156095 1.078954644501209 1.2784518487751482 0.86267656832933415 0.64429017156362511 0.5505724810063839
leaf_count=16 19 15 13 10 12 13 9 10 9 13 12 13 10 10 13 11 11 9 12 8
internal_value=0 0.0301404 0.00534323 -0.0330918 0.0606422 -0.0192602 -0.00384598 0.0325297 -0.0450178 -0.0693621 -0.0548435 0.0563375 0.0271918 -0.0110932 0.0257799 -0.0945407 -0.0995708 -0.110929 0.11007 0.107442
internal_weight=0 10.8492 8.28037 4.88506 3.39531 16.601 11.5833 6.14984 5.43345 4.25244 5.01774 4.78408 2.46591 2.53657 2.98337 2.41915 2.48117 2.81446 2.56888 1.19486
internal_count=248 110 75 44 31 138 92 45 47 38 46 35 23 23 22 21 23 25 35 20
shrinkage=0.1


Tree=27
num_leaves=20
num_cat=0
split_feature=17 17 7 12 20 17 20 18 18 15 1 7 15 21 22 25 20 17 3
split_gain=1.37082 1.88246 1.30551 2.04922 1.24606 0.907074 0.787776 1.20804 1.18545 1.56223 0.81986 0.664375 1.6181 0.509655 0.459175 0.164475 0.0967866 0.00261908 0.000670694
threshold=0.56494227211545789 0.69098704773896247 0.48158563250983671 4.4084328825733836 -0.06560342558297115 0.60167585556669179 0.11535509547780882 0.029698194560754152 0.011253060435569675 16.525000000000002 0.0041056743374845014 0.55008823040060351 14.788750000000002 1.0000000180025095e-35 1.0000000180025095e-35 1.0000000180025095e-35 -0.030455382241117403 0.64129829977010044 0.73112794806824011
decision_type=2 2 2 2 2 2 2 2 2 2 2 2 2 2 2 2 2 2 2
left_child=6 2 3 5 -3 -2 7 8 9 10 11 12 -1 -10 -9 -12 -7 18 -4
right_child=1 4 17 -5 -6 16 -8 14 13 -11 15 -13 -14 -15 -16 -17 -18 -19 -20
leaf_value=-0.0798683232441742 -0.0030860798069220347 0.035080031197919588 0.10991257176492999 -0.090529995090763093 -0.10019659096845974 0.074555011357682541 0.054154928400509887 -0.11309369105651304 0.0029763523878979909 -0.11923700194048584 -0.027455290310234016 0.072892899340933459 0.07571453464495044 0.086071316697998126 -0.040593445437167176 -0.078362127410713425 0.11708402712127747 0.1153966167831933 0.10619818126828934
leaf_weight=1.4888446480035837 1.371872086077927 1.2009512856602671 1.1579563431441786 1.1873761489987371 1.5724839232861993 0.88719194754958186 1.3851066157221783 1.7103547304868689 1.4380510188639155 1.5342337079346178 1.3002240732312202 1.5049112178385256 1.2131623849272726 1.5165147110819817 1.7855557575821877 1.2398836985230446 1.3484075032174585 0.7178179882466792 0.83788013458251942
leaf_count=12 11 9 16 12 14 11 11 18 11 13 11 11 10 13 19 9 14 7 16
internal_value=0 0.028784 0.0547891 0.0234199 -0.0416192 0.0609257 -0.017947 -0.0247262 -0.00875298 -0.0281546 -0.007443 0.0196438 -0.0100139 0.0456272 -0.0760638 -0.0523041 0.100206 0.110216 0.108353
internal_weight=0 10.2819 7.5085 4.79485 2.77344 3.60747 16.1168 14.7317 11.2358 8.28126 6.74703 4.20692 2.70201 2.95457 3.49591 2.54011 2.2356 2.71365 1.99584
internal_count=248 110 87 48 23 36 138 127 90 66 53 33 22 24 37 20 25 39 32
shrinkage=0.1


Tree=28
num_leaves=21
num_cat=0
split_feature=17 8 1 8 12 1 1 15 6 15 6 4 8 19 4 9 19 4 5 6
split_gain=1.17303 2.29889 1.68064 1.50271 1.24211 0.710279 0.971764 1.36974 1.38234 1.52162 0.853277 1.00366 0.838244 0.873981 0.673487 0.633973 0.213267 0.14587 0.00143249 0.00023143
threshold=0.56494227211545789 0.48560080349410983 -0.0030979843222524958 0.35790361050699554 4.262221745666257 0.0089507336411230251 0.0067256419385807982 15.223750000000001 0.91584327690928835 14.543750000000001 0.36952953003613992 0.35846631339663032 0.57658951354511834 0.058069026262840669 0.13639355724066773 0.78541733311165285 0.053690322533003383 0.6168944530513335 0.40294242999259361 0.87533150620256828
decision_type=2 2 2 2 2 2 2 2 2 2 2 2 2 2 2 2 2 2 2 2
left_child=5 2 -2 4 -4 6 7 8 9 10 -1 12 13 -12 -9 -5 18 -16 -3 -20
right_child=1 16 3 15 -6 -7 -8 14 -10 -11 11 -13 -14 -15 17 -17 -18 -19 19 -21
leaf_value=-0.05714409872045989 -0.1036714052596812 0.11214090067971348 0.023117891816681811 0.117672290226841 -0.11383813253588025 -0.096034887290402396 0.07184699858694675 -0.015731474247709463 -0.089805997231574536 0.12327455140759738 0.07640766581715154 0.080455966744820251 -0.082325760266118236 -0.05042186599715566 -0.12835683961136801 0.0074683028613927787 0.043198939167810417 -0.077110599475250202 0.10838246861317002 0.10608949374445822
leaf_weight=1.9602362066507355 1.4036080054938791 0.85340145975351411 1.7284854687750324 1.5112394057214262 1.0734800100326536 1.0531672239303578 1.2905970327556122 1.3383624181151383 1.444568809121846 1.1439612731337545 1.3020671531558043 1.8064527884125707 1.1260180696845052 0.93239901959896077 1.2373207956552508 0.79746332019567479 0.61154431477189053 1.0079082436859605 0.82093590870499589 0.94901756197214127
leaf_count=15 11 11 14 15 11 11 11 13 15 8 13 13 9 9 12 9 8 9 12 19
internal_value=0 0.0274694 -0.00675 0.0198688 -0.0293523 -0.0167244 -0.0109993 -0.019039 0.000451708 0.0162154 -0.000968365 0.0203436 -0.0119702 0.0234842 -0.0718814 0.079606 0.0963786 -0.105352 0.108776 0.107153
internal_weight=0 9.74918 6.51428 5.11067 2.80197 15.6431 14.5899 13.2993 9.7157 8.27113 7.12717 5.16694 3.36048 2.23447 3.58359 2.3087 3.2349 2.24523 2.62335 1.76995
internal_count=248 110 60 49 25 138 127 116 82 67 59 44 31 22 34 24 50 21 42 31
shrinkage=0.1


Tree=29
num_leaves=22
num_cat=0
split_feature=12 13 1 19 20 1 8 13 8 12 19 16 0 8 21 12 20 2 0 0 16
split_gain=0.858423 1.55222 1.07806 1.01276 1.00952 0.982559 1.48276 0.876614 1.17304 0.623056 0.712103 0.617 0.620065 0.5535 0.641324 0.978597 0.430158 0.416024 0.219158 0.202939 0.00269025
threshold=2.595614117813815 -0.064233430436596781 -0.0022444830384418242 -0.017983593676184181 0.12787561240525963 0.0031742297815566638 0.31640160107614806 0.36563402023764874 0.39885819680198503 -1.9941579665338931 0.030705030950377406 -0.85272058710742427 0.033606886248895192 0.35126321800868604 1.0000000180025095e-35 4.262221745666257 0.012205654397982154 0.1176637458961501 1.0000000180025095e-35 -0.56993387361703174 -0.35038692885376493
decision_type=2 2 2 2 2 2 2 2 2 2 2 2 2 2 2 2 2 2 2 2 2
left_child=1 18 17 7 13 11 -7 8 -2 -8 -11 16 19 -5 15 -15 -4 -3 -1 -13 -20
right_child=3 2 5 4 -6 6 9 -9 -10 10 -12 12 -14 14 -16 -17 -18 -19 20 -21 -22
leaf_value=0.045378255586547837 -0.10453037704211293 -0.097791085451318163 0.12129405509170539 -0.11300659553520793 0.050362806646889718 -0.11289567767615194 -0.04284287809222382 0.098327601812576645 0.05843192808366985 0.094323555330104142 -0.024296103016539266 0.013511350271796977 -0.049170535078956426 -0.12153178209473679 0.02924215038543105 -0.0053342688687711588 0.036314219541479412 -0.017477319149462819 0.10831821209992183 0.07219833882136624 0.11665547555121579
leaf_weight=0.71305279992520931 0.82189181447029136 1.2492040991783153 1.2900903746485695 1.5559051781892757 0.92534495145082463 1.225762505084276 1.1651988290250299 1.0492045134305952 0.95491812005639076 1.2993653081357486 0.82896836474537838 1.1357163339853271 1.0255782902240751 1.5060933269560344 0.94471119344234455 1.3971413262188432 1.1065876334905622 1.3334125652909277 0.7961388621479274 1.2245347276330014 0.75317817553877797
leaf_count=11 7 9 11 18 8 10 13 7 13 13 9 12 9 14 9 18 13 13 13 9 9
internal_value=0 0.0148611 0.00144688 -0.0239251 -0.0461496 0.01593 -0.0190038 0.0258494 -0.0169489 0.0159402 0.0481222 0.0432323 0.0157498 -0.0626762 -0.0423253 -0.0656133 0.0820574 -0.0563249 0.0912564 0.0439591 0.112371
internal_weight=0 15.1468 12.8844 9.15521 6.3292 10.3018 4.5193 2.82601 1.77681 3.29353 2.12833 5.78251 3.38583 5.40385 3.84795 2.90323 2.39668 2.58262 2.26237 2.36025 1.54932
internal_count=248 154 121 94 67 99 45 27 20 35 22 54 30 59 41 32 24 22 33 21 22
shrinkage=0.1


Tree=30
num_leaves=20
num_cat=0
split_feature=17 11 17 12 12 5 18 17 13 17 13 11 12 4 17 17 11 18 1
split_gain=1.05759 2.5242 1.45131 1.36473 1.32541 1.19766 1.2814 0.945937 0.913783 0.834041 0.768648 1.91569 0.503048 0.45176 0.78306 0.309123 0.0121261 0.00464637 0.000248588
threshold=0.494279692027566 21.780210474910863 0.43660646945671883 0.53453127336007344 4.6532603906359986 0.65200489892170221 -0.010069279739049168 0.61476871296477031 0.27759065806596001 0.5702966831658024 0.052404147268546891 -1.4110301013483089 3.9839390041470666 0.21124766129014277 0.5702966831658024 0.46484932384841576 54.356524448184963 0.0081939481389173303 0.0042955121108427521
decision_type=2 2 2 2 2 2 2 2 2 2 2 2 2 2 2 2 2 2 2
left_child=1 2 -1 10 8 6 -5 -8 -4 -7 16 13 -9 -12 -15 17 -2 -3 -11
right_child=3 15 4 5 -6 9 7 12 -10 18 11 -13 -14 14 -16 -17 -18 -19 -20
leaf_value=0.079746722029337511 0.11242519744056978 -0.11793003116454343 0.00086013218677068062 0.051739538936872588 0.058788748702038068 -0.027545846157178668 -0.13013314224843114 0.030472119752464985 -0.11408041668604492 0.10621453766385879 0.11554344151991502 -0.065339615523438435 -0.060133716817412045 -0.01801109231455721 0.10959994825629256 -0.042313277582917558 0.095775349998788381 -0.10927514851236433 0.1091105600759828
leaf_weight=2.0948848351836222 1.1054744422435741 1.2959980480372912 1.2689507156610491 1.2656009830534456 1.3541669920086858 0.74156534299254406 1.3986519277095792 0.93535009026527438 1.5203784517943857 0.59204682707786538 1.3780465200543406 1.471145875751972 1.7767778746783731 1.0463664866983888 0.88974350690841664 0.79980640113353718 0.723835989832878 1.1896871700882909 0.5935521237552166
leaf_count=17 14 11 10 16 10 6 11 8 16 12 14 12 19 10 13 9 15 17 8
internal_value=0 -0.0254483 0.0119127 0.0177988 -0.0223831 -0.0120013 -0.0362459 -0.0633342 -0.0617905 0.055636 0.0507027 0.0296261 -0.0288859 0.0717811 0.0406328 -0.0963882 0.105837 -0.113788 0.107664
internal_weight=0 9.52387 6.23838 13.9182 4.1435 7.30355 5.37638 4.11078 2.78933 1.92716 6.61461 4.7853 2.71213 3.31416 1.93611 3.28549 1.82931 2.48569 1.1856
internal_count=248 90 53 158 36 80 54 38 26 26 78 49 27 37 23 37 29 28 20
shrinkage=0.1


Tree=31
num_leaves=19
num_cat=0
split_feature=12 15 5 3 12 20 4 16 22 20 15 20 16 0 7 5 4 20
split_gain=0.720463 0.912279 1.55599 0.688285 0.769977 0.578206 0.598029 0.894287 1.00537 0.638112 0.621261 0.575099 0.527925 0.491248 0.558562 0.489281 0.379077 0.37564
threshold=2.595614117813815 13.916250000000002 0.022390151366429006 0.58125413454679975 5.7282464166623024 0.11169018153149655 0.39771319116518938 0.19174651370129683 1.0000000180025095e-35 0.018955508624993515 16.595000000000002 0.079877385183003816 -1.4971402568674061 -0.021488095232630195 0.64664645048311842 0.18098440689940498 0.28439393717646194 0.042028028832772936
decision_type=2 2 2 2 2 2 2 2 2 2 2 2 2 2 2 2 2 2
left_child=5 11 -3 15 -5 6 7 8 9 -1 17 -2 -10 14 -9 -4 -17 -8
right_child=1 2 3 4 -6 -7 10 13 12 -11 -12 -13 -14 -15 -16 16 -18 -19
leaf_value=0.068766426504489012 -0.1151084371602956 0.12412113327212676 -0.10200296639237481 -0.041621583379285856 0.10613766674316712 0.089429785216907295 0.093305015171651171 0.049351515828235937 -0.025016057166664493 -0.043432051192156901 -0.019938226853796585 -0.014802949012390078 -0.11424845569604083 0.075177425727477709 -0.043478170395358659 0.0072390118779977284 -0.069885813324762611 0.020666108681993599
leaf_weight=1.1053729765117153 1.4374962486326679 0.839635670185089 1.0740653388202193 0.66414419189095475 0.75198345258831978 0.9510270934551962 1.7904523294419061 1.2808768302202227 1.1680126637220365 0.93624251335859288 1.2359662950038908 0.94893217459321011 1.5335230492055434 1.4424265418201683 1.3122345767915247 1.6692311428487303 1.0308634154498575 1.1818529926240442
leaf_count=13 16 6 11 9 15 11 19 13 15 12 16 9 13 16 12 17 11 14
internal_value=0 -0.0228893 -0.00217738 -0.0226088 0.0368406 0.0141638 0.00865214 -0.00620531 -0.0356455 0.0173145 0.0396456 -0.0752233 -0.0756687 0.0283971 0.00237539 -0.0449152 -0.0222063 0.0644222
internal_weight=0 8.41635 6.02992 5.19029 1.41613 13.938 12.987 8.77869 4.74315 2.04162 4.20827 2.38643 2.70154 4.03554 2.59311 3.77416 2.70009 2.97231
internal_count=248 94 69 63 24 154 143 94 53 25 49 25 28 41 25 39 28 33
shrinkage=0.1


Tree=32
num_leaves=19
num_cat=0
split_feature=11 8 9 8 5 11 9 13 9 10 8 16 11 19 8 12 13 13
split_gain=0.807749 1.37305 1.36244 1.37392 0.991578 0.847794 1.12088 1.21401 0.839478 0.819674 1.01004 0.586114 0.403385 0.310274 0.147441 0.0818041 0.034406 0.00356346
threshold=-34.662439304546758 0.43146224570095287 0.86605928982890334 0.30806422588979537 0.052743507505083574 72.655367446573266 -0.47490490420265791 0.1198726802424987 -0.97905437730813083 0.36400708653203134 0.65034927598496639 4.0663076677479273 -11.088473595648173 0.027831179789343661 0.55516258487773451 7.331011418636515 -0.077714379104552506 0.20536490868032461
decision_type=2 2 2 2 2 2 2 2 2 2 2 2 2 2 2 2 2 2
left_child=1 2 -1 4 -4 6 7 13 -9 10 12 15 -8 -2 -3 -7 -14 -18
right_child=5 14 3 -5 -6 11 9 8 -10 -11 -12 -13 16 -15 -16 -17 17 -19
leaf_value=-0.076816023676674533 0.022131955085309046 0.1129507600199488 0.042979150684182704 0.11231413826628465 -0.080987798869436398 0.11030398946947816 -0.041299990518255392 -0.071129729129979655 0.037893954347923565 0.01875097905354528 0.0022183942197697907 -0.033999817705565427 -0.090722899628853076 0.11003835192124556 0.057836822258539679 0.057182756452548035 -0.11205288879662244 -0.12002692274855012
leaf_weight=1.6366970054805303 0.61317298561334599 1.4095929972827437 1.4824840575456621 1.378554757684469 1.1424785256385801 0.7350648809224356 1.2190615981817234 1.679899640381336 1.2185817733407023 1.4767647162079809 1.6419012919068334 0.56426690146327008 0.75525112822651808 1.1632129196077583 0.74032647162675846 0.47867140546441078 1.3796721212565901 0.94379145652055729
leaf_count=18 7 18 13 15 11 14 16 19 9 11 19 6 13 16 9 10 16 8
internal_value=0 0.0259724 5.24303e-05 0.0314774 -0.0109757 -0.014268 -0.0237488 0.0146004 -0.0252939 -0.0479218 -0.0644985 0.0502065 -0.0899866 0.0796948 0.0939722 0.0893541 -0.109265 -0.115292
internal_weight=0 7.79013 5.64021 4.00352 2.62496 13.8693 12.0913 4.67487 2.89848 7.41644 5.93968 1.778 4.29778 1.77639 2.14992 1.21374 3.07871 2.32346
internal_count=248 84 57 39 24 164 134 51 28 83 72 30 53 23 27 24 37 24
shrinkage=0.1


Tree=33
num_leaves=20
num_cat=0
split_feature=17 8 12 3 8 20 16 22 9 9 16 5 20 3 3 16 17 5 16
split_gain=0.889482 2.17834 1.43303 1.28376 1.34471 0.64731 1.00482 0.802069 0.661191 0.529507 0.422932 0.407354 0.327716 0.375359 0.302028 0.023034 0.00222151 0.000204264 8.56766e-05
threshold=0.494279692027566 0.51432735486420467 2.7938993598706037 0.67966064279732419 0.30806422588979537 0.12787561240525963 0.30884334922256718 1.0000000180025095e-35 0.93559139264779601 0.88623434209226948 -0.70894868575222703 0.70152396628268188 0.017870706454377657 0.36634966267005947 0.83188766425815808 -2.612038644239179 0.54955531356041032 0.8778152305046415 -0.35038692885376493
decision_type=2 2 2 2 2 2 2 2 2 2 2 2 2 2 2 2 2 2 2
left_child=5 2 3 4 10 6 11 -8 -9 -4 -2 15 -6 -14 16 -1 -3 18 -18
right_child=1 14 9 -5 12 -7 7 8 -10 -11 -12 -13 13 -15 -16 -17 17 -19 -20
leaf_value=-0.095148509112083085 0.020192142790571521 0.11246905398427516 -0.020045972067410628 -0.079975623560302855 0.11193071159829285 0.05758349713507508 0.049276401724260399 -0.078677825069087284 0.025351729676138059 -0.10730832633925486 -0.06946549151632074 -0.034958464320048822 0.096386132991403195 0.0077783354754345285 0.024871526842323393 -0.11738799272239737 0.1075010478144697 0.10433805314241079 0.10571336822908856
leaf_weight=0.89700590074062347 1.0619494020938876 0.7465112730860709 1.3147698044776919 1.0903521403670309 1.5206500813364985 0.85652716457843769 1.7643075585365293 1.5729670748114588 0.99897750094532956 1.4760422892868517 1.0427593216299991 1.3749706149101255 0.90870936214923848 1.0088488925248382 0.53583114221692074 0.96860384196043214 0.59202784299850497 0.5594770461320876 0.48996550962328855
leaf_count=13 10 8 12 10 19 9 17 14 11 19 10 17 10 15 10 9 10 15 10
internal_value=0 0.0173147 -0.00608019 0.0192133 0.0387249 -0.0248168 -0.0341318 -0.00265047 -0.0382714 -0.0661985 -0.0242279 -0.0762574 0.0772616 0.0497686 0.0927216 -0.106695 0.107946 0.105889 0.106692
internal_weight=0 12.3479 9.42408 6.63327 5.54292 8.43336 7.57683 4.33625 2.57194 2.79081 2.10471 3.24058 3.43821 1.91756 2.92381 1.86561 2.38798 1.64147 1.08199
internal_count=248 158 105 74 64 90 81 42 25 31 20 39 44 25 53 22 43 35 20
shrinkage=0.1


Tree=34
num_leaves=20
num_cat=0
split_feature=17 8 1 13 15 3 9 15 12 12 0 0 2 3 9 17 15 20 13
split_gain=0.796236 1.86745 1.07248 1.71761 0.799654 0.602436 1.09681 0.991575 0.938536 0.645923 0.833158 0.56559 0.443017 0.385092 0.29186 0.124815 0.000183918 0.0001984 9.20269e-05
threshold=0.54402872644971068 0.48560080349410983 -0.0030979843222524958 0.20536490868032461 16.291250000000002 0.50467596618365773 -0.98604160854931344 13.087500000000002 0.74425788056661057 2.684676145403905 -0.56993387361703174 0.98087958973688172 0.62705078120609425 0.34180800425665608 0.9896507947652301 0.65130293510335757 16.420000000000005 -0.023785952319831435 -0.39023845058693413
decision_type=2 2 2 2 2 2 2 2 2 2 2 2 2 2 2 2 2 2 2
left_child=5 2 -2 4 11 6 13 9 -8 10 -7 -4 -9 -1 -10 16 18 -18 -3
right_child=1 15 3 -5 -6 7 8 12 14 -11 -12 -13 -14 -15 -16 -17 17 -19 -20
leaf_value=-0.10879604215149363 -0.095053725410206999 0.1036651322048343 0.046849305829030803 0.11456466540233574 -0.11022506622824253 -0.033554813139832496 0.1142427900640894 -0.1156999879978778 0.043534755338969541 -0.054451602408857408 0.092588754434993079 -0.042281865582853434 -0.030039823954397783 -0.0065502571379134553 -0.024647673473739785 0.050622857900286859 0.10531599565262251 0.10809999563322251 0.10556943034312932
leaf_weight=0.84287702664732911 1.1301050744950769 0.47604179196059737 1.4529322944581498 1.242704479023814 0.79546451941132534 1.010838255286217 1.1101919747889062 1.6781327798962595 1.0889698192477228 1.4825794622302053 1.086262930184603 1.3959588184952734 0.94304656982421864 0.65431501343846321 1.4824989289045332 0.51614368334412564 0.56682395003736019 0.4667727332562206 0.54351437836885486
leaf_count=12 11 15 19 14 11 11 12 18 8 18 11 12 10 9 17 7 13 8 12
internal_value=0 0.0232138 -0.00726018 0.0130416 -0.0215772 -0.0171225 0.00805424 -0.0381496 0.0374014 -0.00393096 0.0317854 0.00317496 -0.0848812 -0.0641118 0.00422633 0.0945823 0.105633 0.106573 0.10468
internal_weight=0 8.58646 6.01717 4.88706 3.64436 11.3797 5.17885 6.20086 3.68166 3.57968 2.0971 2.84889 2.62118 1.49719 2.57147 2.5693 2.05315 1.0336 1.01956
internal_count=248 122 67 56 42 126 58 68 37 40 22 31 28 21 25 55 48 21 27
shrinkage=0.1


Tree=35
num_leaves=21
num_cat=0
split_feature=20 20 12 20 15 16 15 15 7 20 16 7 6 7 18 12 6 7 18 2
split_gain=0.590716 1.02788 0.827333 0.71636 0.632989 0.542376 0.561812 1.08436 1.31857 0.559719 0.510811 0.470521 0.544526 0.502949 0.441603 0.42486 0.38019 0.316172 0.221171 0.00223863
threshold=0.11535509547780882 0.012205654397982154 -1.4225275071301675 -0.0015531643595446457 16.955000000000002 1.2545874487053787 12.441250000000002 14.893750000000002 0.3751772352163914 -0.060294645176999777 -1.2826311228407252 0.4162766012700671 0.72382351765186548 0.70438156068700197 0.036975827886988853 -2.9655714234534316 0.38022659638034895 0.4162766012700671 -0.0045417343993142669 0.91236453183736332
decision_type=2 2 2 2 2 2 2 2 2 2 2 2 2 2 2 2 2 2 2 2
left_child=1 3 16 5 11 6 -1 -8 -9 -10 -2 19 -13 -14 -15 -7 -3 -17 -5 -4
right_child=10 2 4 18 -6 15 7 8 9 -11 -12 12 13 14 -16 17 -18 -19 -20 -21
leaf_value=0.053410309268912194 0.0061768566523833475 -0.033669623786860489 -0.11575728308395035 0.10692461364482793 0.021487989191479595 -0.0048627436569466491 -0.12688359807172309 0.094425723225399757 -0.09360514304969593 0.010071726569591377 0.1135851852609293 0.020187919402676901 -0.11356832278050957 -0.08468608653412707 0.032972611989985808 0.1128190602394831 0.064699349285708224 0.021775042844759309 0.038070218731778939 -0.10800834110165525
leaf_weight=0.91963180340826856 0.97419567033648491 0.61678364500403393 0.6911950185894955 0.92032505944371223 1.0259909555315969 1.2740727774798872 0.94495118036866221 0.93740898929536376 1.1854438614100256 0.92864014394580952 0.81169477850198635 0.94527638703584704 1.2595831304788592 0.62364291772246339 0.6530122198164463 0.8737923316657541 1.0824315436184404 0.67693913169205189 0.94608983770013011 0.80939062684774399
leaf_count=12 10 10 7 9 8 12 9 14 12 16 10 9 17 11 13 12 16 12 15 14
internal_value=0 -0.00541133 -0.0326142 0.0164117 -0.0500381 0.00300343 -0.0170616 -0.0332781 -0.00429138 -0.0480637 0.0549944 -0.0647678 -0.0445921 -0.0687361 -0.0245034 0.0379231 0.0289932 0.0730757 0.0720222 -0.111578
internal_weight=0 17.3146 7.70731 9.6073 6.00809 7.74088 4.91608 3.99644 3.05149 2.11408 1.78589 4.9821 3.48151 2.53624 1.27666 2.8248 1.69922 1.55073 1.86641 1.50059
internal_count=248 228 105 123 79 99 63 51 42 28 20 71 50 41 24 36 26 24 24 21
shrinkage=0.1


Tree=36
num_leaves=19
num_cat=0
split_feature=10 12 19 13 19 10 10 19 1 16 10 7 10 23 7 19 10 12
split_gain=0.50308 0.762488 0.790552 0.78748 0.53013 0.54367 0.54267 0.432417 0.628544 1.21734 0.585602 0.54015 0.681119 0.408883 0.100601 0.0623745 0.0470956 0.0437787
threshold=-0.53318110473761482 2.595614117813815 -0.027306483857280735 -0.064233430436596781 0.038924781884516042 0.17342201223306727 0.034764955597009588 0.056203546238770503 0.0042955121108427521 -0.35038692885376493 0.21024843099562748 0.61755098746032744 0.13929505500841841 1.0000000180025095e-35 0.31408325674561327 0.037614524621867602 0.16970428966915688 -2.9655714234534316
decision_type=2 2 2 2 2 2 2 2 2 2 2 2 2 2 2 2 2 2
left_child=13 3 -3 15 6 -6 -4 8 11 -10 -9 12 17 -1 -14 -2 -8 -5
right_child=1 2 4 7 5 -7 16 10 9 -11 -12 -13 14 -15 -16 -17 -18 -19
leaf_value=-0.0017803257808636055 0.10834943303536747 0.050246246049718328 -0.0099522507440481731 0.081624873905462969 -0.05538351416043874 0.04451394555225633 -0.082704377766397746 -0.081954754698639096 -0.091605122208751666 0.067443744025574043 0.038233891930303562 -0.015086394420318032 -0.014123236535942291 -0.087601134632868602 0.040009195661804539 0.064128014014359511 -0.11449203978982991 0.1116034242386641
leaf_weight=1.1169144958257702 0.92528513818979508 1.275655925273895 1.1163343749940389 0.78577930480241986 0.98994535580277476 1.2114975042641161 0.96267097443342187 0.99524503946304299 1.1240448988974092 0.84148598834872235 0.68400906771421432 1.1588380262255666 0.77881807088851907 1.1037807986140251 0.61394604481756687 0.48676019161939621 0.90353290364146233 1.2816677279770341
leaf_count=12 19 19 19 8 17 12 12 14 13 15 6 12 9 12 11 11 11 16
internal_value=0 0.00632917 -0.020276 0.0240908 -0.0376299 -0.000407968 -0.0651038 0.0122983 0.0238502 -0.0235129 -0.0329984 0.0440045 0.0637943 -0.0444369 0.00973895 0.0931054 -0.0980945 0.100209
internal_weight=0 16.1355 6.45964 9.67588 5.18398 2.20144 2.98254 8.26383 6.58458 1.96553 1.67925 4.61905 3.46021 2.2207 1.39276 1.41205 1.8662 2.06745
internal_count=248 224 90 134 71 29 42 104 84 28 20 56 44 24 20 30 23 24
shrinkage=0.1


Tree=37
num_leaves=21
num_cat=0
split_feature=17 17 7 12 17 7 16 0 0 17 12 10 7 3 4 20 4 4 7 1
split_gain=0.59896 0.976171 0.730392 1.29694 1.04225 0.593877 0.755763 0.735122 0.616206 0.548341 0.380414 0.304331 0.230353 0.117758 0.090188 0.0624088 0.0367777 0.000793099 0.000789037 5.8002e-05
threshold=0.54402872644971068 0.73193266748536934 0.55008823040060351 4.4084328825733836 0.60167585556669179 0.64664645048311842 0.40981054396280009 1.0000000180025095e-35 -1.0000000180025095e-35 0.41114343120035668 -1.8283515148025631 0.20792075174259217 0.46838245132769696 0.3944747769340286 -0.2317816271304631 -0.060294645176999777 0.19739875093215711 0.22162061807687211 0.70438156068700197 0.007978278485516346
decision_type=2 2 2 2 2 2 2 2 2 2 2 2 2 2 2 2 2 2 2 2
left_child=5 2 3 4 -2 6 8 12 13 -7 -11 -10 -8 -1 -4 -6 -12 -17 -16 -20
right_child=1 -3 14 -5 15 9 7 -9 11 10 16 -13 -14 -15 18 17 -18 -19 19 -21
leaf_value=-0.054907426387570513 -0.011838600002379327 -0.055655133039351101 0.054083223657874317 -0.082629708005681562 0.067927003582855458 0.017389870824903682 0.041727932919757162 -0.031511368866748962 -0.031649161151019178 -0.026827378265787905 -0.085243966132495533 0.057152948453620067 0.1061324251960917 -0.11287350479792445 0.10921045647414525 0.11220922752808089 -0.11571745231312398 0.10729242821265705 0.10350992382941396 0.10534037355560116
leaf_weight=0.73711350560188404 1.6250282470136874 1.3435410112142561 0.43896592408418644 1.0116140991449354 0.4846217948943371 0.97108750417828593 1.4743903689086444 1.1490051895380018 0.84532550722360678 1.1781008839607245 0.73109022900462084 0.71011802181601524 0.89091539382934559 0.66813021153211594 0.58764245733618714 0.69818227551877521 0.8641788624227047 0.61886204406619072 0.42026644200086594 0.29436342790722847
leaf_count=12 18 14 10 18 9 13 14 13 13 13 12 8 9 8 10 9 11 13 14 7
internal_value=0 0.0215983 0.0383945 0.0168607 0.0462319 -0.0155805 0.00275148 0.0341095 -0.0344703 -0.0472805 -0.0699247 0.00889232 0.0659865 -0.0824677 0.0932828 0.0986091 -0.101752 0.109899 0.106496 0.104264
internal_weight=0 7.52309 6.17955 4.43831 3.42669 10.2195 6.475 3.51431 2.96069 3.74446 2.77337 1.55544 2.36531 1.40524 1.74124 1.80167 1.59527 1.31704 1.30227 0.71463
internal_count=248 122 108 67 49 126 77 36 41 49 36 21 23 20 41 31 23 22 31 21
shrinkage=0.1


Tree=38
num_leaves=19
num_cat=0
split_feature=11 13 12 12 9 13 12 6 19 1 12 9 13 13 18 11 11 19
split_gain=0.56196 2.01361 1.06032 1.08218 0.759947 1.05182 1.03564 1.09455 0.839479 0.531578 0.459211 0.430302 0.390677 0.160279 0.0323686 0.0144248 0.00887095 0.000977764
threshold=21.780210474910863 0.036608787644987949 0.53453127336007344 6.5667005810431904 -0.98979466881738387 0.036608787644987949 5.2841039846418845 0.008151887072323857 0.0075320542057099324 -0.0022444830384418242 2.595614117813815 0.99640273607570184 0.3180683679133241 0.43221053588861985 0.00065485224536454567 -17.972690331333123 54.356524448184963 0.036265752963987048
decision_type=2 2 2 2 2 2 2 2 2 2 2 2 2 2 2 2 2 2
left_child=4 2 16 10 12 8 9 -8 -6 -7 -4 13 -1 14 -11 -16 -2 -3
right_child=1 17 3 -5 5 6 7 -9 -10 11 -12 -13 -14 -15 15 -17 -18 -19
leaf_value=0.012681921083200404 0.10858167846393228 -0.11268752658264299 -0.0010945568709568856 0.092995906744610266 0.04418942035406255 0.011642083586668385 0.066410404040102719 -0.1071984288816539 -0.069304486128334952 0.093382152310143171 -0.099897748550136556 0.018851289967842234 -0.087045845662392624 0.056351730976480469 0.10943842760816747 0.12783935730754956 0.090208135573909318 -0.10796479486290514
leaf_weight=0.62843805924058038 0.60947323031723433 1.14762357622385 0.84712562803179059 0.65560608915984619 1.0181164741516116 1.4825206920504559 0.64706424623727776 0.8276691734790802 1.8109987340867517 0.83477579429745841 1.057783458381891 0.87125305086374272 1.0476768277585504 0.72551121935248364 0.9922987241297957 0.74652471765875827 0.46194224059581757 0.70933208614587773
leaf_count=9 10 13 12 16 18 15 6 16 19 14 18 9 17 8 15 6 15 12
internal_value=0 -0.0261776 0.0171313 -0.0178201 0.0126411 0.0231279 0.0436048 -0.0310246 -0.0284613 0.0630743 -0.0559593 0.0813579 -0.0496542 0.0978651 0.109568 0.117338 0.10066 -0.110884
internal_weight=0 5.48889 3.63193 2.56052 11.6328 9.95673 7.12762 1.47473 2.82912 5.65288 1.90491 4.17036 1.67611 3.29911 2.5736 1.73882 1.07142 1.85696
internal_count=248 96 71 46 152 126 89 22 37 67 30 52 26 43 35 21 25 25
shrinkage=0.1


Tree=39
num_leaves=19
num_cat=0
split_feature=11 8 11 19 16 21 15 3 15 16 2 25 25 8 15 15 19 6
split_gain=0.486636 0.946729 0.805758 0.711254 0.778885 0.679625 0.8654 0.614521 0.569952 0.501425 0.44098 0.41116 0.388918 0.340305 0.319776 0.0397006 0.00678474 0.00103092
threshold=21.780210474910863 0.43785464951509678 72.655367446573266 -0.076911166172336801 -2.5517290105984549 1.0000000180025095e-35 15.812500000000002 0.67409381150816305 14.543750000000001 -0.90270518330599236 0.96740290668191065 1.0000000180025095e-35 1.0000000180025095e-35 0.53839003245542882 16.050000000000004 16.291250000000002 -0.017983593676184181 0.8601136101945499
decision_type=2 2 2 2 2 2 2 2 2 2 2 2 2 2 2 2 2 2
left_child=1 5 7 -3 -5 6 9 10 -7 -1 13 -10 -4 -2 17 16 -6 -9
right_child=2 3 12 4 15 8 -8 14 11 -11 -12 -13 -14 -15 -16 -17 -18 -19
leaf_value=0.034994362482828271 -0.092676722883949875 -0.027748889400190515 0.1045230986806399 -0.0048994143503598075 0.12135789114523772 -0.039434617962102819 -0.11091613866995409 -0.11182369039211054 0.010564955153096522 -0.048506371290298569 0.059792979101616572 0.097005793863871148 -0.0083461054895765316 0.011115706055029121 -0.017074281683930184 0.085882706577756693 0.10788168565973853 -0.10644634807318457
leaf_weight=1.396911874413491 0.64132151566445761 0.89834279008209694 0.58319545350968816 0.9064874388277534 0.7245922610163692 0.96252929978072677 1.1405873931944368 0.89899629727005936 1.1258791498839855 1.4822568111121666 0.65024883113801468 1.0763046685606241 0.64064588956534863 0.62251977622509003 0.49720382131636132 0.72396209649741639 0.77123085968196381 0.59083872474730015
leaf_count=17 13 10 18 12 7 12 16 11 19 16 11 14 12 9 10 14 15 12
internal_value=0 0.0118444 -0.0253535 0.050674 0.073209 -0.00990731 -0.0371974 -0.0475623 0.024756 -0.00799358 -0.00712376 0.0528124 0.0454393 -0.0415526 -0.0865162 0.105106 0.11441 -0.109691
internal_weight=0 11.2091 5.12497 4.02462 3.12627 7.18447 4.01976 3.90113 3.16471 2.87917 1.91409 2.20218 1.22384 1.26384 1.98704 2.21979 1.49582 1.48984
internal_count=248 152 96 58 48 94 49 66 45 33 33 33 30 22 33 36 22 23
shrinkage=0.1


Tree=40
num_leaves=21
num_cat=0
split_feature=17 8 11 9 17 1 9 19 8 8 4 5 17 1 19 8 19 19 8 19
split_gain=0.439857 1.04039 0.864465 1.31687 1.04789 0.836077 0.68925 0.777092 0.606153 0.541451 0.782517 0.559131 0.464588 0.167327 0.161208 0.000434393 0.000202229 0.00020041 7.66885e-05 7.60833e-06
threshold=0.56494227211545789 0.48560080349410983 21.780210474910863 -0.98604160854931344 0.47315906338954777 -0.0011094079343621607 0.62787719133810949 0.018109751741445763 0.53839003245542882 0.30806422588979537 0.16614259497339753 0.45146407794980553 0.43660646945671883 0.001676735199537846 0.054253918219409565 0.63626636135404813 -0.0039490730387848243 0.018109751741445763 0.63626636135404813 0.019430820251890749
decision_type=2 2 2 2 2 2 2 2 2 2 2 2 2 2 2 2 2 2 2 2
left_child=2 5 3 13 15 -2 -7 -8 -6 10 -5 -11 -13 -1 16 17 18 -4 -3 -18
right_child=1 14 4 9 8 6 7 -9 -10 11 -12 12 -14 -15 -16 -17 19 -19 -20 -21
leaf_value=-0.037208485383582117 -0.077915895710077704 0.10611260071116871 -0.10798093665848858 0.048075008739056208 -0.051760891142761938 0.085126572379423185 0.030074552693452546 -0.11039413363664333 0.068192621536987852 0.098790095438058001 -0.08404196208995067 0.064737339251745643 -0.036889916749819472 -0.10766105631701216 0.024119052164688591 -0.10977595527027023 0.10209056703947904 -0.10508176144934381 0.10422590353445721 0.10289358376300889
leaf_weight=0.58244469389319309 1.1317998319864271 0.39897914789617051 0.49617171660065673 0.97934775426983722 0.93033262342214562 1.1156748840585362 1.2332661394029854 0.57860881462693203 0.76987366005778313 1.5823999941349032 0.82677261903882027 0.96546233817934968 0.8422534205019474 0.80032586120069027 0.30940193496644486 0.77335595153272152 0.21642048656940449 0.45901337638497353 0.46832380071282387 0.25941975601017475
leaf_count=9 14 8 8 13 12 18 19 9 13 17 9 12 9 13 7 11 11 12 14 10
internal_value=0 0.0223045 -0.0124746 0.00874281 -0.0531862 -0.00492609 0.023292 -0.0147831 0.00255549 0.031822 -0.0124031 0.0553834 0.017387 -0.0779853 0.0891944 -0.108014 0.104185 -0.106588 0.105094 0.102528
internal_weight=0 5.71189 10.0078 6.57901 3.42875 4.05935 2.92755 1.81187 1.70021 5.19624 1.80612 3.39012 1.80772 1.38277 1.65255 1.72854 1.34314 0.955185 0.867303 0.47584
internal_count=248 110 138 82 56 60 46 28 25 60 22 38 21 22 50 31 43 20 22 21
shrinkage=0.1


Tree=41
num_leaves=21
num_cat=0
split_feature=5 8 17 11 13 17 18 8 13 10 13 10 17 13 10 15 17 8 5 10
split_gain=0.687034 0.84441 0.784657 1.27235 0.951029 0.908397 0.518802 0.510935 0.683119 0.779174 0.404188 0.335318 0.254048 0.221664 0.18716 0.171161 0.000595778 0.000214767 7.89802e-05 2.24325e-05
threshold=0.0021003358476086548 0.29587386862911719 0.494279692027566 21.780210474910863 0.3180683679133241 0.73193266748536934 -0.013703555264276577 0.51432735486420467 0.30725928276190972 0.17842188975953169 0.058244532778522741 -0.072806525752597454 0.58833576037972291 -0.70631152333647151 0.02152496095391351 14.842500000000003 0.54955531356041032 0.63626636135404813 0.8778152305046415 -0.042770950588200109
decision_type=2 2 2 2 2 2 2 2 2 2 2 2 2 2 2 2 2 2 2 2
left_child=-1 6 3 4 10 7 -2 8 9 11 -3 -4 -11 -9 17 -8 -15 -5 19 -18
right_child=1 2 5 14 -6 -7 15 13 -10 12 -12 -13 -14 16 -16 -17 18 -19 -20 -21
leaf_value=0.11298902211942073 0.0082046500371668 -0.0057253414323585007 0.0017094072331877482 -0.10651119637996419 -0.070220149818841046 -0.052538828037745212 -0.049181476273257613 0.018769376705213846 0.10874707564773625 0.013559596753674031 0.07676042167099667 -0.084566218616450861 0.10615926579436455 0.10788289379971974 -0.040440660025253955 -0.11992797693742281 0.10471464687281347 -0.10904461624943756 0.1023289426684853 0.10355219576622146
leaf_weight=0.52068946883082468 0.7328385375440124 0.94550232589244743 0.96348241530358592 0.67142776586115338 0.9712726492434739 1.1362267080694435 0.53279459848999866 0.37059531360864628 0.76311321929097164 0.5307374522089956 1.5981780067086218 0.84607824683189659 0.67066705413162708 0.50679143518209446 0.59691361337900151 0.95483995787799358 0.42540217749774434 0.6670716367661953 0.30367477796971798 0.27225054241716862
leaf_count=6 11 11 19 14 13 14 9 10 13 5 17 10 16 8 13 14 11 10 15 9
internal_value=0 -0.00392899 0.00636391 -0.0218947 0.0139577 0.0290505 -0.0606641 0.0454502 0.0242384 0.00282018 0.0460999 -0.0386296 0.0652521 0.0880616 -0.0870071 -0.0945902 0.105089 -0.107774 0.103675 0.104261
internal_weight=0 14.4599 12.2394 5.45037 3.51495 6.78902 2.22047 5.65279 3.77408 3.01097 2.54368 1.80956 1.2014 1.87871 1.93541 1.48763 1.50812 1.3385 1.00133 0.697653
internal_count=248 242 208 78 41 130 34 116 63 50 28 29 21 53 37 23 43 24 35 20
shrinkage=0.1


Tree=42
num_leaves=20
num_cat=0
split_feature=20 19 0 20 20 5 5 11 17 5 17 17 12 12 12 4 11 11 0
split_gain=0.462139 0.691249 0.580737 0.841675 0.599139 0.445193 0.637408 0.613047 0.771632 0.639549 0.564769 0.413603 0.407114 0.364593 0.283787 0.271552 0.263685 0.146003 0.143847
threshold=0.11535509547780882 0.054253918219409565 2.0015408092186546 -0.0053933764464360661 -0.15879279902649748 0.048275804409846752 0.21103684408274162 21.780210474910863 0.47315906338954777 0.80810442077501798 0.45759381978560049 0.53387581146146845 0.74425788056661057 12.026194062132484 4.262221745666257 0.41991162806104487 -1.0000000180025095e-35 -20.479600492390286 -0.94553267583312839
decision_type=2 2 2 2 2 2 2 2 2 2 2 2 2 2 2 2 2 2 2
left_child=1 2 4 -4 -1 13 15 10 -9 -10 -8 -12 -3 -6 17 -7 -2 -13 -11
right_child=16 12 3 -5 5 6 7 8 9 18 11 14 -14 -15 -16 -17 -18 -19 -20
leaf_value=-0.10083853637149749 0.10721829846218037 -0.0064299599327529407 0.042877579975015533 -0.096430363516512019 0.11379276482158572 -0.078193012865585762 0.11918565766329632 -0.10622280150890039 -0.08246085229675755 0.025045433189681266 -0.036075084043982124 0.10644910420175691 -0.10105115904208131 0.01772178958120223 -0.015961171825538564 -0.0022237397479108103 0.017388665037428176 0.038050433773801684 0.10542385451505437
leaf_weight=0.43123218417167208 0.57610238716006279 0.77711901068687339 0.67494864016771305 1.2133994214236725 0.82694668322801745 0.95270475186407544 0.93012346141040358 0.65298151597380627 0.37754463776946046 0.37984398286789645 0.71921091899275813 0.74667717423289548 1.0960394479334352 0.75630124285817146 0.43059914000332344 0.92964978888630867 0.7550470586866147 0.53618209902197567 0.53800653200596582
leaf_count=6 11 18 15 19 11 14 9 15 7 10 10 18 18 9 10 16 9 7 16
internal_value=0 -0.00560567 0.00387966 -0.0466378 0.0142396 0.0198938 0.0093278 0.027049 -0.0175849 0.0270955 0.0529096 0.0275691 -0.0617956 0.0679006 0.0542833 -0.0406736 0.0562656 0.0778613 0.07216
internal_weight=0 12.9695 11.0964 1.88835 9.208 8.77677 7.19352 5.31117 1.94838 1.2954 3.36279 2.43267 1.87316 1.58325 1.71346 1.88235 1.33115 1.28286 0.917851
internal_count=248 228 192 34 158 152 132 102 48 33 54 45 36 20 35 30 20 25 26
shrinkage=0.1


Tree=43
num_leaves=20
num_cat=0
split_feature=1 1 5 5 11 13 8 1 18 8 8 12 2 1 13 11 13 11 3
split_gain=0.346568 0.681045 0.40858 0.443009 0.392705 0.873335 0.672393 0.599541 0.517747 0.592712 0.366383 0.308119 0.296155 0.26796 0.435135 0.154475 0.0854753 0.0645437 0.00927712
threshold=-0.0022444830384418242 0.000571799988297511 0.077771759382527242 0.6862909250580902 7.1582290452843376 0.030181112306750153 0.43785464951509678 0.007978278485516346 -0.020101961165552251 0.30806422588979537 0.58626144712919059 2.3694377928517949 0.91236453183736332 -0.00020020020822423718 0.15048530133975682 -48.84615420461153 0.052404147268546891 37.996195856826226 0.43727873687126256
decision_type=2 2 2 2 2 2 2 2 2 2 2 2 2 2 2 2 2 2 2
left_child=2 13 -1 12 6 7 8 11 -3 -10 18 -6 -4 14 -2 -11 -15 -5 -8
right_child=1 4 3 17 5 -7 10 -9 9 15 -12 -13 -14 16 -16 -17 -18 -19 -20
leaf_value=0.047771335444141111 0.072800856064949668 0.04449466098973881 -0.10912990433841288 0.049523665751179724 0.028556256043149639 -0.10729268398628633 0.089799616406276692 0.095537464348404891 -0.086313050764969312 0.050463086381127759 -0.0010951894170144248 -0.07483492331422216 -0.027225869921026782 0.057323375031365364 -0.039406340821023199 -0.021833143257889449 0.11165204785690581 -0.0074863982194970057 0.10887124135372342
leaf_weight=0.57431636378169182 0.79366858303546928 1.0739445649087422 1.0094014033675196 0.3278726553544401 0.49464112985879205 1.0597560815513132 0.46512700244784333 0.53868951555341471 1.2673619873821746 0.55587313883006484 0.54563274607062329 0.69075756520032883 0.78465895168483246 0.50455877277999917 0.61218810640275478 0.63107828423380918 0.67970019392669201 0.50362241826951504 0.5647360198199749
leaf_count=7 15 17 14 8 15 19 13 12 17 10 6 18 12 12 9 10 11 13 10
internal_value=0 0.00896986 -0.0286311 -0.0453435 -0.00563987 -0.0358521 0.0108394 0.00806069 -0.0134152 -0.0387551 0.0651567 -0.031692 -0.073308 0.0534604 0.0239396 0.0120246 0.0885051 0.0149936 0.100258
internal_weight=0 10.4777 3.19987 2.62556 7.8876 2.78384 5.10375 1.72409 3.52826 2.45431 1.5755 1.1854 1.79406 2.59012 1.40586 1.18695 1.18426 0.831495 1.02986
internal_count=248 194 54 47 147 64 83 45 54 37 29 33 26 47 24 20 23 21 23
shrinkage=0.1


Tree=44
num_leaves=19
num_cat=0
split_feature=20 10 19 20 22 1 1 18 20 11 18 0 0 7 19 23 10 19
split_gain=0.372468 0.710457 0.615403 0.485002 0.433017 0.850308 0.747526 0.47262 0.388966 0.288565 0.226882 0.259655 0.190144 0.235966 0.158029 0.120099 0.109968 0.0107027
threshold=0.11535509547780882 0.46378643139256087 0.054253918219409565 -0.15879279902649748 1.0000000180025095e-35 -0.0022444830384418242 0.0042955121108427521 -0.0088500651857981432 0.079877385183003816 17.484504140070964 0.030668559430630713 -0.097046392754990371 0.46167250615142191 0.46838245132769696 -0.031852203256211124 1.0000000180025095e-35 0.3035050596145033 0.064385718119526189
decision_type=2 2 2 2 2 2 2 2 2 2 2 2 2 2 2 2 2 2
left_child=1 2 3 -1 10 -6 9 -8 17 14 11 15 -13 -14 -7 -5 -2 -4
right_child=16 -3 8 4 5 6 7 -9 -10 -11 -12 12 13 -15 -16 -17 -18 -19
leaf_value=-0.098304544377542283 0.017903766103444838 -0.086393332688403796 -0.10771695799811885 0.11056315009675376 -0.071969095172358805 0.11308914354718791 0.03181287500120511 -0.07531939474639443 0.0074016924420759718 0.0022001140012676986 -0.015111472299304728 -0.02361126733819895 0.10190574258114977 0.00035459103502436342 0.050986719884142877 0.056682495565002593 0.079046171039649588 -0.086239966125415013
leaf_weight=0.38523937575518807 0.51036113873124189 0.98838825989514667 0.47812917828559942 0.71755657531321115 1.3122043926268769 0.77469924837350435 0.71569224540144205 0.96974566765129544 0.5742040928453207 0.66553531773388375 0.58262336812913407 0.56248541921376805 0.44993550144135952 0.46558060869574547 0.86980575881899325 0.97689181566238403 0.6943827923387289 0.45079699344933033
leaf_count=6 8 19 9 13 19 10 15 16 13 13 17 10 10 12 17 17 12 12
internal_value=0 -0.00519612 0.0021323 0.0115877 0.016259 -0.00212668 0.0208111 -0.0298275 -0.0572999 0.0577578 0.0422465 0.0527804 0.0221482 0.0502625 0.0802421 0.0794996 0.0531446 -0.0972944
