tree
version=v3
num_class=1
num_tree_per_iteration=1
label_index=0
max_feature_idx=25
objective=binary sigmoid:1
feature_names=Column_0 Column_1 Column_2 Column_3 Column_4 Column_5 Column_6 Column_7 Column_8 Column_9 Column_10 Column_11 Column_12 Column_13 Column_14 Column_15 Column_16 Column_17 Column_18 Column_19 Column_20 Column_21 Column_22 Column_23 Column_24 Column_25
feature_infos=[-7.8327645051194494:27.687168402436622] [-0.084812286689419869:0.099823147966201745] [0:1] [0.031338175432642196:0.93297412910361155] [-20.81243731193581:9.9823147966201748] [-0.0005393220211609898:0.99318026402695536] [-0.0013062366946508558:0.98863070968412281] [0.020904448381991552:0.94499981726285354] [0.016895569832796383:0.85268377266040474] [-0.99987531832657395:0.99998462976158686] [-1:1] [-141.02524786355616:141.90379553072478] [-18.572536760995316:24.727040250332422] [-0.8937782785959909:0.65667388740767862] none [10.56:23.837499999999999] [-15.020176356299503:18.057503506311367] [0.29418309000114917:0.76334962003367635] [-0.14033198312322304:0.076224670097470026] [-0.15194500962539842:0.10760075203716812] [-0.94408923106147991:0.51874458586411643] [0:1] [0:1] [0:1] [0:1] [0:1]
tree_sizes=832 836 731 834 739 735 844 833 733 840 738 739 838 736 737 835 642 843 742 739 740 842 844 851 642 843 850 835 746 741 844 850 743 849 840 846 734 746 745 749 847 743 748 853 748 859 644 844 847 844 841 949 850 648 849 753 853 741 952 752 853 844 748 846 644 747 852 852 749

Tree=0
num_leaves=7
num_cat=0
split_feature=8 11 12 8 2 8
split_gain=18.0481 18.4374 8.3523 6.63822 5.25468 3.26801
threshold=0.48302297766077823 -37.369243469929899 2.2835570331285493 0.58473040797999165 0.94259623209326382 0.3209676058876702
decision_type=2 2 2 2 2 2
left_child=1 5 3 -2 -3 -1
right_child=2 4 -4 -5 -6 -7
leaf_value=0.1291721137553295 0.50662695594702933 -0.16108773388355904 0.15487116684072186 0.24606135520824304 0.053681145316989531 0.31218052209069919
leaf_weight=7.4512226879596701 7.9479708671569842 10.680085852742197 11.673582211136816 7.6995967775583267 7.9479708671569815 8.1963449567556363
leaf_count=30 32 43 47 31 32 33
internal_value=0.161641 0.0649866 0.282899 0.378412 -0.069453 0.225034
internal_weight=0 34.2756 27.3211 15.6476 18.6281 15.6476
internal_count=248 138 110 63 75 63
shrinkage=1


Tree=1
num_leaves=7
num_cat=0
split_feature=20 9 20 15 10 15
split_gain=14.5471 14.2096 13.3654 4.52596 3.81317 2.67747
threshold=0.014364837903596163 0.84962604866039715 0.091562704041927248 15.565000000000003 -0.14257109357507627 15.565000000000003
decision_type=2 2 2 2 2 2
left_child=1 4 3 -2 -1 -3
right_child=2 5 -4 -5 -6 -7
leaf_value=-0.14809577296864815 -0.11263703545190978 0.13827379490859132 0.11855522537097543 -0.30283342643870487 0.052813740668212233 0.30070872340866622
leaf_weight=7.3303735852241516 13.549132585525518 7.6367827057838467 8.102096274495123 7.9357309341430655 7.7990299016237277 8.6642081439495069
leaf_count=30 55 31 33 32 32 35
internal_value=0 0.0950567 -0.100341 -0.182889 -0.0445293 0.22461
internal_weight=0 31.4304 29.587 21.4849 15.1294 16.301
internal_count=248 128 120 87 62 66
shrinkage=0.2


Tree=2
num_leaves=6
num_cat=0
split_feature=17 17 12 18 9
split_gain=29.0029 17.485 6.25884 4.03126 5.93689
threshold=0.52729337677136268 0.663967206109772 0.6866166368295189 0.030041261837262332 0.75801640681745897
decision_type=2 2 2 2 2
left_child=3 2 -2 4 -1
right_child=1 -3 -4 -5 -6
leaf_value=-0.20322370684153912 0.32823297058821843 -0.11361376141034148 0.12044534822631181 -0.26527802510801285 0.011912477375148701
leaf_weight=10.53620751202107 11.34848284721375 8.4735085070133191 11.856588169932364 8.0715634226798993 10.001264095306395
leaf_count=43 47 35 49 33 41
internal_value=0 0.132276 0.222064 -0.145523 -0.0984575
internal_weight=0 31.6786 23.2051 28.609 20.5375
internal_count=248 131 96 117 84
shrinkage=0.2


Tree=3
num_leaves=7
num_cat=0
split_feature=17 8 17 8 13 4
split_gain=19.0348 18.7902 3.88097 3.67575 7.97839 0.67166
threshold=0.52729337677136268 0.35422541612475439 0.64567980587465512 0.55962771328682692 0.13879661085550146 0.23594530351087226
decision_type=2 2 2 2 2 2
left_child=3 -2 5 4 -1 -3
right_child=1 2 -4 -5 -6 -7
leaf_value=0.091586701193419856 -0.13142833437190921 0.31692857113148598 0.095293959975942422 -0.23556318581863223 -0.16589888376526446 0.22963524482612396
leaf_weight=7.5145397782325807 9.0588898956775683 7.0937535166740435 7.4759059846401206 7.6259721219539633 13.392332270741461 7.0096155554056168
leaf_count=31 38 31 31 31 55 31
internal_value=0 0.11031 0.21179 -0.116705 -0.0733511 0.273542
internal_weight=0 30.6382 21.5793 28.5328 20.9069 14.1034
internal_count=248 131 93 117 86 62
shrinkage=0.2


Tree=4
num_leaves=6
num_cat=0
split_feature=17 17 16 20 12
split_gain=12.6677 10.457 5.30757 4.78123 2.00331
threshold=0.52729337677136268 0.663967206109772 0.36714608960896017 0.001596450090861975 1.5769831244818344
decision_type=2 2 2 2 2
left_child=2 3 4 -2 -1
right_child=1 -3 -4 -5 -6
leaf_value=-0.10490639285862557 0.26023415378238435 -0.095487871486995973 -0.0003913609838619871 0.069104742370500932 -0.24990457056415338
leaf_weight=7.9672133624553698 10.930854529142385 8.3903122842311841 12.997011721134184 10.047686055302618 7.3069133907556534
leaf_count=33 51 35 54 45 30
internal_value=0 0.0932196 -0.094334 0.168693 -0.174271
internal_weight=0 29.3689 28.2711 20.9785 15.2741
internal_count=248 131 117 96 63
shrinkage=0.2


Tree=5
num_leaves=6
num_cat=0
split_feature=17 11 17 3 20
split_gain=8.4674 10.1416 7.21477 6.53422 4.12307
threshold=0.52729337677136268 23.113057717398501 0.663967206109772 0.36400609115026145 -0.004905718881631666
decision_type=2 2 2 2 2
left_child=1 3 4 -1 -2
right_child=2 -3 -4 -5 -6
leaf_value=-0.10312754485969658 0.24919752202996884 -0.22726630632326389 -0.076781343209638614 0.14420450202439625 0.06475966402953702
leaf_weight=8.6047056466341072 8.5813036710023916 10.890564277768133 8.3516907989978773 8.4865413159131986 11.14457893371582
leaf_count=36 45 46 35 35 51
internal_value=0 -0.0764298 0.0790277 0.0196835 0.144995
internal_weight=0 27.9818 28.0776 17.0912 19.7259
internal_count=248 117 131 71 96
shrinkage=0.2


Tree=6
num_leaves=7
num_cat=0
split_feature=12 19 7 19 10 15
split_gain=6.41954 5.64432 4.72301 4.64433 3.73762 4.69742
threshold=2.5012048585045052 -0.017453011384652602 0.54567343615060138 0.052527171818900383 -0.18831648405053369 14.862500000000002
decision_type=2 2 2 2 2 2
left_child=3 -2 -3 4 -1 -6
right_child=1 2 -4 -5 5 -7
leaf_value=-0.015020595772508475 0.075802410528879594 -0.27398799030131438 -0.050130661422499813 -0.09247535040460661 0.034687029172762528 0.24192362425647904
leaf_weight=8.2989951670169848 6.3331086486578014 6.7368214577436438 8.5604049414396268 6.5787092000246039 8.0207791328430194 9.6254675984382612
leaf_count=37 30 29 38 30 37 47
internal_value=0 -0.0829799 -0.148716 0.0576136 0.0956703 0.147728
internal_weight=0 21.6303 15.2972 32.524 25.9452 17.6462
internal_count=248 97 67 151 121 84
shrinkage=0.2


Tree=7
num_leaves=7
num_cat=0
split_feature=17 11 12 5 12 1
split_gain=5.36735 14.401 8.27394 8.45677 2.71419 0.819843
threshold=0.494279692027566 23.113057717398501 0.26137571793287245 0.50058499468075457 1.3041953121990864 0.0019827167793058792
decision_type=2 2 2 2 2 2
left_child=1 4 5 -4 -1 -2
right_child=2 -3 3 -5 -6 -7
leaf_value=-0.038908813754391244 0.11888628006588253 -0.28836029084348669 -0.15414197356980808 0.13598791703347465 0.13614377691400556 0.21600327798237276
leaf_weight=7.1871779114007968 6.6820893138647097 7.9911319613456717 10.131735056638719 6.6604367047548285 6.9873747229576111 7.248822033405304
leaf_count=30 33 36 46 34 30 39
internal_value=0 -0.0736581 0.0554694 -0.039065 0.0473837 0.16942
internal_weight=0 22.1657 30.7231 16.7922 14.1746 13.9309
internal_count=248 96 152 80 60 72
shrinkage=0.2


Tree=8
num_leaves=6
num_cat=0
split_feature=8 17 18 7 8
split_gain=5.61161 11.4305 4.36812 3.27021 1.80604
threshold=0.41368556727288414 0.494279692027566 -0.0073153791197512188 0.72285149245495939 0.3209676058876702
decision_type=2 2 2 2 2
left_child=2 -2 -1 -3 -4
right_child=1 3 4 -5 -6
leaf_value=0.056926323482058484 -0.085606920436012798 0.22536317517775709 -0.22020256537766747 0.042428075687593644 -0.077192014431259309
leaf_weight=6.5056565105915096 13.029738023877146 11.35314115136862 6.356774300336836 5.9611505046486846 7.9495662450790405
leaf_count=30 59 59 30 34 36
internal_value=0 0.0558945 -0.0789486 0.16238 -0.140736
internal_weight=0 30.344 20.812 17.3143 14.3063
internal_count=248 152 96 93 66
shrinkage=0.2


Tree=9
num_leaves=7
num_cat=0
split_feature=17 17 7 7 9 19
split_gain=2.68647 6.84764 4.98659 3.37183 4.57967 2.98877
threshold=0.5494767583383926 0.68279076435456287 0.48566939352256927 0.69620658706144389 -0.98966972082614058 -0.0051901918413540934
decision_type=2 2 2 2 2 2
left_child=3 2 -2 4 -1 -6
right_child=1 -3 -4 -5 5 -7
leaf_value=-0.13605503899953922 0.028724000874499875 -0.13045480758787517 0.26025428183204413 -0.15715147352176592 0.15769700929015409 -0.022807641725457486
leaf_weight=6.7000997066497865 8.92631644010544 5.7683948874473563 6.3806437924504271 7.2085570245981208 7.0265572220087087 7.6793539524078316
leaf_count=30 49 26 41 34 31 37
internal_value=0 0.0552529 0.125236 -0.0388438 0.000996766 0.0634384
internal_weight=0 21.0754 15.307 28.6146 21.406 14.7059
internal_count=248 116 90 132 98 68
shrinkage=0.2


Tree=10
num_leaves=6
num_cat=0
split_feature=11 8 16 8 3
split_gain=4.14349 5.15397 5.07469 2.81327 3.94274
threshold=-37.369243469929899 0.37453198117819786 1.2545874487053787 0.40883193278908309 0.64692059455596296
decision_type=2 2 2 2 2
left_child=1 -1 3 -2 -5
right_child=2 -3 -4 4 -6
leaf_value=-0.012791087008944244 -0.21709220866236847 0.21202095734409299 0.07243382198950811 0.055456839914914069 -0.14915035195599866
leaf_weight=9.720000587403776 5.7856251597404542 7.0287688001990309 10.407131403684614 7.0996422693133345 8.0257823169231397
leaf_count=46 28 38 54 37 45
internal_value=0 0.0815533 -0.0416854 -0.0984809 -0.0531109
internal_weight=0 16.7488 31.3182 20.911 15.1254
internal_count=248 84 164 110 82
shrinkage=0.2


Tree=11
num_leaves=6
num_cat=0
split_feature=8 12 8 9 11
split_gain=3.57197 4.82468 4.5189 4.02664 5.39921
threshold=0.48302297766077823 2.2835570331285493 0.57658951354511834 -0.9875222341987121 -35.896993231289507
decision_type=2 2 2 2 2
left_child=3 2 -2 -1 -5
right_child=1 -3 -4 4 -6
leaf_value=-0.19543159256375259 0.27787450583429252 -0.048952171739735179 0.020537583209926345 0.098142520898327826 -0.09897129675163481
leaf_weight=5.6432788372039822 5.6935160756111163 8.1262246519327146 5.2431750148534775 10.487410038709644 11.826935492455956
leaf_count=28 31 47 32 51 59
internal_value=0 0.0677739 0.154504 -0.044501 -0.00633074
internal_weight=0 19.0629 10.9367 27.9576 22.3143
internal_count=248 110 63 138 110
shrinkage=0.2


Tree=12
num_leaves=7
num_cat=0
split_feature=20 20 9 17 2 3
split_gain=2.86326 3.84124 6.37406 4.25709 2.18758 1.97274
threshold=0.091562704041927248 0.014364837903596163 0.84962604866039715 0.494279692027566 0.886298731753972 0.42817220263365813
decision_type=2 2 2 2 2 2
left_child=1 2 3 -1 -3 -4
right_child=-2 4 5 -5 -6 -7
leaf_value=-0.21755289846293882 0.12531602939948402 -0.17591316362925741 0.22600915192078791 0.033078443705002021 -0.029357816690521416 0.060922289108175501
leaf_weight=4.7411682456731814 6.3815930709242812 7.1243939697742489 5.4147221222519857 6.3302175514400005 9.5151155441999418 6.2229089140892029
leaf_count=22 33 38 28 40 49 38
internal_value=0 -0.0191059 0.0343841 -0.074251 -0.0921071 0.137733
internal_weight=0 39.3485 22.709 11.0714 16.6395 11.6376
internal_count=248 215 128 62 87 66
shrinkage=0.2


Tree=13
num_leaves=6
num_cat=0
split_feature=8 16 11 9 7
split_gain=3.77255 2.79572 2.73766 3.14153 1.58388
threshold=0.2953178120241472 1.1637031402723674 -37.369243469929899 -0.37870213703654931 0.65188489135053895
decision_type=2 2 2 2 2
left_child=-1 2 -2 -4 -3
right_child=1 4 3 -5 -6
leaf_value=-0.1341665997166839 0.089640002341088432 0.15999862008455071 0.048710599950703745 -0.12626198192068241 0.018190941921093787
leaf_weight=6.9740939289331427 7.2061992622911921 7.5834280028939229 6.7793524526059654 10.40279356390238 5.3896280378103256
leaf_count=36 41 41 40 58 32
internal_value=0 0.0260722 -0.0138299 -0.0572252 0.101085
internal_weight=0 37.3614 24.3883 17.1821 12.9731
internal_count=248 212 139 98 73
shrinkage=0.2


Tree=14
num_leaves=6
num_cat=0
split_feature=8 10 16 12 11
split_gain=2.99369 4.00446 3.48745 1.98495 1.87628
threshold=0.41368556727288414 -0.3756777741314774 1.1637031402723674 1.8830678008339796 -58.128099994333901
decision_type=2 2 2 2 2
left_child=4 -2 3 -3 -1
right_child=1 2 -4 -5 -6
leaf_value=0.016653401463752663 -0.12119650226026034 0.089425125124478991 0.19235611057928398 -0.066606326778024347 -0.1144308570368545
leaf_weight=7.3363085165619877 4.723669387400153 7.4752693474292773 7.4508968703448764 5.7851794809103012 10.794115722179411
leaf_count=39 26 48 45 33 57
internal_value=0 0.0449727 0.0828711 0.0213528 -0.0613888
internal_weight=0 25.435 20.7113 13.2604 18.1304
internal_count=248 152 126 81 96
shrinkage=0.2


Tree=15
num_leaves=7
num_cat=0
split_feature=8 17 4 10 5 19
split_gain=2.36112 6.508 2.34182 2.60505 3.3973 0.321401
threshold=0.48302297766077823 0.494279692027566 0.31742297815566639 0.15326738378321839 0.31633275583048737 0.019344599773476804
decision_type=2 2 2 2 2 2
left_child=2 -2 3 4 -1 -3
right_child=1 5 -4 -5 -6 -7
leaf_value=0.057840189919513979 -0.058326509597700388 0.14897383772618883 -0.1196643052340783 0.12086153860714191 -0.16569654930307454 0.2288470325400892
leaf_weight=5.6877639293670708 9.0490191951394099 4.0432032607495767 9.0470088794827443 5.3972918465733519 5.2112480029463768 4.0174309946596622
leaf_count=30 47 37 50 28 30 26
internal_value=0 0.0580907 -0.0380686 0.00722989 -0.0490416 0.188783
internal_weight=0 17.1097 25.3433 16.2963 10.899 8.06063
internal_count=248 110 138 88 60 63
shrinkage=0.2


Tree=16
num_leaves=5
num_cat=0
split_feature=1 1 12 17
split_gain=2.21651 3.52115 2.38422 1.66668
threshold=-0.0022444830384418242 0.00090225870891857019 3.6757378604113322 0.56877642080542434
decision_type=2 2 2 2
left_child=-1 -2 3 -3
right_child=1 2 -4 -5
leaf_value=-0.088505001226225954 0.14143717298209177 -0.017304392904857687 -0.10134905716071488 0.11500866302132376
leaf_weight=8.7508444115519506 7.8576046116650096 10.341221351176506 8.0812526419758779 6.027793411165475
leaf_count=51 48 59 46 44
internal_value=0 0.024967 -0.0124632 0.0314191
internal_weight=0 32.3079 24.4503 16.369
internal_count=248 197 149 103
shrinkage=0.2


Tree=17
num_leaves=7
num_cat=0
split_feature=8 11 17 9 21 13
split_gain=1.93286 2.49527 8.23181 4.02526 3.80294 1.37058
threshold=0.2953178120241472 23.113057717398501 0.48380263322304445 -0.9875222341987121 1.0000000180025095e-35 -0.22109497185940627
decision_type=2 2 2 2 2 2
left_child=-1 3 -3 -2 -5 -4
right_child=1 2 5 4 -6 -7
leaf_value=-0.10047695933687245 -0.084770923266264328 -0.25884434135557166 0.15496270908123078 0.014478435708393493 0.21394402553922465 -0.0056564996395372692
leaf_weight=6.3610388785600653 5.439576417207717 4.7567314952611914 3.9930411875247946 7.5458635389804858 7.7502428703010082 4.5425646826624861
leaf_count=36 31 31 33 44 46 27
internal_value=0 0.0196331 -0.0480108 0.0629954 0.115544 0.0694828
internal_weight=0 34.028 13.2923 20.7357 15.2961 8.53561
internal_count=248 212 91 121 90 60
shrinkage=0.2


Tree=18
num_leaves=6
num_cat=0
split_feature=15 11 15 15 21
split_gain=2.57829 3.04447 3.62826 2.53988 1.05543
threshold=16.340000000000003 -35.896993231289507 14.022500000000003 16.841250000000006 1.0000000180025095e-35
decision_type=2 2 2 2 2
left_child=1 4 -3 -2 -1
right_child=3 2 -4 -5 -6
leaf_value=0.054826680833837682 -0.20499998984965054 -0.10665831303406632 0.070849042828747419 0.0018727647874849621 0.18030053568761689
leaf_weight=5.6258330382406729 4.2444826401770097 9.3586464226245898 9.0699286833405477 5.3866466749459505 5.1237528137862682
leaf_count=34 30 56 57 40 31
internal_value=0 0.0300457 -0.0192951 -0.089297 0.114633
internal_weight=0 29.1782 18.4286 9.63113 10.7496
internal_count=248 178 113 70 65
shrinkage=0.2


Tree=19
num_leaves=6
num_cat=0
split_feature=8 17 15 8 21
split_gain=2.13853 3.81642 3.45946 1.9819 3.12998
threshold=0.48302297766077823 0.54317869879226788 16.340000000000003 0.3075172357541921 1.0000000180025095e-35
decision_type=2 2 2 2 2
left_child=2 -2 3 -1 -5
right_child=1 -3 -4 4 -6
leaf_value=-0.082342954474663471 -0.012550103214039899 0.20326076091978332 -0.16510264276828712 0.17274088530227716 -0.040300504532895437
leaf_weight=6.114574544131762 9.7157099135220033 4.9464346896857014 6.2100447826087466 5.189894460141657 5.8881399855017662
leaf_count=34 57 53 41 28 35
internal_value=0 0.060256 -0.0371571 0.00905737 0.0595062
internal_weight=0 14.6621 23.4027 17.1926 11.078
internal_count=248 110 138 97 63
shrinkage=0.2


Tree=20
num_leaves=6
num_cat=0
split_feature=17 17 13 11 17
split_gain=1.9399 1.93331 3.56502 2.89507 4.22764
threshold=0.68279076435456287 0.56877642080542434 -0.057905315114578179 23.113057717398501 0.47315906338954777
decision_type=2 2 2 2 2
left_child=1 3 -3 4 -1
right_child=-2 2 -4 -5 -6
leaf_value=0.12565619492164434 -0.12076460709217028 0.2355826018251902 -0.016370894802635073 -0.11766101218399259 -0.082350816174927871
leaf_weight=8.964539088308813 4.6098970882594577 4.0575658082962036 5.0324765760451537 7.2332881204783908 6.9296845942735663
leaf_count=45 26 42 39 55 41
internal_value=0 0.0179472 0.0960948 -0.012768 0.0349677
internal_weight=0 32.2176 9.09004 23.1275 15.8942
internal_count=248 222 81 141 86
shrinkage=0.2


Tree=21
num_leaves=7
num_cat=0
split_feature=17 17 8 8 13 9
split_gain=1.28048 1.39106 4.66993 2.74487 4.04335 1.31808
threshold=0.68279076435456287 0.56877642080542434 0.41368556727288414 0.59888365450499237 0.13530999081229381 0.93009052791111224
decision_type=2 2 2 2 2 2
left_child=1 3 -3 4 -1 -6
right_child=-2 2 -4 -5 5 -7
leaf_value=0.14758222005634009 -0.098663059872257861 -0.065266146890797905 0.23195504551849339 -0.14006655072116034 -0.12240490791047139 0.016660356461922415
leaf_weight=6.8117170743644335 4.5243308357894412 4.1977322511374933 4.2607934679836035 5.0838662125170222 5.1428094021975976 5.8018185496330261
leaf_count=45 26 26 55 32 31 33
internal_value=0 0.015167 0.0844524 -0.0104918 0.026607 -0.0486855
internal_weight=0 31.2987 8.45853 22.8402 17.7563 10.9446
internal_count=248 222 81 141 109 64
shrinkage=0.2


Tree=22
num_leaves=7
num_cat=0
split_feature=12 18 5 11 13 11
split_gain=2.21136 2.66177 3.26806 2.74133 1.98932 1.3005
threshold=-1.4643989200979639 -0.017129391771475596 0.26491688460906093 -9.9719297200591885 0.30563598920518392 34.94685509838245
decision_type=2 2 2 2 2 2
left_child=4 -2 -3 -4 -1 -5
right_child=1 2 3 5 -6 -7
leaf_value=0.14649658140665359 0.083515780316481839 -0.21732001525509245 0.10351534683320507 -0.18661915730939715 -0.017640858143974161 -0.022535710223013879
leaf_weight=6.4126585051417333 5.6452778652310398 4.6791120432317284 4.4968222267925757 3.3519775532185996 5.4755483120679855 4.5614461731165648
leaf_count=49 37 28 29 24 35 46
internal_value=0 -0.0355512 -0.0748836 -0.02118 0.0708971 -0.0920384
internal_weight=0 22.7346 17.0894 12.4102 11.8882 7.91342
internal_count=248 164 127 99 84 70
shrinkage=0.2


Tree=23
num_leaves=7
num_cat=0
split_feature=20 13 8 8 10 21
split_gain=0.930391 1.87399 2.45263 1.22639 1.04335 0.899552
threshold=0.091562704041927248 0.20930598876635417 0.53839003245542882 0.64190568134644144 0.043448282439772369 1.0000000180025095e-35
decision_type=2 2 2 2 2 2
left_child=1 2 5 -4 -3 -1
right_child=-2 4 3 -5 -6 -7
leaf_value=-0.19326213467502934 0.084468978861019506 0.092103863109142425 0.11336920484302229 -0.05233489068455216 -0.020947756469987248 -0.065605821188723476
leaf_weight=4.3947139494121092 4.578258588910102 7.5188164934515935 3.4858360067009917 3.6649793572723866 5.7723041418939829 4.4375494159758091
leaf_count=32 33 47 26 40 37 33
internal_value=0 -0.0124849 -0.0586295 0.0284415 0.0430058 -0.129124
internal_weight=0 29.2742 15.9831 7.15082 13.2911 8.83226
internal_count=248 215 131 66 84 65
shrinkage=0.2


Tree=24
num_leaves=5
num_cat=0
split_feature=4 4 15 15
split_gain=1.62292 2.47735 1.65675 2.2517
threshold=0.084095601740743792 -0.19298495731270807 16.340000000000003 14.311250000000003
decision_type=2 2 2 2
left_child=1 -1 3 -2
right_child=2 -3 -4 -5
leaf_value=-0.021735646141074139 -0.078493328910331644 0.14818801093679945 -0.14040953796272979 0.077568005658192565
leaf_weight=7.8490189667791128 7.7476575672626513 6.0984566807746869 4.6879494078457347 7.0752877239137888
leaf_count=57 53 47 40 51
internal_value=0 0.0525625 -0.0367772 -0.00400214
internal_weight=0 13.9475 19.5109 14.8229
internal_count=248 104 144 104
shrinkage=0.2


Tree=25
num_leaves=7
num_cat=0
split_feature=11 8 12 6 17 1
split_gain=1.53279 1.59922 1.48937 1.39774 1.87573 0.730532
threshold=-35.896993231289507 0.3075172357541921 -1.405595255603576 0.61196229959914039 0.48380263322304445 0.0034889594897263864
decision_type=2 2 2 2 2 2
left_child=1 -1 -2 -4 -5 -3
right_child=2 5 3 4 -6 -7
leaf_value=-0.042294060959983948 0.039292530949078593 0.048472200907973773 0.0040772053804498691 -0.24122365132246115 -0.042234523033695542 0.16855802679121959
leaf_weight=4.333091862499713 7.295613421127201 4.0726620797067863 5.4653591308742762 3.3327499367296696 4.3918127119541168 4.0329527854919434
leaf_count=25 50 32 41 28 42 30
internal_value=0 0.0557882 -0.0332175 -0.0733242 -0.128088 0.108221
internal_weight=0 12.4387 20.4855 13.1899 7.72456 8.10561
internal_count=248 87 161 111 70 62
shrinkage=0.2


Tree=26
num_leaves=7
num_cat=0
split_feature=17 17 8 18 15 25
split_gain=1.24701 1.69761 2.41434 1.64401 1.72111 1.15686
threshold=0.43349286493830641 0.46630246171812023 0.48302297766077823 -0.0085027938238747807 15.343750000000002 1.0000000180025095e-35
decision_type=2 2 2 2 2 2
left_child=-1 -2 3 -3 -5 -4
right_child=1 2 5 4 -6 -7
leaf_value=0.10147933112647999 -0.11921645455159668 0.066598191485912062 0.19112694358129712 0.0029693071032376155 -0.15195204330359197 0.023965468800797696
leaf_weight=4.2151582427322856 5.1259963270276812 4.6608504019677701 3.4037686716765156 5.7542666271328908 5.7196373678743839 3.225188447162509
leaf_count=30 36 32 41 35 43 31
internal_value=0 -0.0152342 0.00818078 -0.0335685 -0.0742576 0.109798
internal_weight=0 27.8897 22.7637 16.1348 11.4739 6.62896
internal_count=248 218 182 110 78 72
shrinkage=0.2


Tree=27
num_leaves=7
num_cat=0
split_feature=11 13 9 13 9 8
split_gain=1.22775 4.03527 2.61303 4.92772 1.76844 1.62379
threshold=23.113057717398501 0.039602750341811079 -0.9875222341987121 0.039602750341811079 0.97543141585652371 0.3209676058876702
decision_type=2 2 2 2 2 2
left_child=2 4 -1 -4 -2 -5
right_child=1 -3 3 5 -6 -7
leaf_value=-0.1032949270113046 0.134900826791363 -0.24767900548922711 -0.1075301341416747 0.036268434140286403 -0.080766834838596646 0.18666964813351419
leaf_weight=4.8817900493741098 3.2182717174291593 3.0851473454385996 4.8729860112071064 4.5950336437672359 2.8834310192614794 7.6546039581298828
leaf_count=34 36 24 40 33 31 50
internal_value=0 -0.0612685 0.0257803 0.0625806 0.0329845 0.130252
internal_weight=0 9.18685 22.0044 17.1226 6.1017 12.2496
internal_count=248 91 157 123 67 83
shrinkage=0.2


Tree=28
num_leaves=6
num_cat=0
split_feature=4 4 15 15 24
split_gain=1.05463 1.76104 1.55714 1.62038 1.31696
threshold=0.11130243044372683 -0.36194981724033753 16.555000000000003 14.311250000000003 1.0000000180025095e-35
decision_type=2 2 2 2 2
left_child=1 -1 3 -2 -3
right_child=2 4 -4 -5 -6
leaf_value=-0.051973339463967788 -0.073570310622401922 0.18908885347972121 -0.14785802981699167 0.065895196275974552 0.027491037930057329
leaf_weight=4.9041460249572983 6.4048721734434384 3.6453726720064896 3.685744307935237 6.9462268780916929 4.5166849084198475
leaf_count=39 50 31 32 59 37
internal_value=0 0.0427502 -0.0327791 -0.00101006 0.0996645
internal_weight=0 13.0662 17.0368 13.3511 8.16206
internal_count=248 107 141 109 68
shrinkage=0.2


Tree=29
num_leaves=6
num_cat=0
split_feature=16 4 4 6 0
split_gain=1.62112 1.78684 1.64237 1.59676 1.0889
threshold=0.36714608960896017 0.13639355724066773 -0.19298495731270807 0.23391348000653606 1.0000000180025095e-35
decision_type=2 2 2 2 2
left_child=2 -2 -1 -4 -5
right_child=1 -3 3 4 -6
leaf_value=-0.15261875111557821 0.13493816797771072 -0.01515556742914248 -0.09625466623149051 -0.021166300010890381 0.12685631970035754
leaf_weight=3.9999600984156176 5.8666294142603856 6.9089516662061214 4.8547336477786303 4.1791226081550121 3.791279255412519
leaf_count=31 50 58 35 37 37
internal_value=0 0.0537684 -0.040729 -0.00583227 0.0492436
internal_weight=0 12.7756 16.8251 12.8251 7.9704
internal_count=248 108 140 109 74
shrinkage=0.2


Tree=30
num_leaves=7
num_cat=0
split_feature=9 16 8 7 3 20
split_gain=1.08861 1.19268 1.46803 1.33812 0.976998 0.50282
threshold=0.99887447352295144 0.36714608960896017 0.40883193278908309 0.65188489135053895 0.44998532715775458 0.010985992764029175
decision_type=2 2 2 2 2 2
left_child=1 2 -1 5 -4 -3
right_child=-2 3 4 -5 -6 -7
leaf_value=-0.12843165925376052 0.10356861147452046 0.13731429300179485 0.09268976229146815 -0.061316942983689907 -0.050145879854487367 0.033666699155540193
leaf_weight=5.9747364390641513 3.5688560903072348 3.5911863166838867 3.0040556807070953 3.8859670488163829 5.2860921025276184 3.9112986689433455
leaf_count=44 31 31 23 33 54 32
internal_value=0 -0.0143237 -0.0528554 0.0339402 0.00161269 0.0832793
internal_weight=0 25.6533 14.2649 11.3885 8.29015 7.50248
internal_count=248 217 121 96 77 63
shrinkage=0.2


Tree=31
num_leaves=7
num_cat=0
split_feature=1 1 9 15 18 6
split_gain=0.732874 2.59116 1.57536 1.28069 1.46276 0.637325
threshold=-0.0010597899947323525 0.00090225870891857019 0.95234931663637246 14.562500000000002 0.0008249819337718679 0.62442708939900349
decision_type=2 2 2 2 2 2
left_child=2 -2 -1 5 -5 -3
right_child=1 3 -4 4 -6 -7
leaf_value=-0.14877940962390876 0.16035870326988066 -0.13477052702596704 0.032706497392012278 0.10713691754418747 -0.05025942172977086 -0.017163596361527974
leaf_weight=3.6176076577976373 4.1795010324567583 3.8195957606658366 4.0606412515044212 5.0197781026363355 4.4604561179876328 3.5619009705260396
leaf_count=28 36 31 35 43 43 32
internal_value=0 0.0193876 -0.0528006 -0.0155548 0.0330818 -0.0780199
internal_weight=0 21.0412 7.67825 16.8617 9.48023 7.3815
internal_count=248 185 63 149 86 63
shrinkage=0.2


Tree=32
num_leaves=6
num_cat=0
split_feature=12 9 8 22 2
split_gain=1.10276 2.03645 1.11042 2.17865 1.65338
threshold=2.6522942285598545 0.99304074418071242 0.46196429549445073 1.0000000180025095e-35 0.037330231809417976
decision_type=2 2 2 2 2
left_child=2 -2 3 -1 -4
right_child=1 -3 4 -5 -6
leaf_value=0.089200207611790538 -0.13302639882635608 0.041995261058655087 -0.032390099214926374 -0.10427939042444295 0.15661878167541635
leaf_weight=4.3078489974141174 5.6404077839106304 5.0311568267643452 2.9469955544918767 5.0652061756700277 4.9790242966264486
leaf_count=33 44 50 22 42 57
internal_value=0 -0.0505117 0.0312398 -0.0153563 0.0863429
internal_weight=0 10.6716 17.2991 9.37306 7.92602
internal_count=248 94 154 75 79
shrinkage=0.2


Tree=33
num_leaves=7
num_cat=0
split_feature=12 18 19 19 12 13
split_gain=0.736763 1.37685 0.917322 0.763556 1.22789 1.08152
threshold=2.5012048585045052 -0.0054867945248635855 0.031274057157255848 0.050388255507255376 -3.1433547778153605 0.21241603621645369
decision_type=2 2 2 2 2 2
left_child=3 -2 -3 4 -1 -6
right_child=1 2 -4 -5 5 -7
leaf_value=-0.034493295228427243 0.054639599194693092 -0.17186333603399476 -0.024709992296804165 -0.05511550536985324 0.036606496479989759 0.18299193702584116
leaf_weight=4.5914294114336398 3.8400211501866579 3.2527452949434501 3.5371706634759903 3.6098590027540913 5.155023220926525 3.318375688046217
leaf_count=44 34 31 32 35 44 28
internal_value=0 -0.041074 -0.0952046 0.026304 0.0488005 0.0939344
internal_weight=0 10.6299 6.78992 16.6747 13.0648 8.4734
internal_count=248 97 63 151 116 72
shrinkage=0.2


Tree=34
num_leaves=7
num_cat=0
split_feature=11 10 5 8 6 4
split_gain=0.942072 1.50236 1.68942 1.33598 1.12285 0.534985
threshold=-35.896993231289507 0.12244805021038979 0.72648780507003241 0.3075172357541921 0.56234941060992083 0.37232395765463983
decision_type=2 2 2 2 2 2
left_child=3 2 4 -1 -2 -5
right_child=1 -3 -4 5 -6 -7
leaf_value=-0.043911864213970621 -0.057695239372054931 0.062456012238309683 0.025235316263010711 0.15983953762469055 -0.21856022627201654 0.043061724275429397
leaf_weight=3.9136119224131125 3.8260802309960145 4.9885945320129386 4.610812759026885 3.3342551710084081 3.1766935214400291 2.9643105417490005
leaf_count=25 32 49 51 35 29 27
internal_value=0 -0.0293409 -0.068772 0.0478586 -0.130669 0.10488
internal_weight=0 16.6022 11.6136 10.2122 7.00277 6.29857
internal_count=248 161 112 87 61 62
shrinkage=0.2


Tree=35
num_leaves=7
num_cat=0
split_feature=4 1 1 4 5 11
split_gain=0.704807 1.38145 1.36934 1.01426 1.05833 0.643633
threshold=0.084095601740743792 -0.0020454803379976578 0.0031253562127448622 -0.36194981724033753 0.42704556220273682 -35.896993231289507
decision_type=2 2 2 2 2 2
left_child=3 -2 -3 -1 -5 -4
right_child=1 2 5 4 -6 -7
leaf_value=-0.037525015594088579 -0.13849027204098774 0.077431311469254402 0.0045756266000103168 0.1673105947045167 0.0063707719149199678 -0.1228107294334454
leaf_weight=4.2025752170011401 3.4788384977728137 5.5424836631864274 3.197527013719081 3.333371535874905 3.2066433671861887 3.1490242443978795
leaf_count=39 31 52 27 26 39 34
internal_value=0 -0.0276373 0.00479925 0.0391373 0.0884 -0.0586308
internal_weight=0 15.3679 11.889 10.7426 6.54001 6.34655
internal_count=248 144 113 104 65 61
shrinkage=0.2


Tree=36
num_leaves=6
num_cat=0
split_feature=15 11 15 12 7
split_gain=0.603852 1.36231 1.26915 0.873349 0.693771
threshold=14.022500000000003 15.914613301426185 15.18125 2.6522942285598545 0.37585703394253278
decision_type=2 2 2 2 2
left_child=1 -1 -2 4 -4
right_child=2 -3 3 -5 -6
leaf_value=0.022510237302367217 0.099002958589334042 -0.13996454872333644 0.097801158638827726 -0.083936184528230817 -0.030259973190242269
leaf_weight=5.0779375266283768 5.6597796902060535 3.4781945794820786 3.1370558459311706 4.6189707778394222 3.6739017087966204
leaf_count=46 46 35 28 50 43
internal_value=0 -0.0435382 0.0215493 -0.0168035 0.0287236
internal_weight=0 8.55613 17.0897 11.4299 6.81096
internal_count=248 81 167 121 71
shrinkage=0.2


Tree=37
num_leaves=6
num_cat=0
split_feature=8 18 12 4 8
split_gain=0.777971 0.552667 1.15892 1.62186 0.528916
threshold=0.28116425093103808 -0.01637897331323895 -1.7186893534675005 0.061497949984363011 0.46196429549445073
decision_type=2 2 2 2 2
left_child=-1 -2 -3 -4 -5
right_child=1 2 3 4 -6
leaf_value=-0.07761822272837661 -0.040763048248014772 0.10909615640519017 0.082991675613783775 -0.14052101119988211 -0.018014655504355701
leaf_weight=4.3041074424982098 5.1974945813417497 5.440168341621761 4.6040411144494904 2.7163245836272836 2.9306506020948291
leaf_count=33 51 55 47 27 35
internal_value=0 0.0157615 0.0344845 -0.00511152 -0.076943
internal_weight=0 20.8887 15.6912 10.251 5.64698
internal_count=248 215 164 109 62
shrinkage=0.2


Tree=38
num_leaves=6
num_cat=0
split_feature=17 17 13 13 12
split_gain=0.903226 1.07174 1.91907 2.286 0.597136
threshold=0.43349286493830641 0.52729337677136268 0.20930598876635417 -0.070013567749896075 1.0799183274659041
decision_type=2 2 2 2 2
left_child=-1 4 3 -3 -2
right_child=1 2 -4 -5 -6
leaf_value=0.097140246805854508 -0.098999462071534955 0.089571366841803418 0.17159745722283204 -0.11909539168942603 0.00070421168013572806
leaf_weight=3.3063544426113394 6.4412567336112279 4.0008577099069971 2.7834850484505287 4.4202396171167457 3.8323222175240517
leaf_count=30 53 55 33 43 34
internal_value=0 -0.0151508 0.027629 -0.019958 -0.0618073
internal_weight=0 21.4782 11.2046 8.4211 10.2736
internal_count=248 218 131 98 87
shrinkage=0.2


Tree=39
num_leaves=6
num_cat=0
split_feature=16 24 4 19 9
split_gain=0.840384 1.19079 0.973035 1.28488 1.1385
threshold=0.36714608960896017 1.0000000180025095e-35 -0.19298495731270807 0.037169235728447873 0.84962604866039715
decision_type=2 2 2 2 2
left_child=2 -2 -1 4 -4
right_child=1 -3 3 -5 -6
leaf_value=-0.12801907927006634 -0.020936192858800814 0.11353639551207112 -0.13906982695879386 0.10115465060634446 0.022642405095069457
leaf_weight=3.2707988061010846 5.6082304436713439 4.9669599551707506 3.1938569042831659 3.2524611242115498 3.8293669391423464
leaf_count=31 58 50 38 37 34
internal_value=0 0.042223 -0.0330112 -0.00276979 -0.0508973
internal_weight=0 10.5752 13.5465 10.2757 7.02322
internal_count=248 108 140 109 72
shrinkage=0.2


Tree=40
num_leaves=7
num_cat=0
split_feature=9 12 8 0 10 15
split_gain=0.65344 0.782705 1.19696 1.07946 0.740535 0.681807
threshold=0.99887447352295144 2.6522942285598545 0.46196429549445073 -0.44018359619171504 0.043448282439772369 14.920000000000002
decision_type=2 2 2 2 2 2
left_child=1 2 5 -4 -3 -1
right_child=-2 4 3 -5 -6 -7
leaf_value=-0.11222351043400124 0.085869670450003516 0.01298000645092212 -0.0045408712407021016 0.15647671268942798 -0.11843241990705276 0.014995194161418798
leaf_weight=3.1239546760916763 3.0785955917090169 2.8433559397235504 3.3395760934799945 3.3221122957766021 4.3233640613034368 3.6584717007353902
leaf_count=29 31 34 34 45 38 37
internal_value=0 -0.0129142 0.0155419 0.0757569 -0.0662953 -0.0436012
internal_weight=0 20.6108 13.4441 6.66169 7.16672 6.78243
internal_count=248 217 145 79 72 66
shrinkage=0.2


Tree=41
num_leaves=6
num_cat=0
split_feature=17 17 8 11 17
split_gain=0.607782 1.19015 1.75097 1.01901 1.63054
threshold=0.68279076435456287 0.56877642080542434 0.41368556727288414 23.113057717398501 0.45760808360047794
decision_type=2 2 2 2 2
left_child=1 3 -3 4 -1
right_child=-2 2 -4 -5 -6
leaf_value=0.12100048060140933 -0.090734729255602137 -0.01074645653800569 0.21797636888731151 -0.096709724622852697 -0.042700608843880522
leaf_weight=3.8237597607076221 2.6184874800965181 2.9789783153682938 2.4316459111869335 4.5235718162730327 6.6955180577933788
leaf_count=29 26 26 55 55 57
internal_value=0 0.0116033 0.0920463 -0.0173304 0.0168048
internal_weight=0 20.4535 5.41062 15.0428 10.5193
internal_count=248 222 81 141 86
shrinkage=0.2


Tree=42
num_leaves=6
num_cat=0
split_feature=5 8 11 19 5
split_gain=0.551234 0.864628 0.989342 0.805874 0.734729
threshold=0.050396232697674341 0.3075172357541921 -37.369243469929899 0.037169235728447873 0.72648780507003241
decision_type=2 2 2 2 2
left_child=-1 -2 -3 4 -4
right_child=1 2 3 -5 -6
leaf_value=0.0703950987024968 -0.11409790861611249 0.085725572784794146 -0.13700861128634359 0.032761037461726851 0.0004205935199774344
leaf_weight=3.7425152026116875 2.8984357388690141 4.363937275484207 3.4101851312443561 5.0983481369912624 2.8620041226968169
leaf_count=30 27 55 36 59 41
internal_value=0 -0.0137176 0.00477342 -0.0262955 -0.0742996
internal_weight=0 18.6329 15.7345 11.3705 6.27219
internal_count=248 218 191 136 77
shrinkage=0.2


Tree=43
num_leaves=7
num_cat=0
split_feature=16 8 11 11 19 17
split_gain=0.553775 0.886444 1.56088 0.866386 1.00947 0.711332
threshold=0.36714608960896017 0.3075172357541921 -37.369243469929899 27.584416477467844 0.00080962121198219228 0.51821243426274066
decision_type=2 2 2 2 2 2
left_child=1 -1 -3 4 -2 -4
right_child=3 2 5 -5 -6 -7
leaf_value=-0.12968591905425661 0.14480199319215259 0.12541080402928961 -0.11093237436149783 -0.051280295691948578 -0.012115119268371992 0.020848343525614394
leaf_weight=2.6885452577844289 3.7568921199999732 2.8101241295225909 3.6902864240109912 3.1275690393522382 2.9101947601884604 2.9467406617477536
leaf_count=23 38 34 41 39 31 42
internal_value=0 -0.0283613 0.000474466 0.0355669 0.0763074 -0.0524237
internal_weight=0 12.1357 9.44715 9.79466 6.66709 6.63703
internal_count=248 140 117 108 69 83
shrinkage=0.2


Tree=44
num_leaves=6
num_cat=0
split_feature=17 13 10 13 7
split_gain=0.41413 0.806498 1.29918 0.711158 0.852603
threshold=0.68279076435456287 0.36998337756036986 0.22075083155366043 -0.057905315114578179 0.50364021666868874
decision_type=2 2 2 2 2
left_child=1 2 3 -1 -5
right_child=-2 -3 -4 4 -6
leaf_value=0.083567543464638849 -0.076695442326640967 -0.077787370430407274 0.1437063101677892 -0.080341366214516666 0.042915631585494413
leaf_weight=3.0680869980715242 2.4732774300500742 3.4018809073604634 3.1794422827661029 5.2527156043797749 3.920180787332356
leaf_count=54 26 35 38 51 44
internal_value=0 0.0103548 0.0297998 0.000213968 -0.0276656
internal_weight=0 18.8223 15.4204 12.241 9.1729
internal_count=248 222 187 149 95
shrinkage=0.2


Tree=45
num_leaves=7
num_cat=0
split_feature=4 1 1 11 10 10
split_gain=0.601947 0.797817 1.03832 0.591729 1.45568 0.365832
threshold=0.084095601740743792 -0.0020454803379976578 0.0031253562127448622 23.113057717398501 0.057289914882389201 -0.025443105406091494
decision_type=2 2 2 2 2 2
left_child=3 -2 -3 4 -1 -4
right_child=1 2 5 -5 -6 -7
leaf_value=0.18053258786863435 -0.1233827346805456 0.069516936746807201 -0.12162133980076709 -0.032435067531156429 -0.02003584812727581 -0.013330811964512485
leaf_weight=2.8159617660567182 2.7450766335241505 4.4422368276864255 2.3137990571558467 2.9634043071419001 2.9783513811416924 2.7086232104338714
leaf_count=30 31 52 28 41 33 33
internal_value=0 -0.0284527 -0.000919715 0.0402594 0.0774378 -0.0632196
internal_weight=0 12.2097 9.46466 8.75772 5.79431 5.02242
internal_count=248 144 113 104 63 61
shrinkage=0.2


Tree=46
num_leaves=5
num_cat=0
split_feature=15 13 13 13
split_gain=0.49886 0.968676 0.733368 0.89319
threshold=14.022500000000003 0.19350138071552803 0.20930598876635417 -0.070013567749896075
decision_type=2 2 2 2
left_child=1 -1 3 -2
right_child=2 -3 -4 -5
leaf_value=0.02465784486560723 0.067864835008422789 -0.12864007410187836 0.079321675202816105 -0.065677163217875631
leaf_weight=3.6436608205549446 3.2357865418307483 3.0115488832816482 5.4231430115178219 5.2601933432742936
leaf_count=46 57 35 56 54
internal_value=0 -0.044711 0.0218616 -0.0148162
internal_weight=0 6.65521 13.9191 8.49598
internal_count=248 81 167 111
shrinkage=0.2


Tree=47
num_leaves=7
num_cat=0
split_feature=12 12 17 9 3 9
split_gain=0.540888 0.97009 0.798802 0.872718 0.626955 0.537148
threshold=2.6522942285598545 4.1822689741324934 0.48380263322304445 0.99304074418071242 0.60071861150960248 0.99353823067558034
decision_type=2 2 2 2 2 2
left_child=2 -2 -1 4 -4 -3
right_child=1 5 3 -5 -6 -7
leaf_value=-0.040642048308687007 -0.14568263325466591 -0.059571881958707468 0.16319016282624751 -0.035589227203376955 0.026063635150140631 0.070127941783065292
leaf_weight=4.6203399449586886 2.4466721694916478 2.4720922680571675 3.301243660505861 2.4487571390345693 2.2377077285200357 2.6425859536975622
leaf_count=46 24 31 50 24 34 39
internal_value=0 -0.042107 0.0255491 0.0638361 0.107792 0.00743975
internal_weight=0 7.56135 12.608 7.98771 5.53895 5.11468
internal_count=248 94 154 108 84 70
shrinkage=0.2


Tree=48
num_leaves=7
num_cat=0
split_feature=20 20 9 17 4 24
split_gain=0.52281 1.11527 2.00177 1.08272 0.773657 0.463071
threshold=0.091562704041927248 0.014364837903596163 0.84962604866039715 0.494279692027566 1.0000000180025095e-35 1.0000000180025095e-35
decision_type=2 2 2 2 2 2
left_child=1 2 3 -1 -3 -4
right_child=-2 4 5 -5 -6 -7
leaf_value=-0.15692935659899601 0.086589902923373041 0.01512182139888861 0.053037977608052247 0.030499024134940766 -0.12362680036152862 0.17131133306723054
leaf_weight=2.4284140933305078 2.4557877783663562 2.5108224861323825 2.5204258831217885 2.504099128767848 4.468111583031714 2.7897983570583165
leaf_count=22 33 28 36 40 59 30
internal_value=0 -0.0120502 0.0299613 -0.0617772 -0.073709 0.115174
internal_weight=0 17.2217 10.2427 4.93251 6.97893 5.31022
internal_count=248 215 128 62 87 66
shrinkage=0.2


Tree=49
num_leaves=7
num_cat=0
split_feature=0 9 5 5 5 3
split_gain=0.354221 0.913586 1.10773 0.70309 0.78292 0.234666
threshold=1.8758382888817722 0.99785411519054368 0.20785018254203314 0.42704556220273682 0.6657389714977946 0.67108010934776074
decision_type=2 2 2 2 2 2
left_child=1 2 -1 -4 -5 -6
right_child=-2 -3 3 4 5 -7
leaf_value=-0.099982590364619914 -0.059686174145304888 0.11527323873577547 0.12598148876013232 -0.086979480257578484 0.097778217536023934 0.0019001027174649484
leaf_weight=3.8396436180919435 3.2701341900974503 2.842753153294324 2.2209426676854473 2.7108089569956064 2.1209307634271681 1.9691330725327132
leaf_count=41 46 37 29 34 31 30
internal_value=0 0.0126674 -0.0100115 0.0282798 -0.00362635 0.0516184
internal_weight=0 15.7042 12.8615 9.02182 6.80087 4.09006
internal_count=248 202 165 124 95 61
shrinkage=0.2


Tree=50
num_leaves=7
num_cat=0
split_feature=12 8 15 8 15 15
split_gain=0.403149 0.752402 1.04962 0.893217 0.707396 1.32369
threshold=2.6522942285598545 0.48302297766077823 14.862500000000002 0.59888365450499237 14.022500000000003 16.340000000000003
decision_type=2 2 2 2 2 2
left_child=1 2 -1 -3 -2 -6
right_child=4 3 -4 -5 5 -7
leaf_value=-0.10945322430950975 -0.12576034769310926 0.18893066979106099 0.044954049880935661 0.0022972546903692898 0.10640750744960217 -0.10746671600903711
leaf_weight=2.8713454511016625 2.3960102070122948 1.9730998231098054 4.5538778146728873 2.136356015689671 2.5147902369499207 2.1446871715597808
leaf_count=34 30 34 54 32 27 37
internal_value=0 0.023245 -0.0147555 0.0919068 -0.0374479 0.00796443
internal_weight=0 11.5347 7.42522 4.10946 7.05549 4.65948
internal_count=248 154 88 66 94 64
shrinkage=0.2


Tree=51
num_leaves=8
num_cat=0
split_feature=20 20 9 17 1 0 9
split_gain=0.489782 0.694062 1.50797 0.704452 0.636271 0.482904 0.308113
threshold=0.1048502141754425 0.014364837903596163 0.84962604866039715 0.50315037426383979 0.0041991162806104491 0.32212025344622824 0.95234931663637246
decision_type=2 2 2 2 2 2 2
left_child=1 2 3 -1 6 -4 -3
right_child=-2 4 5 -5 -6 -7 -8
leaf_value=-0.13791597596419264 0.091625325009376452 -0.046934564443528642 0.1603611814679814 0.020278131020346073 0.027735165314164152 0.033061684838696384 -0.1531472414295911
leaf_weight=2.2755689602345246 2.0761676058173171 1.9982357039116312 2.5784519128501415 2.2288339263759553 2.1483831605874002 2.2167327455244958 2.4102313094772398
leaf_count=24 27 29 36 38 29 30 35
internal_value=0 -0.0116791 0.0234561 -0.0596396 -0.0615114 0.101513 -0.105004
internal_weight=0 15.8564 9.29959 4.5044 6.55685 4.79518 4.40847
internal_count=248 221 128 62 93 66 64
shrinkage=0.2


Tree=52
num_leaves=7
num_cat=0
split_feature=12 10 19 1 2 7
split_gain=0.384213 0.831429 0.822672 0.795522 0.476091 0.252232
threshold=-1.4643989200979639 0.16696552885539059 0.032013946946475642 0.0041991162806104491 0.037330231809417976 0.37167001543228428
decision_type=2 2 2 2 2 2
left_child=4 2 3 -2 -1 -6
right_child=1 -3 -4 -5 5 -7
leaf_value=-0.03077138035133575 0.038389209141681903 0.059081945325456978 -0.16545966522315175 -0.1144877016182025 0.032610590205854002 0.1376886332668964
leaf_weight=2.2523924428969648 3.6383952274918538 3.5541617213748395 2.0769857070408762 2.1757136145606637 1.7944403048604729 1.8618778320960698
leaf_count=24 52 44 37 31 25 35
internal_value=0 -0.0212392 -0.057416 -0.0188193 0.0415603 0.0861186
internal_weight=0 11.4453 7.89109 5.81411 5.90871 3.65632
internal_count=248 164 120 83 84 60
shrinkage=0.2


Tree=53
num_leaves=5
num_cat=0
split_feature=20 20 9 6
split_gain=0.301541 0.526195 0.790178 0.547454
threshold=0.1048502141754425 0.001596450090861975 0.84962604866039715 0.61196229959914039
decision_type=2 2 2 2
left_child=1 2 -1 -3
right_child=-2 3 -4 -5
leaf_value=-0.036762991921118503 0.072905214182745481 0.00059639369034778585 0.091486169287549005 -0.10971490514605511
leaf_weight=3.8802490308880824 2.0008055758662513 4.064885409316048 3.8070709179155529 3.2291390183381736
leaf_count=57 27 49 56 59
internal_value=0 -0.00975985 0.0267512 -0.0482395
internal_weight=0 14.9813 7.68732 7.29402
internal_count=248 221 113 108
shrinkage=0.2


Tree=54
num_leaves=7
num_cat=0
split_feature=17 17 8 18 8 17
split_gain=0.450055 0.590578 1.11415 0.622799 0.46093 0.391234
threshold=0.43349286493830641 0.46360974713908376 0.48302297766077823 -0.0085027938238747807 0.3270513730303875 0.54317869879226788
decision_type=2 2 2 2 2 2
left_child=-1 -2 3 -3 -5 -4
right_child=1 2 5 4 -6 -7
leaf_value=0.083335298349063239 -0.098918759362188774 0.058782890060966736 0.041770221164713017 -0.13222882959216445 -0.021070565804668741 0.17911551162162928
leaf_weight=2.2426447235047844 2.6177021590992799 2.2056262250989667 1.8404603819362813 2.460881446953862 3.790499072521925 1.5104440043214706
leaf_count=30 30 32 21 31 51 53
internal_value=0 -0.0129723 0.00608118 -0.0325901 -0.0648285 0.10368
internal_weight=0 14.4256 11.8079 8.45701 6.25138 3.3509
internal_count=248 218 188 114 82 74
shrinkage=0.2


Tree=55
num_leaves=6
num_cat=0
split_feature=12 13 13 10 19
split_gain=0.41997 0.729652 0.466701 0.858113 0.278082
threshold=2.6522942285598545 0.039602750341811079 0.30563598920518392 1.0000000180025095e-35 -0.021707103678672731
decision_type=2 2 2 2 2
left_child=2 -2 3 4 -1
right_child=1 -3 -4 -5 -6
leaf_value=0.05183209610973525 -0.12106157291267899 0.018120158107184856 -0.040847491793482391 0.13952266981216901 -0.050419421707751537
leaf_weight=1.9842081815004355 2.6194172617979339 3.5465884008444846 2.9987220345064998 2.7935820708516985 2.2937077963724741
leaf_count=19 49 45 43 51 41
internal_value=0 -0.0410065 0.0252702 0.0533078 -0.00299252
internal_weight=0 6.16601 10.0702 7.0715 4.27792
internal_count=248 94 154 111 60
shrinkage=0.2


Tree=56
num_leaves=7
num_cat=0
split_feature=16 16 7 3 17 17
split_gain=0.417658 0.510868 0.490705 0.484054 0.482675 0.716261
threshold=0.36714608960896017 -0.85272058710742427 0.68224189728715823 0.38224155272238752 0.63203581032627376 0.52096095435124679
decision_type=2 2 2 2 2 2
left_child=1 4 3 -2 5 -1
right_child=2 -3 -4 -5 -6 -7
leaf_value=-0.029264786215813979 0.010454580526847676 -0.11893209144779611 -0.046536584655939378 0.13614293063344091 -0.085435031440432269 0.12526819590520477
leaf_weight=3.1437048139050594 2.5360983880236754 1.9444547989405681 1.9902824950404463 2.3719579922035336 2.0407441579736769 1.9401862586382774
leaf_count=46 36 32 34 38 27 35
internal_value=0 -0.0280696 0.037229 0.0711971 -0.00327136 0.0297103
internal_weight=0 9.06909 6.89834 4.90806 7.12464 5.08389
internal_count=248 140 108 74 108 81
shrinkage=0.2


Tree=57
num_leaves=6
num_cat=0
split_feature=8 11 9 15 15
split_gain=0.410741 0.555372 1.19422 1.34334 0.647064
threshold=0.28116425093103808 23.113057717398501 -0.9875222341987121 15.343750000000002 14.022500000000003
decision_type=2 2 2 2 2
left_child=-1 2 -2 -4 -3
right_child=1 4 3 -5 -6
leaf_value=-0.075130368088418109 -0.09118700588309897 -0.13309718129085576 0.17789513730769879 -0.0015268112011384703 0.021873422632990636
leaf_weight=2.4374156617559501 2.0203778222203237 1.8636629567481566 3.1986784795299172 3.490640695206821 2.5555751170031726
leaf_count=33 31 32 43 50 59
internal_value=0 0.0142676 0.0435684 0.0842686 -0.0434801
internal_weight=0 13.1289 8.7097 6.68932 4.41924
internal_count=248 215 124 93 91
shrinkage=0.2


Tree=58
num_leaves=8
num_cat=0
split_feature=17 17 4 12 5 6 0
split_gain=0.36845 0.479227 0.618479 0.700815 0.643031 0.592124 0.257454
threshold=0.68982946370504183 0.60669019909389743 0.084095601740743792 -1.7186893534675005 0.42704556220273682 0.23391348000653606 0.43948207079536911
decision_type=2 2 2 2 2 2 2
left_child=1 2 4 -4 -1 -3 -5
right_child=-2 5 3 6 -6 -7 -8
leaf_value=0.12296222768120585 -0.085944018608515194 -0.021026365433888659 0.037843523466466439 -0.048657488540484274 -0.0316955441945568 0.17786476373167981 -0.1494945288232559
leaf_weight=2.3586903698742372 1.7492856634780771 1.0552930668927722 2.5295385540230182 2.1460522408597189 1.9764072371181098 1.3839738997630773 1.9179210457950828
leaf_count=25 23 23 39 36 38 37 27
internal_value=0 0.0116656 -0.00622468 -0.0448037 0.0524525 0.0918191 -0.0962458
internal_weight=0 13.3679 10.9286 6.59351 4.3351 2.43927 4.06397
internal_count=248 225 165 102 63 60 63
shrinkage=0.2


Tree=59
num_leaves=6
num_cat=0
split_feature=12 11 21 21 12
split_gain=0.315094 0.431746 1.0792 0.566543 0.371112
threshold=-1.4643989200979639 -0.63349042253967214 1.0000000180025095e-35 1.0000000180025095e-35 -2.9639061352597169
decision_type=2 2 2 2 2
left_child=4 2 -2 -3 -1
right_child=1 3 -4 -5 -6
leaf_value=0.00015077892838949065 -0.062285960457365987 -0.01085190617812231 0.10770048240713853 -0.17434132482512674 0.11220632978157211
leaf_weight=3.289900456671603 3.450191388372331 2.1070360243320456 2.6348334890790284 1.4187051076442005 1.8453355254605419
leaf_count=57 46 48 42 28 27
internal_value=0 -0.0209484 0.0113187 -0.0766376 0.0404177
internal_weight=0 9.61077 6.08502 3.52574 5.13524
internal_count=248 164 88 76 84
shrinkage=0.2


Tree=60
num_leaves=7
num_cat=0
split_feature=8 11 17 1 1 8
split_gain=0.294407 0.306112 0.972505 0.442184 0.711034 0.385552
threshold=0.28116425093103808 43.391361491028171 0.54185669149246884 -0.0022444830384418242 0.00090225870891857019 0.3916545041245556
decision_type=2 2 2 2 2 2
left_child=-1 3 -3 -2 -5 -6
right_child=1 2 -4 4 5 -7
leaf_value=-0.063818553776916545 -0.055390528221090224 -0.17329517617485946 0.076005103511568389 0.15681824315235632 -0.045031250300754423 0.060441353389782439
leaf_weight=2.3917139130644509 1.958405670709906 1.2578162436839186 1.2458485616371033 1.9084028657525776 2.4076230078935623 3.2681175302714109
leaf_count=33 30 26 35 31 35 58
internal_value=0 0.0130019 -0.0492409 0.0293325 0.0512099 0.0157004
internal_weight=0 12.0462 2.50366 9.54255 7.58414 5.67574
internal_count=248 215 61 154 124 93
shrinkage=0.2


Tree=61
num_leaves=7
num_cat=0
split_feature=9 12 8 9 9 13
split_gain=0.251832 0.401974 0.421954 0.542141 0.437066 0.290444
threshold=0.99887447352295144 2.6522942285598545 0.46196429549445073 0.84962604866039715 -0.9454983130683462 0.048828459994326522
decision_type=2 2 2 2 2 2
left_child=1 2 3 -1 -4 -3
right_child=-2 5 4 -5 -6 -7
leaf_value=-0.1017909510516125 0.070543872291026488 -0.120416260728957 0.1341606822707454 0.043621784119936169 0.0010451420187033635 -0.014329959471275702
leaf_weight=2.0441129547543806 1.778253483586014 1.8156039374880482 1.8362686835462212 2.0582335498183966 2.132290879730137 2.3927172273397446
leaf_count=35 31 36 36 31 43 36
internal_value=0 -0.00998602 0.0161438 -0.0288343 0.0626382 -0.060099
internal_weight=0 12.2792 8.07091 4.10235 3.96856 4.20832
internal_count=248 217 145 66 79 72
shrinkage=0.2


Tree=62
num_leaves=6
num_cat=0
split_feature=17 15 15 20 9
split_gain=0.322883 0.39134 0.646653 0.712223 0.64629
threshold=0.43349286493830641 14.022500000000003 15.343750000000002 0.001596450090861975 0.84962604866039715
decision_type=2 2 2 2 2
left_child=-1 -2 -3 4 -4
right_child=1 2 3 -5 -6
leaf_value=0.080870391650351217 -0.074541588742075435 0.072316064580667513 -0.065046700993435499 -0.13156880216149491 0.11217087578220795
leaf_weight=1.7333417311310775 2.9635546163190147 3.7789612384513003 1.7024738495238128 1.9615519123617557 1.5936802006326614
leaf_count=30 55 55 32 42 34
internal_value=0 -0.0114734 0.00920967 -0.0361479 0.0206374
internal_weight=0 12.0002 9.03667 5.25771 3.29615
internal_count=248 218 163 108 66
shrinkage=0.2


Tree=63
num_leaves=7
num_cat=0
split_feature=5 9 3 8 20 11
split_gain=0.279283 0.538799 0.572871 0.809167 0.39909 0.174274
threshold=0.72648780507003241 -0.98453824274618029 0.42817220263365813 0.28116425093103808 0.010985992764029175 -4.1182458599346878
decision_type=2 2 2 2 2 2
left_child=1 -1 3 -3 -2 -4
right_child=4 2 5 -5 -6 -7
leaf_value=-0.11054352691105365 0.12426289590918066 -0.037947843312755726 -0.0059166176721305048 0.13619484538792892 -0.019060431392529005 -0.0893311003426219
leaf_weight=1.9453176886308927 1.5550945298746239 1.956659144256262 1.9843192729167638 2.3481563379755244 1.553450839826837 2.0235358919017017
leaf_count=36 38 29 30 42 39 34
internal_value=0 -0.0157918 0.0063819 0.0570421 0.0526391 -0.048032
internal_weight=0 10.258 8.31267 4.30482 3.10855 4.00786
internal_count=248 171 135 71 77 64
shrinkage=0.2


Tree=64
num_leaves=5
num_cat=0
split_feature=8 2 13 13
split_gain=0.200972 0.272892 0.3598 0.417284
threshold=0.28116425093103808 0.94259623209326382 0.21241603621645369 -0.070013567749896075
decision_type=2 2 2 2
left_child=-1 2 3 -2
right_child=1 -3 -4 -5
leaf_value=-0.054451381018463099 0.034712878435364601 0.057321493737669295 0.045899143693078369 -0.091610640642880548
leaf_weight=2.232453663367779 1.6478286993224163 3.5065194030757993 2.7897889439482242 2.8638282376341513
leaf_count=33 52 59 51 53
internal_value=0 0.011463 -0.0105606 -0.0454725
internal_weight=0 10.808 7.30145 4.51166
internal_count=248 215 156 105
shrinkage=0.2


Tree=65
num_leaves=6
num_cat=0
split_feature=17 17 4 7 3
split_gain=0.262352 0.465489 0.415121 0.478407 0.309773
threshold=0.68279076435456287 0.60669019909389743 0.084095601740743792 0.50364021666868874 0.43727873687126256
decision_type=2 2 2 2 2
left_child=1 2 4 -4 -1
right_child=-2 -3 3 -5 -6
leaf_value=0.099832623350536526 -0.077337562127948484 0.10068829705719562 -0.096329630798288046 0.019748460647895299 -0.015098340224601565
leaf_weight=1.9325914513319715 1.5407222609501339 1.9091592624317844 3.0120933515718207 2.6873089426662773 1.8228418973740188
leaf_count=24 26 57 46 56 39
internal_value=0 0.010609 -0.00758023 -0.041598 0.0440465
internal_weight=0 11.364 9.45484 5.6994 3.75543
internal_count=248 222 165 102 63
shrinkage=0.2


Tree=66
num_leaves=7
num_cat=0
split_feature=5 7 1 9 5 13
split_gain=0.235004 0.479779 0.515402 0.458963 0.373942 0.257627
threshold=0.050396232697674341 0.31290328916135085 -0.0022444830384418242 0.98615445125336765 0.51547180572633811 0.039602750341811079
decision_type=2 2 2 2 2 2
left_child=-1 -2 -3 4 -4 -6
right_child=1 2 3 -5 5 -7
leaf_value=0.059029957679472111 -0.10541482361627258 -0.090583487700135301 0.12323884520904999 -0.050685448274260185 0.073607084357355301 -0.0506688204435575
leaf_weight=2.2318660262972125 1.8319684469606716 1.7228586522396634 2.2913094339892268 1.9438243436161426 1.3706502653658392 1.3001436656340954
leaf_count=30 36 36 38 45 39 24
internal_value=0 -0.0124572 0.00727854 0.0316927 0.063963 0.0131095
internal_weight=0 10.4608 8.62879 6.90593 4.9621 2.67079
internal_count=248 218 182 146 101 63
shrinkage=0.2


Tree=67
num_leaves=7
num_cat=0
split_feature=16 4 19 15 4 6
split_gain=0.342644 0.594971 0.589319 0.537306 0.386871 0.300885
threshold=0.36714608960896017 -0.19298495731270807 0.037169235728447873 14.862500000000002 -0.098742908822637962 0.39484696979288197
decision_type=2 2 2 2 2 2
left_child=1 -1 3 -3 -2 -6
right_child=4 2 -4 -5 5 -7
leaf_value=-0.13302392895904722 0.11810791718036842 -0.11321874862433839 0.10712465028855581 0.037805282670888167 0.070556394572276679 -0.045309136784159654
leaf_weight=1.6744697331450877 1.6675688156392423 1.9201776685658845 1.5578665758948771 1.8503190549090502 1.5177989141084256 2.1901149081531912
leaf_count=31 29 33 37 39 29 50
internal_value=0 -0.0290321 0.00364796 -0.0391058 0.038101 0.00211931
internal_weight=0 7.00283 5.32836 3.7705 5.37548 3.70791
internal_count=248 140 109 72 108 79
shrinkage=0.2


Tree=68
num_leaves=6
num_cat=0
split_feature=12 18 9 12 17
split_gain=0.254352 0.620625 0.547861 0.756723 0.535639
threshold=-1.4643989200979639 -0.011700491179056692 0.99432106318794167 2.1368685340802016 0.50315037426383979
decision_type=2 2 2 2 2
left_child=4 -2 3 -3 -1
right_child=1 2 -4 -5 -6
leaf_value=-0.025970623732059918 0.062629741846888146 0.098853725869146924 -0.15708341267401577 -0.084150650181210873 0.11945473741487536
leaf_weight=2.2115007732063532 2.4659656283911318 1.4169549411162736 1.5905506359413264 2.4956534958910197 1.8695500225294379
leaf_count=33 44 35 39 46 51
internal_value=0 -0.0207483 -0.05811 -0.0178754 0.0406495
internal_weight=0 7.96912 5.50316 3.91261 4.08105
internal_count=248 164 120 81 84
shrinkage=0.2


end of trees

feature_importances:
Column_17=47
Column_8=43
Column_9=30
Column_12=29
Column_11=26
Column_15=25
Column_13=22
Column_4=19
Column_20=16
Column_1=15
Column_5=14
Column_7=12
Column_10=12
Column_19=12
Column_16=11
Column_3=9
Column_18=9
Column_6=7
Column_21=6
Column_0=5
Column_2=5
Column_24=3
Column_22=1
Column_25=1

parameters:
[boosting: gbdt]
[objective: binary]
[metric: binary_logloss]
[tree_learner: serial]
[device_type: cpu]
[data: ]
[valid: ]
[num_iterations: 10000]
[learning_rate: 0.2]
[num_leaves: 63]
[num_threads: 0]
[force_col_wise: 0]
[force_row_wise: 0]
[histogram_pool_size: -1]
[max_depth: -1]
[min_data_in_leaf: 30]
[min_sum_hessian_in_leaf: 0.001]
[bagging_fraction: 1]
[pos_bagging_fraction: 1]
[neg_bagging_fraction: 1]
[bagging_freq: 0]
[bagging_seed: 21187]
[feature_fraction: 0.5]
[feature_fraction_bynode: 1]
[feature_fraction_seed: 30770]
[extra_trees: 0]
[extra_seed: 27351]
[early_stopping_round: 50]
[first_metric_only: 0]
[max_delta_step: 0]
[lambda_l1: 0]
[lambda_l2: 0]
[min_gain_to_split: 0]
[drop_rate: 0.1]
[max_drop: 50]
[skip_drop: 0.5]
[xgboost_dart_mode: 0]
[uniform_drop: 0]
[drop_seed: 3778]
[top_rate: 0.2]
[other_rate: 0.1]
[min_data_per_group: 100]
[max_cat_threshold: 32]
[cat_l2: 10]
[cat_smooth: 10]
[max_cat_to_onehot: 4]
[top_k: 20]
[monotone_constraints: ]
[monotone_constraints_method: basic]
[monotone_penalty: 0]
[feature_contri: ]
[forcedsplits_filename: ]
[refit_decay_rate: 0.9]
[cegb_tradeoff: 1]
[cegb_penalty_split: 0]
[cegb_penalty_feature_lazy: ]
[cegb_penalty_feature_coupled: ]
[path_smooth: 0]
[interaction_constraints: ]
[verbosity: -1]
[saved_feature_importance_type: 0]
[max_bin: 255]
[max_bin_by_feature: ]
[min_data_in_bin: 3]
[bin_construct_sample_cnt: 200000]
[data_random_seed: 4084]
[is_enable_sparse: 1]
[enable_bundle: 1]
[use_missing: 1]
[zero_as_missing: 0]
[feature_pre_filter: 1]
[pre_partition: 0]
[two_round: 0]
[header: 0]
[label_column: ]
[weight_column: ]
[group_column: ]
[ignore_column: ]
[categorical_feature: ]
[forcedbins_filename: ]
[objective_seed: 9093]
[num_class: 1]
[is_unbalance: 0]
[scale_pos_weight: 1]
[sigmoid: 1]
[boost_from_average: 1]
[reg_sqrt: 0]
[alpha: 0.9]
[fair_c: 1]
[poisson_max_delta_step: 0.7]
[tweedie_variance_power: 1.5]
[lambdarank_truncation_level: 20]
[lambdarank_norm: 1]
[label_gain: ]
[eval_at: ]
[multi_error_top_k: 1]
[auc_mu_weights: ]
[num_machines: 1]
[local_listen_port: 12400]
[time_out: 120]
[machine_list_filename: ]
[machines: ]
[gpu_platform_id: -1]
[gpu_device_id: -1]
[gpu_use_dp: 0]

end of parameters

pandas_categorical:null
