tree
version=v3
num_class=1
num_tree_per_iteration=1
label_index=0
max_feature_idx=25
objective=binary sigmoid:1
feature_names=Column_0 Column_1 Column_2 Column_3 Column_4 Column_5 Column_6 Column_7 Column_8 Column_9 Column_10 Column_11 Column_12 Column_13 Column_14 Column_15 Column_16 Column_17 Column_18 Column_19 Column_20 Column_21 Column_22 Column_23 Column_24 Column_25
feature_infos=[-17.402206619859587:11.78648565257636] [-0.20812437311935808:0.071046054980364065] [0:1] [0.031338175432642196:0.93297412910361155] [-20.81243731193581:9.9823147966201748] [-0.0005393220211609898:0.99318026402695536] [-0.0012786260031591484:0.98863070968412281] [0.020904448381991552:0.94499981726285354] [0.016895569832796383:0.85268377266040474] [-0.99987531832657395:0.99998462976158686] [-1:1] [-139.70966366406122:141.90379553072478] [-18.339324394847324:24.727040250332422] [-0.8937782785959909:0.65667388740767862] none [10.56:23.837499999999999] [-15.020176356299503:18.057503506311367] [0.308687265431487:0.76334962003367635] [-0.14033198312322304:0.076224670097470026] [-0.15194500962539842:0.10760075203716812] [-0.94408923106147991:0.85731564250571679] [0:1] [0:1] [0:1] [0:1] [0:1]
tree_sizes=1644 1885 1996 1890 1895 2000 1909 2108 1904 2005 2001 1888 2002 1898 1794 2121 2006 1904 1887 1889 2001 2002 2115 1893 1982 2011 1990 2116 2102 1996 1990 1795 1891 1988 2117 1895 1900 1901 2003 1895 2001 2004 2098 2207 1900 2007 2002 2103 2000 1792 2008 1914 1899 2015 2019 1913 2023 1811 1812 1908 1917 2018 1804 2239 1909 2130 2026 2124 2140 2020 2133 2022 1923 2031 2043 2139 2245 2039 2034 2136 2035 1823 2044 2251 2251 2251 2143 2038 1936 2028 2146 2145 2036 2152 2249 2044 1923 2046 1933 1936 2148 2255 2040 2155 2250 2148 2037 2049 2159 2043 2266 2257 2050 2162 2042 2362 2161 2264 2060 2162 2166 2268 2155 2047 2049 2264 2269 2055 1937 2157 2058 2177 2040 2269 2268 1947 1946 1959 2380 2058 2367 2068 1959 2075 2284 2064 2170 2297 2060 1964 1862 2086 2071 2293 2299 2065 2067 2191 1845 1861 2185 2078 1977 2191 1969 1969 2073 2087 2076 2195 2417 2187 2195 2522 2198 2308 2307 1969 2519 2200 2414 2208 2522 1979 2203 2198 2091 1982 1989 1870

Tree=0
num_leaves=15
num_cat=0
split_feature=17 17 8 11 3 12 7 16 13 4 8 17 5 4
split_gain=28.7504 21.2395 15.7987 11.615 16.9927 7.90748 7.25358 10.743 3.28014 3.09523 1.81213 1.54464 1.09118 0.326715
threshold=0.52667008411891503 0.68383350559377576 0.29587386862911719 -37.494728221536462 0.31036987800237831 2.6888333496814978 0.66253835127885197 0.36714608960896017 0.21241603621645369 1.0543364835663744 0.50537391525017539 0.56074414343259715 0.86425451066755676 -0.22914159712807611
decision_type=2 2 2 2 2 2 2 2 2 2 2 2 2 2
left_child=3 2 -2 4 -1 -3 7 8 -5 11 -9 -4 -8 -13
right_child=1 5 9 6 -6 -7 12 10 -10 -11 -12 13 -14 -15
leaf_value=0.088650060988299584 0.11704527319697886 0.1759008039567867 0.21617037763454991 0.12830948961033917 0.24459595905414763 0.055092082923496752 0.055092082923496724 0.15576601711790503 0.055092082923496752 0.18932399518270779 0.21617037763454999 0.23630516447343136 0.095361656601260072 0.25643995131231345
leaf_weight=2.9799174070358303 3.2282438576221528 2.4832645058631888 3.7248967587947908 2.7315909564495104 4.2215496599674225 2.9799174070358276 5.2148554623126975 2.4832645058631897 3.4765703082084656 2.9799174070358267 2.4832645058631897 2.4832645058631995 2.4832645058631897 10.678037375211703
leaf_count=12 13 10 15 11 17 12 21 10 14 12 10 10 10 43
internal_value=0.164003 0.198662 0.219634 0.126043 0.180067 0.110005 0.105429 0.131157 0.0873077 0.236305 0.185968 0.244596 0.0680823 0.252641
internal_weight=0 28.5575 23.0944 26.0743 7.20147 5.46318 18.8728 11.1747 6.20816 19.8661 4.96653 16.8862 7.69812 13.1613
internal_count=220 115 93 105 29 22 76 45 25 80 20 68 31 53
shrinkage=1


Tree=1
num_leaves=17
num_cat=0
split_feature=17 17 8 11 3 12 7 16 2 5 17 10 18 5 4 4
split_gain=25.9795 19.253 14.3777 10.432 15.3878 7.0746 6.47198 9.64343 3.31316 2.88444 2.5854 1.81601 1.1063 0.0015768 0.00109499 0.000291583
threshold=0.52667008411891503 0.68383350559377576 0.29587386862911719 -37.494728221536462 0.31036987800237831 2.6888333496814978 0.66253835127885197 0.36714608960896017 0.95926331096013884 0.19716662326957823 0.56074414343259715 -0.064921484972576812 -0.0034850615374563735 0.85125005988481839 0.55758421987024931 -0.20898404521780359
decision_type=2 2 2 2 2 2 2 2 2 2 2 2 2 2 2 2
left_child=3 2 -2 4 -1 -3 7 8 -5 -4 -11 -9 -8 -14 15 -12
right_child=1 5 9 6 -6 -7 12 11 -10 10 14 -13 13 -15 -16 -17
leaf_value=-0.071236043332644258 -0.044459052771202157 0.011314639635283438 0.033752629781977919 -0.1048352059706905 0.077209493348543601 -0.10283190209402107 -0.063223088426963309 -0.0093520610041422647 -0.031416977083067017 0.035321694095283691 0.089280622048793029 0.051181644058675459 -0.10283190209402111 -0.10456812182021294 0.090037992996472097 0.088690068362425878
leaf_weight=2.9941136240959194 3.238894507288939 2.4807611107826224 4.4436269253492382 3.4914898127317446 4.1870622038841248 2.9977247714996338 2.4973481595516205 2.4779583513736725 2.7445682287216187 2.7194641232490531 2.9566835761070296 2.4779583513736725 2.7479143738746634 2.4950807094573975 2.468538209795951 7.1321018338203368
leaf_count=12 13 10 18 14 17 12 10 10 11 11 12 10 11 10 10 29
internal_value=0 0.0330768 0.0531734 -0.035996 0.0153167 -0.0511442 -0.0554594 -0.0311478 -0.0725229 0.0692087 0.0795219 0.0209148 -0.0906122 -0.103658 0.0890941 0.0888631
internal_weight=0 28.4378 22.9593 26.1135 7.18118 5.47849 18.9323 11.192 6.23606 19.7204 15.2768 4.95592 7.74034 5.243 12.5573 10.0888
internal_count=220 115 93 105 29 22 76 45 25 80 62 20 31 21 51 41
shrinkage=0.05


Tree=2
num_leaves=18
num_cat=0
split_feature=17 17 8 11 3 12 16 7 12 13 4 17 1 7 6 4 4
split_gain=23.5402 17.4973 13.1176 9.39823 13.9753 6.38062 5.93516 6.95074 3.65308 6.39342 2.82182 1.29937 0.327641 0.00389882 0.000545346 0.000161795 1.08344e-07
threshold=0.52667008411891503 0.68383350559377576 0.29587386862911719 -37.494728221536462 0.31036987800237831 2.6888333496814978 1.2193118340139826 0.66253835127885197 2.2086572810057379 0.19851442884512752 1.0543364835663744 0.56074414343259715 0.0071901739272208975 0.67922249048145 0.25139209041531507 -0.020020020822423715 0.37300171983777924
decision_type=2 2 2 2 2 2 2 2 2 2 2 2 2 2 2 2 2
left_child=3 2 -2 4 -1 -3 8 -8 9 -5 11 -4 14 -10 -13 -16 -17
right_child=1 5 10 6 -6 -7 7 -9 13 -11 -12 12 -14 -15 15 16 -18
leaf_value=-0.067542468350315507 -0.042144718868102178 0.010760210021464656 0.048273764402333913 0.016313291576169352 0.074170030218214056 -0.097669090379933723 0.027501842164167456 -0.079012802532556492 -0.1013459363925287 -0.087036775905693822 0.021384520984594931 0.086380909768902212 0.065392419683872452 -0.098796160235976455 0.085891890278956884 0.085406412553141089 0.085392108279685866
leaf_weight=2.9997725486755398 3.2457229644060197 2.478221356868743 3.6916131824255052 2.4930688738822955 4.1418405771255493 2.9982912540435791 3.9557560831308356 2.4993429183959961 2.4982755929231644 3.7431775629520416 2.9542468488216391 2.6810175627469999 2.4325889945030204 3.7490815967321396 2.4324825257062992 2.9124079942703167 2.4268386662006378
leaf_count=12 13 10 15 10 17 12 16 10 10 15 12 11 10 15 10 12 10
internal_value=0 0.0316415 0.0509356 -0.0342331 0.0146449 -0.0486029 -0.0526646 -0.0137394 -0.0727922 -0.0457204 0.0664038 0.0744269 0.0819197 -0.0998158 0.085766 0.0855539 0.0853999
internal_weight=0 28.2534 22.7769 26.0803 7.14161 5.47651 18.9387 6.4551 12.4836 6.23625 19.5312 16.5769 12.8853 6.24736 10.4527 7.77173 5.33925
internal_count=220 115 93 105 29 22 76 26 50 25 80 68 53 25 43 32 22
shrinkage=0.05


Tree=3
num_leaves=17
num_cat=0
split_feature=12 8 10 8 18 11 13 11 20 16 20 0 11 7 15 19
split_gain=12.7029 13.8172 12.503 9.4339 8.75937 11.7319 7.31235 14.747 6.81848 4.22355 1.23667 1.10218 0.360514 0.0328195 0.02462 0.00384956
threshold=2.2086572810057379 0.67687714954920286 -0.50358754576607001 0.29587386862911719 -0.010069279739049168 -25.37364387613346 0.048828459994326522 -11.749245589602239 0.08207768132978234 -2.4107754484640984 0.055848968289888674 0.73322076302849692 12.405697768273326 0.49395108106639252 14.543750000000001 -0.0089526361723482589
decision_type=2 2 2 2 2 2 2 2 2 2 2 2 2 2 2 2
left_child=2 4 -1 -4 5 -2 12 9 10 -8 13 15 -5 -6 -14 -11
right_child=1 -3 3 6 8 -7 7 -9 -10 11 -12 -13 14 -15 -16 -17
leaf_value=-0.06495001851006732 0.090214024384043412 0.058842815399270443 -0.050531703980362899 0.064442415122089911 -0.10234608973294559 -0.055004826739373305 0.0013218134599723812 -0.050596414642340992 -0.0019015175767794297 0.084780845947829697 -0.063207142094268476 0.045577212522026851 0.091126160259040315 -0.09531047681798771 0.084645750722445123 0.087427623879474142
leaf_weight=3.7010855823755291 2.4427997618913651 3.8497971296310416 2.9990078955888775 2.4170623570680636 2.9802440106868726 3.2294847518205705 2.6926590800285384 4.7205702215433041 3.17484426498413 3.1382036954164541 3.9614149481058121 2.4267639666795731 2.4622732847929001 3.734748587012291 3.6209167838096619 2.4433897286653483
leaf_count=15 10 16 12 10 12 13 11 19 13 13 16 10 10 15 15 10
internal_value=0 -0.0277296 0.0212169 0.0330632 -0.0448006 0.00753445 0.0435432 0.0230197 -0.0662326 0.0554941 -0.0853627 0.0737086 0.0807781 -0.098433 0.0872688 0.0859395
internal_weight=0 23.3733 30.6219 26.9208 19.5235 5.67228 23.9218 15.4216 13.8513 10.701 10.6764 8.00836 8.50025 6.71499 6.08319 5.58159
internal_count=220 95 125 110 79 23 98 63 56 44 43 33 35 27 25 23
shrinkage=0.05


Tree=4
num_leaves=17
num_cat=0
split_feature=17 17 8 8 12 16 18 15 3 3 4 17 18 4 16 0
split_gain=19.9063 15.0725 11.1676 5.4023 5.3115 5.11412 9.17269 6.99458 4.09001 5.5551 2.55387 1.27379 0.59856 0.313243 0.00183568 0.00160975
threshold=0.52667008411891503 0.68383350559377576 0.29587386862911719 0.60514131590203257 2.6888333496814978 -0.68823073754547137 1.0000000180025095e-35 13.757500000000002 0.31036987800237831 0.6754955959961616 1.0543364835663744 0.56074414343259715 -1.0000000180025095e-35 -0.22914159712807611 -1.8434337862540506 0.98087958973688172
decision_type=2 2 2 2 2 2 2 2 2 2 2 2 2 2 2 2
left_child=3 2 -2 5 -3 8 -7 -8 -1 -10 11 -4 -5 -13 -15 -16
right_child=1 4 10 12 -6 6 7 -9 9 -11 -12 13 -14 14 15 -17
leaf_value=-0.095015042934728108 -0.03813405080207169 0.0089255961731652331 0.043847772343098224 -0.061018075409775212 -0.090386557389977681 0.074797899506451035 0.023826229009641955 -0.072099989301942682 0.011924800917612326 -0.077656491233555919 0.019190830123056862 0.061127875890080001 -0.095740447541279666 0.082501281636994842 0.080214461561598727 0.081652827598466482
leaf_weight=2.9901806414127403 3.2487096041441026 2.4661719501018515 3.6332188099622789 2.4784896075725555 2.9649663865566254 3.1844500005245191 3.6397595107555389 3.9764074683189392 4.1604470461606979 2.9631878584623337 2.9305104613304129 2.3773830533027747 2.4861760884523383 2.3840472102165302 3.9905083030462061 3.7951150685548782
leaf_count=12 13 10 15 10 12 13 15 16 17 12 12 10 10 10 17 16
internal_value=0 0.0294225 0.0475704 -0.031518 -0.0452909 -0.0203877 0.00353804 -0.0262569 -0.0459382 -0.0253379 0.0621396 0.0699184 -0.0784061 0.0774676 0.0812873 0.0809156
internal_weight=0 27.7906 22.3595 25.8791 5.43114 20.9144 10.8006 7.61617 10.1138 7.12363 19.1108 16.1803 4.96467 12.5471 10.1697 7.78562
internal_count=220 115 93 105 22 85 44 31 41 29 80 68 20 53 43 33
shrinkage=0.05


Tree=5
num_leaves=18
num_cat=0
split_feature=17 17 8 11 16 17 8 13 12 11 5 17 12 7 4 12 12
split_gain=18.1184 13.7715 10.2459 7.74132 5.89769 5.82684 5.16195 6.22874 4.87126 3.92931 2.43987 2.34643 0.219311 0.0196408 0.00611723 0.00079342 0.000496982
threshold=0.52667008411891503 0.68383350559377576 0.29587386862911719 23.244112955765893 -4.9080834230198702 0.48275605140196592 0.60514131590203257 0.41250980375499707 2.6888333496814978 -9.9719297200591885 0.19716662326957823 0.56074414343259715 1.2517992777972944 0.69620658706144389 0.49806660688930271 1.2517992777972944 -3.4324463397571874
decision_type=2 2 2 2 2 2 2 2 2 2 2 2 2 2 2 2 2
left_child=3 2 -2 4 -1 13 7 9 -3 12 -4 -12 -6 -5 15 16 -13
right_child=1 8 10 5 6 -7 -8 -9 -10 -11 11 14 -14 -15 -16 -17 -18
leaf_value=-0.066335463914626677 -0.036245620371213746 0.0084881667860010231 0.027005508647106952 -0.094996278695975434 0.063473422454699516 -0.0093372850952919886 -0.057133360479219054 -0.040970387358415933 -0.086898285869509193 -0.0034110228035610433 0.027178377560903189 0.078682386846017027 0.084886182109668196 -0.089383830815042586 0.081288155365051046 0.079103594029541688 0.077643858879937619
leaf_weight=3.4506429433822623 3.2471038401126924 2.4636653065681449 4.3339621275663402 2.4838578701019269 2.3846240937709791 3.1929320096969604 2.4726685285568228 2.7194945812225342 2.9306301176548004 2.4734600186347997 2.6449717283248892 2.3154282420873686 2.3985736966133118 4.1855890452861786 2.8323163390159598 4.4157511740922928 2.2926004976034102
leaf_count=14 13 10 18 10 10 13 10 11 12 10 11 10 10 17 12 19 10
internal_value=0 0.0282862 0.0457818 -0.0300816 -0.00849473 -0.0648824 0.00753793 0.0235672 -0.0433337 0.0477532 0.059923 0.0697612 0.074211 -0.091474 0.0792609 0.0786247 0.0781657
internal_weight=0 27.4764 22.0821 25.7618 15.8995 9.86238 12.4488 9.97615 5.3943 7.25666 18.835 14.5011 4.7832 6.66945 11.8561 9.02378 4.60803
internal_count=220 115 93 105 65 40 51 41 22 30 80 62 20 27 51 39 20
shrinkage=0.05


Tree=6
num_leaves=17
num_cat=0
split_feature=17 17 8 11 17 17 11 16 1 10 12 12 10 17 7 18
split_gain=16.5214 12.6016 9.41521 7.04603 5.62421 5.3708 5.18874 5.15313 4.56902 3.68694 2.49136 7.05988 0.689239 0.0178744 0.0149716 0.00371291
threshold=0.52667008411891503 0.68383350559377576 0.29587386862911719 23.244112955765893 0.47426747233622873 0.48275605140196592 -37.494728221536462 -1.0000000180025095e-35 -0.0002401230120823174 0.043448282439772369 3.1322225344712176 4.8279659061420421 -0.028270626637962169 0.56074414343259715 0.69620658706144389 -0.00098879709210813994
decision_type=2 2 2 2 2 2 2 2 2 2 2 2 2 2 2 2
left_child=3 2 -2 4 6 14 -1 -8 -3 -6 12 -12 -4 -14 -5 -15
right_child=1 8 10 5 9 -7 7 -9 -10 -11 11 -13 13 15 -16 -17
leaf_value=0.066858268720251732 -0.034473648105300098 -0.092254097135104907 0.053715415263406167 -0.090945159014191604 0.00054650788027614907 -0.0088694302752549015 -0.058396268607360372 0.033183612490765894 0.00057349458900655959 -0.076794022329183254 -0.030323466039194648 0.077217226572804151 0.08276563265422214 0.078979390559001689 -0.086021854716229029 0.076475004207570446
leaf_weight=3.3034078925847998 3.2433952838182512 2.4262678474187851 3.9306598305702272 2.4652150422334653 2.6423399597406378 3.1932790130376816 2.957155928015708 3.1964297145605123 2.9220452457666388 3.6969578266143799 2.6235002428293219 3.6485417485237122 2.3903840929269737 2.7796458899974876 4.1330132782459259 3.1652264297008461
leaf_count=14 13 10 17 10 11 13 12 13 12 15 11 16 10 12 17 14
internal_value=0 0.0272315 0.0441175 -0.0287742 -0.00811696 -0.0620999 0.0163099 -0.0108258 -0.0415378 -0.044557 0.0578678 0.0322346 0.0709751 0.0791142 -0.0878613 0.077646
internal_weight=0 27.1297 21.7814 25.5878 15.7963 9.79151 9.45699 6.15359 5.34831 6.3393 18.538 6.27204 12.2659 8.33526 6.59823 5.94487
internal_count=220 115 93 105 65 40 39 25 22 26 80 27 53 36 27 26
shrinkage=0.05


Tree=7
num_leaves=19
num_cat=0
split_feature=17 17 8 15 11 3 7 16 12 13 17 8 18 0 4 0 6 4
split_gain=15.0829 11.5355 8.70169 9.54287 6.51643 9.81017 4.51557 6.78199 4.43472 2.78813 2.339 1.44948 0.884381 0.301833 0.00909252 0.00585285 0.00146563 0.000666675
threshold=0.52667008411891503 0.68383350559377576 0.36045985723882085 15.682500000000003 -37.494728221536462 0.31036987800237831 0.66253835127885197 0.36714608960896017 2.6888333496814978 0.21241603621645369 0.56074414343259715 0.50537391525017539 -0.0034850615374563735 -1.1902921918004743 0.49806660688930271 -0.088199430575587101 0.29746854344862972 0.029292381589753409
decision_type=2 2 2 2 2 2 2 2 2 2 2 2 2 2 2 2 2 2
left_child=4 2 3 -2 5 -1 7 9 -3 -6 -4 -9 -8 -12 16 -14 -15 -18
right_child=1 8 10 -5 6 -7 12 11 -10 -11 13 -13 15 14 -16 -17 17 -19
leaf_value=-0.055110913940176788 0.041524157984628274 0.0094277220980009489 0.017997650423878245 -0.083083558356668488 -0.019805753692882368 0.065832945344216673 -0.048106654705686071 -0.0058404727738007528 -0.082111623202242842 -0.087699129861888325 0.05570224116816002 0.048502293117698554 -0.086588369989539171 0.076030738546896515 0.078317497304534023 -0.083186462143097481 0.075111700873036216 0.073986405226328392
leaf_weight=2.9297173321247127 4.0679887533187928 2.4664342552423468 2.3628499507904044 2.4690539836883545 2.7092751562595385 3.9202098995447159 2.4260490238666534 2.4693600982427597 2.854196161031723 3.4222791343927383 2.2661682367324856 2.4391065090894699 2.4312254041433334 2.2462783306837029 2.7536814659833908 2.6342537552118293 2.4474832564592361 2.8475316166877747
leaf_count=12 17 10 10 10 11 17 10 10 12 14 10 10 10 10 12 11 11 13
internal_value=0 0.0262265 0.0425655 -0.00554042 -0.0275654 0.0141052 -0.0429683 -0.0226367 -0.0396776 -0.0576999 0.0636369 0.0211634 -0.0729303 0.0722221 0.0758585 -0.0848192 0.0749605 0.0745065
internal_weight=0 26.7817 21.461 6.53704 25.3815 6.84993 18.5315 11.04 5.32063 6.13155 14.924 4.90847 7.49153 12.5611 10.295 5.06548 7.54129 5.29501
internal_count=220 115 93 27 105 29 76 45 22 25 66 20 31 56 46 21 34 24
shrinkage=0.05


Tree=8
num_leaves=17
num_cat=0
split_feature=17 17 8 11 17 17 11 16 1 10 4 17 4 7 6 18
split_gain=13.7973 10.5782 8.17028 6.05156 4.90854 4.84254 4.32904 4.39183 4.14889 3.13611 2.31005 1.12219 0.314155 0.0201127 0.00306583 0.000766745
threshold=0.52667008411891503 0.68383350559377576 0.29587386862911719 23.244112955765893 0.48275605140196592 0.47426747233622873 -37.494728221536462 -1.0000000180025095e-35 -0.0002401230120823174 0.043448282439772369 1.0543364835663744 0.56074414343259715 -0.22914159712807611 0.69620658706144389 0.29746854344862972 0.038349123517680751
decision_type=2 2 2 2 2 2 2 2 2 2 2 2 2 2 2 2
left_child=3 2 -2 5 13 6 -1 -8 -3 -7 11 -4 -13 -5 -14 -16
right_child=1 8 10 4 -6 9 7 -9 -10 -11 -12 12 14 -15 15 -17
leaf_value=0.062833480306721576 -0.032084623949713988 -0.087291919383383765 0.037357232985955273 -0.0864378829770064 -0.0068195670874597204 0.00050671937291178694 -0.053371383605621353 0.031618619649409117 0.0019587331102353814 -0.071369703184248762 0.012934601933099324 0.052641132449117625 0.074795037468409986 -0.080663082167505409 0.072483407483419374 0.073670167977505363
leaf_weight=3.1957287639379492 3.2308963984251085 2.3638255745172501 3.5128171294927624 2.4202587455511075 3.1728854179382324 2.6113617420196524 2.9129257649183264 3.1787685155868566 2.8990716785192481 3.6233006864786148 2.8391458839178076 2.2020760923624101 3.5344890952110202 3.9991962909698486 3.6363848596811295 2.1751210391521454
leaf_count=14 13 10 15 10 13 11 12 13 12 15 12 10 16 17 17 10
internal_value=0 0.0252986 0.0410957 -0.0264731 -0.0576947 -0.00717884 0.015703 -0.00902189 -0.0381281 -0.0412646 0.0543046 0.0621033 0.0696308 -0.0828403 0.0736338 0.0729276
internal_weight=0 26.3938 21.1309 25.1144 9.59234 15.5221 9.28742 6.09169 5.2629 6.23466 17.9 15.0609 11.5481 6.41946 9.34599 5.81151
internal_count=220 115 93 105 40 65 39 25 22 26 80 68 53 27 43 27
shrinkage=0.05


Tree=9
num_leaves=18
num_cat=0
split_feature=17 8 12 11 11 17 17 11 16 10 0 20 10 3 7 17 16
split_gain=12.6229 9.95018 14.2569 5.54979 5.06756 4.59218 4.41023 3.98858 3.99257 2.89417 2.24179 1.31403 1.05272 0.376621 0.0157869 0.00796853 0.000739134
threshold=0.52667008411891503 0.51872738463166557 3.1322225344712176 23.244112955765893 -17.972690331333123 0.48275605140196592 0.47426747233622873 -37.494728221536462 -1.0000000180025095e-35 0.043448282439772369 1.0377766544548686 0.040118932806318709 0.14752496209207189 0.82071930296936635 0.69620658706144389 0.57581641653620397 -0.68823073754547137
decision_type=2 2 2 2 2 2 2 2 2 2 2 2 2 2 2 2 2
left_child=3 2 4 6 10 14 7 -1 -9 -8 12 -4 -2 15 -5 -3 -17
right_child=1 13 11 5 -6 -7 9 8 -10 -11 -12 -13 -14 -15 -16 16 -18
leaf_value=0.060835574852221443 0.083415684812461213 0.07585294559115785 -0.089992905474345491 -0.083453300703339561 -0.02363364100865482 -0.0064791527879982857 0.0004814028343706569 -0.051147988831347781 0.030117624825628554 -0.068768523354021394 0.01346131015546366 -0.039343891228374936 0.040838254153419733 0.049261383541219686 -0.078291572814824725 0.072861160250793353 0.071572890976909997
leaf_weight=3.1371394395828238 3.9182745516300219 2.2305176854133588 2.8400634676218024 2.3824204504489881 3.0436597913503673 3.1726163029670715 2.6112568080425254 2.8882015347480765 3.1705410778522527 3.5735898315906525 2.7540734112262726 2.3321052491664886 2.306251734495163 2.1274827271699905 3.9164066314697266 2.1455219835042953 2.3144618421792984
leaf_count=14 17 10 12 10 13 13 11 12 13 15 12 10 10 10 17 10 11
internal_value=0 0.0244038 0.00225828 -0.0254255 0.0321212 -0.0555352 -0.00688396 0.0150734 -0.00862168 -0.039531 0.0510216 -0.0671555 0.0676403 0.067586 -0.0802439 0.0734129 0.0721926
internal_weight=0 26.0124 17.1944 24.8522 12.0223 9.47144 15.3807 9.19588 6.05874 6.18485 8.9786 5.17217 6.22453 8.81798 6.29883 6.6905 4.45998
internal_count=220 115 74 105 52 40 65 39 25 26 39 22 27 41 27 31 21
shrinkage=0.05


Tree=10
num_leaves=18
num_cat=0
split_feature=17 8 12 11 3 11 7 16 20 0 9 20 10 3 3 17 13
split_gain=11.5542 9.29076 12.9857 5.17467 7.76813 4.63845 3.95841 4.98006 3.04697 2.09045 1.59025 1.23724 0.998039 0.365207 0.00765612 0.00641032 0.000888217
threshold=0.52667008411891503 0.51872738463166557 3.1322225344712176 -37.494728221536462 0.31036987800237831 -17.972690331333123 0.64664645048311842 0.36714608960896017 0.078779875574725558 1.0377766544548686 0.63012050873523839 0.040118932806318709 0.14752496209207189 0.82071930296936635 0.72530430170331128 0.57581641653620397 -0.39023845058693413
decision_type=2 2 2 2 2 2 2 2 2 2 2 2 2 2 2 2 2
left_child=3 2 5 4 -1 9 7 8 -5 12 -8 -4 -2 15 -12 -3 -17
right_child=1 13 11 6 -6 -7 10 -9 -10 -11 14 -13 -14 -15 -16 16 -18
leaf_value=-0.048883841825775598 0.080888587379893823 0.07397703661847424 -0.08677177226205865 -0.081822748703234624 0.060980392634052298 -0.0223839040120523 -0.030004305702407308 0.022806948162104573 -0.0068381463080056399 0.012823998066455764 -0.080024972724776183 -0.037441051931634141 0.03915860687938251 0.047725124608325321 -0.076336716184989939 0.069958523770739217 0.071391181189801284
leaf_weight=2.8301125019788769 3.8406123518943804 2.1741525083780271 2.7992351949214926 3.0668623447418231 3.7288618236780167 3.0526725351810482 2.4072956591844541 4.3734076470136642 2.4267786890268326 2.746590718626976 3.2529200166463852 2.3281931430101395 2.2854519635438919 2.0872010886669159 2.4795685708522797 2.2418262809514999 2.0909031480550766
leaf_count=12 17 10 12 13 17 13 10 18 10 12 14 10 10 10 11 11 10
internal_value=0 0.0235327 0.00216879 -0.0244476 0.0135754 0.0307789 -0.0382975 -0.0170051 -0.0486988 0.0490698 -0.0641081 -0.0643723 0.0653204 0.065924 -0.0784296 0.0717616 0.0706499
internal_weight=0 25.6468 17.0528 24.5658 6.55897 11.9253 18.0068 9.86705 5.49364 8.87266 8.13978 5.12743 6.12606 8.59408 5.73249 6.50688 4.33273
internal_count=220 115 74 105 29 52 76 41 23 39 35 22 27 41 25 31 21
shrinkage=0.05


Tree=11
num_leaves=17
num_cat=0
split_feature=17 8 15 8 11 3 7 16 2 2 16 8 5 9 11 16
split_gain=10.5911 8.75501 9.80542 4.77542 4.72797 7.14594 3.69627 4.99163 2.67355 2.41962 1.36768 1.36703 0.96975 0.0149422 0.0105679 0.000451429
threshold=0.52667008411891503 0.46593271023997546 15.762500000000001 0.36045985723882085 -37.494728221536462 0.31036987800237831 0.66253835127885197 0.36714608960896017 0.95926331096013884 0.9714536150783295 -0.39224940797116353 0.50537391525017539 0.86425451066755676 -0.49234237026492611 43.575477783515588 1.7984277369107289
decision_type=2 2 2 2 2 2 2 2 2 2 2 2 2 2 2 2
left_child=4 2 10 -4 5 -1 7 8 -6 13 -2 -9 14 -3 -8 -15
right_child=1 9 3 -5 6 -7 12 11 -10 -11 -12 -13 -14 15 -16 -17
leaf_value=-0.046940006026015883 0.018654609014632981 0.073682089620124513 -0.083349652661562607 0.0045265688578454014 -0.079667280848414151 0.059247243364271951 -0.080223466076577793 -0.0071379678706452072 -0.011947755455669387 0.023157506871938051 0.063672163126007889 0.04596028852509202 -0.038182424136839629 0.068734494165046303 -0.075513359549503195 0.069750597545605544
leaf_weight=2.8006987273693111 4.3801203519105911 3.2237541675567627 3.9506594985723495 2.5399445295333862 3.2498614341020602 3.6481046676635742 2.3189246505498877 2.4440584182739258 2.6426131427288055 4.0199833363294601 2.7442404478788394 2.4048785418272018 2.2842542231082916 2.3781892806291562 2.4480656087398529 2.022837221622467
leaf_count=12 19 15 17 11 14 17 10 10 11 19 12 10 10 12 11 10
internal_value=0 0.0227174 -0.0045059 -0.0489614 -0.0235479 0.0131304 -0.0368416 -0.0183773 -0.0492969 0.0545467 0.035995 0.0191966 -0.064969 0.0710959 -0.0778046 0.0692015
internal_weight=0 25.2597 13.615 6.4906 24.2415 6.4488 17.7927 10.7414 5.89247 11.6448 7.12436 4.84894 7.05124 7.62478 4.76699 4.40103
internal_count=220 115 59 28 105 29 76 45 25 56 31 20 31 37 21 22
shrinkage=0.05


Tree=12
num_leaves=18
num_cat=0
split_feature=17 17 13 11 13 12 13 5 5 1 13 8 16 17 16 8 3
split_gain=9.86396 11.0233 6.51159 5.17182 8.00271 5.068 12.2609 4.79141 2.51229 1.83328 1.1266 0.971391 0.425394 0.154612 0.00322532 0.00294685 0.000497123
threshold=0.56074414343259715 0.6446811140594092 0.20930598876635417 -37.494728221536462 0.41250980375499707 -1.3364614763132614 0.17818691395915728 0.42704556220273682 0.27421475388772087 0.0038128195071956612 0.15246974492950793 0.42226586578082465 -2.5712440088010524 0.45874283294667273 -0.78619555059346158 0.60514131590203257 0.75633176971457738
decision_type=2 2 2 2 2 2 2 2 2 2 2 2 2 2 2 2 2
left_child=3 11 8 4 10 6 -5 9 -3 -7 -1 -2 -9 -14 15 -13 -16
right_child=1 2 -4 5 -6 7 -8 12 -10 -11 -12 14 13 -15 16 -17 -18
leaf_value=0.025200151868215045 0.034776947561909778 -0.08481985884059913 0.046930933017264954 0.058303161340817027 -0.049560174360842868 0.018874998975875031 -0.06623864325520526 -0.057198422920062025 -0.018544889215588719 -0.043578997469784442 0.072836229894695001 0.070898761792914863 -0.075830468985323821 -0.092569467894771995 0.067205901148731415 0.068304888928366239 0.068340893523526472
leaf_weight=2.119998902082445 2.7987354993820217 2.3112711161375028 2.9334354251623154 4.1647814214229628 3.0198959559202194 2.3898603618144953 3.7606350034475327 2.25529217720032 3.7498056441545486 2.3115503638982773 2.9942134022712708 2.4872786402702323 3.2762184441089603 2.3828374892473221 1.9037512391805642 1.9560857117176054 1.9559811502695081
leaf_count=10 12 10 13 18 13 10 16 10 17 10 14 12 15 10 10 10 10
internal_value=0 0.0269199 -0.0142212 -0.0187644 0.0149795 -0.0321267 -0.000792316 -0.0518115 -0.0438175 -0.0118319 0.0530896 0.0602516 -0.0755608 -0.0828787 0.0688384 0.0697569 0.0677811
internal_weight=0 20.0963 8.99451 28.6753 8.13411 20.5412 7.92542 12.6158 6.06108 4.70141 5.11421 11.1018 7.91435 5.65906 8.3031 4.44336 3.85973
internal_count=220 94 40 126 37 89 34 55 27 20 24 54 35 25 42 22 20
shrinkage=0.05


Tree=13
num_leaves=17
num_cat=0
split_feature=17 17 13 7 16 16 8 11 13 24 5 11 8 16 8 3
split_gain=9.05845 10.2469 5.93526 4.79314 3.94513 4.18016 3.24895 4.8476 3.31162 2.42019 2.35369 1.19926 0.975803 0.00262263 0.00238914 0.000407758
threshold=0.56074414343259715 0.6446811140594092 0.20930598876635417 0.69620658706144389 0.36714608960896017 4.172637295036008 0.30430785485078427 -37.494728221536462 0.17818691395915728 1.0000000180025095e-35 0.27421475388772087 41.990114360830383 0.42226586578082465 -0.78619555059346158 0.60514131590203257 0.75633176971457738
decision_type=2 2 2 2 2 2 2 2 2 2 2 2 2 2 2 2
left_child=3 12 10 4 6 9 -1 -8 -9 -6 -3 -5 -2 14 -14 -15
right_child=1 2 -4 11 5 -7 7 8 -10 -11 -12 -13 13 15 -16 -17
leaf_value=-0.079676351509440621 0.033234923261484244 -0.082155657154378642 0.045158572318246874 -0.031423384465764037 0.003775790247864402 -0.035960499198872703 0.041958380913680669 -0.0043009931380105469 -0.076542846966434541 0.061818128978139014 -0.017624563927604541 -0.07374737709077761 0.069471544048800307 0.066087936388619345 0.067098843565523064 0.067133039964311594
leaf_weight=2.3021818995475831 2.7825777083635357 2.2680012583732587 2.8970720022916794 3.0333267301321021 3.2140156775712949 2.769101694226265 2.7743083983659762 3.4856414645910228 2.9113708585500717 4.0706153362989426 3.7483696341514587 3.7340474873781204 2.4133329689502707 1.8407550007104867 1.8932749927043913 1.8932060301303861
leaf_count=10 12 10 13 14 14 12 13 15 13 18 17 17 12 10 10 10
internal_value=0 0.0260611 -0.0136384 -0.0180727 -0.00653429 0.0163317 -0.0265708 -0.0132403 -0.0371793 0.0362096 -0.041951 -0.0547766 0.0587557 0.0675876 0.0684285 0.0666178
internal_weight=0 19.7366 8.91344 28.2946 21.5272 10.0537 11.4735 9.17132 6.39701 7.28463 6.01637 6.76737 10.8231 8.04057 4.30661 3.73396
internal_count=220 94 40 126 95 44 51 41 28 32 27 31 54 42 22 20
shrinkage=0.05


Tree=14
num_leaves=16
num_cat=0
split_feature=17 17 13 7 5 13 12 10 13 17 4 11 5 10 19
split_gain=8.31431 9.53396 5.41401 4.384 3.37874 5.39488 6.27724 8.68914 2.5639 2.25311 1.70612 1.13045 0.854598 0.00230952 0.000501947
threshold=0.56074414343259715 0.6446811140594092 0.20930598876635417 0.69620658706144389 0.050396232697674341 0.35291434743578654 -1.4794593168811216 0.16696552885539059 0.039602750341811079 0.69309940918264357 -1.0000000180025095e-35 41.990114360830383 0.17738342384687408 0.24242318631917234 -0.0123047290373246
decision_type=2 2 2 2 2 2 2 2 2 2 2 2 2 2 2
left_child=3 12 9 4 -1 6 8 10 -6 -3 -8 -5 -2 14 -14
right_child=1 2 -4 11 5 -7 7 -9 -10 -11 -12 -13 13 -15 -16
leaf_value=0.039496366150724105 0.034674101496391233 -0.016576827067094117 0.043471536340825914 -0.030012250556874922 0.079665302013001565 -0.069963195618974156 -0.033049647022904458 0.041162224963967632 0.012388121393853355 -0.080160810921537831 -0.090000551630168332 -0.071324813486629876 0.065218202555631252 0.067685346472700122 0.066181394023780885
leaf_weight=3.3899887055158677 2.9814495891332644 3.7500759363174421 2.8599805980920792 3.0175608396530142 2.2542934566736283 3.5675611495971671 2.2303567677736336 2.8499863892793655 3.8088304698467255 2.2168605029582977 3.2045469135045899 3.6694734692573547 2.5030157715082169 2.1155497133731842 2.9429686814546585
leaf_count=15 13 17 13 14 10 16 10 13 17 10 14 17 14 11 16
internal_value=0 0.0252475 -0.0130897 -0.0173629 -0.00627743 -0.0149388 -0.00125721 -0.0295492 0.037402 -0.0401998 -0.0666292 -0.0526823 0.0573446 0.0662833 0.0657387
internal_weight=0 19.3699 8.82692 27.9926 21.3056 17.9156 14.348 8.28489 6.06312 5.96694 5.4349 6.68703 10.543 7.56153 5.44598
internal_count=220 94 40 126 95 80 64 37 27 27 24 31 54 41 30
shrinkage=0.05


Tree=15
num_leaves=19
num_cat=0
split_feature=17 17 8 11 13 12 13 5 1 7 1 13 16 0 16 8 5 16
split_gain=7.63388 8.92841 5.37345 4.29196 6.92145 4.25063 10.4471 4.27785 3.36083 3.07502 1.42522 1.02965 0.390793 0.303943 0.0975704 0.0243007 0.00204241 0.000683156
threshold=0.56074414343259715 0.68383350559377576 0.36045985723882085 -37.494728221536462 0.41250980375499707 -1.3364614763132614 0.039602750341811079 0.42704556220273682 -0.0002401230120823174 0.58278738822993559 0.0038128195071956612 0.15246974492950793 -2.5712440088010524 -1.1902921918004743 0.44256916074981645 0.46120545681352004 0.42704556220273682 -0.78619555059346158
decision_type=2 2 2 2 2 2 2 2 2 2 2 2 2 2 2 2 2 2
left_child=3 2 -2 4 11 6 -5 10 -3 -8 -7 -1 -9 -4 -14 -15 -17 -18
right_child=1 8 13 5 -6 7 9 12 -10 -11 -12 -13 14 15 -16 16 17 -19
leaf_value=0.023984081702249579 -0.0071654488175145999 -0.080880078985470949 0.045054433185477832 0.079677701666589523 -0.046303415295223416 0.017642544326185314 -0.0030970108605033828 -0.052619454759187091 0.0029827629741691133 -0.081283682677752406 -0.038204892175116918 0.070201875062304395 -0.072144602595138246 0.071706848489299341 -0.085759947310849557 0.066842749456186359 0.065640449760350467 0.064390959255449104
leaf_weight=2.0863706767559078 3.7111015915870693 2.1432641446590424 1.9467270225286473 2.6797068268060746 2.9317025244235992 2.3580259531736321 2.4924974739551544 2.1386271864175832 2.6992448717355719 2.5380891263484955 2.2159664183855057 2.8528139740228653 3.1269572973251307 2.0448907315731031 2.2718231528997421 1.8741275817155836 1.8055279254913315 2.7756895869970335
leaf_count=10 16 10 10 12 13 10 11 10 12 11 10 14 15 10 10 10 10 16
internal_value=0 0.0244714 0.0445164 -0.0166819 0.0145555 -0.0290857 -6.63583e-05 -0.0475599 -0.0341344 -0.0425446 -0.00941392 0.0506789 -0.0707084 0.0628755 -0.077874 0.0669569 0.0654522 0.0648834
internal_weight=0 19.0006 14.1581 27.6926 7.87089 19.8217 7.71029 12.1114 4.84251 5.03059 4.57399 4.93918 7.53741 10.447 5.39878 8.50024 6.45535 4.58122
internal_count=220 94 72 126 37 89 34 55 22 22 20 24 35 56 25 46 36 26
shrinkage=0.05


Tree=16
num_leaves=18
num_cat=0
split_feature=17 17 13 11 8 12 13 5 5 16 8 20 16 16 16 8 3
split_gain=7.02848 8.44837 4.89741 3.94069 6.42342 3.90668 9.71856 4.02237 2.17624 1.43378 0.955659 0.692787 0.373992 0.0796573 0.00160459 0.00145958 0.000265862
threshold=0.56074414343259715 0.6446811140594092 0.20930598876635417 -37.494728221536462 0.30826885825011141 -1.3364614763132614 0.17818691395915728 0.42704556220273682 0.27421475388772087 1.2193118340139826 0.42226586578082465 -0.0079259440410082479 -2.5712440088010524 0.44256916074981645 -0.78619555059346158 0.60514131590203257 0.75633176971457738
decision_type=2 2 2 2 2 2 2 2 2 2 2 2 2 2 2 2 2
left_child=3 10 8 4 -1 6 -5 9 -3 -7 -2 -6 -9 -14 15 -12 -16
right_child=1 2 -4 5 11 7 -8 12 -10 -11 14 -13 13 -15 16 -17 -18
leaf_value=-0.041384029902692215 0.02980323328515282 -0.078117822373549223 0.041899650986253277 0.053845678789249667 0.029849099086006636 -0.03749241756074085 -0.059409870600367426 -0.050941911960383272 -0.014992780067944023 0.018644573790606783 0.066023325622494466 0.06885288249624931 -0.070630502356891695 -0.083077317391392513 0.063229242496570637 0.064075104456957771 0.064118621511370891
leaf_weight=3.1140443533659008 2.7338108420372027 2.1812935620546323 2.7943742871284485 3.9795208573341432 2.0455921590328217 2.2404736131429619 3.6147486865520477 2.0996013730764425 3.6500242501497269 2.3103213310241699 2.1978335529565816 2.5673545151948929 3.036581546068188 2.2290021479129791 1.6536328941583636 1.7088510543107984 1.7083670943975446
leaf_count=14 12 10 13 18 10 10 16 10 17 10 12 13 15 10 10 10 10
internal_value=0 0.0237348 -0.0125252 -0.0161196 0.0141008 -0.0280883 -6.21192e-05 -0.0459499 -0.0386057 -0.00899311 0.0550038 0.0515568 -0.0687848 -0.0758994 0.064482 0.0651711 0.0636812
internal_weight=0 18.6282 8.62569 27.2372 7.72699 19.5102 7.59427 11.916 5.83132 4.55079 10.0025 4.61295 7.36519 5.26558 7.26868 3.90668 3.362
internal_count=220 94 40 126 37 89 34 55 27 20 54 23 35 25 42 22 20
shrinkage=0.05


Tree=17
num_leaves=17
num_cat=0
split_feature=17 17 8 11 17 5 13 15 1 10 13 5 7 17 10 19
split_gain=6.46887 7.91437 4.89715 3.6619 4.01418 3.81421 5.72148 5.00372 3.11564 2.61111 1.5604 0.314103 0.0353074 0.032217 0.000666752 0.000253286
threshold=0.56074414343259715 0.68383350559377576 0.36045985723882085 27.584416477467844 0.48275605140196592 0.050396232697674341 0.35291434743578654 15.340000000000002 -0.0002401230120823174 0.063028436217724096 0.18322207189785733 0.26306844550722275 0.6988986250273953 0.6446811140594092 0.19948847579870069 -1.0000000180025095e-35
decision_type=2 2 2 2 2 2 2 2 2 2 2 2 2 2 2 2
left_child=3 2 -2 5 12 -1 7 9 -3 -7 -11 -4 -5 14 15 -13
right_child=1 8 11 4 -6 6 -8 -9 -10 10 -12 13 -14 -15 -16 -17
leaf_value=0.048570189723216223 -0.0067157122488934011 -0.078685840476993327 0.042454879934747031 -0.075292431914503133 -0.0038652621305124051 0.074754710289847162 -0.067202727588276487 -0.037176857963632529 0.0031140465580465067 0.03758180881169218 -0.022517202068948711 0.062607022547138791 -0.066899145562202264 0.070683632688127482 0.064095914005525209 0.063413360700908084
leaf_weight=3.0564440190792146 3.6805102080106762 2.0679126381874084 1.8724774718284587 2.151204437017439 4.0473815053701401 2.3416595906019193 3.6354793906211844 4.2533436268568039 2.6633365005254737 2.2891993224620819 2.0447521507740021 2.0897799879312515 3.0007926374673843 2.0110189169645309 2.0500130653381348 1.8238996863365176
leaf_count=14 16 10 10 10 18 11 17 19 12 11 10 13 16 10 12 11
internal_value=0 0.0230241 0.0424918 -0.0155596 -0.0411293 -0.00221032 -0.0128669 0.00520766 -0.0326387 0.0322128 0.00922718 0.0608838 -0.0704037 0.0652109 0.0633654 0.0629828
internal_weight=0 18.2589 13.5277 26.8203 9.19938 17.6209 14.5644 10.929 4.73125 6.67561 4.33395 9.84719 5.152 7.97471 5.96369 3.91368
internal_count=220 94 72 126 44 82 68 51 22 32 21 56 26 46 36 24
shrinkage=0.05


Tree=18
num_leaves=17
num_cat=0
split_feature=12 10 9 20 8 13 11 19 15 4 4 9 12 15 9 13
split_gain=5.42471 6.88694 5.76075 6.13127 4.78466 4.06297 6.66487 3.96236 2.19959 1.71435 3.99215 0.928468 0.757098 0.349405 0.314298 0.118731
threshold=2.2086572810057379 -0.50358754576607001 0.99561821362557457 0.031520139726736618 0.29587386862911719 0.048828459994326522 16.118911094715703 -0.036684874969731267 13.757500000000002 0.18661133447893793 -0.22914159712807611 0.99928461965535631 4.1822689741324934 16.008750000000003 -0.94000075618215539 -0.098625253404547142
decision_type=2 2 2 2 2 2 2 2 2 2 2 2 2 2 2 2
left_child=1 -1 9 -4 -3 13 7 -7 -9 10 -2 -5 -11 15 -10 -6
right_child=2 4 3 11 5 6 -8 8 14 12 -12 -13 -14 -15 -16 -17
leaf_value=-0.053651292270716848 -0.074446882586046745 -0.036296526211412508 0.06282380759513588 -0.049806655130078085 0.063800719619008212 -0.025101263183508599 -0.06190708651664184 0.010801220433994084 0.049406977201121 -0.08193829745348849 0.010012406436358829 -0.0013508420081134191 -0.045090696234477298 0.047133031383777356 0.074421305083618619 0.079624079171559115
leaf_weight=3.1850423067808178 2.3221291303634652 2.7898743301630047 3.4501902163028708 2.2114919573068623 2.1553724259138107 2.2589426636695924 2.2032065242528907 2.5481252670287997 1.8357022255659146 2.6120502948760986 3.5198701471090326 1.7877566665410993 2.9895229488611221 1.8934874236583707 3.9748224616050676 2.6346330195665386
leaf_count=15 11 12 19 11 13 11 10 13 10 12 17 10 15 10 19 12
internal_value=0 0.0151233 -0.0202333 0.0139866 0.0249488 0.0337092 0.0172325 0.0336544 0.0495332 -0.0425094 -0.0235592 -0.0281458 -0.062273 0.0653162 0.0665186 0.072504
internal_weight=0 25.4792 18.893 7.44944 22.2942 19.5043 12.8208 10.6176 8.35865 11.4436 5.842 3.99925 5.60157 6.68349 5.81052 4.79001
internal_count=220 125 95 40 110 98 63 53 42 55 28 21 27 35 29 25
shrinkage=0.05


Tree=19
num_leaves=17
num_cat=0
split_feature=17 17 8 10 7 16 16 8 24 10 12 7 15 18 13 2
split_gain=5.8376 7.32565 4.96337 5.9879 3.25742 3.17631 3.13472 2.61693 1.99351 1.99148 2.17347 1.37343 0.768941 0.391405 0.763406 0.00062657
threshold=0.56074414343259715 0.6395493853046974 0.46120545681352004 0.16696552885539059 0.69620658706144389 0.36714608960896017 4.172637295036008 0.30430785485078427 1.0000000180025095e-35 0.10184004287454647 -1.4794593168811216 0.42013594609062566 12.397500000000003 -0.0091550945861368343 -0.044091154953987931 0.85980811645734689
decision_type=2 2 2 2 2 2 2 2 2 2 2 2 2 2 2 2
left_child=4 13 3 -3 5 7 8 -1 -7 10 -9 -4 -6 -2 15 -15
right_child=1 2 11 -5 12 6 -8 9 -10 -11 -12 -13 -14 14 -16 -17
leaf_value=-0.073261393720828585 0.071742331393645234 -0.07961975471046262 0.06715821401268543 0.027552735603547714 -0.029367434189997911 0.0038957743980264367 -0.030494456771754136 0.0010144331006560613 0.058395233624622525 0.01710073510515691 -0.065490064684140731 0.0070063745710027235 -0.064852105044919894 0.061167073338980839 0.021952512327458183 0.062473222150818956
leaf_weight=2.1438966095447602 2.8076125532388687 3.3902577906846982 1.8234258294105532 2.1172362267971039 3.0928699523210517 3.044385224580763 2.6161563247442245 2.4719814360141772 3.7383162379264832 3.5524597465991974 2.4423854053020442 1.9787712842226026 3.0148953944444656 1.9388401061296463 1.7861992716789261 1.7441407144069672
leaf_count=10 15 16 10 10 16 14 12 12 18 17 12 10 15 13 9 11
internal_value=0 0.022342 -0.00808553 -0.0384196 -0.0149223 -0.00516641 0.016 -0.0239154 0.0339334 -0.0114204 -0.0320376 0.0358535 -0.0468833 0.0565668 0.0487764 0.0617856
internal_weight=0 17.5865 9.30969 5.50749 26.1173 20.0096 9.39886 10.6107 6.7827 8.46683 4.91437 3.8022 6.10777 8.27679 5.46918 3.68298
internal_count=220 94 46 26 126 95 44 51 32 41 24 20 31 48 33 24
shrinkage=0.05


Tree=20
num_leaves=18
num_cat=0
split_feature=17 17 8 10 11 13 7 5 4 12 7 20 2 18 13 2 2
split_gain=5.37093 6.84016 4.56255 5.55645 3.23346 5.41142 3.226 3.5138 2.84679 2.08667 1.31557 0.959523 0.669042 0.370336 0.758725 0.0366291 0.000522512
threshold=0.56074414343259715 0.6395493853046974 0.46120545681352004 0.16696552885539059 -37.494728221536462 0.41250980375499707 0.64664645048311842 0.66577743877960238 -0.062969906305317777 -2.0068473491542429 0.42013594609062566 -0.0079259440410082479 0.87017466758502371 -0.0091550945861368343 -0.044091154953987931 0.91945793248129959 0.85980811645734689
decision_type=2 2 2 2 2 2 2 2 2 2 2 2 2 2 2 2 2
left_child=4 13 3 -3 5 11 7 8 -6 -8 -4 -1 -10 -2 16 -11 -15
right_child=1 2 10 -5 6 -7 9 -9 12 15 -12 -13 -14 14 -16 -17 -18
leaf_value=0.020751095453917526 0.070400795915718406 -0.077581133193312612 0.066073458940893656 0.026296998802312139 0.014696079028776935 -0.041523551907480326 -0.01551272152171396 0.041810052587932862 -0.063583052779654051 -0.065189506174332459 0.006661591359415641 0.066809995770808206 -0.026423748923527279 0.06050466565580126 0.021015010812060007 -0.073764823920350428 0.061720773523337061
leaf_weight=1.9937211722135542 2.7202741056680679 3.3074753135442716 1.7622449249029162 2.1076703816652298 2.9332681745290792 2.7739479094743729 2.8580879718065262 2.698137104511261 2.7990233302116376 2.8217838108539572 1.9771689623594282 2.6123944520950344 2.1354777365922928 1.863959476351738 1.7729347795248047 2.2289149314165115 1.6787891089916229
leaf_count=10 15 16 10 10 13 13 13 13 13 16 10 14 10 13 9 11 11
internal_value=0 0.0217328 -0.00781726 -0.0371499 -0.0143286 0.0136478 -0.0255043 -0.00742776 -0.0243131 -0.049654 0.0346602 0.0468738 -0.0475018 0.0553963 0.0477178 -0.0689739 0.0610809
internal_weight=0 17.1905 9.15456 5.41515 25.8548 7.38006 18.4747 10.5659 7.86777 7.90879 3.73941 4.60612 4.9345 8.03596 5.31568 5.0507 3.54275
internal_count=220 94 46 26 126 37 89 49 36 40 20 24 23 48 33 27 24
shrinkage=0.05


Tree=21
num_leaves=18
num_cat=0
split_feature=17 17 8 15 11 8 7 16 9 4 1 13 18 6 17 8 13
split_gain=4.95354 6.53603 4.06819 3.15764 2.96308 5.04797 3.01059 3.59289 3.15225 2.94113 2.72091 2.6635 0.686393 0.035191 0.00703879 0.00389761 0.0016797
threshold=0.56074414343259715 0.68383350559377576 0.41295996335922208 15.682500000000003 -37.494728221536462 0.30826885825011141 0.64664645048311842 0.36714608960896017 -0.79653657038198444 0.020414770116392807 -0.0002401230120823174 0.21241603621645369 0.0058568085900020115 0.91897234380638515 0.6395493853046974 0.60514131590203257 -0.40589625394708501
decision_type=2 2 2 2 2 2 2 2 2 2 2 2 2 2 2 2 2
left_child=4 2 3 -2 5 -1 7 11 -8 -9 -3 -6 -7 15 16 -10 -4
right_child=1 10 14 -5 6 12 8 9 13 -11 -12 -13 -14 -15 -16 -17 -18
leaf_value=-0.037085193673233201 0.041304789305830376 -0.075373779043164002 0.060117288415500438 -0.041905778105139339 0.00062233952849078658 0.025694369575233744 0.0022980209565319478 0.060706522922213207 -0.063803208069264261 -0.015384661275541743 0.0034104264546724115 -0.069604876026959681 0.065928520070242677 -0.074074324786965726 0.064300689019831339 -0.067056802763289819 0.061878959266594362
leaf_weight=2.9512358456850079 2.4494233429431933 1.9321606755256651 2.6527080535888681 2.1328772455453873 2.6254056245088595 1.9215995520353315 2.2069896906614304 2.5676404982805252 1.6800380647182458 2.5127421021461487 2.5321245342493048 2.7795963883399963 2.3642975240945816 1.8184958100318906 2.3337985426187515 2.0359483957290649 2.7617982625961295
leaf_count=14 11 10 19 10 12 10 10 12 10 11 12 14 13 9 14 11 18
internal_value=0 0.0211511 0.0399193 0.00257361 -0.0138302 0.0132375 -0.0245776 -0.00711702 -0.048227 0.023072 -0.0306877 -0.035493 0.0478894 -0.0683749 0.0620053 -0.0655858 0.0610159
internal_weight=0 16.7949 12.3306 4.5823 25.464 7.23713 18.2269 10.4854 7.74147 5.08038 4.46429 5.405 4.2859 5.53448 7.7483 3.71599 5.41451
internal_count=220 94 72 21 126 37 89 49 40 23 22 26 23 30 51 21 37
shrinkage=0.05


Tree=22
num_leaves=19
num_cat=0
split_feature=17 17 8 11 13 12 13 5 7 12 16 13 16 13 17 8 13 6
split_gain=4.57337 6.05855 3.94534 2.72652 4.66418 2.89941 7.88192 3.38433 2.49148 2.20666 1.11861 0.984372 0.354748 0.306953 0.0422745 0.0184375 0.00273873 0.000424532
threshold=0.56074414343259715 0.68383350559377576 0.36045985723882085 -37.494728221536462 0.41250980375499707 -1.3364614763132614 0.039602750341811079 0.42704556220273682 0.58278738822993559 2.6888333496814978 1.2193118340139826 0.15246974492950793 -2.5712440088010524 0.29231969573673222 0.45874283294667273 0.49361012423735501 -0.31077945282438574 0.91897234380638515
decision_type=2 2 2 2 2 2 2 2 2 2 2 2 2 2 2 2 2 2
left_child=3 2 -2 4 11 6 -5 10 -8 -3 -7 -1 -9 15 -14 -4 17 -17
right_child=1 9 13 5 -6 7 8 12 -10 -11 -12 -13 14 -15 -16 16 -18 -19
leaf_value=0.017621535296376788 -0.0056867896966304801 0.0043732767589119937 0.066760251669711418 0.073699386328504771 -0.038847590226724737 -0.031825556279309143 -0.00067349202397945886 -0.044237066010566241 -0.073840637002010268 -0.066433766800349847 0.019334199501475469 0.06530180083770086 -0.06569121573686687 0.039416731115925939 -0.075234846264823463 0.060499566381265704 0.062530220047311916 0.059357125417049329
leaf_weight=1.9160151034593607 3.5002562999725368 2.2972562164068213 1.7793500125408153 2.4467206597328248 2.7059533149003983 2.076441407203669 2.3338603377342224 1.8601981848478351 2.3201722502708435 2.1118574589490891 2.2010786831378937 2.4882796406745911 2.5393240451812709 1.8581002056598661 2.1367548555135727 1.8357258737087248 1.571325480937958 1.4598372578620908
leaf_count=10 16 10 10 12 13 10 11 10 11 12 10 14 15 12 10 13 10 11
internal_value=0 0.0205828 0.0389928 -0.0133798 0.0128171 -0.0237773 0.00104594 -0.0400772 -0.0371495 -0.0295416 -0.00550034 0.0445593 -0.0627053 0.0573822 -0.0700522 0.0624049 0.0608125 0.0599935
internal_weight=0 16.4137 12.0046 25.0248 7.11025 17.9146 7.10075 10.8138 4.65403 4.40911 4.27752 4.40429 6.53628 8.50434 4.67608 6.64624 4.86689 3.29556
internal_count=220 94 72 126 37 89 34 55 22 22 20 24 35 56 25 44 34 24
shrinkage=0.05


Tree=23
num_leaves=17
num_cat=0
split_feature=17 17 8 11 9 5 13 15 11 15 7 0 7 3 8 16
split_gain=4.22299 5.80844 3.91296 2.58207 5.08463 3.28042 4.57693 3.98778 1.78388 1.73187 1.18329 0.718337 0.477115 0.0489006 0.0045021 0.000425859
threshold=0.56074414343259715 0.6395493853046974 0.46120545681352004 27.584416477467844 -0.98197487893944901 0.050396232697674341 0.35291434743578654 15.340000000000002 -37.494728221536462 16.268750000000004 0.42013594609062566 0.95199897901163211 0.36769226193016907 0.69986798960279006 0.51872738463166557 -1.5213621387744425
decision_type=2 2 2 2 2 2 2 2 2 2 2 2 2 2 2 2
left_child=3 12 9 5 -5 -1 7 8 -7 -3 -4 13 -2 -6 -14 -16
right_child=1 2 10 4 11 6 -8 -9 -10 -11 -12 -13 14 -15 15 -17
leaf_value=0.047195278511724975 0.031519274686136932 -0.0033341814482165614 0.064314085391843315 0.033118011213121128 -0.073488365741112671 0.06418270375238988 -0.062901820945344397 -0.033487018768070642 0.0087164379419164325 -0.061508161146672902 0.0060998846421590307 -0.032032276295126338 0.06242874074396848 -0.06267693878104838 0.060030509951717451 0.058919164823502429
leaf_weight=2.8594924360513749 1.9582903087139154 2.3241257071495038 1.6248490363359454 2.0215446650981903 2.6405393332242948 2.3874437212944049 3.3025818616151801 4.0615023076534271 3.6901932358741725 2.8460660725831985 1.8862799853086469 1.8491555154323576 1.726245194673538 1.7318761050701139 1.3759981617331511 2.307628214359283
leaf_count=14 9 11 10 10 13 14 17 19 18 15 10 10 11 11 10 18
internal_value=0 0.0200167 -0.00769452 -0.0129673 -0.035773 -0.00143508 -0.0117803 0.00487125 0.0305049 -0.0353576 0.0330397 -0.0581574 0.0526667 -0.0692061 0.0603217 0.0593343
internal_weight=0 16.0495 8.68132 24.5443 8.24312 16.3012 13.4417 10.1391 6.07764 5.17019 3.51113 6.22157 7.36816 4.37242 5.40987 3.68363
internal_count=220 94 46 126 44 82 68 51 32 26 20 34 48 24 39 28
shrinkage=0.05


Tree=24
num_leaves=18
num_cat=0
split_feature=17 17 8 7 0 0 15 13 5 15 8 7 5 11 7 8 16
split_gain=3.89303 5.43765 3.58614 2.39702 2.63506 2.92808 4.37874 2.83425 3.02432 1.62401 1.29543 1.13728 0.999763 0.724373 0.493583 0.00376248 0.000357701
threshold=0.56074414343259715 0.6395493853046974 0.46120545681352004 0.69620658706144389 -1.1902921918004743 -0.54648277472909235 15.18125 0.19851442884512752 0.23518771162303226 16.268750000000004 0.55224123869966968 0.42013594609062566 0.35847686448212546 41.990114360830383 0.36769226193016907 0.51872738463166557 -1.5213621387744425
decision_type=2 2 2 2 2 2 2 2 2 2 2 2 2 2 2 2 2
left_child=3 14 9 4 -1 12 7 10 -9 -3 -7 -4 -6 -5 -2 -16 -17
right_child=1 2 11 13 5 6 -8 8 -10 -11 -12 -13 -14 -15 15 16 -18
leaf_value=0.034357284022165965 0.030182363967990258 -0.0031664928099583997 0.063452199603037149 -0.0218219329188599 -0.026080485091736279 0.077932497196307307 -0.050052312779098419 0.032693004743830328 -0.052516392826596973 -0.059778657690723783 0.019545843437961785 0.0057991102318796141 -0.076075668875468391 -0.058465690305487754 0.061682633715272342 0.059448785563790477 0.058409213158234954
leaf_weight=3.6086061298847225 1.9431717693805683 2.3248257189989072 1.5660635754466059 2.4803640842437735 2.1057693064212826 2.043513789772986 3.1358284950256348 2.1365084052085876 2.0314943492412567 2.7835865020751953 1.775344595313072 1.8849421739578245 1.9041871726512907 2.955861434340477 1.6614117324352262 1.3213723599910725 2.213761813938619
leaf_count=18 9 11 10 14 11 10 15 11 10 15 10 10 10 17 11 10 18
internal_value=0 0.0194615 -0.00741399 -0.0125149 -0.00403583 -0.0131912 1.46903e-05 0.0196722 -0.00883826 -0.0340146 0.0507892 0.031962 -0.0498214 -0.0417464 0.051681 0.0597201 0.0587978
internal_weight=0 15.6991 8.55942 24.1775 18.7413 15.1326 11.1227 7.98686 4.168 5.10841 3.81886 3.45101 4.00996 5.43623 7.13972 5.19655 3.53513
internal_count=220 94 46 126 95 77 56 41 21 26 20 20 21 31 48 39 28
shrinkage=0.05


Tree=25
num_leaves=18
num_cat=0
split_feature=17 17 1 10 12 13 9 11 18 13 12 10 18 1 0 13 17
split_gain=3.58538 5.11152 2.48204 2.2919 3.25955 6.22124 5.47399 5.01374 2.86011 2.08793 5.42835 1.18172 0.647992 0.492265 0.290799 0.0148638 0.00234609
threshold=0.56074414343259715 0.68383350559377576 -0.0002401230120823174 -0.3894310099421866 1.318169250328872 0.18322207189785733 -0.9775273852015961 -9.9719297200591885 0.022302765367515107 -0.044091154953987931 1.6675199575216622 1.0000000180025095e-35 -0.0017859554219685212 0.0034889594897263864 -0.16026793138616449 -0.15994842483732355 0.63203581032627376
decision_type=2 2 2 2 2 2 2 2 2 2 2 2 2 2 2 2 2
left_child=3 9 -3 12 5 11 -7 8 -6 15 13 -5 -1 -11 -9 16 -2
right_child=1 2 -4 4 7 6 -8 14 -10 10 -12 -13 -14 -15 -16 -17 -18
leaf_value=-0.027571847504363395 0.058243055444654239 -0.072980723397084404 0.0047339549218582411 0.025110599559373906 0.050123852299544407 -0.069952481452833157 0.028676616925392681 -0.04596990845313622 -0.028812750033866838 0.067893337335980117 -0.041955608122935403 0.074647494845575896 -0.069145156868256022 0.030439035756289364 -0.071083265564430675 0.065514227674757342 0.060836988883392812
leaf_weight=1.9140361249446871 2.2925885170698161 1.7740894705057142 2.4410866796970359 2.0365158617496508 2.3134751170873642 2.9120995402336129 2.7215671688318244 1.8428753316402433 2.2769615054130554 2.4263896644115444 2.379088819026947 2.9447825402021408 1.8367735296487833 1.3740813136100767 3.0780180394649488 1.2616062015295026 1.4064769744873045
leaf_count=10 19 10 12 10 12 15 15 10 12 15 11 15 10 9 17 8 10
internal_value=0 0.0189232 -0.0279747 -0.0120467 -0.00535926 0.0136878 -0.0223058 -0.0266164 0.0109695 0.0366681 0.0172739 0.0543952 -0.0479303 0.0543515 -0.0616783 0.0608277 0.0592293
internal_weight=0 15.3554 4.21518 23.8771 20.1263 10.615 5.63367 9.51133 4.59044 11.1402 6.17956 4.9813 3.75081 3.80047 4.92089 4.96067 3.69907
internal_count=220 94 22 126 106 55 30 51 24 72 35 25 20 24 27 37 29
shrinkage=0.05


Tree=26
num_leaves=18
num_cat=0
split_feature=12 10 18 8 11 13 3 9 8 12 13 4 8 7 10 18 15
split_gain=3.35632 4.61592 3.88305 3.87059 3.76116 3.04954 4.0677 2.98475 1.98805 4.56263 2.03396 0.688656 0.227726 0.216788 0.181544 0.0862845 0.0499536
threshold=2.2086572810057379 -0.50358754576607001 -0.010069279739049168 0.29587386862911719 -25.37364387613346 0.13066510481274557 0.42313687543083039 -0.98737708773134758 0.35126321800868604 5.5758420944283467 -0.01556746422726534 0.55758421987024931 0.58626144712919059 0.76297496299556211 0.10184004287454647 0.022302765367515107 14.351250000000002
decision_type=2 2 2 2 2 2 2 2 2 2 2 2 2 2 2 2 2
left_child=1 -1 4 -3 -2 11 7 -7 15 10 13 12 16 -10 -9 -4 -5
right_child=2 3 8 5 -6 6 -8 14 9 -11 -12 -13 -14 -15 -16 -17 -18
leaf_value=-0.04683561326270419 0.073392805393351065 -0.03534461236342739 -0.055391938880845107 0.073518162163293307 -0.016176381886167737 -0.015891109145442388 -0.030013411954168824 0.051474668563266046 -0.067455638985147656 0.05959301932995819 0.0028398865295550524 0.027582093009094963 0.046312638506834702 -0.043346789432324478 0.072893635090170258 -0.07057668331619317 0.062152776786208098
leaf_weight=2.8439932316541698 1.9680210053920744 2.6051830053329494 1.8271455764770492 2.4756965115666416 2.8978471159935024 1.804612934589392 3.6517135724425316 2.0776571556925698 2.5359732434153566 1.4956392571330068 2.0291554033756247 1.8319452106952665 1.5053867995738981 1.474653363227844 1.8885306268930433 1.9171403646469114 1.5862731933593748
leaf_count=15 11 12 11 13 17 11 19 13 14 12 10 10 11 10 10 10 11
internal_value=0 0.0126577 -0.0172832 0.0213671 0.0200503 0.03015 0.0112848 0.0374179 -0.0333882 -0.0185915 -0.0379525 0.0541737 0.0629236 -0.0585911 0.0616735 -0.0631668 0.0690798
internal_weight=0 22.271 16.1456 19.427 4.86587 16.8218 9.42251 5.7708 11.2797 7.53542 6.03978 7.3993 5.56736 4.01063 3.96619 3.74429 4.06197
internal_count=220 125 95 110 28 98 53 34 67 46 34 45 35 24 23 21 24
shrinkage=0.05


Tree=27
num_leaves=19
num_cat=0
split_feature=17 17 8 15 1 11 9 5 13 15 10 13 10 16 17 4 13 6
split_gain=3.23956 4.5696 3.36893 2.42888 2.29244 2.12564 4.29359 2.59921 3.82139 3.02119 1.95326 1.27769 0.818217 0.0265073 0.00664626 0.00105509 0.000556482 5.73333e-05
threshold=0.56074414343259715 0.68383350559377576 0.41295996335922208 15.682500000000003 -0.0002401230120823174 27.584416477467844 -0.98197487893944901 0.050396232697674341 0.35291434743578654 15.340000000000002 0.063028436217724096 0.18322207189785733 0.11585620196749218 -0.89626176707556604 0.6446811140594092 0.49806660688930271 -0.1222858097548588 0.88674132634740654
decision_type=2 2 2 2 2 2 2 2 2 2 2 2 2 2 2 2 2 2
left_child=5 2 3 -2 -3 7 -7 -1 9 10 -9 -12 13 -8 15 16 17 -4
right_child=1 4 14 -5 -6 6 12 8 -10 -11 11 -13 -14 -15 -16 -17 -18 -19
leaf_value=0.042919112372053689 0.036214206331219211 -0.071225513144071134 0.057514092561183755 -0.039019983776675073 0.0048182611303041935 0.031624325724076655 -0.062063838332543524 0.068163705217735029 -0.059496235372952282 -0.028651781005602801 0.034457850567146842 -0.024646039136847681 -0.024825027907723479 -0.070284549427379259 0.062128985717304554 0.059391332272029806 0.058534005405163861 0.05701577953761866
leaf_weight=2.7672015428543117 2.3374981880187971 1.6848271042108534 1.1241393014788621 1.9827892780303953 2.4069477021694174 1.9067366272211073 1.6397120803594583 1.9909213781356792 3.0346499830484381 3.9588466435670853 1.9439665973186495 1.726499870419502 1.6036206781864164 2.4394166395068164 1.3423777669668195 1.2928899377584455 1.3565820679068576 1.1864240467548368
leaf_count=14 11 10 10 10 12 10 11 11 17 19 11 10 10 13 9 10 11 11
internal_value=0 0.0184015 0.0356947 0.00168559 -0.0264935 -0.0116377 -0.0333001 -0.000977191 -0.0105758 0.00485582 0.0282867 0.00665679 -0.0550843 -0.06698 0.0590079 0.0581632 0.0577302 0.0572582
internal_weight=0 14.7145 10.6227 4.32029 4.09177 23.0116 7.58949 15.4221 12.6549 9.62023 5.66139 3.67047 5.68275 4.07913 6.30241 4.96004 3.66715 2.31056
internal_count=220 94 72 21 22 126 44 82 68 51 32 21 34 24 51 42 32 21
shrinkage=0.05


Tree=28
num_leaves=19
num_cat=0
split_feature=12 10 18 8 11 13 3 17 8 12 13 8 7 17 7 19 13 7
split_gain=3.03632 4.03221 3.57613 3.38824 3.37708 2.61284 3.89985 3.36294 1.7655 4.03681 1.87471 1.49067 1.03636 0.32242 0.214922 0.0900376 0.0463702 0.0293492
threshold=2.2086572810057379 -0.78058850907277511 -0.010069279739049168 0.29587386862911719 -25.37364387613346 0.13066510481274557 0.42313687543083039 0.50922834469337974 0.35126321800868604 5.5758420944283467 -0.01556746422726534 0.48302297766077823 0.69620658706144389 0.58570553615830956 0.76297496299556211 0.040414026740060761 -0.010854470282949766 0.35892831852848855
decision_type=2 2 2 2 2 2 2 2 2 2 2 2 2 2 2 2 2 2
left_child=1 -1 4 -3 -2 12 7 -7 15 10 14 -8 13 16 -10 -4 -5 -9
right_child=2 3 8 5 -6 6 11 17 9 -11 -12 -13 -14 -15 -16 -17 -18 -19
leaf_value=-0.053098045062187238 0.071284672801706347 -0.034170525552276072 -0.068878895355656361 0.061669913205815219 -0.015142093307376384 -0.016556523857793628 -0.058497449742396596 0.061245246411474913 -0.066124682762078141 0.058551103127928522 0.0026809221948281888 0.0048852307151590474 0.019383042480002086 0.040950025153948987 -0.0415788341586781 -0.052972857174414412 0.072679790615919046 0.070435833332004469
leaf_weight=2.1291403025388744 1.8888567015528677 2.5630802065134075 1.8981569036841359 1.5987210199236872 2.8143704682588586 1.9487702697515468 2.0395321100950246 2.1494489461183552 2.4216806069016452 1.3772624656558035 1.9948879033327109 1.7015668898820875 2.0824384018778801 1.484358064830303 1.4116367399692533 1.6746016964316366 2.3801112920045879 1.4578040242195127
leaf_count=11 11 12 11 11 17 11 10 15 14 12 10 10 15 10 10 10 12 8
internal_value=0 0.01222 -0.016811 0.0193865 0.0195676 0.0275366 0.00979501 0.0363678 -0.0326853 -0.0184358 -0.0366286 -0.0296691 0.0493965 0.0608369 -0.0570856 -0.0614235 0.0682559 0.0649595
internal_weight=0 21.535 15.4815 19.4058 4.70323 16.8428 9.29712 5.55602 10.7782 7.20547 5.82821 3.7411 7.54563 5.46319 3.83332 3.57276 3.97883 3.60725
internal_count=220 125 95 114 28 102 54 34 67 46 34 20 48 33 24 21 23 23
shrinkage=0.05


Tree=29
num_leaves=18
num_cat=0
split_feature=17 17 8 10 11 9 5 13 15 10 13 17 10 8 9 5 9
split_gain=2.90786 4.15366 2.98712 4.34505 1.92494 3.8468 2.35955 3.45634 2.60496 1.80338 1.14454 1.01278 0.852349 0.597697 0.0222272 0.00316273 0.000389145
threshold=0.56074414343259715 0.6395493853046974 0.46120545681352004 0.16696552885539059 27.584416477467844 -0.98197487893944901 0.050396232697674341 0.35291434743578654 15.340000000000002 0.063028436217724096 0.18322207189785733 0.68724784418860219 0.1843623446626185 0.33050877948730767 0.99343409189473719 0.42704556220273682 0.99296690277141153
decision_type=2 2 2 2 2 2 2 2 2 2 2 2 2 2 2 2 2
left_child=4 13 3 -3 6 -6 -1 8 9 -8 -11 -4 14 -2 -7 -15 -17
right_child=1 2 11 -5 5 12 7 -9 -10 10 -12 -13 -14 15 -16 16 -18
leaf_value=0.041268287464306705 0.023216047350561656 -0.071149341778545663 0.060018071179161317 0.026568934461461871 0.03000515303077364 -0.067939286419039471 0.066503018470431927 -0.05793813218446861 -0.026618534450877415 0.032729686174145907 -0.024058210752994878 0.0030016807583435326 -0.020045235944333925 0.059794196761679033 -0.060104434084408687 0.057475066513435681 0.056344074526344629
leaf_weight=2.713589251041415 1.7172077000141124 2.8010796681046486 1.5640786811709406 1.9155170843005178 1.8489995300769804 2.6361767947673789 1.8807463794946651 2.9011631906032553 3.9063867628574371 1.8835367858409884 1.6775065362453458 1.5513798296451566 1.4087306857109068 1.4503927081823347 1.3786595016717909 1.671925410628319 1.3952633738517759
leaf_count=14 8 16 12 10 10 15 11 17 19 11 10 8 9 11 10 15 14
internal_value=0 0.0178739 -0.00636768 -0.0314637 -0.0111732 -0.032275 -0.000916934 -0.0102622 0.0045338 0.0268965 0.00597852 0.0316261 -0.0535076 0.0483257 -0.0652489 0.0578703 0.0569606
internal_weight=0 14.0668 7.83206 4.7166 22.2355 7.27257 14.9629 12.2493 9.34818 5.44179 3.56104 3.11546 5.42357 6.23479 4.01484 4.51758 3.06719
internal_count=220 94 46 26 126 44 82 68 51 32 21 20 34 48 25 40 29
shrinkage=0.05


Tree=30
num_leaves=18
num_cat=0
split_feature=12 10 18 11 13 11 9 9 7 20 11 15 15 5 17 11 2
split_gain=2.71762 3.54746 3.30833 2.9933 2.40216 2.19037 2.43808 4.14062 2.51356 1.90551 1.76071 1.96734 0.836053 0.0449849 0.0268165 0.0246637 0.0255284
threshold=2.2086572810057379 -0.78058850907277511 -0.010069279739049168 -25.37364387613346 -0.078662280063155635 26.430806912827943 0.99483526943567402 -0.98737708773134758 0.33541653589302517 0.10253743519331672 55.475891438881341 16.967500000000005 16.376250000000002 0.41312045621610388 0.56074414343259715 34.94685509838245 0.91945793248129959
decision_type=2 2 2 2 2 2 2 2 2 2 2 2 2 2 2 2 2
left_child=1 -1 3 -2 14 6 7 8 -6 10 11 15 13 -9 -3 16 -4
right_child=2 4 9 -5 5 -7 -8 12 -10 -11 -12 -13 -14 -15 -16 -17 -18
leaf_value=-0.050311927526231717 0.069386257313179239 0.06625965139996623 -0.071622153601658842 -0.013746175429445765 -0.051516851130366692 -0.028623537750550022 -0.021263797409608716 0.063187721554957776 0.028779900411158188 0.01753613320819887 0.012846495629286163 -0.0042179995367112337 0.026456887401737419 0.073275326321664475 0.056398726093002484 -0.059367901321669338 -0.06370163341842057
leaf_weight=2.072755396366122 1.8005603849887846 1.4669020548462897 1.7278092056512777 2.7163094282150277 1.855495020747185 2.8424810022115699 2.8322057723999015 2.7781481072306615 2.0529487282037735 1.6370490938425071 1.2800291180610655 1.7409339770674703 1.7316763699054716 1.8352543562650678 1.3008797839283941 1.4357895255088804 2.4739689975976944
leaf_count=11 11 9 9 17 11 16 14 18 13 9 11 12 10 10 13 11 15
internal_value=0 0.0117498 -0.0162824 0.0193929 0.0186303 0.0111593 0.0198009 0.0311437 -0.00934019 -0.0319338 -0.041287 -0.0506781 0.056081 0.0672007 0.0616249 -0.0650254 -0.0669586
internal_weight=0 20.7687 14.8124 4.51687 18.696 15.9282 13.0857 10.2535 3.90844 10.2956 8.65853 7.3785 6.34508 4.6134 2.76778 5.63757 4.20178
internal_count=220 125 95 28 114 92 76 62 24 67 58 47 38 28 22 35 24
shrinkage=0.05


Tree=31
num_leaves=16
num_cat=0
split_feature=17 17 8 20 1 15 11 17 16 8 11 20 3 17 13
split_gain=2.56998 3.86244 2.88677 2.13995 2.04771 1.95584 1.94192 2.75925 2.75452 2.55641 3.40054 2.37714 0.0183815 0.00459735 0.000566758
threshold=0.56074414343259715 0.68383350559377576 0.41295996335922208 -0.15073331239829943 -0.0002401230120823174 15.682500000000003 27.584416477467844 0.48275605140196592 0.44256916074981645 0.30826885825011141 -37.494728221536462 0.031520139726736618 0.68655974372519724 0.6395493853046974 -0.40589625394708501
decision_type=2 2 2 2 2 2 2 2 2 2 2 2 2 2 2
left_child=3 2 5 -1 -3 -2 8 12 9 -5 -11 -10 -8 14 -4
right_child=1 4 13 6 -6 -7 7 -9 11 10 -12 -13 -14 -15 -16
leaf_value=-0.074936297953191885 0.033516969820441736 -0.069459257011345157 0.05602715375811651 -0.061481453602151452 0.0048316837236664894 -0.036125849160607251 -0.065973466770847644 0.0027991484574321594 0.063034317549849256 0.051218544070018607 -0.028960608786509068 -0.00040960256996901297 -0.058427435115066206 0.059748755974704332 0.057255370084922409
leaf_weight=1.2213998138904596 2.242464527487753 1.5524355024099352 1.8135446533560742 2.1862529814243334 2.3043670058250418 1.8315485715866087 1.5387611612677567 3.333731472492218 2.803408145904541 2.1693389192223567 3.3872284442186338 3.1191834583878517 1.6970619335770605 1.7777777910232542 1.9483463093638431
leaf_count=7 11 10 19 12 12 10 9 18 15 14 19 18 14 14 18
internal_value=0 0.017199 0.0341571 -0.0106651 -0.0250718 0.00220774 -0.00678565 -0.0291254 0.00395403 -0.015679 0.00234213 0.029621 -0.0620159 0.0576535 0.0566633
internal_weight=0 13.4705 9.61368 21.4564 3.8568 4.07401 20.235 6.56955 13.6654 7.74282 5.55657 5.92259 3.23582 5.53967 3.76189
internal_count=220 94 72 126 22 21 119 41 78 45 33 33 23 51 37
shrinkage=0.05


Tree=32
num_leaves=17
num_cat=0
split_feature=20 8 10 3 13 7 15 8 9 18 11 16 16 10 0 2
split_gain=2.43105 5.15019 3.41484 3.14617 4.96719 2.79173 2.41746 1.74755 1.86524 1.39779 1.28074 1.41843 1.1849 0.429009 0.345156 0.0329605
threshold=0.015085548794804672 0.29587386862911719 -0.11057043132192726 0.42313687543083039 -0.078662280063155635 0.67428898481299437 16.545000000000005 0.44278857330690169 0.87453718876536268 0.038349123517680751 27.584416477467844 -1.0000000180025095e-35 -1.3023419136590422 0.30248723991774273 1.8664284187055158 0.95926331096013884
decision_type=2 2 2 2 2 2 2 2 2 2 2 2 2 2 2 2
left_child=3 15 -3 12 14 7 10 8 -4 -7 11 -6 -1 -9 -5 -2
right_child=1 2 5 4 6 9 -8 13 -10 -11 -12 -13 -14 -15 -16 -17
leaf_value=0.021426454909394516 -0.071760917755582271 -0.061875453082604275 -0.019754929800060515 0.060525573166172159 -0.023872468762870878 -0.056888733975176166 -0.072950444861394972 0.064829801180025876 0.039530955475671363 0.008656820279909867 -0.038728347293455957 0.041104150430423314 0.066830028601174638 0.029490652208242048 0.026317528281836172 -0.062095428680436354
leaf_weight=2.9195571392774582 1.5854907929897335 1.8877324014902139 2.9820624291896767 2.1806788221001638 1.5587157458066949 1.9013143405318254 1.930634059011936 2.2689070701599126 2.3899968862533569 1.4215062633156774 2.0796917527914047 1.8213270679116214 2.8296273127198246 1.381848871707916 1.1141359061002729 1.9879810512065887
leaf_count=16 9 12 15 19 10 14 11 15 14 11 13 10 18 11 9 13
internal_value=0 -0.0127181 0.000755331 0.0139487 -0.0020984 0.010332 -0.0248607 0.0247609 0.006621 -0.0288483 -0.00785557 0.01114 0.0437731 0.0514536 0.0489582 -0.0663838
internal_weight=0 17.8068 14.2334 16.4344 10.6852 12.3456 7.39037 9.02282 5.37206 3.32282 5.45973 3.38004 5.74918 3.65076 3.29481 3.57347
internal_count=220 114 92 106 72 80 44 55 29 25 33 20 34 26 28 22
shrinkage=0.05


Tree=33
num_leaves=18
num_cat=0
split_feature=12 10 9 8 13 3 17 2 8 17 4 4 9 17 8 17 7
split_gain=2.33512 3.01669 2.88929 2.67799 2.23654 3.24588 2.87615 2.003 1.13731 1.05789 1.04127 2.65791 0.994501 0.639614 0.635568 0.0457261 0.0192296
threshold=2.2086572810057379 -0.78058850907277511 0.99561821362557457 0.29587386862911719 0.13066510481274557 0.42313687543083039 0.50922834469337974 0.71591032473184668 0.48302297766077823 0.61718744621776134 0.18661133447893793 -0.22914159712807611 0.99951441005902952 0.57581641653620397 0.65394098846287663 0.52039639837497953 0.35892831852848855
decision_type=2 2 2 2 2 2 2 2 2 2 2 2 2 2 2 2 2
left_child=1 -1 10 -3 9 6 -6 -4 -7 14 11 -2 -9 -12 15 -5 -8
right_child=2 3 7 4 5 8 16 12 -10 -11 13 -13 -14 -15 -16 -17 -18
leaf_value=-0.047414864975428309 -0.064970217223629778 -0.031129896652491919 0.050463436826755081 0.06985890534168171 -0.016052347104207908 -0.054264607758766452 0.059485245537299926 -0.040063087190308766 0.0029488114999117686 0.0034648185682145147 -0.066290157764342536 0.014399133339601189 0.01839468294951618 -0.026819334485583171 0.026480531578267592 0.059280039348061545 0.067364781938047888
leaf_weight=1.9786376953125024 1.7153462693095196 2.4256027489900616 2.1836030557751647 2.4899035170674315 1.8167976960539798 1.9291056543588641 1.8847120553255083 1.5616588070988657 1.5800514370203016 1.1622781082987783 2.5939930304884911 2.7392326444387427 1.3621426522731779 1.6983769610524175 1.3844966888427732 1.7320281639695165 1.3142235353589056
leaf_count=11 11 12 18 14 11 10 15 11 10 7 16 17 11 11 12 15 8
internal_value=0 0.0111402 -0.0156504 0.0176789 0.0254201 0.0083823 0.0341886 0.014231 -0.0285034 0.0468784 -0.0330983 -0.016164 -0.0128287 -0.0506726 0.0558785 0.065519 0.0627224
internal_weight=0 19.6978 13.8544 17.7192 15.2936 8.52489 5.01573 5.1074 3.50916 6.76871 8.74695 4.45458 2.9238 4.29237 5.60643 4.22193 3.19894
internal_count=220 125 95 114 102 54 34 40 20 48 55 28 22 27 41 29 23
shrinkage=0.05


Tree=34
num_leaves=19
num_cat=0
split_feature=17 17 8 12 12 13 9 11 17 18 8 6 10 11 17 17 18 10
split_gain=2.27967 3.43083 3.14883 1.97771 1.5224 3.80539 3.56776 2.93448 2.35042 1.99908 0.687389 0.540879 0.47889 0.279128 0.0219156 0.0187895 0.000644448 0.000220556
threshold=0.56074414343259715 0.69309940918264357 0.36045985723882085 2.3694377928517949 -1.4794593168811216 0.17818691395915728 0.82912508620466252 4.814423506505233 0.44888988931224377 0.022302765367515107 0.55872757818755547 0.81219409051821956 -0.17934086596032447 -50.538751494180396 0.64684641659210651 0.46360974713908376 -0.00098879709210813994 0.19948847579870069
decision_type=2 2 2 2 2 2 2 2 2 2 2 2 2 2 2 2 2 2
left_child=4 2 3 -2 5 10 12 8 -6 -10 -1 -9 -7 -4 16 -13 -15 -18
right_child=1 -3 13 -5 7 6 -8 11 9 -11 -12 15 -14 14 -16 -17 17 -19
leaf_value=0.068593813094806805 0.027723075288284344 -0.031668834258177257 0.033227645349810507 -0.046309898843696171 0.037539723080097731 -0.029827273134069944 0.046238578373005601 -0.027538458281436258 0.0066721299768686231 -0.062239989832444512 0.022924538902135482 -0.057871263600784401 -0.066633390674709234 0.057174273679895631 0.063582203394987269 -0.065280154768388804 0.055242246808086287 0.056261106627459416
leaf_weight=1.7975931316614153 1.9755746275186523 2.8342347368597975 1.425739400088786 1.6601621136069296 2.5811390280723572 1.7612581104040146 1.3906921744346616 1.7723167985677717 2.4589383900165558 1.8398052304983137 1.5211797729134557 1.715252071619034 1.7738383710384369 1.1188350692391384 1.4521545320749281 1.7077753841876981 1.1958424001932169 0.95563760399818409
leaf_count=10 10 16 12 11 16 10 10 11 12 12 10 15 10 11 10 10 14 10
internal_value=0 0.0167718 0.0308042 -0.00608211 -0.0102862 0.00627679 -0.021606 -0.0215948 -0.000175564 -0.0228213 0.047661 -0.0499591 -0.0482958 0.0526169 0.0584707 -0.0615676 0.056201 0.0556948
internal_weight=0 12.6182 9.78395 3.63574 20.3198 8.24456 4.92579 12.0752 6.87988 4.29874 3.31877 5.19534 3.5351 6.14821 4.72247 3.42303 3.27032 2.15148
internal_count=220 94 78 21 126 50 30 76 40 24 20 36 20 57 45 25 35 24
shrinkage=0.05


Tree=35
num_leaves=17
num_cat=0
split_feature=20 8 10 3 13 7 15 1 13 18 8 15 13 6 0 2
split_gain=2.13018 4.45689 2.97531 2.82781 4.26779 2.33755 2.13336 1.73801 1.76987 1.60587 1.174 1.12145 0.786679 0.335974 0.18978 0.0303417
threshold=0.015085548794804672 0.29587386862911719 -0.11057043132192726 0.42313687543083039 -0.078662280063155635 0.67428898481299437 16.545000000000005 -0.00081930799100220361 0.21241603621645369 0.041632275519920485 0.62188663985532588 14.891250000000001 -0.044091154953987931 0.8601136101945499 0.31253086143532544 0.95926331096013884
decision_type=2 2 2 2 2 2 2 2 2 2 2 2 2 2 2 2
left_child=3 15 -3 11 13 7 10 -4 12 -7 -6 -1 -9 -5 -13 -2
right_child=1 2 5 4 6 9 -8 8 -10 -11 -12 14 -14 -15 -16 -17
leaf_value=0.010762227018987124 -0.069987079099873062 -0.060091777096974136 -0.017257575761869502 0.025755907635316839 0.012636932307973796 -0.055824285423456146 -0.070403198970424991 0.02672705169790849 -5.5402421842115298e-05 0.017698363842125874 -0.035280987519356675 0.067750868857787125 0.071339880946897916 0.06032707701036432 0.044250211653784739 -0.060307993370351455
leaf_weight=1.8561454787850369 1.4765941277146366 1.7634818926453579 2.0244282260537121 1.1169299557805055 3.0500976964831343 1.9175719320774072 1.8091630265116689 1.568691983819005 2.247791662812233 1.2121808379888532 2.2003666013479233 2.2023199200630192 2.670019499957565 1.8953162804245947 1.4084918498992918 1.7926710173487663
leaf_count=10 9 12 11 11 19 15 11 12 16 10 14 14 16 17 10 13
internal_value=0 -0.0123355 0.000431202 0.0133961 -0.0023185 0.00960001 -0.0235789 0.0231871 0.0358099 -0.0273483 -0.00744453 0.0423474 0.0548293 0.0475082 0.0585838 -0.0646796
internal_weight=0 16.6734 13.4042 15.5388 10.0719 11.6407 7.05963 8.51093 6.4865 3.12975 5.25046 5.46696 4.23871 3.01225 3.61081 3.26927
internal_count=220 114 92 106 72 80 44 55 44 25 33 34 28 28 24 22
shrinkage=0.05


Tree=36
num_leaves=17
num_cat=0
split_feature=20 8 10 9 7 6 1 13 1 18 16 1 9 13 5 2
split_gain=1.96476 4.20121 2.7635 2.63013 2.14701 2.14486 1.5981 1.66537 1.55698 1.50612 1.38193 1.21639 0.914198 0.741791 0.0971377 0.0263171
threshold=0.015085548794804672 0.29587386862911719 -0.11057043132192726 0.92156477422861849 0.67428898481299437 0.8601136101945499 -0.00081930799100220361 0.21241603621645369 -0.0010582925412033403 0.041632275519920485 0.20127399243864078 0.0041991162806104491 0.99036352361545898 -0.010854470282949766 0.27421475388772087 0.95926331096013884
decision_type=2 2 2 2 2 2 2 2 2 2 2 2 2 2 2 2
left_child=3 15 -3 5 6 8 -4 13 -1 -6 -10 12 -5 -8 -14 -2
right_child=1 2 4 11 9 -7 7 -9 10 -11 -12 -13 14 -15 -16 -17
leaf_value=-0.060970403841781311 -0.068895038305103365 -0.05882923370331733 -0.016400166685206254 0.022947729965413197 -0.054873248394822875 0.042036416660896581 0.027295034010867466 -5.2632542626908637e-05 -0.028317054484574822 0.016890099362274185 0.028370682891321216 0.0062819839822424789 0.074453207382498082 0.070578873846560919 0.05545179292275574 -0.059711372658802012
leaf_weight=1.7343673706054685 1.4262761250138309 1.712563276290896 2.0237698033452043 1.9588636755943296 1.8548657074570649 1.7412445396184919 1.6403269246220595 2.2477993816137314 2.626896798610689 1.2068202123045919 1.8199353963136671 2.4990187510848045 1.7815116271376612 2.4961437582969594 1.0805560946464536 1.721846766769886
leaf_count=11 9 12 11 14 15 12 13 16 18 10 12 17 9 15 13 13
internal_value=0 -0.0119768 0.00041657 0.0129839 0.00926266 -0.00698049 0.0223167 0.0345896 -0.0207886 -0.0265864 -0.00511671 0.0345915 0.0492663 0.0534146 0.0672793 -0.0638721
internal_weight=0 16.3304 13.1823 15.2424 11.4697 7.92244 8.40804 6.38427 6.1812 3.06169 4.44683 7.31995 4.82093 4.13647 2.86207 3.14812
internal_count=220 114 92 106 80 53 55 44 41 25 30 53 36 28 22 22
shrinkage=0.05


Tree=37
num_leaves=17
num_cat=0
split_feature=17 17 8 15 11 20 5 4 4 15 12 13 12 17 18 1
split_gain=1.98107 3.01798 2.89053 2.69022 1.39361 2.1136 1.80171 1.74964 1.60309 1.92954 0.999496 0.731453 0.0790251 0.00544314 0.000693143 0.000323992
threshold=0.56074414343259715 0.69309940918264357 0.41295996335922208 16.008750000000003 43.575477783515588 0.10678580478651363 0.050396232697674341 0.061497949984363011 0.39614236977664491 15.762500000000001 2.3694377928517949 -0.057734397982870715 1.7856961294974079 0.64684641659210651 -0.0069441981177441039 0.0041991162806104491
decision_type=2 2 2 2 2 2 2 2 2 2 2 2 2 2 2 2
left_child=4 2 3 -2 5 6 -1 10 12 -10 -8 -6 -9 14 -4 -16
right_child=1 -3 13 -5 11 -7 7 8 9 -11 -12 -13 -14 -15 15 -17
leaf_value=0.027839160551598404 0.034359723786129934 -0.03005381471212637 0.056440828031272539 -0.045429459475754393 -0.013026775383613895 0.051293962786002435 0.023676760347170641 -0.067145126265695881 0.013311248214037683 -0.055995651503809744 -0.027214014481016204 -0.060465774653511897 -0.050848923991724443 0.05963882386465378 0.054584950219239106 0.055842524009660645
leaf_weight=2.6043519675731721 2.4668469801545125 2.7239102870225897 1.5354994684457772 1.8477129340171812 1.458021976053715 1.5726367980241764 2.928831495344637 1.8284009918570521 2.629039354622364 1.6249527484178541 1.4387718215584753 1.835478588938712 1.2542547434568403 1.0934967249631879 1.3702063858509075 0.81786870956420887
leaf_count=15 13 16 16 13 11 10 18 12 17 9 10 14 10 9 18 9
internal_value=0 0.0161359 0.029914 0.000189957 -0.0098649 -0.00372641 -0.00977361 -0.018143 -0.0330587 -0.0131628 0.00691237 -0.0394647 -0.0605146 0.0565373 0.0556265 0.055055
internal_weight=0 11.8555 9.13163 4.31456 19.1747 15.8812 14.3086 11.7043 7.33665 4.25399 4.3676 3.2935 3.08266 4.81707 3.72357 2.18808
internal_count=220 94 78 26 126 101 91 76 48 26 28 25 22 52 43 27
shrinkage=0.05


Tree=38
num_leaves=18
num_cat=0
split_feature=17 17 8 12 11 20 5 13 12 12 4 15 13 5 17 17 1
split_gain=1.83141 2.8192 3.62262 2.76981 1.29362 1.94904 1.64551 1.62208 2.40713 2.04985 1.94098 1.14914 0.718905 0.299898 0.0186034 0.000446282 0.000199675
threshold=0.56074414343259715 0.71900838373313747 0.36045985723882085 4.0477087031952816 43.575477783515588 0.10678580478651363 0.050396232697674341 0.35291434743578654 -1.4794593168811216 -3.4324463397571874 -0.025013196369286599 15.340000000000002 -0.057734397982870715 0.26306844550722275 0.65132651667996422 0.63203581032627376 0.0041991162806104491
decision_type=2 2 2 2 2 2 2 2 2 2 2 2 2 2 2 2 2
left_child=4 2 3 -2 5 6 -1 8 9 -8 -10 -12 -6 -4 15 16 -15
right_child=1 -3 13 -5 12 -7 7 -9 10 -11 11 -13 -14 14 -16 -17 -18
leaf_value=0.026618428191501564 0.027154052336319092 -0.038171564874370248 0.029422235641772418 -0.05947866349957575 -0.012396002609449737 0.049854441232556876 -0.01543535676793407 -0.054291456667284202 0.015443140075495472 0.064606953030270017 -0.020715520138364436 -0.073805449274719465 -0.05987486607534296 0.054485796939205723 0.062006827253638944 0.05618627303990488 0.05546118262614852
leaf_weight=2.5880254283547464 2.0736034065484987 2.0048868060111991 1.2007446736097334 1.6622073352336881 1.4556650519371035 1.5380337759852398 1.5105780959129336 2.3779366612434378 1.868934631347656 1.7001218646764753 2.1340502947568876 1.9512170255184171 1.7627545818686474 1.3400768935680396 1.5166601017117498 0.90557063370943058 0.8623446226119994
leaf_count=15 11 10 10 14 11 10 9 17 12 11 16 11 14 18 11 10 10
internal_value=0 0.0157361 0.02704 -0.0113922 -0.00952791 -0.00359741 -0.00941523 -0.0174943 -0.00794693 0.0269484 -0.0267637 -0.0460725 -0.0384006 0.0516865 0.0574672 0.0552519 0.0548677
internal_weight=0 11.5661 9.56121 3.73581 18.8873 15.6689 14.1309 11.5428 9.1649 3.2107 5.9542 4.08527 3.21842 5.8254 4.62465 3.10799 2.20242
internal_count=220 94 84 25 126 101 91 76 59 20 39 27 25 59 49 38 28
shrinkage=0.05


Tree=39
num_leaves=17
num_cat=0
split_feature=12 18 13 3 8 11 0 20 8 9 9 1 23 4 4 17
split_gain=1.78449 2.55012 2.47892 2.4976 2.48148 2.12698 1.82384 1.73974 1.30805 1.2062 1.3978 0.455801 0.253942 0.128142 0.0412353 0.0118824
threshold=2.2086572810057379 -0.010069279739049168 -0.078662280063155635 0.50467596618365773 0.29587386862911719 -11.332358401639453 -0.44018359619171504 0.10678580478651363 0.63261920982866415 -0.98737708773134758 0.99249201170694901 0.0067256419385807982 1.0000000180025095e-35 0.16525656981339551 0.68274325996833529 0.56074414343259715
decision_type=2 2 2 2 2 2 2 2 2 2 2 2 2 2 2 2
left_child=2 5 15 4 -4 -2 -5 8 11 -6 12 13 -11 -3 -15 -1
right_child=1 7 3 6 9 -7 -8 -9 -10 10 -12 -13 -14 14 -16 -17
leaf_value=0.061986485485779487 0.053642358358128119 -0.045417990036415591 -0.029936727775141184 -0.050839366029322042 0.0014491525551947105 -0.022372396310461697 0.0099812037471464811 0.024792427459329403 0.0041223214196898887 0.043155024315670365 -0.00096273748351007537 -0.023708284145817261 0.068068364477602658 -0.057992821099760686 -0.069775646035964478 0.054765576541201823
leaf_weight=1.2445756047964143 2.064760230481625 1.4964581355452518 2.1992193609476081 2.9817615449428558 2.5410183072090158 1.6602003127336491 2.1012170091271409 1.2391190081834791 1.3938958421349523 1.7895914614200563 1.3602963611483572 1.2960029840469358 2.3873473033308983 1.6379341557621958 1.3582638353109358 1.0506827458739278
leaf_count=9 15 13 12 19 19 13 14 8 15 14 9 8 15 15 8 14
internal_value=0 -0.0146848 0.0102141 0.0029719 0.0171509 0.0197629 -0.0256972 -0.0299213 -0.0393604 0.02997 0.0430581 -0.0498309 0.0573944 -0.0573666 -0.0633343 0.058681
internal_weight=0 12.1466 17.6557 15.3605 10.2775 3.72496 5.08298 8.42167 7.18255 8.07825 5.53724 5.78866 4.17694 4.49266 2.9962 2.29526
internal_count=220 95 125 102 69 28 33 67 59 57 38 44 29 36 23 23
shrinkage=0.05


Tree=40
num_leaves=18
num_cat=0
split_feature=20 8 3 13 11 17 21 15 8 15 11 10 18 5 0 2 9
split_gain=1.6857 3.60995 2.20474 3.33583 2.19919 2.08291 1.95694 1.74407 1.65644 1.1279 1.08434 1.27067 0.986042 0.351963 0.159271 0.0248382 0.004912
threshold=0.015085548794804672 0.29587386862911719 0.42313687543083039 -0.078662280063155635 4.814423506505233 0.46606340607856894 1.0000000180025095e-35 16.545000000000005 0.51872738463166557 14.891250000000001 27.584416477467844 -0.17934086596032447 0.023014078632513743 0.86425451066755676 0.31253086143532544 0.95926331096013884 0.99343409189473719
decision_type=2 2 2 2 2 2 2 2 2 2 2 2 2 2 2 2 2
left_child=2 15 9 13 6 16 12 10 -7 -1 11 -5 -3 -4 -11 -2 -6
right_child=1 4 3 7 5 8 -8 -9 -10 14 -12 -13 -14 -15 -16 -17 -18
leaf_value=0.0068539644000740049 -0.067715258834645367 0.023149374693738668 0.020083836913317291 0.038641455342163865 -0.060847873217437336 -0.02542372095123804 0.053441409813335242 -0.066426877795019587 0.041121063305819522 0.065195005261452693 -0.037056988983705325 -0.025978487039770133 -0.031014778421554003 0.058523451870296499 0.042625242249553857 -0.058296401920409219 -0.056146523587657371
leaf_weight=1.7780470848083521 1.2913449704647055 1.6871595159172996 0.90787031874060575 1.8032239675521839 1.3107613548636439 2.3216963335871701 2.6822745427489281 1.6127511486411092 1.5658922791481016 1.987321984022856 1.8353990018367765 1.3158969432115557 1.6739143952727316 1.7307186536490915 1.2884568795561788 1.5283579602837563 0.96434064954519261
leaf_count=10 9 13 10 11 10 17 18 11 14 14 13 9 10 18 10 13 10
internal_value=0 -0.0116196 0.0123805 -0.00218655 0.000159652 -0.0208572 0.0215915 -0.0212646 0.00138003 0.0389153 -0.00656374 0.0113795 -0.00382598 0.0452974 0.0563177 -0.06261 -0.0588551
internal_weight=0 15.0257 14.2597 9.20586 12.206 6.16269 6.04335 6.56727 3.88759 5.05383 4.95452 3.11912 3.36107 2.63859 3.27578 2.8197 2.2751
internal_count=220 114 106 72 92 51 41 44 31 34 33 20 23 28 24 22 20
shrinkage=0.05


Tree=41
num_leaves=18
num_cat=0
split_feature=17 17 8 12 11 20 16 5 15 4 4 20 13 5 17 4 6
split_gain=1.60013 2.57766 3.16964 2.40193 1.17405 1.69531 1.48962 1.538 1.11786 1.09609 0.817385 0.796509 0.618853 0.288348 0.0141351 0.000366086 0.000170798
threshold=0.56074414343259715 0.71900838373313747 0.36045985723882085 4.0477087031952816 43.575477783515588 0.10678580478651363 0.36714608960896017 0.33466824972987769 13.256250000000001 0.42677453673953797 0.061497949984363011 0.031520139726736618 -0.057734397982870715 0.26306844550722275 0.65132651667996422 0.49806660688930271 0.88674132634740654
decision_type=2 2 2 2 2 2 2 2 2 2 2 2 2 2 2 2 2
left_child=4 2 3 -2 5 6 9 11 -9 10 -1 -8 -6 -4 15 16 -15
right_child=1 -3 13 -5 12 -7 7 8 -10 -11 -12 -13 -14 14 -16 -17 -18
leaf_value=-0.019912389381689686 0.025393602763050634 -0.036894366295797308 0.028479591938188688 -0.058248753820328139 -0.013079439929349715 0.047730484277853064 0.051391377348061096 0.012073741452760869 -0.045609808594196451 0.0015574886577828101 -0.063485463250828891 0.0013584121733223814 -0.058739935937799741 0.054776321601617363 0.060872024104453984 0.05573901168129948 0.053865257115924964
leaf_weight=2.2589497491717392 2.0089007467031466 1.9462829679250706 1.1442840322852132 1.4986033290624616 1.3740399405360224 1.4623220041394223 2.0271282717585568 1.7157670110464098 1.6452905535697935 2.3862651735544205 2.0557878613471985 1.3091982677578924 1.6134314313530911 1.2890167981386191 1.4027277454733846 0.6869063340127467 0.85607533901929844
leaf_count=16 11 10 10 14 11 10 12 12 9 16 16 10 14 17 11 8 13
internal_value=0 0.0152221 0.0266364 -0.0103431 -0.00913789 -0.00338814 -0.00896731 0.00770893 -0.0161633 -0.0256345 -0.0406731 0.0317581 -0.0377391 0.0507497 0.0567675 0.0547344 0.0544127
internal_weight=0 10.8328 8.88651 3.5075 17.8482 14.8607 13.3984 6.69738 3.36106 6.701 4.31474 3.33633 2.98747 5.37901 4.23473 2.832 2.14509
internal_count=220 94 84 25 126 101 91 43 21 48 32 22 25 59 49 38 30
shrinkage=0.05


Tree=42
num_leaves=19
num_cat=0
split_feature=12 9 20 10 8 17 17 17 9 4 4 17 17 0 17 17 15 3
split_gain=1.54412 2.29834 2.07648 1.99016 1.94979 1.37723 2.49213 2.20377 1.67865 0.815144 2.09296 0.464714 0.42373 0.386958 0.642341 0.0324161 0.00781668 0.00171668
threshold=2.2086572810057379 0.99561821362557457 0.031520139726736618 -0.78058850907277511 0.29587386862911719 0.48275605140196592 0.73561102256305044 0.44053442623073685 0.9942825227526525 0.18661133447893793 -0.22914159712807611 0.57581641653620397 0.44494369858245086 -0.54648277472909235 0.54317869879226788 0.53639782533949887 16.187500000000004 0.39192919002702459
decision_type=2 2 2 2 2 2 2 2 2 2 2 2 2 2 2 2 2 2
left_child=3 9 -3 -1 -5 7 8 -6 13 10 -2 -11 -4 14 -7 -15 17 -17
right_child=1 2 12 4 5 6 -8 -9 -10 11 -12 -13 -14 15 -16 16 -18 -19
leaf_value=-0.041391421107444933 -0.062610719377322058 0.053404374972996688 0.0036436111425294016 -0.028908921495015179 0.04462073263206584 0.0080904658671302008 -0.03731790835462203 -0.033000716619794264 -0.01694449605184049 -0.062670170688140833 0.014728257043935598 -0.025669557043636257 -0.041043958967785267 0.066510591298784574 0.059396258701704986 0.057326226144266912 0.061128345950292089 0.054452323739465694
leaf_weight=1.7124394774436993 1.4103761911392214 1.9351901561021803 1.084988094866276 2.12429053336382 1.5097002089023583 1.1323260217905038 1.09779992699623 2.3190357238054276 1.0193352550268171 2.1595338657498364 2.3036054074764234 1.3979461714625356 1.0379124507308004 1.4576370790600766 1.3226727247238157 0.94127252697944719 0.99009132385253895 1.1599728055298326
leaf_count=11 11 19 11 12 10 9 5 16 8 16 17 11 10 9 12 9 8 16
internal_value=0 -0.0142017 0.0159437 0.00968749 0.0154901 0.0227733 0.0333377 -0.00239398 0.0430053 -0.0310253 -0.014641 -0.0481304 -0.0182047 0.0517302 0.0357323 0.0603639 0.0574656 0.0557397
internal_weight=0 11.3296 4.05809 16.7866 15.0741 12.9498 9.12111 3.82874 8.02331 7.27146 3.71398 3.55748 2.1229 7.00397 2.455 4.54897 3.09134 2.10125
internal_count=220 95 40 125 114 102 76 26 71 55 28 27 21 63 21 42 33 25
shrinkage=0.05


Tree=43
num_leaves=20
num_cat=0
split_feature=17 8 11 10 5 8 11 12 13 8 17 15 6 9 2 16 17 5 11
split_gain=1.44259 2.27749 1.81582 2.40238 1.78989 2.08994 2.1927 1.60157 4.21855 1.79462 1.57928 1.5714 1.07838 1.06209 0.20652 0.00993979 0.00428171 0.00039308 0.000638636
threshold=0.56074414343259715 0.46120545681352004 -67.335090283224872 0.16696552885539059 0.0021003358476086548 0.29587386862911719 -37.494728221536462 2.2086572810057379 0.17818691395915728 0.62188663985532588 0.71900838373313747 15.340000000000002 0.62452037388971282 -0.9775273852015961 0.43263641115516088 0.5029628793288804 0.66350333987307486 0.92217630611765067 48.656670465640005
decision_type=2 2 2 2 2 2 2 2 2 2 2 2 2 2 2 2 2 2 2
left_child=4 2 -2 14 -1 -6 11 8 9 -8 16 -7 -9 -10 -4 -14 17 18 -3
right_child=1 10 3 -5 5 6 7 12 13 -11 -12 -13 15 -15 -16 -17 -18 -19 -20
leaf_value=0.067438192454938609 0.039641727676665059 0.05403267675890297 -0.041884070659568999 0.022630078752894342 -0.059858216926582969 0.057805052512856982 0.064863418528685851 -0.0057161430035932419 -0.062197362824788438 -0.0098870762750213146 -0.019925046049655976 -0.013381005948880802 -0.05690556431347428 -0.0073202564953928923 -0.070975350915167879 -0.063130341537668194 0.058879285810442251 0.053498070277923387 0.055690028070151935
leaf_weight=0.73774828016758576 1.573404476046562 1.1383071765303623 1.3722353428602203 1.683675669133663 2.0165548771619823 2.0178049728274412 2.2148846089839851 1.4370864778757093 2.1154960170388226 1.2595565617084501 0.85671395808458317 1.2589191049337385 1.664041765034199 1.5117821991443632 1.0983775630593298 1.0434540212154386 0.71545230597257603 0.66201668605208386 1.1877520158886907
leaf_count=4 9 17 12 12 16 18 14 9 15 10 5 7 17 9 8 7 6 11 14
internal_value=0 0.0148879 -0.00610339 -0.023429 -0.00876154 -0.0121604 -0.00553748 -0.0160244 -0.00160993 0.0377648 0.041253 0.0304553 -0.0407234 -0.0393256 -0.0548174 -0.0593046 0.0554049 0.054573 0.054879
internal_weight=0 10.2879 5.72769 4.15429 17.2773 16.5396 14.523 11.2463 7.10172 3.47444 4.56024 3.27672 4.14458 3.62728 2.47061 2.7075 3.70353 2.98808 2.32606
internal_count=220 94 41 32 126 122 106 81 48 24 53 25 33 24 20 24 48 42 31
shrinkage=0.05


Tree=44
num_leaves=17
num_cat=0
split_feature=20 8 7 3 13 16 8 4 1 17 15 17 5 15 2 2
split_gain=1.3818 3.05643 1.93939 1.79106 2.74417 1.56856 1.41948 2.1484 1.0894 0.95669 0.783894 0.652669 0.323247 0.0964757 0.0522675 0.0197781
threshold=0.015085548794804672 0.29587386862911719 0.56389174673135611 0.42313687543083039 -0.078662280063155635 1.2193118340139826 0.44278857330690169 1.0000000180025095e-35 0.0054507261399373555 0.56074414343259715 13.757500000000002 0.42596740944926198 0.86425451066755676 14.543750000000001 0.76879795476602208 0.95926331096013884
decision_type=2 2 2 2 2 2 2 2 2 2 2 2 2 2 2 2
left_child=3 15 6 8 12 10 7 -3 -1 11 -6 -4 -5 -8 -13 -2
right_child=1 2 9 4 5 -7 13 -9 -10 -11 -12 14 -14 -15 -16 -17
leaf_value=0.057374460183815229 -0.06588747222790263 0.047830774491759973 -0.0090683909353575648 0.018515942595896794 -0.0096446531856525068 0.012200770619178555 0.059990606719450203 -0.024529806199713747 0.0085611815587062108 0.017113727037777773 -0.057081691621860046 -0.046389398395902948 0.057512745388423041 0.038174183333032782 -0.061663916010208944 -0.056959632707826904
leaf_weight=2.6739241294562843 1.1575093120336524 1.6040024906396846 1.3208673596382143 0.81452465429902021 1.3719687312841409 2.3684986084699631 1.2733663730323317 2.8454751744866371 1.9964303933084009 1.0585500895977018 2.3845074214041233 1.2363337539136412 1.5287459045648573 0.84171359986066807 1.0238853022456167 1.336735263466835
leaf_count=19 9 10 12 10 11 16 11 18 15 12 17 12 18 9 8 13
internal_value=0 -0.0110461 9.74204e-05 0.01165 -0.00205973 -0.0196648 0.0175859 0.00155563 0.0365083 -0.0246467 -0.0397564 -0.0369909 0.0439574 0.0513086 -0.0533088 -0.0611028
internal_weight=0 13.6984 11.2042 13.1386 8.46825 6.12497 6.56456 4.44948 4.67035 4.63964 3.75648 3.58109 2.34327 2.11508 2.26022 2.49424
internal_count=220 114 92 106 72 44 48 28 34 44 28 32 28 20 20 22
shrinkage=0.05


Tree=45
num_leaves=18
num_cat=0
split_feature=20 20 8 20 12 11 16 3 8 1 17 11 13 17 10 2 13
split_gain=1.33903 2.35195 1.99929 1.66556 1.65561 1.45614 1.13004 1.07468 2.16128 1.40454 1.39513 0.966851 0.533121 0.457637 0.404793 0.017327 0.0121181
threshold=0.11535509547780882 0.015085548794804672 0.29587386862911719 -0.13715581564673091 -1.4225275071301675 4.814423506505233 1.6801096552502706 0.42313687543083039 0.51872738463166557 0.0054507261399373555 0.5168064116739749 58.968116650815595 0.27122957122196184 0.53437068721215786 0.36593746415154443 0.95926331096013884 0.026771652887392298
decision_type=2 2 2 2 2 2 2 2 2 2 2 2 2 2 2 2 2
left_child=1 3 15 -1 13 14 7 9 -9 -5 -10 16 -8 -4 -6 -3 -7
right_child=-2 2 4 6 5 11 12 8 10 -11 -12 -13 -14 -15 -16 -17 -18
leaf_value=-0.036044571412897596 0.03790769130603279 -0.065107200299201057 0.0094820481989941544 0.055657163583636149 0.022824364851718584 -0.056250036472459845 0.025595256210395014 -0.041822784392613034 -0.019889987954797808 -0.0074061749865259111 0.057109711228246499 -0.00049536980806629178 0.068378913099048824 0.055713831103199697 -0.013183045467284396 -0.056578877719601121 -0.063129640424361713
leaf_weight=1.6270686313509966 2.1467895433306685 1.1139175929129115 1.3083214312791818 2.101777642965319 1.4300078563392156 1.3035593852400786 1.6318170540034764 2.2961478494107723 0.99187862128019366 1.5224823504686353 1.4456879273056982 0.94679879769682873 1.3148153312504289 0.90592046454548825 1.7185496389865873 1.2798820659518242 1.2576561868190763
leaf_count=12 18 9 10 14 10 14 17 16 9 11 18 10 9 11 10 13 9
internal_value=0 -0.00329535 -0.0199977 0.0112539 -0.00905537 -0.0215135 0.0180615 0.0086751 -0.00701287 0.0291655 0.0257775 -0.0436685 0.0446857 0.028397 0.00317075 -0.0605474 -0.0596282
internal_weight=0 24.1963 11.2646 12.9317 8.87081 6.65657 11.3046 8.35797 4.73371 3.62426 2.43757 3.50801 2.94663 2.21424 3.14856 2.3938 2.56122
internal_count=220 202 96 106 74 53 94 68 43 25 27 33 26 21 20 22 23
shrinkage=0.05


Tree=46
num_leaves=18
num_cat=0
split_feature=12 9 13 8 8 22 16 15 20 4 4 4 17 17 9 13 17
split_gain=1.24659 1.99613 1.91359 1.91576 2.47239 2.0024 1.97159 1.88605 1.67453 1.28513 0.692018 1.86886 0.438372 0.335475 0.24576 0.0936822 0.00532249
threshold=2.2086572810057379 0.99561821362557457 -0.078662280063155635 0.60514131590203257 0.48302297766077823 1.0000000180025095e-35 1.6801096552502706 14.543750000000001 0.031520139726736618 0.51525385480768049 0.18661133447893793 -0.22914159712807611 0.57581641653620397 0.44494369858245086 0.99249201170694901 0.22163595931235777 0.56074414343259715
decision_type=2 2 2 2 2 2 2 2 2 2 2 2 2 2 2 2 2
left_child=2 10 16 4 5 7 9 -4 -3 -7 11 -2 -12 -10 -9 -6 -1
right_child=1 8 3 -5 15 6 -8 14 13 -11 12 -13 -14 -15 -16 -17 -18
leaf_value=0.059046326506365349 -0.061700759061148004 0.051925220455948932 -0.026415290386326486 -0.04459354792727948 0.061064994423767817 -0.061521225827887917 0.031082751524817334 0.062202838712410169 0.0039324641505098573 -0.0042850884280308003 -0.061216767449900289 0.014866148014089177 -0.023825466545810397 -0.038000085753993641 0.031129341758695247 0.041534243846459366 0.053643695489043852
leaf_weight=1.0435009002685554 1.277156323194504 1.7323226593434813 1.1945839226245865 1.8621309585869319 1.5554944686591619 2.4697063714265823 1.3396362103521822 1.5408254042267802 1.0068168863654134 1.6266775131225584 1.9481691941618922 2.1196242198348028 1.311604209244251 0.90636544674634922 1.0839526280760763 1.0143878571689127 0.80953295156359661
leaf_count=9 11 19 9 13 12 17 11 13 11 10 16 17 11 10 7 10 14
internal_value=0 -0.0134277 0.00900112 0.00254541 0.0099684 -0.00207869 -0.0215728 0.0256669 0.0163128 -0.0387927 -0.0297152 -0.0139223 -0.046172 -0.015933 0.0493704 0.0533558 0.0566861
internal_weight=0 10.3021 15.5404 13.6874 11.8253 9.25538 5.43602 3.81936 3.6455 4.09638 6.65655 3.39678 3.25977 1.91318 2.62478 2.56988 1.85303
internal_count=220 95 125 102 89 67 38 29 40 27 55 28 27 21 20 22 23
shrinkage=0.05


Tree=47
num_leaves=19
num_cat=0
split_feature=20 20 8 3 13 12 15 5 15 11 16 17 17 2 2 11 2 9
split_gain=1.21987 2.1238 1.8785 1.49325 2.3053 1.4344 1.38321 1.3537 1.05831 0.936746 0.934525 0.798385 0.446769 0.299622 0.192323 0.166188 0.0170444 0.00317632
threshold=0.11535509547780882 0.015085548794804672 0.29587386862911719 0.42313687543083039 -0.078662280063155635 -1.4225275071301675 16.545000000000005 0.4554507640723035 14.891250000000001 27.584416477467844 -1.0000000180025095e-35 0.56074414343259715 0.53437068721215786 0.71591032473184668 0.8071301352267839 -100.30772982563235 0.95926331096013884 0.9941325827070201
decision_type=2 2 2 2 2 2 2 2 2 2 2 2 2 2 2 2 2 2
left_child=1 3 16 8 13 12 9 -7 -1 10 -6 14 -4 17 -9 -10 -3 -5
right_child=-2 2 5 4 6 7 -8 11 15 -11 -12 -13 -14 -15 -16 -17 -18 -19
leaf_value=0.0019103215375912961 0.0365836747404642 -0.064725602471897015 0.0082765518918229194 0.057986366347902434 -0.018551031740797624 0.0082553213979863951 -0.062499759808681388 -0.033748374987942614 0.036482766825896046 -0.035306118089749566 0.03853117956124856 0.0033780904583837618 0.055258698264448639 0.016134360188893557 -0.060070028418810664 0.061835591418710582 -0.056006618513877331 0.053172193198417442
leaf_weight=1.6135401204228452 2.0966095663607112 1.0612757317721835 1.2697135210037225 0.82296423986554434 1.3309498652815843 2.4992364197969428 1.3549643494188783 1.0666229352355008 1.008978836238384 1.6203794144093988 1.554426610469813 0.87178391218185414 0.84127360954880703 0.70893599838018406 1.9863549545407295 1.7986386977136137 1.18792974203825 0.5870242528617382
leaf_count=10 18 9 10 9 10 15 11 12 9 13 10 10 11 8 16 15 13 11
internal_value=0 -0.00324232 -0.0194699 0.0108698 -0.00204502 -0.00875733 -0.0182044 -0.0205075 0.0341794 -0.00488396 0.0122006 -0.0388233 0.0269999 0.0426501 -0.050874 0.0527245 -0.0601206 0.0559821
internal_weight=0 23.185 10.7842 12.4008 7.97964 8.53499 5.86072 6.424 4.42116 4.50576 2.88538 3.92476 2.11099 2.11892 3.05298 2.80762 2.24921 1.40999
internal_count=220 202 96 106 72 74 44 53 34 33 20 38 21 28 28 24 22 20
shrinkage=0.05


Tree=48
num_leaves=18
num_cat=0
split_feature=20 20 8 20 3 8 7 16 13 16 0 18 11 15 3 13 16
split_gain=1.11702 1.96196 1.79655 1.44474 1.32144 1.16172 2.52535 1.00611 1.73447 1.25176 1.2148 0.952653 0.949615 0.658572 0.610437 0.175816 0.0142922
threshold=0.11535509547780882 0.015085548794804672 0.29587386862911719 -0.13715581564673091 0.26953083923596133 0.44278857330690169 0.65631510192306231 0.20127399243864078 0.3637096033968123 -1.4699131623608315 0.20753152977988196 0.032602049694058617 27.584416477467844 15.442500000000001 0.44998532715775458 0.29231969573673222 1.0000000180025095e-35
decision_type=2 2 2 2 2 2 2 2 2 2 2 2 2 2 2 2 2
left_child=1 3 16 -1 -4 13 -7 8 9 14 -11 -8 15 -6 -5 -9 -3
right_child=-2 2 4 7 5 6 11 12 -10 10 -12 -13 -14 -15 -16 -17 -18
leaf_value=-0.034738120262324805 0.035222659286364796 -0.063900259524805006 0.035910776494581929 0.06285586256686386 -0.018744769564674971 0.05053019517421823 -0.060431482125966197 0.038374727924364055 -0.054555111723740723 0.019366658855134632 -0.053998540859782909 0.0012173969278975877 0.0057745623504618857 -0.06604843448194278 0.016615474071081694 0.064270688671353646 -0.055750106207556861
leaf_weight=1.5384162738919283 2.0694497302174559 1.0255296602845185 1.3982144482433776 1.3344738706946389 1.5506387650966647 1.5373040065169332 1.3056111186742785 1.10663078725338 1.0453604161739347 1.3512378260493285 0.9687785580754279 1.205015569925308 1.6678710021078584 1.4001917354762552 1.5344072841107843 1.6076108776032922 1.1312922686338422
leaf_count=12 18 9 10 10 12 16 12 11 7 12 8 14 16 10 17 13 13
internal_value=0 -0.00314905 -0.0189211 0.0105456 -0.00846598 -0.0173316 6.10778e-05 0.0171076 0.00420274 0.0160402 -0.0112687 -0.0308421 0.0354669 -0.0411907 0.0381244 0.0537126 -0.0596254
internal_weight=0 22.7086 10.5538 12.1548 8.39698 6.99876 4.04793 10.6164 6.23426 5.1889 2.32002 2.51063 4.38211 2.95083 2.86888 2.71424 2.15682
internal_count=220 202 96 106 74 64 42 94 54 47 20 26 40 22 27 24 22
shrinkage=0.05


Tree=49
num_leaves=16
num_cat=0
split_feature=11 11 17 8 21 16 15 8 11 1 15 8 1 8 3
split_gain=1.07788 1.55534 1.66549 1.70995 1.60176 1.98967 1.42778 1.46538 1.35121 1.17486 1.11177 1.17264 0.646191 0.239824 0.00667656
threshold=72.339734106391504 27.584416477467844 0.48275605140196592 0.53367927501455237 1.0000000180025095e-35 -4.728473321981622 16.460000000000004 0.30826885825011141 -34.662439304546758 1.0000000180025095e-35 15.762500000000001 0.35126321800868604 0.0034889594897263864 0.67687714954920286 0.68655974372519724
decision_type=2 2 2 2 2 2 2 2 2 2 2 2 2 2 2
left_child=1 4 14 -4 6 -6 7 -1 -9 -10 12 -12 -7 -2 -3
right_child=13 2 3 -5 5 10 -8 8 9 -11 11 -13 -14 -15 -16
leaf_value=-0.031714285516872776 0.016327865285117253 -0.0603369183161441 -0.032837771854290876 0.042430708955535142 -0.043138695283548772 0.064336315426821361 -0.050752753364829144 0.055755618355469994 0.030908126223769584 -0.033578343597658183 -0.028243833351414338 0.030848784742127877 0.023730224257397847 0.054954457609151901 -0.055021972099035012
