tree
version=v3
num_class=1
num_tree_per_iteration=1
label_index=0
max_feature_idx=25
objective=binary sigmoid:1
feature_names=Column_0 Column_1 Column_2 Column_3 Column_4 Column_5 Column_6 Column_7 Column_8 Column_9 Column_10 Column_11 Column_12 Column_13 Column_14 Column_15 Column_16 Column_17 Column_18 Column_19 Column_20 Column_21 Column_22 Column_23 Column_24 Column_25
feature_infos=[-18.170349415092886:31.663072434352411] [-0.17356066977597667:0.30134466573639473] [-6.4117504240471813e-16:1] [0.031338175432642112:0.94264604774030736] [-20.81243731193581:30.134466573639472] [-0.0013499623816857374:1.0002489904003786] [-0.0013884532370004405:1.0005016797351816] [0.020904448381991445:0.9627239317066203] [0.016895569832796282:0.86803013913532223] [-0.99998855256942176:0.99999091416073982] [-1:1] [-170.26807106117687:157.50234118055494] [-18.293151232518731:26.847954855581321] [-0.89377827859599102:0.79015154938426602] [-1:1] [10.56:37.704999999999998] [-21.617558628983758:26.417112299465252] [0.29418309000114917:0.80111153114588729] [-0.17093440543894578:0.14627293211469306] [-0.18013280078801697:0.15138953373854797] [-1.0005291984453109:0.89202834439346934] [0:1] [0:1] [0:1] [0:1] [0:1]
tree_sizes=3324 3310 3326 3320 3336 3345 3312 3336 3343 3327 3308 3340 3305 3349 3347 3342 3316 3333 3320 3336 3334 3366 3340 3339 3343 3382 3333 3362 3346 3368 3376 3381 3395 3367 3372 3384 3446 3400 3372 3389 3402 3396 3390 3366 3386 3421 3415 3392 3421 3417 3427 3415 3413 3412 3399 3420 3388 3398 3422 3407 3378 3426 3409 3446 3421 3434 3440 3435 3451 3463 3469 3463 3470 3451 3463 3463 3482 3467 3468 3451 3467 3469 3492 3471 3475 3499 3464 3494 3494 3496 3487 3496 3500 3503 3484 3514 3499 3519 3470 3500 3526 3509 3528 3514 3531 3537 3519 3521 3526 3546 3553 3548 3563 3551 3509 3551 3555 3545 3570 3551 3558 3575 3585 3563 3572 3554 3582 3567 3579 3598 3571 3580 3595 3579 3593 3580 3569 3583 3588 3587 3610 3570 3607 3624 3607 3592 3645

Tree=0
num_leaves=31
num_cat=0
split_feature=17 17 19 15 15 18 17 17 19 3 18 3 5 3 19 10 3 10 5 0 3 10 10 5 16 5 1 10 10 17
split_gain=19.6827 27.883 12.3772 11.7887 11.6357 11.8038 9.07384 8.48547 9.88937 8.68607 8.26274 10.3395 9.8621 9.36408 8.07002 7.89642 7.19809 9.58581 7.08245 6.99003 6.72418 8.24348 6.99487 12.3377 6.66014 6.09878 5.53453 5.5234 6.00349 5.7121
threshold=0.56907787511356833 0.42401094152345126 -0.047674972195126473 28.120000000000001 15.442500000000001 -0.060709166459639856 0.75877776756431581 0.68296849591484643 0.060420347010191118 0.38852787758759549 -0.0029239620189344668 0.35597090697328437 0.16969307397316863 0.8022573450316105 0.055976183298445732 -0.22309350705534028 0.45359093258391076 -0.17468778013807093 0.97753438312890917 -0.016713195767062036 0.34772672655227438 0.34494011043384942 0.13598345179572532 0.87661230456837369 5.1322674062395395 0.083276691024371491 0.0054345102475933226 0.34866058419601703 0.48567480681939479 0.55169780391450152
decision_type=2 2 2 2 2 2 2 2 2 2 2 2 2 2 2 2 2 2 2 2 2 2 2 2 2 2 2 2 2 2
left_child=1 20 24 4 6 -6 -2 8 10 19 12 -12 -7 15 18 -14 -13 -18 27 -9 -1 22 23 -22 25 -3 -16 29 -29 -4
right_child=3 2 14 -5 5 7 -8 9 -10 -11 11 16 13 -15 26 -17 17 -19 -20 -21 21 -23 -24 -25 -26 -27 -28 28 -30 -31
leaf_value=-0.061500140171449558 0.26726217070549685 -0.075794153687838511 -0.12958700928797703 0.4024055712240836 0.35453088480555583 0.43879033290216463 -0.061500140171449641 0.29325128618984042 0.34984980435574431 -0.27273389546919791 -0.31720415974240745 0.30537954008253421 -0.22826363119598767 0.37208493649234942 -0.29052200117848204 0.12556499323868439 0.29325128618984075 -0.12739205613724269 0.23867414367271891 -0.1329702077533946 0.3089852371857672 -0.12153499694028336 0.43879033290216463 -0.1115291874788111 -0.20158147263206164 0.2291448013284596 0.038557954443273201 0.30537954008253421 -0.094852838376357218 0.038557954443273201
leaf_weight=3.9976775646209743 20.987807214260105 3.4979678690433529 42.225469276309013 5.4968066513538352 4.747242107987403 3.4979678690433493 3.9976775646209708 2.748403325676918 4.4973872601985923 6.7460808902978897 4.4973872601985994 2.9982581734657279 4.4973872601985931 2.9982581734657279 11.243468150496481 5.746661499142645 2.7484033256769136 10.244048759341242 2.9982581734657279 3.4979678690433484 9.2446293681860023 2.4985484778881064 6.2463711947202674 3.9976775646209708 2.4985484778881064 10.493903607130049 2.4985484778881064 2.9982581734657279 2.9982581734657288 9.9941939115524274
leaf_count=16 84 14 169 22 19 14 16 11 18 27 18 12 18 12 45 23 11 41 12 14 37 10 25 16 10 42 10 12 12 40
internal_value=0.0482021 -0.00572307 -0.0576728 0.118604 0.100132 0.0520111 0.21466 0.0257651 0.0697138 -0.115378 0.0358718 -0.0492979 0.140109 0.0612126 -0.0921846 -0.0297744 0.0260507 -0.0384098 -0.0610917 0.0545672 0.1771 0.220482 0.26433 0.182037 0.0991992 0.15291 -0.230689 -0.0765303 0.105263 -0.0974062
internal_weight=0 117.432 91.4469 89.9477 84.4509 59.4655 24.9855 54.7182 41.7258 12.9925 37.2284 20.4881 16.7403 13.2423 74.9565 10.244 15.9907 12.9925 61.2144 6.24637 25.9849 21.9872 19.4887 13.2423 16.4904 13.9919 13.742 58.2162 5.99652 52.2197
internal_count=830 470 366 360 338 238 100 219 167 52 149 82 67 53 300 41 64 52 245 25 104 88 78 53 66 56 55 233 24 209
shrinkage=1


Tree=1
num_leaves=31
num_cat=0
split_feature=8 8 3 5 5 8 20 8 13 19 19 3 5 2 13 20 13 3 20 8 8 9 9 13 2 10 2 3 16 16
split_gain=17.7356 9.32895 20.6306 13.1396 10.5717 12.2655 12.2615 13.9475 13.852 10.6923 10.2027 9.11255 8.75924 8.40881 8.1951 14.796 7.48354 6.89184 11.1385 7.2041 7.06222 6.75708 6.06318 7.70293 8.87677 6.13286 5.90489 5.24001 5.23736 5.15774
threshold=0.23986036535500349 0.78720534300867284 0.88683301911865542 0.90672345508212315 0.32082816371949957 0.7027909016314049 0.093922017715330056 0.46146041714003749 0.10159718035250891 -0.052468807283376821 0.066608158505670326 0.53065380292024766 0.05084188092458488 0.0077596741913205968 0.43712273432506055 -0.029538185108219647 -0.31941537214421328 0.42525257331807997 0.0106745182666895 0.50077430762956354 0.55589476243772296 0.9964027361049147 -0.99769622627220145 0.07165250118119168 0.30059314617012095 -0.018713077936533037 0.16213238775500308 0.28876077208006629 3.8138576922943717 3.7709880816577743
decision_type=2 2 2 2 2 2 2 2 2 2 2 2 2 2 2 2 2 2 2 2 2 2 2 2 2 2 2 2 2 2
left_child=12 3 -3 4 14 6 7 27 9 -9 28 16 21 -10 17 -16 -8 22 19 -19 -21 -1 25 24 -24 -2 -7 -6 -11 -5
right_child=1 2 -4 29 5 26 11 8 13 10 -12 -13 -14 -15 15 -17 -18 18 -20 20 -22 -23 23 -25 -26 -27 -28 -29 -30 -31
leaf_value=-0.14287032656322499 0.20475344467186365 -0.33910043513747351 0.24993750792460193 0.20062391046834499 0.01459556921242855 0.26071109295696304 -0.1514902581850946 0.12433692856844564 -0.049688147396177412 -0.25001908453670585 0.21737933037099144 -0.17390651092161877 -0.31776034892477295 0.29852314719580464 0.20885176211106496 -0.35453040452873708 0.23446046939715237 -0.16942992195284784 0.3130310937869254 0.36908805122351418 -0.068743928509037086 0.21933740527398327 0.29706080417908431 0.30580145789438923 -0.059599827990970577 -0.1814976294981917 -0.071889127824967813 -0.29986515858657897 0.025584386530517752 -0.081841600891679786
leaf_weight=8.6825483739376086 2.9599953442811966 7.7080688178539258 3.4397791177034378 21.636247217655185 2.4669965952634838 7.5991964042186719 2.4573387205600747 6.1613798737525896 4.9240771085023862 19.600909680128112 2.4611241370439521 4.1780312806367865 9.4044361114501935 6.3530496060848236 3.2042707502841949 4.4601182639598838 11.028446778655052 9.8755842000246101 3.9054622948169699 2.456743746995925 3.682468593120575 2.7010748833417884 4.6838291585445422 13.762108847498892 6.908127561211586 3.6993322372436515 2.969471275806427 15.053462922573088 3.2096958756446829 2.9367300420999518
leaf_count=35 12 31 14 88 10 31 10 25 20 79 10 17 38 26 13 18 45 40 16 10 15 11 19 56 28 15 12 61 13 12
internal_value=0 0.0199751 -0.157347 0.0314257 0.00894725 -0.0349177 -0.0623491 -0.105321 -0.0436789 -0.111901 -0.169497 0.0841769 -0.174927 0.146479 0.0740573 -0.118996 0.164134 0.102548 0.0101866 -0.0636669 0.106464 -0.0569267 0.16002 0.204627 0.0845119 -0.00981342 0.167261 -0.255587 -0.211239 0.166866
internal_weight=0 183.782 11.1478 172.634 148.061 88.4632 77.8945 60.2307 42.7102 31.4331 25.2717 17.6638 20.7881 11.2771 59.598 7.66439 13.4858 51.9337 19.9203 16.0148 6.13921 11.3836 32.0134 25.3541 11.592 6.65933 10.5687 17.5205 22.8106 24.573
internal_count=830 746 45 701 601 359 316 244 173 127 102 72 84 46 242 31 55 211 81 65 25 46 130 103 47 27 43 71 92 100
shrinkage=0.2


Tree=2
num_leaves=31
num_cat=0
split_feature=11 17 17 13 11 13 13 18 5 19 17 13 13 18 20 17 17 17 17 18 19 20 20 18 5 17 11 17 17 17
split_gain=16.166 8.51468 12.0395 11.9819 10.5238 8.72818 8.64134 11.1567 9.58895 9.72057 8.5206 8.45235 10.4893 9.62049 10.4706 8.39915 8.43228 7.74963 7.22109 6.21276 5.29861 6.51909 7.09501 6.6327 5.78319 6.87971 5.5683 4.86985 5.9603 4.54079
threshold=75.269551280590235 0.52683669225230767 0.43669084931029051 -0.41965295493063504 38.001916654779485 0.42201704657939249 0.0089670961282592044 -0.018609570973094677 0.79284961627030193 0.018234826547805009 0.62147115499213179 0.56966288199158621 0.20629297819167039 -0.052057843737099978 0.11142585767068659 0.61146928236244646 0.45783071065239428 0.55708606623593149 0.49444725031157272 0.020765426338552054 -0.06535508379376416 -0.063548078190571053 0.0085100356119269822 -0.001983879350700934 0.77583452946456055 0.57068674912805994 -43.787744573903574 0.67605378783954972 0.55406336254021282 0.5789751993817015
decision_type=2 2 2 2 2 2 2 2 2 2 2 2 2 2 2 2 2 2 2 2 2 2 2 2 2 2 2 2 2 2
left_child=1 2 4 10 5 -1 7 -4 -9 -10 -3 12 13 -5 20 16 -2 19 -11 -18 -15 -22 23 29 25 -25 -24 28 -28 -23
right_child=15 3 6 11 -6 -7 -8 8 9 18 -12 -13 -14 14 -16 -17 17 -19 -20 -21 21 22 26 24 -26 -27 27 -29 -30 -31
leaf_value=0.20076667804527501 0.29533919144826215 0.069287188698177238 0.20702959565798207 0.22639247354801567 -0.17428844411690836 -0.14034645347977209 -0.20435789860411335 -0.28157875489139605 -0.28652582662015935 -0.040886397492428402 -0.28150857493997111 -0.29326111886041034 0.16241367092464931 0.14614336426460303 0.21673171847388495 0.35187649787988617 0.081380164888367454 0.11743713737403144 0.4120522412531098 -0.3310214740007118 -0.25556299969786495 -0.26970460801279222 0.1180749379749033 0.22689758540672617 0.35936563834544177 -0.22090974199162258 -0.33830620438887093 -0.31754980792635989 0.018834487726954962 0.096147605976894784
leaf_weight=13.38701748847962 5.6333610564470353 4.117997705936431 5.6061740517616299 7.0487485826015464 6.4996786415576926 3.8672204464673987 27.81565934419632 7.7008369714021709 2.6649849712848646 2.927002489566803 8.4585943222045881 2.8998038470745078 24.993194133043289 4.5949286520481101 6.3790087401866904 5.9563911557197562 2.426515772938731 10.312950029969214 2.712881863117218 3.6729029566049576 7.0237361043691555 3.1782733649015436 3.0730759054422316 3.2139146775007283 3.6417031288146973 2.3948692083358765 2.6351611465215736 5.9749405235052118 6.4303628951311111 2.3680822551250458
leaf_count=56 24 17 23 30 27 16 115 32 11 12 35 12 104 19 27 25 10 43 11 15 29 13 13 13 15 10 11 25 27 10
internal_value=0 -0.0227442 -0.0744097 0.0156699 0.0426076 0.124312 -0.130646 -0.0357748 -0.12082 0.028247 -0.166646 0.0423783 0.0541118 0.00740784 -0.0229129 0.141148 0.084213 0.0117463 0.176985 -0.166957 -0.0572431 -0.0806453 -0.0433144 0.0594298 0.163114 0.0356904 -0.127246 -0.17737 -0.084979 -0.1135
internal_weight=0 171.608 73.1815 98.4264 23.7539 17.2542 49.4275 21.6119 16.0057 8.30487 12.5766 85.8498 82.95 57.9568 50.9081 28.0021 22.0457 16.4124 5.63988 6.09942 44.529 39.9341 32.9104 14.7968 9.25049 5.60878 18.1135 15.0405 9.06552 5.54636
internal_count=830 713 303 410 99 72 204 89 66 34 52 358 346 242 212 117 92 68 23 25 185 166 137 61 38 23 76 63 38 23
shrinkage=0.2


Tree=3
num_leaves=31
num_cat=0
split_feature=8 17 17 17 5 13 17 15 13 15 16 5 13 9 17 24 10 8 8 15 8 5 15 8 10 5 9 4 1 5
split_gain=8.88214 6.48215 6.39175 11.5657 9.33081 7.01133 7.55333 6.32416 7.27514 5.99468 5.16657 10.2775 5.13057 8.78797 6.23756 6.0074 5.04386 4.77961 9.62131 5.7311 4.71766 4.98891 4.59567 4.58445 7.63515 6.10763 7.74986 5.83445 5.21258 4.78909
threshold=0.23986036535500349 0.5789751993817015 0.42401094152345126 0.49444725031157272 0.064194420893280035 -0.30911514734945006 0.37010341271100261 13.965000000000002 -0.37994231252180716 25.23 0.36714608960896017 0.020621446483420829 0.31990479190784271 -0.86732838701673065 0.45545591765474797 1.0000000180025095e-35 -0.26562129659414341 0.78111772370603272 0.70617705243370532 16.536250000000006 0.65630891792127699 0.41733488495933452 15.283750000000003 0.54989434782013147 0.26646789086594691 0.32082816371949957 0.99518090841100937 0.10683748489722267 0.0011738172987749054 0.77583452946456055
decision_type=2 2 2 2 2 2 2 2 2 2 2 2 2 2 2 2 2 2 2 2 2 2 2 2 2 2 2 2 2 2
left_child=1 10 5 12 -5 6 -2 8 -6 17 -1 -12 13 14 -4 -16 -7 18 19 -9 21 -15 -3 25 27 26 -21 -25 -29 -27
right_child=2 22 3 4 7 16 -8 9 -10 -11 11 -13 -14 20 15 -17 -18 -19 -20 23 -22 -23 -24 24 -26 29 -28 28 -30 -31
leaf_value=-0.30181217254660025 -0.34270256824319101 0.26670903964586601 0.34039894203614351 0.28071402032215115 -0.076708860018583541 -0.079709364943294669 0.11382535620050015 0.046206270886589275 0.23308570134255238 0.11651611593726052 0.24087681966384356 -0.26903446103975287 -0.25329351134454708 -0.056891411028283372 0.23268593859393683 -0.16643145339976537 0.23721010263200562 -0.20833734796959524 0.18395643970200515 -0.082816346011933648 0.053852447623822644 -0.30941600068500152 -0.11961406781358515 0.22036232905651729 -0.28952001686228629 -0.25388897926701509 0.31958896743874099 0.12510554720921102 -0.26655346067430069 -0.015659699083840028
leaf_weight=8.0536709129810351 2.3845442980527904 2.4285625964403144 2.8336385190486926 5.6213886290788642 4.3278919160366049 2.3743494898080852 3.6975002139806747 23.371537432074547 10.127880141139029 14.722729578614233 2.6552213281393042 3.9084583818912506 7.2435584515333167 5.2906505018472689 2.4225148558616638 3.9981513619422913 13.045561417937273 5.1576669812202445 9.0910993069410306 12.302349224686621 3.5546813607215872 7.6605283170938492 2.4992819726467133 6.2463775724172574 2.6161689460277548 13.509094431996347 2.2671665698289862 2.8321531563997269 2.6135849952697754 4.4996723085641852
leaf_count=35 10 10 12 24 19 10 16 99 44 63 11 17 31 22 10 17 58 22 39 53 15 33 11 27 11 59 10 12 11 19
internal_value=0 -0.127594 0.0146088 0.000198505 0.0291853 0.116685 -0.0651623 0.016748 0.140337 -0.00125646 -0.194469 -0.0627588 -0.104587 -0.0627721 0.093236 -0.0158446 0.188411 -0.0217747 -0.00964823 -0.0346998 -0.150241 -0.206258 0.0707754 -0.0750291 0.0193378 -0.116475 -0.0201979 0.0884463 -0.0628642 -0.194365
internal_weight=0 19.5452 173.812 152.31 119.307 21.502 6.08204 113.685 14.4558 99.2296 14.6174 6.56368 33.0037 25.7602 9.2543 6.42067 15.4199 84.5069 79.3492 70.2581 16.5059 12.9512 4.92784 46.8866 14.3083 32.5783 14.5695 11.6921 5.44574 18.0088
internal_count=830 84 746 652 512 94 26 488 63 425 63 28 140 109 39 27 68 362 340 301 70 55 21 202 61 141 63 50 23 78
shrinkage=0.2


Tree=4
num_leaves=31
num_cat=0
split_feature=11 7 11 7 3 20 20 7 0 18 5 11 18 20 5 3 18 10 3 18 18 21 3 20 5 11 16 7 18 3
split_gain=7.99664 7.23373 5.47221 8.46371 8.23232 5.38493 4.95423 8.48681 5.94259 5.17368 5.86984 7.40304 4.49454 7.18875 5.05677 4.34077 5.62362 4.08578 5.43348 8.80344 4.83676 4.30388 4.0776 8.30686 3.96791 3.51901 3.15082 3.13932 2.79115 2.45851
threshold=75.269551280590235 0.80056055618999644 -1.0071995075639071 0.5179636845395349 0.49547148057107071 -0.098893660065529854 0.017041691195972451 0.31827484116232513 -1.8793109944563946 0.028965111826803173 0.32644860682968485 -22.60075050567692 -0.016474995012259682 0.079731976400814406 0.86115396098465835 0.74023509347568739 0.056573639956251191 -0.066511620856351442 0.21387307801387415 -0.033030632157884758 -0.019866091925835213 1.0000000180025095e-35 0.81895123025373506 -0.0046517751269899042 0.030555102050780904 63.97104003990524 3.8324369654807176 0.3248979408485374 -0.0025662478169791998 0.52422377120247887
decision_type=2 2 2 2 2 2 2 2 2 2 2 2 2 2 2 2 2 2 2 2 2 2 2 2 2 2 2 2 2 2
left_child=2 15 3 6 12 -6 9 -8 -9 10 11 17 -4 14 -14 16 -2 21 24 -20 -21 27 25 -24 -19 -7 -5 -1 -10 -12
right_child=1 -3 4 26 5 22 7 8 28 -11 29 -13 13 -15 -16 -17 -18 18 19 20 -22 -23 23 -25 -26 -27 -28 -29 -30 -31
leaf_value=0.096030500104781424 0.14142289605388988 0.24628361369176066 0.31248133062912015 0.21846028261570374 0.069580237059006483 -0.17781685325776309 -0.1615450300091231 -0.23496635929185905 0.22702831433324727 0.3165761794341071 -0.21640370148180446 0.35765059899227719 -0.31019017783627773 0.14020095577870303 0.075185349784968825 -0.193358226756768 -0.16588889400681739 -0.02666885103860267 -0.31726536692588353 0.17517776484738268 -0.10433012994178525 0.19072696421526561 0.21605365539580262 -0.20793016734731951 0.33540432517367363 0.081714650373291883 -0.04535675305169691 -0.15051250687354745 0.030459488892353545 0.013897500224931959
leaf_weight=4.9094437956809927 10.640872165560728 9.1479501426219922 2.4233859926462182 9.8490074127912504 6.1732011884450904 31.272965788841248 18.161242693662643 2.6639406532049206 4.2072728723287609 2.4091962873935691 5.4165147840976697 2.8636992871761384 3.3851548433303797 7.8870931416749954 2.2787989974021912 2.9891565293073645 3.0687853395938864 2.5296735614538219 4.8958792984485582 4.1542455404996819 6.1316094100475382 9.0279300063848495 3.6891375929117203 3.7045316398143759 2.3219424784183502 2.2394242137670508 2.2187735289335242 3.5668452978134155 9.2247140258550591 2.8191587626934052
leaf_count=22 49 42 11 44 27 141 82 12 19 10 24 12 16 35 10 13 13 11 21 18 27 40 16 16 10 10 10 15 42 12
internal_value=0 0.103332 -0.0165402 0.0131844 -0.0624426 -0.104538 -0.00899376 -0.0678294 0.0379111 0.030491 0.01632 0.0476898 0.0616192 0.0167565 -0.155141 0.0250202 0.0726339 0.0240432 -0.0376346 -0.0965155 0.00855737 0.0946327 -0.130814 0.00362036 0.146616 -0.160474 0.169955 -0.00771546 0.0920303 -0.137569
internal_weight=0 25.8468 160.425 97.3711 63.0537 47.0793 85.3033 34.2572 16.0959 51.0461 48.6369 40.4013 15.9744 13.551 5.66395 16.6988 13.7097 37.5376 20.0334 15.1817 10.2859 17.5042 40.9061 7.39367 4.85162 33.5124 12.0678 8.47629 13.432 8.23567
internal_count=830 117 713 431 282 210 377 155 73 222 212 176 72 61 26 75 62 164 87 66 45 77 183 32 21 151 54 37 61 36
shrinkage=0.2


Tree=5
num_leaves=31
num_cat=0
split_feature=12 7 20 12 0 12 20 12 12 20 12 19 0 19 0 0 19 18 13 13 19 12 12 13 0 0 5 13 7 0
split_gain=8.99409 4.70374 5.74981 5.33785 4.67123 5.55853 5.82004 6.49963 5.27872 6.50219 4.75831 7.23922 4.53558 5.43211 5.0001 4.52107 4.15347 4.14859 3.88908 5.04515 3.87626 4.64443 4.40621 3.92473 3.85314 3.54939 3.51525 3.0539 2.82476 2.57175
threshold=-14.764768329316956 0.78620887415637586 0.015152957883763698 2.7219664724104899 4.6534261110865991 0.90889461303874797 0.079731976400814406 -0.17874848273054159 -1.1203935406581926 0.15981869857220657 13.508931380284226 -0.0958228098223428 -0.53749321022667895 -0.029783234610293707 -0.35700120404710151 1.7042077667433422 -0.081405942105522086 -0.050928350222799533 -0.21552300609928857 -0.052244597960775623 0.023040286804950339 -1.6068462824877645 -3.5475974561849521 0.45516569912578292 -1.2410289958585461 -0.016713195767062036 0.26555254565392888 0.43712273432506055 0.28648926956477477 1.4066187265182026
decision_type=2 2 2 2 2 2 2 2 2 2 2 2 2 2 2 2 2 2 2 2 2 2 2 2 2 2 2 2 2 2
left_child=-1 4 24 -4 5 6 7 12 9 -8 11 -7 13 16 -14 17 -2 -13 -16 -20 21 22 23 26 -3 -9 -21 29 -24 -19
right_child=1 2 3 -5 -6 10 8 25 -10 -11 -12 15 14 -15 18 -17 -18 27 19 20 -22 -23 28 -25 -26 -27 -28 -29 -30 -31
leaf_value=0.31286582828009379 -0.2239044176288458 -0.033301662284696998 0.099986175124910759 -0.27323326890968075 0.20092599847031989 0.2040058579541667 0.31292706595170272 0.2430961728206166 -0.13890676951366746 -0.076903547462298688 0.10678137210249417 0.18364688978695642 0.30885139000027051 -0.16226159649244404 -0.13356006957156186 -0.21452236053269549 0.066417764475234134 -0.087001912133849002 0.28331589989335221 0.048709414679563544 0.1697036089036516 0.1424634536317905 -0.047695871903309643 0.21993790684352629 0.21964710058273465 0.0092661991513766691 -0.26118327106049549 -0.29742472747391796 -0.30134353662571095 0.12623495363986237
leaf_weight=3.606189712882041 2.4477183222770682 3.1518339216709146 3.2977941930294028 2.8641051054000854 3.8133518397808066 3.2702326923608771 6.6279781311750394 5.697593942284584 2.1180308610200873 2.3072346299886703 5.6715280264616004 2.3816061168909064 2.1637012511491696 17.593280121684067 7.3701969087123791 11.385308176279066 10.123025804758074 36.307855024933815 2.8222997039556459 3.621770963072775 4.4814652949571601 4.5552310496569026 2.9158712774515143 2.5281970202922821 10.218673318624496 4.7710183411836606 2.4577938914299011 2.6050901859998694 4.4159371703863144 2.4127065092325202
leaf_count=16 11 15 15 13 17 15 30 26 10 10 26 12 10 80 34 53 46 167 13 17 21 21 13 11 50 23 11 13 19 12
internal_value=0 -0.00619886 0.0863542 -0.0734895 -0.0177232 -0.023171 0.00915536 -0.0100998 0.144974 0.212266 -0.0681099 -0.0851053 -0.0328418 -0.0905191 0.0137605 -0.102267 0.00988754 -0.0730251 -0.00439452 0.029851 0.00120962 -0.0356339 -0.0865308 0.0105168 0.160019 0.136529 -0.0765713 -0.0878172 -0.200467 -0.073715
internal_weight=0 176.398 19.5324 6.1619 156.866 153.053 89.0183 77.9651 11.0532 8.93521 64.0343 58.3628 67.4965 30.164 37.3325 55.0926 12.5707 43.7073 35.1688 27.7986 24.9763 20.4948 15.9396 8.60776 13.3705 10.4686 6.07956 41.3257 7.33181 38.7206
internal_count=830 814 93 28 721 704 406 356 50 40 298 272 307 137 170 257 57 204 160 126 113 92 71 39 65 49 28 192 32 179
shrinkage=0.2


Tree=6
num_leaves=31
num_cat=0
split_feature=12 17 17 12 15 11 11 6 3 10 11 19 10 21 3 15 15 19 12 6 15 17 11 3 12 12 3 3 3 10
split_gain=6.57436 6.83847 7.72861 6.42664 5.95299 5.90476 5.4119 5.07319 4.92409 4.83415 4.23028 3.7093 5.31344 4.15393 4.00849 4.02729 4.35649 3.64783 5.1639 3.49888 3.33203 7.17091 3.51912 3.18276 3.96665 3.17712 3.14607 3.91369 6.02562 2.77235
threshold=-14.764768329316956 0.5789751993817015 0.43850049081137116 6.2120754810264129 11.815000000000003 78.080705740585884 11.36192808852458 0.82276285227976853 0.81322748270493983 -0.42123304446301746 -40.858946219004494 -0.029783234610293707 0.34866058419601703 1.0000000180025095e-35 0.25657168950704867 15.857500000000002 13.912500000000001 -0.055070091650648599 -0.29726991277560594 0.83677599175475703 17.917500000000004 0.74932168004616906 58.275490448626371 0.27800669895621383 1.2552215685310713 2.8968030861501055 0.32597488260313034 0.45359093258391076 0.57385961144101405 -0.05673946810972802
decision_type=2 2 2 2 2 2 2 2 2 2 2 2 2 2 2 2 2 2 2 2 2 2 2 2 2 2 2 2 2 2
left_child=-1 2 3 4 -2 6 19 10 11 -8 -6 14 -13 -14 -4 16 -16 18 -17 23 21 29 -22 24 -3 -10 -25 -28 -29 -11
right_child=1 5 8 -5 7 -7 9 -9 25 20 -12 12 13 -15 15 17 -18 -19 -20 -21 22 -23 -24 26 -26 -27 27 28 -30 -31
leaf_value=0.28314965070459447 -0.22354843961551796 0.30214611535002533 0.25046540940999784 -0.21806261821279482 0.23332576907276847 0.21309473701923856 0.2259892569821107 0.27429395990951194 0.31063523711433916 -0.015780885266791691 -0.010507713853874376 -0.13485032870110697 0.11983089475888201 -0.17216902750773866 -0.11202255970190378 0.16435266989273023 0.18223217846395898 -0.22528652317959683 -0.2267328016060407 0.29911458290587073 -0.23789188134678271 -0.24387344477952802 0.04742734998945683 -0.1222616188088558 0.0014742374442205696 -0.022187623107950194 0.11824656628335378 -0.20759437674140743 0.12632576270951382 0.29373826603792347
leaf_weight=3.227718010544776 2.1057367473840776 4.0468656420707694 2.146492242813113 2.9367205202579489 4.0199310928583207 7.5127152949571601 2.0945119410753277 6.5707819908857337 2.1679331660270682 2.0782918930053711 9.7462510466575569 45.069733992218971 6.4504537135362607 2.7923295944929123 3.3020881116390246 3.2362411469221115 5.1535772681236267 5.8361397236585573 2.3176781386137035 2.4674039036035529 7.5608579218387586 2.890316054224968 2.2418542504310608 4.96102046966553 3.0991586297750473 2.4368664026260376 14.169230327010157 4.646239221096037 4.0421787053346634 2.6127119362354305
leaf_count=16 10 19 10 14 19 38 10 35 10 10 46 213 30 13 15 16 23 27 10 12 37 14 10 23 16 12 68 22 19 13
internal_value=0 -0.00497226 -0.0361364 0.0601568 0.096563 0.0464439 0.0244444 0.129708 -0.0663413 -0.0610528 0.0606953 -0.0784618 -0.106522 0.031615 -0.00916466 -0.037246 0.0673205 -0.114873 0.00115076 0.0689347 -0.095637 0.00392872 -0.17264 0.0526912 0.171748 0.134505 0.0221081 0.0534421 -0.0522422 0.15661
internal_weight=0 170.712 106.289 25.3794 22.4427 64.4234 56.9106 20.337 80.9095 19.4785 13.7662 76.3047 54.3125 9.24278 21.9922 19.8457 8.45567 11.3901 5.55392 37.4321 17.384 7.58132 9.80271 34.9647 7.14602 4.6048 27.8187 22.8576 8.68842 4.691
internal_count=830 814 503 124 110 311 273 100 379 94 65 357 256 43 101 91 38 53 26 179 84 37 47 167 35 22 132 109 41 23
shrinkage=0.2


Tree=7
num_leaves=31
num_cat=0
split_feature=17 17 10 4 15 10 25 2 19 5 7 7 15 20 16 5 5 17 2 20 4 2 20 17 6 15 15 19 5 19
split_gain=4.1999 5.0012 5.42427 5.39645 4.80867 4.68683 4.63409 4.49311 4.2183 3.92007 5.99781 3.73595 3.52415 4.51091 3.2497 3.15942 4.86466 3.7217 3.15063 4.59791 4.75039 3.86841 3.3855 4.58214 3.43443 3.34036 4.02889 3.46571 3.04437 3.59569
threshold=0.56907787511356833 0.43850049081137116 -0.40795963109685934 0.066371733394728308 28.120000000000001 0.35135898283658373 1.0000000180025095e-35 -1.9718003362478983e-16 0.074433363372579928 0.11715073995967971 0.56040045430397567 0.20219071215546133 14.611250000000002 -0.14879462725192072 -2.7529757518852365 0.2299238421933669 0.94526633653539183 0.74932168004616906 0.029591700085200474 0.014337741373387532 -0.10994266425284978 0.999999999999999 -0.053549652631950342 0.64442910763071881 0.94245310547231487 19.950000000000006 15.578750000000001 0.045061308721292319 0.077771749376803451 -0.07400477401299986
decision_type=2 2 2 2 2 2 2 2 2 2 2 2 2 2 2 2 2 2 2 2 2 2 2 2 2 2 2 2 2 2
left_child=1 2 -1 6 7 11 9 -2 12 -3 -11 -4 15 -14 -8 -9 17 -17 -15 22 21 -21 -20 24 -24 26 -22 -27 -5 -30
right_child=4 3 5 28 -6 -7 14 8 -10 10 -12 -13 13 18 -16 16 -18 -19 19 20 25 -23 23 -25 -26 27 -28 -29 29 -31
leaf_value=-0.30389470619473391 0.28397112166879152 -0.29806029748706492 -0.14521817348650815 0.02709857990476754 0.24369585470394595 -0.19438759724902643 -0.077131031954877458 0.27677824372528192 0.19960104818868446 0.089493786375422213 -0.21151497424787516 0.13713322966174141 0.30996163696654511 -0.15152651192911309 0.11958254383281922 0.054656245566767347 0.26043878055368713 -0.29600341313284972 -0.094895598092699235 -0.33410395782419883 0.082392720112098083 -0.0014586138237290757 0.21860770919188394 -0.087199646599254388 -0.09007130650248571 -0.0060927271231569482 -0.205315153242175 0.30718546384931028 0.11833586592720045 -0.1460654800224935
leaf_weight=1.6005632132291818 2.5628320425748816 2.6795766949653617 2.091044068336493 5.9763143360614768 4.2465290725231162 2.28382883965969 4.4194980412721643 3.0267511755228025 4.5515137165784827 6.7517657876014692 4.3562655448913574 18.099408097565174 1.5780231654644001 7.6306444257497779 14.001577436923981 3.2538909018039703 2.5767789781093597 1.9280557483434675 4.3529500216245678 4.1427147239446596 3.1047538667917305 2.1109594404697418 9.2805063873529416 3.6799634397029868 1.7069719284772862 4.4627217501401892 5.2204992026090622 2.0666261166334152 2.2066924124956122 30.40688718855381
leaf_count=7 13 13 10 29 22 10 23 16 26 33 22 97 8 37 65 16 15 10 21 19 15 10 45 18 10 23 26 10 10 151
internal_value=0 -0.0269062 0.0518393 -0.0536833 0.0372879 0.0771738 0.00675638 0.0242516 0.0139598 -0.0809314 -0.0285536 0.107891 -9.39028e-05 -0.0227335 0.0723879 0.103469 0.03586 -0.0758143 -0.0337262 -0.0113259 -0.0755897 -0.221818 0.0599921 0.105959 0.170653 -0.0140287 -0.0980197 0.093064 -0.104129 -0.128176
internal_weight=0 94.8734 24.0748 70.7986 71.4837 22.4743 32.2087 67.2372 64.6743 13.7876 11.108 20.1905 60.1228 49.3373 18.4211 10.7855 7.75873 5.18195 47.7593 40.1287 21.1083 6.25367 19.0204 14.6674 10.9875 14.8546 8.32525 6.52935 38.5899 32.6136
internal_count=830 470 124 346 360 117 156 338 325 68 55 107 299 242 88 57 41 26 234 197 103 29 94 73 55 74 41 33 190 161
shrinkage=0.2


Tree=8
num_leaves=31
num_cat=0
split_feature=17 17 18 6 19 19 13 19 19 7 16 17 3 7 5 18 16 19 13 18 3 3 20 19 16 20 20 3 3 5
split_gain=3.24536 4.25282 4.4497 4.15626 2.89141 4.67556 3.4412 3.2615 5.48838 3.43995 3.34303 3.17163 2.85953 2.65939 3.74374 4.3872 2.57481 3.50792 4.19003 5.13939 2.50003 3.77597 2.46463 2.46317 3.01443 2.42589 2.21587 3.8871 3.08873 3.2085
threshold=0.55022779113739229 0.43850049081137116 -0.0051068171374308293 0.97466818082847084 0.049438181731921278 0.031767505352172244 -0.45753959425807361 0.012795686785371086 0.0079439353492886822 0.25357439405441268 2.8059764111505818 0.66055760294381027 0.28601728027012263 0.66346147242785791 0.78087178425524628 0.066425747534649734 1.0882854815141123 0.038843213875172707 0.19806595705242055 -0.001983879350700934 0.35597090697328437 0.4020558383177571 -0.017297915489021331 1.0000000180025095e-35 0.47721895979487033 0.015755900994969322 0.018376444978177368 0.31949309298080708 0.6732857006213735 0.21113005962911555
decision_type=2 2 2 2 2 2 2 2 2 2 2 2 2 2 2 2 2 2 2 2 2 2 2 2 2 2 2 2 2 2
left_child=1 16 26 13 5 7 -7 8 9 -2 -9 12 -6 14 -4 -16 17 18 22 -20 -11 -22 -1 24 -23 -26 27 -3 29 -29
right_child=4 2 3 -5 11 6 -8 10 -10 20 -12 -13 -14 -15 15 -17 -18 -19 19 -21 21 23 -24 -25 25 -27 -28 28 -30 -31
leaf_value=0.020890135885260539 0.20253754344057173 0.15033953360219046 -0.15419318167474874 0.14122822055947556 -0.027325403677444456 -0.28419605802695058 -0.030166334011653535 0.1947295646260277 -0.29768334695383597 -0.11734728990230409 -0.084973035664218599 -0.009239234468694851 0.26527195413391735 -0.25291860849291908 0.16568471808587604 -0.16937073222934232 0.14344373503497354 0.16759969341299316 -0.16582659235167241 0.24089745689347408 0.22484329007350101 -0.027027521776358039 -0.23306153245217431 -0.15079192411604425 0.14107993606344715 -0.082533862847829334 -0.14986822310187123 -0.20312538956706719 0.18797097334332369 0.0081190142835032061
leaf_weight=2.2321454733610189 4.0507603809237471 6.9464006125927034 15.389203719794759 2.4112133234739295 1.7326160967349986 3.2688101679086685 6.1390604674816114 8.1107874959707242 2.1882856935262671 5.4122677519917479 2.1656371951103202 4.8217987194657326 5.8367196768522263 5.8023646324872962 3.7858306467533103 2.6626127660274506 7.1145233139395705 3.7758401483297339 2.0314907133579254 3.200623631477356 3.5333697348833075 18.008811183273796 4.8503615856170672 3.5195517018437377 10.490255922079085 2.3810606375336638 3.2506339997053137 4.5799077302217466 2.1768324673175803 7.7304757386445999
leaf_count=11 23 34 85 12 10 16 32 42 11 27 11 28 32 32 18 13 40 22 10 16 18 92 25 19 52 13 15 23 10 38
internal_value=0 -0.0284975 -0.0589164 -0.110598 0.0285573 0.0126401 -0.11843 0.0332394 0.0119866 0.0262841 0.135785 0.117538 0.198297 -0.132567 -0.100589 0.0273377 0.043254 -0.00104573 -0.0527548 0.0829773 0.00981265 0.0279558 -0.153025 0.00773243 0.0258002 0.0997137 0.00400261 0.0273387 -0.0316383 -0.0704715
internal_weight=0 77.9405 54.7355 30.0512 81.6598 69.2687 9.40787 59.8608 49.5844 47.3961 10.2764 12.3911 7.56934 27.64 21.8376 6.44844 23.205 16.0905 12.3146 5.23211 43.3453 37.933 7.08251 34.3997 30.8801 12.8713 24.6843 21.4336 14.4872 12.3104
internal_count=830 404 280 160 426 356 48 308 255 244 53 70 42 148 116 31 124 84 62 26 221 194 36 176 157 65 120 105 71 61
shrinkage=0.2


Tree=9
num_leaves=31
num_cat=0
split_feature=15 15 1 3 15 9 22 0 10 18 10 3 3 0 18 5 9 10 15 16 15 9 15 5 15 10 5 9 22 1
split_gain=2.32454 2.31304 3.37857 3.12828 3.67948 7.15202 3.23725 3.08307 3.57522 3.26492 2.83883 2.45378 4.03049 3.8398 3.60534 4.45453 5.40993 5.43316 3.23705 3.02099 2.95775 2.86474 2.56903 3.44728 2.79038 2.6606 2.56358 2.43537 2.38573 2.27528
threshold=32.213750000000012 15.525 0.0080640865409506695 0.36744753351649895 13.321250000000001 -0.79257070052562895 1.0000000180025095e-35 -1.4063907514008915 0.34866058419601703 -0.0068393894866755059 0.096696189408635849 0.78805670524484139 0.50602283181227936 -2.0949461719740916 0.035004721332712048 0.32644860682968485 -0.98820753866145117 0.052897587190614506 25.425000000000004 -1.996933647134931 21.405000000000005 0.95068102689246892 17.217500000000005 0.84049267352837898 20.055000000000003 0.049784757190983506 0.92685288060564275 0.99686809189170422 1.0000000180025095e-35 0.0034796213784494185
decision_type=2 2 2 2 2 2 2 2 2 2 2 2 2 2 2 2 2 2 2 2 2 2 2 2 2 2 2 2 2 2
left_child=1 2 3 7 5 -5 -7 -1 9 -9 -4 12 14 20 15 16 -3 -18 -17 -19 -14 -13 -15 25 -25 -24 -23 29 -16 -6
right_child=-2 11 10 4 27 6 -8 8 -10 -11 -12 21 13 22 28 18 17 19 -20 -21 -22 26 23 24 -26 -27 -28 -29 -30 -31
leaf_value=0.20572208469607034 0.16357777970703857 -0.085818462447316626 -0.22991399288975953 0.25828823693731912 0.16238518580237324 -0.18485565087589104 0.047269670466754954 -0.0027988694555014489 0.16032909493933806 -0.20007594756117031 0.069944992910057374 0.27806986972960301 -0.073063258940853471 -0.20755887366555986 0.22162254356517019 -0.15065675415199237 0.2066915163137665 0.13426127522847628 0.13150358922319669 -0.0847939178656998 0.18530848854590881 0.12570384350002747 -0.073155832734363366 -0.11771111404043236 0.13928352669114358 -0.26326228131897772 -0.15522167758002076 0.26644925682944937 -0.010300570081015535 -0.011876405897934773
leaf_weight=2.1583192199468639 3.4223154336214057 11.214921139180658 3.4437409639358512 3.3143827766180047 8.3021893948316592 5.415996678173542 4.320161908864975 7.541209183633331 2.7275385335087767 6.0460043102502805 1.9942023977637289 2.2249023318290702 3.7603913620114318 8.5180460810661334 4.6188827306032172 11.867436073720453 8.6589388847351128 3.9467929005622837 1.884645104408263 6.9576194435358056 3.3521368056535721 3.0993224829435349 8.7866634950041789 2.8181420266628256 4.2214076966047287 4.4290867745876303 2.237302228808403 4.7795493751764289 2.8806568831205368 4.6901557222008696
leaf_count=12 20 61 17 17 49 29 26 38 15 33 12 12 20 48 23 65 44 20 10 36 16 17 48 14 22 24 13 26 16 27
internal_value=0 -0.00312011 0.0296588 0.0461626 0.0851671 0.00452863 -0.0818562 -0.0189167 -0.0486347 -0.0905827 -0.11995 -0.021911 -0.0313141 -0.0828773 0.00424994 -0.0173556 0.0249273 0.0884136 -0.111988 -0.00550808 0.0487074 0.0874158 -0.115404 -0.0766496 0.0364009 -0.136868 0.00792991 0.144383 0.132538 0.0994778
internal_weight=0 150.211 54.7335 49.2955 30.8224 13.0505 9.73616 18.4731 16.3148 13.5872 5.43794 95.4773 87.9158 35.8859 52.0299 44.5304 30.7783 19.5634 13.7521 10.9044 7.11253 7.56153 28.7733 20.2553 7.03955 13.2158 5.33662 17.7719 7.49954 12.9923
internal_count=830 810 301 272 174 72 55 98 86 71 29 509 467 192 275 236 161 100 75 56 36 42 156 108 36 72 30 102 39 76
shrinkage=0.2


Tree=10
num_leaves=31
num_cat=0
split_feature=8 12 8 6 12 8 11 13 12 8 11 8 7 8 8 8 13 0 17 8 13 7 11 11 11 11 6 11 13 5
split_gain=4.52209 4.4463 3.38965 3.17713 3.01462 5.76121 4.30158 3.77948 4.02058 3.07918 3.06163 4.49821 2.75709 3.10453 2.57441 4.24792 3.08626 3.30567 3.49224 4.05187 3.26838 3.06516 3.5321 2.29632 2.01282 3.37956 2.32147 4.42809 2.61642 1.95876
threshold=0.29155410498759965 -9.2497375311528067 0.75927966235989375 0.0027210131016036213 0.90889461303874797 0.70128739392948847 79.044678484604745 0.014056402165358453 7.9517916855794395 0.69631511433461435 35.46269653967456 0.37419572286965347 0.84763919810557942 0.78720534300867284 0.34918563679257947 0.36120929977561583 -0.078662280063153789 -3.366647170750015 0.44310649046362255 0.58704469518341984 -0.49072837790522711 0.72469347979286913 -103.58478699757022 72.359349981189681 -8.617814933857991 10.709854153035158 0.14425664805487948 -55.242677012234864 0.10607113970639925 0.87010010199701615
decision_type=2 2 2 2 2 2 2 2 2 2 2 2 2 2 2 2 2 2 2 2 2 2 2 2 2 2 2 2 2 2
left_child=1 -1 4 -3 6 7 9 8 -6 14 11 -9 13 23 -2 -16 20 -18 -19 21 -17 22 -20 -4 26 -26 27 -24 -28 -7
right_child=2 3 12 -5 5 29 -8 10 -10 -11 -12 -13 -14 -15 15 16 17 18 19 -21 -22 -23 24 -25 25 -27 28 -29 -30 -31
leaf_value=0.25228265477438899 0.16099105728019747 0.10432244183092959 -0.19618243311576608 -0.14268180553864682 -0.10633872237052644 0.27426092690696197 0.22062422148642313 -0.044577414828749266 0.1442091315956423 -0.15045917037771092 -0.12412027235008467 0.22475143086415916 0.053207488007198517 -0.26218846780162036 -0.20840735355147469 -0.044953040516845823 -0.2218405949544153 0.20224145362974469 -0.18193552268091462 -0.18711077640489457 0.21208571974925833 -0.21366578245940673 0.14933345261952818 0.1175919457964423 -0.1596578690024385 0.12876045286501722 -0.015099053333719172 -0.25516578572590437 0.20601592473218494 0.055792386861352496
leaf_weight=1.4416984468698526 7.0999667644500724 2.3789826631546047 1.6354927420616134 16.741172432899475 25.61022096127272 3.1710186824202529 5.5986643582582465 4.5442726165056211 2.8467013016343108 3.299280270934104 3.1330618634819976 5.4617393761873245 3.9109377339482299 4.5310961455106735 2.769981548190116 2.6901683509349823 2.1327685043215672 4.3580239936709537 2.2972722053527823 3.6435068994760504 7.4827234223484904 1.8202147558331478 2.7705459743738174 2.1718616932630539 3.2838765606284275 3.2171199917793274 2.7343274652957907 1.7767686247825647 9.8578158617019636 3.4035319536924362
leaf_count=9 39 12 9 95 142 18 36 27 18 18 17 29 22 28 16 13 11 27 11 17 43 10 16 13 19 19 15 10 50 21
internal_value=0 -0.0864107 0.0146759 -0.111949 0.025329 -0.0128123 0.0528197 -0.0403104 -0.0812751 0.0374773 0.0484117 0.102435 -0.0853407 -0.150323 0.0481799 0.032424 0.046303 0.020044 0.0344705 0.0111866 0.144113 0.0372151 0.054821 -0.0171934 0.0778279 -0.0169295 0.113769 -0.00871621 0.158002 0.161164
internal_weight=0 20.5619 127.253 19.1202 115.004 48.1705 66.833 41.596 28.4569 61.2344 13.1391 10.006 12.2494 8.33845 57.9351 50.8351 48.0651 37.8922 35.7595 31.4014 10.1729 27.7579 25.9377 3.80735 23.6405 6.501 17.1395 4.54731 12.5921 6.57455
internal_count=830 116 714 107 642 272 370 233 160 334 73 56 72 50 316 277 261 205 194 167 56 150 140 22 129 38 91 26 65 39
shrinkage=0.2


Tree=11
num_leaves=31
num_cat=0
split_feature=8 18 10 8 3 13 10 3 0 11 8 8 1 1 10 19 0 0 13 18 3 8 0 10 19 13 13 18 0 13
split_gain=3.29919 3.32266 2.3769 2.29498 2.98083 2.6004 2.39401 2.65447 2.23703 2.13384 2.01741 1.89929 2.43916 4.12193 2.81986 2.18184 2.02209 1.8356 3.97555 3.13338 2.20749 4.15468 2.02829 1.76059 1.71285 1.68681 1.60092 3.87569 2.49645 2.23881
threshold=0.23986036535500349 -0.010623909425705206 0.28847456596346138 0.75927966235989375 0.77151844967828997 -0.62657337187161144 0.12347053958040159 0.90252986636363042 -0.58174501848586746 -107.73892268004251 0.69555432277819895 0.58704469518341984 -0.0023300974387930984 -0.0039882495653025219 0.11210566952561433 -0.07078332670413269 1.5494066390985115 -1.1355985089648564 0.094370032542898927 -0.02855076842577239 0.27800669895621383 0.42266072591397852 -2.3863269470017365 -0.045171085631021742 0.042758830391613482 -0.28186685762921004 -0.15201002787908832 0.032882159103315566 0.96224156547388162 0.43712273432506055
decision_type=2 2 2 2 2 2 2 2 2 2 2 2 2 2 2 2 2 2 2 2 2 2 2 2 2 2 2 2 2 2
left_child=1 -1 -3 4 5 -2 7 25 17 -10 -6 12 13 14 -11 -13 -17 20 -19 -20 -7 22 -22 -23 -21 -5 27 28 -14 -28
right_child=3 2 -4 6 10 8 -8 -9 9 11 -12 15 26 -15 -16 16 -18 18 19 24 21 23 -24 -25 -26 -27 29 -29 -30 -31
leaf_value=0.018449150928401586 -0.19967804616222584 -0.22984960392627227 0.05537897077534696 -0.22716968792962386 0.046578992998376451 0.17924659726234643 0.12905668487734043 0.077488801946468067 -0.1338463434837294 -0.12335494993166439 0.24506851134345592 0.14973420554240055 0.053606522271837799 -0.28846637714624457 0.21731626389896874 -0.09326294557549733 0.089630888304742848 -0.20230967903010663 -0.17715119894804987 0.25222295334876232 -0.26812581863689938 -0.0040115453855421269 -0.054850638780572086 0.12572554426785731 -0.03005237524625547 -0.00074939125009332883 0.1302003272210677 0.20321528365664931 -0.18608325753560842 -0.031060153722165112
leaf_weight=6.1618647798895836 2.3065630272030822 6.4082422405481321 1.4293108582496641 5.5810571014881125 4.606848441064356 2.6450319439172771 1.9183451011776913 2.1849647983908653 2.751284733414642 1.7529691830277445 3.6878927573561668 2.6998350024223337 3.4611126333474989 1.9769778251647867 2.1812053769826889 9.7481044158339447 3.2156809270381936 5.9698592424392611 1.8618950098752973 2.2060839459300046 2.9496828243136406 13.476105943322187 4.5120451971888569 6.0678963288664773 1.4091040790081022 1.7222654595971096 25.460478462278878 3.0643348917365074 3.4915651455521584 3.9822995960712424
leaf_count=32 14 44 8 35 27 16 13 12 15 10 27 14 20 11 11 54 19 32 11 12 16 77 26 36 10 12 154 19 21 22
internal_value=0 -0.0914393 -0.177833 0.0108674 0.0193206 0.0103822 -0.0747155 -0.115914 0.0150017 0.0384472 0.134829 0.0462137 0.0669435 -0.0528692 0.0655217 -0.0138317 -0.0478959 -0.0213869 -0.0894142 0.0336386 0.00487569 -0.0122028 -0.13916 0.0362684 0.1422 -0.173775 0.0848917 0.0158267 -0.0667633 0.108389
internal_weight=0 13.9994 7.83755 126.891 115.485 107.19 11.4066 9.48829 104.884 63.7858 8.29474 61.0346 45.3709 5.91115 3.93417 15.6636 12.9638 41.0977 11.4469 5.47708 29.6508 27.0057 7.46173 19.544 3.61519 7.30332 39.4598 10.017 6.95268 29.4428
internal_count=830 84 52 746 674 620 72 59 606 370 54 355 268 32 21 87 73 236 65 33 171 155 42 113 22 47 236 60 41 176
shrinkage=0.2


Tree=12
num_leaves=31
num_cat=0
split_feature=8 7 6 24 16 15 11 11 15 7 11 11 15 7 11 19 0 16 8 11 15 11 11 20 16 6 9 20 15 15
split_gain=2.29751 2.92649 2.58426 3.63905 2.73073 1.84474 3.33359 3.16488 2.91254 3.56534 2.84728 3.42898 3.16175 3.94742 3.26164 2.72285 2.50687 2.47229 2.39278 2.36284 2.22189 2.1469 3.74716 2.07042 1.95518 1.82729 3.81857 1.79805 1.75495 2.92006
threshold=0.23986036535500349 0.19794919709164463 0.094240189576683245 1.0000000180025095e-35 0.36714608960896017 25.23 72.359349981189681 49.148830323068061 15.391250000000001 0.33073232241076306 -17.774812998300327 -107.73892268004251 17.798750000000002 0.38815168453307775 -69.145784028331249 -0.06617431961249963 1.4341700470698087 1.3852355604023865 0.44133321726137925 23.25062013483025 12.928750000000003 79.82758668550143 98.368505892075845 0.10368576384023455 2.2206593662363807 0.87653144006725525 0.98145174396991919 -0.06953076711932682 18.197500000000002 16.282500000000002
decision_type=2 2 2 2 2 2 2 2 2 2 2 2 2 2 2 2 2 2 2 2 2 2 2 2 2 2 2 2 2 2
left_child=2 -2 3 -1 -5 6 7 8 9 -3 11 -10 13 -13 -14 -12 28 19 -15 -11 -21 24 -23 25 -7 27 -27 -17 29 -8
right_child=1 5 -4 4 -6 21 16 -9 10 17 15 12 14 18 -16 23 -18 -19 -20 20 -22 22 -24 -25 -26 26 -28 -29 -30 -31
leaf_value=-0.14891977587731228 0.18308996449543385 -0.077183565474172156 -0.2150161849925295 -0.023119480145410286 0.28603105530737211 0.21239116746714234 0.063351231207620901 -0.13037238277100099 -0.20153685900763479 0.10242006766609231 0.092745968702084541 0.22904546464377554 0.1139728218595171 -0.13035150494086439 -0.095051562181424021 -0.020080174878392577 0.23740557190648737 0.19994587293978586 0.15074305400565877 -0.19849084717309362 0.05992357315625866 -0.2103625531750257 0.15982881662167575 0.040992843109245169 0.0163079787492614 0.16949818636533415 -0.24542815610589253 -0.19059182717249318 0.1518540357848851 -0.20205732173722152
leaf_weight=4.5673625618219358 3.7448349446058264 7.1154986098408726 3.9165973290801039 2.8457850813865662 1.9098958671092985 5.0799815580248815 5.7260411940515024 9.2657150179147703 2.7338285669684437 9.9911283999681491 3.1632520556449846 5.7440382018685288 4.3728656470775631 2.9281947165727615 9.4158797711133904 3.048430003225806 3.2533930055797091 5.6347232908010474 2.0659379512071609 2.5270274206995955 2.811818815767765 2.3540110290050498 2.0429142788052559 3.3241090029478064 3.3924354165792465 2.147277824580669 1.5118437632918356 13.121924072504063 3.7670885249972335 2.3340318650007248
leaf_count=26 23 41 32 16 10 30 39 62 14 63 18 32 26 16 55 18 24 32 11 16 19 12 12 18 18 14 11 85 23 14
internal_value=0 0.00900885 -0.0786884 -0.0214173 0.101036 0.00352482 -0.00515622 -0.0196005 -0.0070312 0.0451434 -0.0343761 0.0109243 0.0346057 0.115977 -0.028763 -0.0813012 0.081931 0.0866616 -0.0140703 0.0450225 -0.0623913 0.0750301 -0.038363 -0.10508 0.133878 -0.129566 -0.00193744 -0.158447 0.0391633 -0.0135056
internal_weight=0 122.618 13.2396 9.32304 4.75568 118.873 106.004 90.9235 81.6578 28.0802 53.5776 27.2607 24.5269 10.7382 13.7887 26.3168 15.0806 20.9647 4.99413 15.33 5.33885 12.8693 4.39693 23.1536 8.47242 19.8295 3.65912 16.1704 11.8272 8.06007
internal_count=830 746 84 52 26 723 651 551 489 171 318 154 140 59 81 164 100 130 27 98 35 72 24 146 48 128 25 103 76 53
shrinkage=0.2


Tree=13
num_leaves=31
num_cat=0
split_feature=12 2 19 7 15 7 2 12 12 7 18 10 7 1 15 7 7 1 0 19 12 15 18 2 19 1 12 19 15 7
split_gain=3.21738 1.68861 2.95904 2.76872 2.59878 1.82439 2.79833 2.25406 2.33381 3.3205 2.62195 2.80419 2.90046 4.59666 2.6517 2.91394 2.60215 2.31233 2.25313 2.16536 2.1345 2.96259 2.03275 2.46526 2.36991 3.07689 2.33803 2.19668 2.24231 2.05572
threshold=-14.764768329316956 -8.3018326775531502e-17 -0.078016097817845118 0.61867709929013015 17.083750000000006 0.77319680164085536 0.22774745279808314 13.508931380284226 2.5983171536995258 0.31827484116232513 0.056573639956251191 0.086772474144054992 0.36200503279379342 -0.0046180400504491096 23.260000000000002 0.46089719249392319 0.59205348590605922 -0.0027682282890899839 -0.97312718615189064 -0.0026998597281202015 7.0649201080387671 21.165000000000003 -0.00027438437743346195 0.043424031957788746 -0.033725000964658795 0.00018275242741486308 -1.2000023866084844 0.050229535002377403 15.857500000000002 0.33828060537476251
decision_type=2 2 2 2 2 2 2 2 2 2 2 2 2 2 2 2 2 2 2 2 2 2 2 2 2 2 2 2 2 2
left_child=-1 2 -2 4 -4 7 -7 8 10 -10 11 14 13 -13 22 -16 -12 -15 -8 -20 -11 -22 24 -24 29 -26 -27 28 -25 -3
right_child=1 5 3 -5 -6 6 18 -9 9 20 16 12 -14 17 15 -17 -18 -19 19 -21 21 -23 23 27 25 26 -28 -29 -30 -31
leaf_value=0.24229818583251933 -0.1364850076139289 0.18225174215997514 0.28291084789571253 -0.10640175488380527 0.029459381094785454 0.20258190984493823 -0.15017726679620347 0.1469343067174097 -0.23307472745044655 -0.076482131069537593 -0.014100581722334469 0.2983739475218159 0.12825862784092623 -0.27802758582744969 -0.038611669379334301 0.21638738952570266 -0.29764056357803176 -0.01583116958710263 -0.11111772223962289 0.13116905194144163 0.15842888721722448 -0.17492917667084593 -0.27878103677169797 0.15499452515564405 -0.22644724736844246 -0.088061209497282147 0.14253768786056403 -0.21566974126856484 -0.12236854655381742 -0.0077023882247289586
leaf_weight=2.1628320068120948 2.1512455791234961 3.2014646977186114 4.0997711122035962 1.6449254006147382 2.6734788566827774 3.8435000441968432 2.8069110214710227 3.1440260112285605 4.4144290834665325 18.450615122914318 2.8655738607048979 1.7445612922310836 11.99515290558338 1.5364340618252743 3.7962836995720854 3.3960532248020172 2.3617262244224548 10.821644984185696 2.075187847018241 5.1055755652487278 3.8856278434395781 1.4697267860174177 3.0037860050797516 2.3588800504803658 3.9200750887393969 5.1527981311082751 2.6700332164764493 2.4599582552909851 2.3052994012832642 7.9082280397415161
leaf_count=16 11 23 23 11 18 26 18 22 34 116 15 9 84 9 26 22 12 63 16 42 23 10 19 13 22 32 16 17 16 46
internal_value=0 -0.00369835 0.072851 0.126346 0.182871 -0.0106317 0.0575651 -0.0198017 -0.0250587 -0.07376 -0.00583621 0.00492034 0.0559635 -0.00552795 -0.0282392 0.0817929 -0.142206 -0.0484291 0.00175908 0.06115 -0.0442177 0.0669419 -0.0522348 -0.12682 -0.0191799 -0.0818257 -0.00935483 -0.0627474 0.0179061 0.0470364
internal_weight=0 127.263 10.5694 8.41818 6.77325 116.694 13.8312 102.862 99.7184 28.2204 71.498 66.2707 26.0978 14.1026 40.1729 7.19234 5.2273 12.3581 9.98767 7.18076 23.806 5.35535 32.9805 10.1279 22.8526 11.7429 7.82283 7.12414 4.66418 11.1097
internal_count=830 814 63 52 41 751 102 649 627 183 444 417 165 81 252 48 27 72 76 58 149 33 204 65 139 70 48 46 29 69
shrinkage=0.2


Tree=14
num_leaves=31
num_cat=0
split_feature=12 17 13 12 12 3 10 10 13 3 17 17 17 3 12 10 12 17 19 3 3 20 12 10 3 13 0 10 13 19
split_gain=1.90839 1.70855 2.45165 3.11488 3.10132 4.51567 3.01943 2.4203 2.37051 2.36476 2.44617 2.25083 5.51319 2.2091 2.13146 2.09745 3.47664 3.18186 1.84853 1.77903 2.14808 2.63697 2.55087 1.70634 2.958 1.58986 1.58413 1.56847 1.53386 1.51889
threshold=-12.946478682638419 0.61146928236244646 0.34956433311521529 1.2552215685310713 12.503805653679711 0.4412170734138473 0.084496343280922245 -0.15711375999225372 0.44431968881582529 0.46679517167381018 0.47414547573938609 0.57018300117145493 0.59351324108484915 0.59812945610169399 5.0715423694589665 0.049784757190983506 -3.1692800058809758 0.6635641642534682 0.049438181731921278 0.43619987218258155 0.57385961144101405 -0.0028185032046028273 -0.84979217343967928 -0.30993061074050821 0.5767077174251265 -0.47975011549808105 -0.17492800133098702 0.69459594853713147 0.014056402165358453 -0.0092206058530698558
decision_type=2 2 2 2 2 2 2 2 2 2 2 2 2 2 2 2 2 2 2 2 2 2 2 2 2 2 2 2 2 2
left_child=-1 2 3 6 5 -4 7 23 -7 10 -9 14 -13 -11 25 17 -17 -3 -18 -19 -21 22 -22 24 -2 -5 -12 -8 -27 -10
right_child=1 15 4 11 -6 8 27 9 29 13 26 12 -14 -15 -16 16 18 19 -20 20 21 -23 -24 -25 -26 28 -28 -29 -30 -31
leaf_value=0.16740291816300845 0.16058387419183015 0.16867188272893685 -0.21390027169653292 0.092516491511786578 0.17791221755851919 -0.12757449281474004 0.12700074594233957 0.18407909791922394 -0.025986296923507925 -0.1971012395330245 0.056851702606939093 0.14476058747467294 -0.21828651824351286 0.015730260725700565 -0.19873290772369243 0.20122154045958116 -0.11382946925622579 0.15790114760498922 0.062390538202376944 -0.20386742475906777 -0.080222447997257362 -0.18999632765503613 0.26572245026308855 0.17661930324178415 -0.12643424947141965 -0.11507164243590978 -0.14010103858941822 -0.063509159232649035 0.048967315977205661 0.23621451825269657
leaf_weight=2.6773225367069236 2.6440845876932144 8.6572646573185938 8.2951619066298026 2.5935571566224125 1.5844843499362458 2.8073280006647101 13.55318426340818 2.6002920195460373 1.6085650101304056 5.7996467053890211 3.1515934690833092 5.6594128087162954 2.3754354417324066 2.9394839741289616 5.1561389639973632 2.341148618608714 8.6517963930964417 2.2388352006673795 3.2852310985326776 2.3435961976647377 1.4490235298871978 1.5464386120438591 2.0712859183549881 3.8401525914669019 3.1442699357867241 10.295023988932373 3.3913077041506767 1.9813396185636527 2.9287305995821944 1.9611792489886282
leaf_count=20 14 60 64 18 9 15 94 17 10 41 19 39 14 23 32 16 60 16 26 16 9 10 13 26 21 66 20 10 21 11
internal_value=0 -0.00331122 -0.0177536 -0.00192506 -0.0879097 -0.116616 0.0322116 -0.00759238 0.00992852 -0.0511215 0.0199829 -0.0525804 0.0374288 -0.125513 -0.0870625 0.0358305 -0.0216255 0.0806434 -0.0653313 0.00166408 -0.0455387 0.0276953 0.123325 0.0732511 0.00467386 -0.0506601 -0.0452326 0.102702 -0.0787411 0.118064
internal_weight=0 120.895 88.3104 72.0537 16.2567 14.6722 43.0454 27.5108 6.37707 17.8823 9.14319 29.0083 8.03485 8.73913 20.9735 32.5846 14.2782 18.3064 11.937 9.64918 7.41034 5.06675 3.52031 9.62851 5.78835 15.8173 6.5429 15.5345 13.2238 3.56974
internal_count=830 810 584 475 109 100 285 181 36 120 56 190 53 64 137 226 102 124 86 64 48 32 22 61 35 105 39 104 87 21
shrinkage=0.2


Tree=15
num_leaves=31
num_cat=0
split_feature=9 9 15 15 9 15 15 0 18 9 9 16 23 1 18 16 16 1 10 1 15 9 0 4 4 25 15 18 18 13
split_gain=1.48915 1.18365 2.43842 4.31427 2.46449 1.98583 1.87749 2.6917 2.9792 2.413 2.22876 1.68294 2.35328 1.69007 1.66721 2.34152 2.58458 1.57836 3.39409 1.47595 1.64728 1.62322 1.45467 1.65204 1.49716 1.52181 1.31272 1.21017 1.14133 1.04201
threshold=0.99982992898609513 0.94108948583004026 16.282500000000002 12.801250000000001 0.98259329232014536 11.600000000000001 23.260000000000002 0.62852389060128699 0.031675869446947273 -0.4934441734288802 0.85088706581632712 -0.40585207028861653 1.0000000180025095e-35 0.0031436221776660342 0.020765426338552054 2.7160536662184258 -1.613272618898127 0.0044858009241143717 0.099667422521749927 0.00032670307229324552 15.817500000000003 -0.94473555807669007 1.5418334838388019 -1.3120284229187551 -0.17364124712442655 1.0000000180025095e-35 23.690000000000005 9.8219088162820891e-05 0.0053062064113237892 0.48274121537568798
decision_type=2 2 2 2 2 2 2 2 2 2 2 2 2 2 2 2 2 2 2 2 2 2 2 2 2 2 2 2 2 2
left_child=1 5 3 -3 -4 -1 7 10 11 22 19 27 -13 -14 15 16 -6 -5 -19 20 21 -7 23 -8 -25 -26 -17 -9 -12 -21
right_child=-2 2 4 17 14 6 9 8 -10 -11 28 12 13 -15 -16 26 -18 18 -20 29 -22 -23 -24 24 25 -27 -28 -29 -30 -31
leaf_value=0.18214326240289425 0.15661181289597842 -0.16278515964569362 -0.18715545245346032 0.092516422092452366 -0.069132137373120239 0.18352923067196725 -0.18013591670615212 0.12208851207682139 0.22599236084217883 0.1867961221732195 0.22113571395040132 -0.18077546436906111 -0.079140069648557562 0.16835075183030745 -0.14503735101196888 -0.0012700476642987482 0.20158261117568227 -0.16317331048452116 0.19120017620134644 -0.086474178112901798 -0.057525557664206285 -0.0754888714367528 -0.11207121008979776 0.21185294790745193 -0.075924416135851713 0.15068347418804548 -0.24708583445477947 -0.04668295293767994 -0.003958081255274303 -0.26657901060558681
leaf_weight=2.6572772897779933 2.3886628560721865 4.4151689969003227 6.1034937277436283 13.49058183655143 2.401299636811018 2.7052304334938526 1.0337525457143764 6.1273834109306371 3.1599445194005957 4.7015198282897463 1.7385393828153604 3.3252494819462308 2.2552053406834602 2.1615306437015533 3.7937328517436972 1.8402337282896044 3.4194929301738721 3.1394628882408133 1.6488913744688032 15.733287610113623 10.332609847187994 1.5068443305790449 2.6926893740892401 2.605451073497532 2.6983414776623267 2.1142256893217564 1.6464866921305654 2.351692758500576 1.8704304248094556 1.3992013335227955
leaf_count=19 18 31 42 96 19 23 8 42 24 26 13 21 14 14 30 14 24 23 11 109 72 11 17 18 21 18 10 19 14 9
internal_value=0 -0.00293306 -0.0297389 0.0146456 -0.0821877 0.0124165 0.00602035 -0.01155 0.0483317 0.0666363 -0.0444401 0.0137225 -0.0536949 0.0419808 -0.0332862 0.0122635 0.0899024 0.0575029 -0.0411432 -0.0614061 -0.0145517 0.0908671 0.0159445 0.0567296 0.0897384 0.0236275 -0.117348 0.0752793 0.104476 -0.101183
internal_weight=0 115.069 41.8988 22.6941 19.2047 73.1704 70.5131 54.6671 19.381 15.846 35.2861 16.2211 7.74199 4.41674 13.1012 9.30751 5.82079 18.2789 4.78835 31.6772 14.5447 4.21207 11.1445 8.45177 7.41802 4.81257 3.48672 8.47908 3.60897 17.1325
internal_count=830 812 300 161 139 512 493 385 134 108 251 110 49 28 97 67 43 130 34 224 106 34 82 65 57 39 24 61 27 118
shrinkage=0.2


Tree=16
num_leaves=31
num_cat=0
split_feature=8 17 8 1 7 17 7 17 5 2 2 2 5 7 0 2 15 9 15 5 9 7 9 5 9 2 1 15 15 17
split_gain=1.41323 1.9377 1.99101 1.76618 2.09048 2.36362 1.73147 1.86195 2.35309 1.88446 2.31845 2.44584 2.20346 2.10289 1.72934 1.53152 1.68087 2.53022 3.61246 1.72479 2.05737 1.60963 1.79006 3.13186 1.56593 1.54287 1.44162 1.43979 1.27422 4.06007
threshold=0.23986036535500349 0.39360789514035738 0.63451986769324231 -0.0064618000603961718 0.08237405678867242 0.52411278794025684 0.19794919709164463 0.49444725031157272 0.97753438312890917 -1.4339771511559264e-16 0.054589327374318243 0.94913131010269958 0.10647781193243631 0.49887425195792379 4.6534261110865991 -1.9718003362478983e-16 13.68125 0.85088706581632712 12.801250000000001 0.97264627802976855 0.99922470440268307 0.78138217193081771 0.94108948583004026 0.3151436119688345 0.97441083490563163 0.82801101481490713 0.0069110563445369082 17.176250000000007 23.260000000000002 0.55169780391450152
decision_type=2 2 2 2 2 2 2 2 2 2 2 2 2 2 2 2 2 2 2 2 2 2 2 2 2 2 2 2 2 2
left_child=3 2 -2 -1 5 -5 26 8 9 -8 12 -12 -11 -13 15 -9 17 -17 -19 20 21 22 28 25 -23 -24 -3 -26 -18 -30
right_child=1 6 -4 4 -6 -7 7 14 -10 10 11 13 -14 -15 -16 16 19 18 -20 -21 -22 24 23 -25 27 -27 -28 -29 29 -31
leaf_value=0.12274575847990002 0.18325263288609203 0.25924758549284155 -0.045126301082829057 -0.1350799559227541 -0.17349865759959113 0.2142256960906051 -0.24633025344268433 0.19114102959611523 0.20464302674049439 -0.16656985630588605 -0.1725024131049703 -0.10651730664626602 0.11473193155783917 0.13451775587255921 0.18493502195954195 0.24335808855374397 -0.023489063506282718 -0.25668693028668055 0.13611211685605318 -0.16987969143052789 0.17955236705283731 0.22824549534743765 -0.072994186914637646 -0.15624177342820283 0.17883281282950925 0.18125735068544138 -0.02038331543729608 -0.09732498002246473 -0.27605714747082416 0.10745082506272652
leaf_weight=1.6282392516732205 4.7195088863372794 1.8500312268733972 2.2572365365922451 1.648601427674292 5.9036023281514645 1.4620506092905996 2.1707811504602494 1.739492081105708 1.3287221193313588 1.445917241275313 7.5264340564608556 3.2854694798588753 4.8496810495853424 2.5885276049375534 2.2309084683656684 2.7451465688645831 25.570423137396574 1.4624777846038339 2.6041769348084927 2.5794274322688571 2.3747839853167525 2.096300244331359 1.8011754415929311 8.4406506232917291 1.2078583538532259 2.0314115583896637 1.2262874096632002 2.0149444788694382 1.2597052678465832 8.9443824701011163
leaf_count=13 36 14 20 12 50 9 14 12 12 10 58 23 35 17 16 23 176 11 24 17 20 16 11 63 11 13 9 16 7 62
internal_value=0 0.00761782 0.109364 -0.0689586 -0.103586 0.0290987 0.000175065 -0.00474463 -0.0537747 -0.0694773 -0.0499856 -0.0970181 0.050125 -0.000299019 0.011713 0.00593423 0.000987948 0.0949991 -0.00514892 -0.00999239 -0.00259365 -0.010699 -0.0222559 -0.0881633 0.0936946 0.0617684 0.147781 0.00617484 0.000355151 0.0601064
internal_weight=0 102.352 6.97675 10.6425 9.01425 3.11065 95.3751 92.2988 23.1955 21.8668 19.696 13.4004 6.2956 5.874 69.1033 66.8724 65.1329 6.8118 4.06665 58.3211 55.7416 53.3669 48.0477 12.2732 5.3191 3.83259 3.07632 3.2228 35.7745 10.2041
internal_count=830 746 56 84 71 21 690 667 169 157 143 98 45 40 498 482 470 58 35 412 395 375 332 87 43 24 23 27 245 69
shrinkage=0.2


Tree=17
num_leaves=31
num_cat=0
split_feature=13 3 4 4 14 4 3 16 3 15 13 22 15 3 25 4 3 5 4 0 11 11 11 6 22 11 13 9 9 6
split_gain=1.00952 3.08326 1.49371 1.33885 0.957574 0.873546 0.873214 1.22361 0.836635 2.50989 2.21884 2.34477 1.69787 1.61514 1.53776 1.5139 3.9357 1.37273 1.4017 1.34638 1.25118 2.40662 2.31161 1.61193 1.69732 1.36728 1.16567 1.07486 2.93909 4.02644
threshold=0.43712273432506055 0.4412170734138473 -0.45446996596959316 0.053848743025433847 1.0000000180025095e-35 2.6438726543475175 0.29240772031058898 -0.42357107314263881 0.42815379078004523 25.595000000000002 0.28493002921838445 1.0000000180025095e-35 16.018750000000001 0.35597090697328437 1.0000000180025095e-35 0.9555979705468155 0.54078143774052767 0.22312757585330509 -0.026975017315886345 1.5286968863586019 22.866652827140602 79.044678484604745 131.20163799567197 0.38785933246563314 1.0000000180025095e-35 42.622957894285918 -0.1481368113361014 0.94108948583004026 0.053793782285257295 0.85879178927855682
decision_type=2 2 2 2 2 2 2 2 2 2 2 2 2 2 2 2 2 2 2 2 2 2 2 2 2 2 2 2 2 2
left_child=4 2 -2 -3 5 8 7 -4 9 10 11 13 20 14 -1 27 -17 19 -19 -13 23 25 -23 24 -10 -22 -15 28 29 -14
right_child=1 3 6 -5 -6 -7 -8 -9 12 -11 -12 17 15 26 -16 16 -18 18 -20 -21 21 22 -24 -25 -26 -27 -28 -29 -30 -31
leaf_value=-0.061471093346697363 0.062962705227459836 0.2226673279880417 -0.20866594959474699 -0.019392207246802021 -0.1559216922361919 -0.11566026975097476 -0.24642279376987136 0.015179498299454086 0.16332606168381669 0.25151118869029848 0.13104491707904575 0.084497256628545139 -0.11363533195308351 0.028610936178113913 0.084986908204355435 -0.20756430108163745 0.17729598774136851 -0.001918107852470935 -0.20719860615609248 -0.1255889249339471 0.009288906853298964 0.20673607288906659 -0.079202260303744387 0.17675471394884182 -0.10366224713325255 -0.15836285349046825 0.25078915771982258 -0.099358243445063152 0.12530493852666136 0.12935178219126625
leaf_weight=5.786616098135708 1.428583376109599 1.7744869962334626 2.0273209623992434 1.8848461546003816 1.4170371890068043 2.1715799421071997 2.8456272706389427 1.8850533515214922 1.604899488389494 2.0558213479816905 6.2323131151497355 3.1742678321897984 12.301302447915083 1.5975549146533015 5.6847801469266415 1.4748132750391949 3.8050825707614422 2.0164417997002602 3.9113834872841835 1.982149116694927 4.2682304941117746 3.338840801268816 1.7101755440235136 4.8815231546759605 2.3428104296326637 3.5761019065976143 2.3109083473682412 10.144505918025969 4.3852772526442996 3.5050594583153716
leaf_count=41 13 12 21 12 12 14 22 16 10 15 49 27 88 11 41 10 30 14 27 12 34 39 11 41 14 30 16 82 36 30
internal_value=0 -0.0546289 -0.122847 0.0979875 0.00726528 0.00971845 -0.162126 -0.100813 0.012675 0.0371612 0.0236837 -0.00159988 -0.00216582 0.0489394 0.0111078 -0.0290435 0.0697944 -0.0717252 -0.137369 0.00373921 0.0419024 0.0021821 0.109885 0.099906 0.00487901 -0.0671408 0.159975 -0.0462458 -0.0195616 -0.059753
internal_weight=0 11.8459 8.18658 3.65933 95.6795 94.2624 6.758 3.91237 92.0909 34.7522 32.6964 26.4641 57.3386 15.3799 11.4714 35.616 5.2799 11.0842 5.92783 5.15642 21.7226 12.8933 5.04902 8.82923 3.94771 7.84433 3.90846 30.3361 20.1916 15.8064
internal_count=830 96 72 24 734 722 59 37 708 253 238 189 455 109 82 276 40 80 41 39 179 114 50 65 24 64 27 236 154 118
shrinkage=0.2


Tree=18
num_leaves=31
num_cat=0
split_feature=8 1 1 1 5 5 5 1 1 11 11 13 4 8 8 2 2 0 4 13 15 13 8 1 1 23 0 2 11 18
split_gain=1.0146 2.07602 2.36558 2.03112 2.56128 1.5182 1.7473 1.44481 2.15607 1.72766 1.75508 2.63915 1.88651 1.39199 2.00696 1.38345 1.5044 1.34623 1.12319 1.92651 1.09673 1.27044 1.0433 1.03586 1.05228 0.929393 0.912629 1.3201 1.31134 0.841152
threshold=0.43683210229944769 0.006125815199877086 0.0080640865409506695 0.00067380522788310191 0.37819751547516595 0.5029197843919373 0.60605637126855794 0.0021770912283448538 0.0028585202697550484 72.359349981189681 1.0000000180025095e-35 -0.24426706135662798 0.79903231864886026 0.67694033581129831 0.59183889437369264 0.30059314617012095 0.999999999999999 -0.79246185992025231 0.41292253546490648 0.043689279568750176 17.51125 0.20306455162647483 0.76266003460945531 -0.00040576040170941776 -0.0096545390908383336 1.0000000180025095e-35 -1.2720881936757322 0.36307929417297863 58.275490448626371 0.013705467056632005
decision_type=2 2 2 2 2 2 2 2 2 2 2 2 2 2 2 2 2 2 2 2 2 2 2 2 2 2 2 2 2 2
left_child=1 -1 -3 4 20 -6 -7 18 -9 10 11 -10 17 14 -11 -4 -17 -13 19 -5 -2 -22 -15 24 25 -8 27 -26 -28 -12
right_child=3 2 15 7 5 6 23 8 9 13 29 12 -14 22 -16 16 -18 -19 -20 -21 21 -23 -24 -25 26 -27 28 -29 -30 -31
leaf_value=-0.046551693825065417 0.2564836703523154 0.18905512845505884 0.1394225970743517 -0.14671406972598836 -0.13760136057558522 0.22812464647027719 -0.029850166517572902 0.1383295340287114 -0.19781438244848118 0.12080859882731297 -0.14703483828018693 -0.025076497347048834 -0.14876572619176906 0.24792366965942259 -0.17796627312614938 -0.19383172346208413 0.081090952543726391 0.1890528535682362 -0.21291493620103907 0.15887338641824419 0.21774699811615658 -0.05632655288539426 0.035504932016367501 0.11742953913344467 0.024210724598543377 0.19212522467949295 -0.07140625627397168 -0.23040935538316207 0.12804794750139378 -0.029629481133937804
leaf_weight=32.795720014721155 3.1505783721804645 3.5462766662240011 1.4351592026650903 2.2312765829265113 2.0462554991245296 1.8523462861776376 1.3399540111422583 4.131384044885638 1.7912284582853315 1.8659581393003457 6.6117425635457021 1.6811113730072968 1.2339503504335878 2.0299109481275086 1.735974099487066 2.1985486783087254 1.2481621690094473 3.8966190889477788 2.3122517764568329 1.3095013275742529 1.3750095181167128 1.3317575082182882 1.6989735420793293 3.544570654630653 1.4064918346703099 1.7267703749239445 3.2537617422640279 1.9350532330572603 2.2168691270053387 3.8695084378123283
leaf_count=264 22 26 14 20 12 12 11 34 12 17 56 12 8 19 11 19 12 33 16 12 11 10 12 32 12 14 30 15 20 32
internal_value=0 -0.0237992 0.0647357 0.0167413 0.0604137 0.0252933 0.0445875 -0.0134692 0.00397293 -0.0170409 -0.0487419 0.0182043 0.0750095 0.0654857 -0.0231878 -0.0255722 -0.0942736 0.124515 -0.104498 -0.0336973 0.176268 0.0829 0.15114 0.0225449 -0.00576798 0.0951368 -0.0408838 -0.123237 0.00941877 -0.103691
internal_weight=0 41.2239 8.42815 61.5788 25.1794 19.3221 17.2758 36.3994 30.5464 26.415 19.0842 8.60291 6.81168 7.33082 3.60193 4.88187 3.44671 5.57773 5.85303 3.54078 5.85735 2.70677 3.72888 15.4235 11.8789 3.06672 8.81218 3.34155 5.47063 10.4813
internal_count=830 335 71 495 201 158 146 294 246 212 153 65 53 59 28 45 31 45 48 32 43 21 31 134 102 25 77 27 50 88
shrinkage=0.2


Tree=19
num_leaves=31
num_cat=0
split_feature=12 18 12 0 7 8 20 12 12 0 18 7 1 19 12 7 20 12 20 20 20 4 18 4 8 8 8 4 20 16
split_gain=1.80337 1.14039 2.25156 0.930195 0.979485 2.07985 1.78424 1.41554 1.7114 1.35983 1.44083 1.41191 1.35091 1.68664 1.32911 1.2924 1.68539 1.19109 1.19108 1.70298 1.66332 1.16716 1.06034 1.05717 1.05316 1.29994 0.895732 0.891317 0.865739 1.5102
threshold=-14.764768329316956 -0.062228454323380526 -3.9639885402097264 -3.5237482687823576 0.78620887415637586 0.78720534300867284 0.015152957883763698 13.508931380284226 -3.5475974561849521 -0.53749321022667895 0.056573639956251191 0.57549149403481603 0.0051678474627708795 -0.029783234610293707 9.432428958361081 0.34454010056902634 0.021679120977670999 -3.1563325253435055 -0.10535752951943221 -0.14070013600303002 -0.063548078190571053 0.10683748489722267 0.038654236430340667 -0.23935300057520512 0.75927966235989375 0.77089756989770464 0.34918563679257947 0.25949763777936991 0.0054788771915640364 -3.7399078445504301
decision_type=2 2 2 2 2 2 2 2 2 2 2 2 2 2 2 2 2 2 2 2 2 2 2 2 2 2 2 2 2 2
left_child=-1 2 -2 27 5 7 24 8 9 11 15 12 13 -5 17 16 -11 -10 19 -19 23 -15 -8 -20 -6 -26 -4 -3 29 -22
right_child=1 3 26 4 6 -7 22 -9 14 10 -12 -13 -14 21 -16 -17 -18 18 20 -21 28 -23 -24 -25 25 -27 -28 -29 -30 -31
leaf_value=0.22534143576916038 -0.15149956688070068 -0.21647054472246186 -0.015851151882733814 0.23714350421228719 0.22368476467040252 -0.22894161125608992 -0.20980432056746193 0.14822028650604444 -0.20507744581933296 -0.097417983081663495 -0.100238551860279 -0.19626516097789423 -0.17555074219590908 0.083927642694067869 -0.2158008377008005 0.17819513163512696 0.16375923717845461 -0.062467129731192651 0.027162024798192515 0.2114738870371769 -0.14534483443508714 -0.17620725701111606 0.042121153993931473 -0.19655279317323288 -0.14518877622827359 0.12864049637335614 0.15859835171591211 -0.012716278717691952 -0.036633491361256376 0.044930664746843624
leaf_weight=1.4084800072014321 1.512747950851917 1.6615082100033753 1.5261220522224883 1.5647336766123765 2.3904866054654104 1.7306575551629055 1.25139656662941 2.2736814692616454 1.4191606491804041 2.0591840036213314 1.4367967993021 1.5339373871684072 1.1218325346708296 1.7099661454558406 1.4897740520536888 5.4288215301930904 1.9003936946392057 1.6274863481521609 1.1160551384091375 2.0525149032473413 1.8979298099875439 1.1565256640315054 1.4341841340065 3.4778842367231695 0.97072391957044635 2.4278956986963749 5.1513557508587837 1.7774998284876344 28.290076568722725 13.802883826196235
leaf_count=16 12 13 13 13 31 18 14 18 11 16 10 12 10 13 17 50 13 12 10 13 14 10 14 28 7 24 43 17 235 103
internal_value=0 -0.00259883 0.0688168 -0.00917056 -0.00507153 -0.0121664 0.059467 -0.00718806 -0.0120228 0.0416904 0.0862777 -0.0264153 0.0205028 0.0701367 -0.0294608 0.114822 0.0279337 -0.0242897 -0.0193807 0.090323 -0.0276901 -0.0210274 -0.0752682 -0.142203 0.121971 0.0504286 0.118728 -0.111157 -0.0157316 0.02193
internal_weight=0 97.1942 8.19023 89.004 85.565 77.0903 8.47469 75.3596 73.086 17.9122 10.8252 7.087 5.55306 4.43123 55.1738 9.3884 3.95958 53.684 52.2648 3.68 48.5848 2.86649 2.68558 4.59394 5.78911 3.39862 6.67748 3.43901 43.9909 15.7008
internal_count=830 814 68 746 716 626 90 608 590 147 89 58 46 36 443 79 29 426 415 25 390 23 28 38 62 31 56 30 352 117
shrinkage=0.2


Tree=20
num_leaves=31
num_cat=0
split_feature=12 9 8 8 24 2 6 16 9 12 8 16 12 12 11 8 15 10 8 9 9 0 0 6 11 8 8 10 15 2
split_gain=1.43787 0.904772 1.61713 1.28163 1.59384 2.24535 1.15832 1.35126 1.15088 0.989938 0.93796 1.61955 1.54348 1.15542 1.9228 1.64255 1.58549 1.17158 2.18629 1.73796 1.11955 1.30899 1.22039 1.19562 1.09406 1.12998 1.18866 1.45556 2.32269 1.31455
threshold=-14.764768329316956 0.99551638985922708 0.79122966810979634 0.62790859007056554 1.0000000180025095e-35 0.99375836489996383 0.094240189576683245 -1.0000000180025095e-35 0.99464047500491326 4.510838677862175 0.23986036535500349 0.36714608960896017 -1.6727535074645068 2.6646915049635731 108.89088043668627 0.32191008635351176 18.626250000000002 -0.17468778013807093 0.5755203042513739 0.92570260253075431 -0.99888484272797673 -0.56490131202559324 -0.93739884029341358 0.14425664805487948 108.89088043668627 0.77730101679241803 0.42483217374267768 -0.055327080431067557 17.561250000000005 0.62028616063711428
decision_type=2 2 2 2 2 2 2 2 2 2 2 2 2 2 2 2 2 2 2 2 2 2 2 2 2 2 2 2 2 2
left_child=-1 8 3 4 5 -3 -6 -8 10 -5 11 -2 -13 15 16 -12 -15 -18 19 -19 23 22 -22 -17 25 26 29 -28 -29 -23
right_child=1 2 -4 9 6 -7 7 -9 -10 -11 13 12 -14 14 -16 20 17 18 -20 -21 21 24 -24 -25 -26 -27 27 28 -30 -31
leaf_value=0.22034421477642649 -0.16823681017925377 -0.1512258844456979 -0.16263451030524637 0.017875230725060118 0.25999082682479641 0.093502923305112201 -0.081462595933939841 0.21718752114404213 -0.16802861274518455 0.20904357990635891 0.13005123425962459 -0.1201160902661908 0.17281461343027549 -0.14028534866531517 0.17479341847730873 -0.2485318342116532 0.086006359033082042 0.12879942166006486 -0.23989250238633605 -0.17396780326537761 -0.0029243672245303602 0.12038125235220704 -0.14435425986600595 -0.031183424741408894 -0.14626571627533808 -0.12374477910642177 0.014150628101354529 0.22059273392155765 0.014154107089890977 -0.06154829456886262
leaf_weight=1.1765714995563019 3.6534142382442942 3.4505090601742285 1.4299862775951613 1.6353511549532402 1.4541228264570238 2.6522776782512665 1.5390786491334441 0.99958188459277142 1.8279351033270348 3.2109907399863005 4.4717522934079161 1.383063077926636 1.4996605888009069 6.6778682135045555 1.4355529733002175 1.2781872376799572 3.1787966974079609 2.2788777053356157 1.8934875354170797 1.1366208121180532 13.949128922075035 2.3693176954984798 2.9580085612833455 4.8679964952170849 1.1433855406939972 1.3460150994360436 5.3331288583576706 5.9520146772265381 3.4400819018483162 4.8216261491179466
leaf_count=16 37 34 15 15 10 25 16 7 15 31 37 12 12 59 13 10 25 17 17 11 117 23 24 43 8 15 45 59 25 37
internal_value=0 -0.0021415 0.0405495 0.0599948 0.0194112 -0.0448665 0.117657 0.036129 -0.0112308 0.144536 -0.00741274 -0.079803 0.0322733 -0.000508607 -0.0464386 0.0141743 -0.06738 -0.0100208 -0.0675177 0.0280436 0.00325594 0.0151042 -0.0276684 -0.0763842 0.0447352 0.0541233 0.0650473 0.0975964 0.14498 -0.001605
internal_weight=0 93.2678 16.3719 14.9419 10.0956 6.10279 3.99278 2.53866 76.8959 4.84634 75.068 6.53614 2.88272 68.5318 16.6012 51.9306 15.1657 8.48778 5.30899 3.4155 47.4589 41.3127 16.9071 6.14618 24.4056 23.2622 21.9162 14.7252 9.3921 7.19094
internal_count=830 814 153 138 92 59 33 23 661 46 646 61 24 585 142 443 129 70 45 28 406 353 141 53 212 204 189 129 84 60
shrinkage=0.2


Tree=21
num_leaves=31
num_cat=0
split_feature=0 20 1 0 20 13 13 0 5 13 15 22 15 13 0 15 19 1 10 19 0 20 20 15 15 9 9 20 1 9
split_gain=0.788979 0.783026 1.71956 1.54646 1.47776 1.0967 1.02432 0.996331 1.51912 1.23478 1.25023 1.06659 0.993119 1.27407 0.983169 0.962006 0.900227 0.859562 0.829506 0.823076 0.799083 1.90563 1.3822 0.981434 1.02043 0.829557 2.12127 2.10067 1.47831 0.899646
threshold=5.1640662389626977 -0.098893660065529854 0.0011738172987749054 -1.9825297468975782 -0.075408495848459309 0.43499616977873251 0.026771652918769019 -2.3863269470017365 0.84049267352837898 0.074148613726280843 12.195000000000002 1.0000000180025095e-35 17.003750000000004 0.21761069838130648 -3.5237482687823576 21.025000000000002 -0.042454246442248676 -0.0036187503645533936 -0.34731992082949759 -0.052468807283376821 -0.22068476081415436 0.0021821669921236776 0.10469185597432654 22.380000000000003 15.030000000000001 0.5377790097199614 0.99268087515572567 -0.027813157597579515 0.0047516474115834118 -0.75590620849668222
decision_type=2 2 2 2 2 2 2 2 2 2 2 2 2 2 2 2 2 2 2 2 2 2 2 2 2 2 2 2 2 2
left_child=1 2 6 -4 18 7 -1 8 -6 20 -11 16 13 -13 -10 -14 -12 -7 -3 -5 21 -9 25 24 -23 27 -27 -22 29 -29
right_child=-2 4 3 19 5 17 -8 9 14 10 11 12 15 -15 -16 -17 -18 -19 -20 -21 22 23 -24 -25 -26 26 -28 28 -30 -31
leaf_value=0.2111083914532359 0.1252127214796698 0.031297156499049877 0.17897862401368983 0.026162749280493988 -0.15171428883423577 0.02702397924021013 0.034719565615194202 0.042385614999400675 -0.04388256585586147 -0.1157412756228349 -0.043645690707560088 -0.05639041217001977 -0.14326107174059438 0.14035516872906309 0.21063137546822475 0.050256469123151626 0.14703622288399321 -0.11087447482370448 -0.17002101746289902 -0.14376018329409743 -0.14209558145029988 -0.00061042076925549109 0.13385936037891297 0.030143171230013928 -0.21266512424103823 -0.12350140991725496 0.037984474488933606 0.077737147400619197 0.20097913941832651 -0.10943272753033834
leaf_weight=2.8628987297415716 1.9894997123628844 1.0810226798057554 1.1749072261154649 1.8760964423418038 3.6878238990902821 2.5831754580140114 2.4386397451162338 4.9282243214547545 1.7023051492869856 1.5881212037056709 1.1444077640771864 1.9415351301431654 2.1411932334303856 4.0901117250323296 0.94364679604768742 1.9756118506193159 7.3572634384036064 6.0258532222360355 3.3734803162515155 2.9070866033434872 2.0170968901365995 1.1842712350189684 3.2836393862962714 1.3254168219864366 3.8869431801140308 6.1325893104076368 6.9313421007245779 3.2905432227998972 2.8644171860069036 1.4934089034795954
leaf_count=23 18 9 9 16 31 24 18 49 16 17 10 19 17 38 9 16 67 64 31 22 20 13 29 13 33 58 71 33 23 14
internal_value=0 -0.00214714 0.0471147 -0.0266119 -0.00935314 -0.00248506 0.129972 0.0065419 -0.0687482 0.0148243 0.0546068 0.0691126 0.0253361 0.0770245 0.0468868 -0.050394 0.121369 -0.0694975 -0.121165 -0.0771117 -0.00673897 -0.0510825 0.0125661 -0.123094 -0.163144 -0.0049567 -0.0378217 0.0394639 0.0873464 0.0193082
internal_weight=0 88.2331 11.2596 5.95809 76.9734 72.5189 5.30154 63.9099 6.33378 57.5761 20.2382 18.6501 10.1485 6.03165 2.64595 4.11681 8.50167 8.60903 4.4545 4.78318 37.3379 11.3249 26.013 6.39663 5.07121 22.7294 13.0639 9.66547 7.64837 4.78395
internal_count=830 812 88 47 724 684 41 596 56 540 184 167 90 57 25 33 77 88 40 38 356 108 248 59 46 219 129 90 70 47
shrinkage=0.2


Tree=22
num_leaves=31
num_cat=0
split_feature=12 17 10 17 15 12 12 18 12 9 6 12 7 12 9 9 12 6 9 5 19 18 8 18 5 9 7 8 9 6
split_gain=1.09873 1.1877 2.05045 2.04003 1.56145 1.84617 1.59776 1.58749 1.46143 1.87255 1.54376 1.37766 1.19803 1.15205 1.11587 2.51827 2.27853 1.55161 1.31383 1.21269 1.14254 1.08325 1.06693 1.04856 1.67946 2.87949 1.95395 2.54108 1.42694 1.39851
threshold=-14.764768329316956 0.43669084931029051 0.41355778518180158 0.52411278794025684 14.611250000000002 -8.825248639031388 -3.5475974561849521 -0.052057843737099978 -1.6727535074645068 -0.88010709434567802 0.069846800718349367 6.2120754810264129 0.30676381759238153 0.90889461303874797 0.6406758597173775 -0.60755460843637443 5.5768650102208435 0.97340488084762267 0.99710706261343096 0.39519871187971051 0.0063148082999559272 0.022981306373911593 0.43683210229944769 0.022451430137030829 0.81694160181632025 -0.98654537482033244 0.53238858632275987 0.38728484043829631 -0.97901637047198442 0.0074007229186124441
decision_type=2 2 2 2 2 2 2 2 2 2 2 2 2 2 2 2 2 2 2 2 2 2 2 2 2 2 2 2 2 2
left_child=-1 2 11 23 -5 -6 -7 -8 9 -9 -10 -2 -12 21 15 19 20 18 -18 22 -16 -14 -15 24 25 -3 27 29 -25 -27
right_child=1 3 -4 4 5 6 7 8 10 -11 12 -13 13 14 16 -17 17 -19 -20 -21 -22 -23 -24 28 -26 26 -28 -29 -30 -31
leaf_value=0.21581125383880431 0.11063376821326457 -0.23742631457242558 -0.20422319036432965 0.09746176603908524 -0.1647441923591012 0.1213575881474856 0.12885677014629671 -0.19241760961871118 0.17673274138247913 0.069889258143183017 -0.17279679900340769 -0.1017764703570871 0.021029274716871736 -0.078983216229777178 -0.037357963453304478 0.18731213233861876 -0.043960085085944345 -0.23570340262309603 0.14990908438114062 -0.1678360597709341 -0.24931572252744019 0.20109753832990709 0.16703328710023232 0.0066061090158086051 0.13318876510407132 0.10811092592321639 -0.17809403635075149 0.15126729919966403 -0.20946747609575952 -0.12687337313211433
leaf_weight=0.93845600821077724 9.4313300391659123 2.9453655965626266 1.0935816094279278 7.0981613993644705 2.6708211302757254 4.360615821555256 3.1760513242334047 3.7310653403401375 1.8233107496053147 1.5370874032378115 1.762962400913241 1.4030799269676197 5.3491103686392334 1.5674189291894438 1.5362725909799317 2.6633145622909096 3.0177699513733387 0.90944419801235188 2.6054092831909657 2.1288604997098446 3.0110911410301924 1.7813488654792307 1.28173191845417 1.8278183154761789 2.0292090587317935 1.3821131438016907 2.3424307145178309 3.7981796935200691 3.6918254420161238 3.7943034749478102
leaf_count=16 98 28 8 77 18 44 33 33 14 13 18 14 48 12 16 23 30 9 28 16 29 19 10 19 18 12 24 28 43 32
internal_value=0 -0.00177514 0.0567814 -0.0112364 0.0102934 -0.00348266 0.00671316 -0.00648353 -0.0188689 -0.115884 -0.00150722 0.0831262 -0.0132758 -0.00239728 -0.0284535 0.0303434 -0.0690028 0.00666715 0.0458661 -0.0536374 -0.177708 0.0660144 0.0316909 -0.0625773 -0.0370526 -0.061274 -0.0154287 0.027028 -0.137915 -0.0641321
internal_weight=0 85.7511 11.928 73.8231 52.0118 44.9137 42.2429 37.8822 34.7062 5.26815 29.438 10.8344 27.6147 25.8518 18.7213 7.64133 11.08 6.53262 5.62318 4.97801 4.54736 7.13046 2.84915 21.8112 16.2916 14.2624 11.317 8.9746 5.51964 5.17642
internal_count=830 814 120 694 490 413 395 351 318 46 272 112 258 240 173 61 112 67 58 38 45 67 22 204 142 124 96 72 62 44
shrinkage=0.2


Tree=23
num_leaves=31
num_cat=0
split_feature=12 11 11 8 11 13 9 9 10 13 3 12 12 12 25 12 10 11 13 11 11 8 10 9 11 12 12 15 8 3
split_gain=0.697482 1.18329 1.02736 0.710522 1.115 2.04025 1.30844 0.975908 1.07975 1.15693 0.969965 1.16677 0.994705 1.50535 0.815619 0.668988 0.692295 1.50111 0.597867 0.594091 1.08215 1.35903 2.02364 1.0667 0.955854 1.04858 1.90037 1.29882 1.0339 1.36279
threshold=-11.281247343930056 -44.515445388506649 -107.73892268004251 0.21379603141514669 -56.453685533869603 -0.24426706135662798 0.85088706581632712 -0.79257070052562895 0.11860275260349523 0.019970845602822165 0.42525257331807997 -3.1692800058809758 -0.95198105872252381 -2.7957350107514798 1.0000000180025095e-35 -8.825248639031388 0.4680381393444541 34.946855098381683 0.31990479190784271 -17.774812998300327 -28.54991519022354 0.42483217374267768 -0.14009953732993927 0.6406758597173775 62.569207258490692 0.90889461303874797 2.3382341852188095 26.685000000000002 0.75634774643841329 0.8707471670774557
decision_type=2 2 2 2 2 2 2 2 2 2 2 2 2 2 2 2 2 2 2 2 2 2 2 2 2 2 2 2 2 2
left_child=1 -1 -2 7 5 -5 10 -4 9 -9 12 -12 13 -7 -11 18 19 -18 -6 20 21 -17 -23 -22 28 -26 -27 -28 -21 -30
right_child=2 -3 3 4 15 6 -8 8 -10 14 11 -13 -14 -15 -16 16 17 -19 -20 24 23 22 -24 -25 25 26 27 -29 29 -31
leaf_value=-0.013736956191097095 -0.1097634647135948 0.24376995328419962 -0.20612192834966125 -0.18796698391144476 -0.030633427250391778 0.17614341994626825 0.20838118884945228 0.25779203979131377 -0.21741925393196274 -0.17398570127419535 0.124402814389245 -0.11371155831005789 0.23840620605591331 -0.12937793976533962 0.088776883519844807 -0.061294237351307949 -0.15792603942591815 0.1162910704398096 -0.23117201768735254 -0.01283913754564861 0.24015399543725613 -0.042999124477915728 0.20133552935197918 0.016655980594354518 0.14717795733031977 -0.18447581679785252 0.10073255869790956 -0.12558944299328556 -0.22034457098467272 0.061346460595334211
leaf_weight=1.6720723100006583 3.4716556183993807 1.2454855926334847 1.5040768478065727 1.166724935173989 1.6093444805592221 1.4232761859893788 2.7842491902410984 0.75429815798997868 0.79531219974160183 0.89363401010632482 1.2860973253846171 2.286676649004221 1.5908870361745329 1.1798169463872912 1.002721730619669 5.394460538402198 2.8373864833265539 1.1112495884299276 0.94316394999623288 23.488742649555224 1.8779860921204012 2.6830221302807331 2.7411548011004925 1.5668819621205328 2.848177812062203 1.6624567843973617 5.0949817448854446 1.2663816548883913 2.2314187269657846 0.99255394935607899
leaf_count=15 30 17 17 9 16 16 28 5 12 12 12 17 14 11 10 48 27 9 10 251 18 23 24 17 42 15 54 12 29 10
internal_value=0 0.096191 -0.00339818 0.00152421 0.00669773 0.0629975 0.090749 -0.0717061 -0.013037 0.0482866 0.0485799 -0.0279971 0.113815 0.03767 -0.0350467 -0.0046084 -2.80358e-05 -0.0807542 -0.104733 0.00611987 0.0408721 0.00978634 0.0804775 0.138497 -0.00706868 0.0429261 0.00592029 0.0556777 -0.0274164 -0.133621
internal_weight=0 2.91756 78.4888 75.0171 70.0671 11.7177 10.551 4.95004 3.44597 2.65065 7.76675 3.57277 4.19398 2.60309 1.89636 58.3494 55.7969 3.94864 2.55251 51.8482 14.2635 10.8186 5.42418 3.44487 37.5847 10.872 8.02382 6.36136 26.7127 3.22397
internal_count=830 32 798 768 712 107 98 56 39 27 70 29 41 27 22 605 579 36 26 543 130 95 47 35 413 123 81 66 290 39
shrinkage=0.2


Tree=24
num_leaves=31
num_cat=0
split_feature=0 7 4 9 9 11 24 23 6 9 4 9 15 0 9 4 10 3 7 6 4 10 10 4 5 3 6 6 4 11
split_gain=0.601616 0.731317 0.675608 1.06068 1.56994 1.2465 1.0584 1.26085 0.993831 0.889771 0.819276 1.07395 1.04063 1.64416 1.01507 0.880175 0.817009 0.723367 0.827222 0.780056 0.968794 0.779099 0.988008 0.777455 1.09417 1.07226 1.03671 1.18208 1.22608 1.21711
threshold=5.1640662389626977 0.87528955639530581 0.066371733394728308 0.99702798246840296 0.95323865195877044 76.435759819903197 1.0000000180025095e-35 1.0000000180025095e-35 0.97594512595637772 -0.99769622627220145 0.17677170571040407 -0.64856353346578799 18.086250000000003 2.1096532981784883 0.85088706581632712 0.51803137148856582 0.096696189408635849 0.17684058772577047 0.11275369122173522 0.1461226409821321 -1.3120284229187551 0.31715020506781733 0.24574135681368434 -0.014153725969830049 0.28386305076171164 0.43395087149749584 0.40314315824749863 0.60365265684849889 -0.88388733492032778 -29.925987301726973
decision_type=2 2 2 2 2 2 2 2 2 2 2 2 2 2 2 2 2 2 2 2 2 2 2 2 2 2 2 2 2 2
left_child=1 2 8 4 9 -6 7 -5 17 16 11 -11 14 -14 -12 -16 -4 18 -1 20 -19 22 23 24 -21 -25 -26 -28 -29 -30
right_child=-2 -3 3 6 5 -7 -8 -9 -10 10 12 -13 13 -15 15 -17 -18 19 -20 21 -22 -23 -24 25 26 -27 27 28 29 -31
leaf_value=0.029496467268361633 0.11596816554933256 0.1149132945806431 -0.12311070278176627 0.090067177226388226 -0.15149576981581914 0.069135988661658307 0.19288804227648804 -0.15081855111917919 -0.1435669445817542 0.01150921101084503 -0.053606218017414976 -0.24660436127720886 0.11334318319314692 -0.1129328153607641 0.22912309530849839 -0.01152856506156269 0.057800824368861858 -0.099295971365034125 -0.21102949020573752 0.11384487059375532 0.11933342477631588 0.1198237370609414 -0.19262663767291519 -0.061816331605050595 -0.16431542275495803 0.17165953573259873 0.10817545286372582 0.12049836570094007 0.14035866203354627 -0.11799109278414155
leaf_weight=1.2046848963946133 1.7581738103181113 2.0685725798830381 4.5243479320779434 2.3467502966523162 6.3621883336454621 1.2208175323903558 1.6589595209807155 1.3804362788796427 1.4939667396247376 1.4897125549614432 8.697461945004763 1.1368694193661273 6.9318175408989173 1.5766359344124792 1.0619510859251016 1.4219257012009618 1.2812924943864343 0.935819019563496 1.0889545083045957 2.4130416885018464 6.0650642011314657 2.4457727149128905 1.009217895567416 1.1745008938014483 2.0234543830156317 2.3837572541087866 2.6271962635219079 1.4320071563124734 0.83923149853945567 5.5740568973123867
leaf_count=15 18 28 53 30 74 13 17 16 16 15 98 11 67 14 11 15 14 10 13 24 59 23 9 11 16 24 22 16 9 69
internal_value=0 -0.0023723 -0.00565966 -0.0227329 -0.035213 -0.115975 0.059999 0.000850447 0.0157876 -0.0134358 0.00470935 -0.100211 0.0187055 0.0714137 -0.0214029 0.0913591 -0.0831839 0.023414 -0.0846984 0.0319875 0.0901089 0.0134263 6.53993e-05 0.0105958 -0.0094517 0.0945944 -0.033261 -0.00793918 -0.0468231 -0.0841839
internal_weight=0 75.8705 73.8019 41.0912 35.705 7.58301 5.38615 3.72719 32.7107 28.122 22.3164 2.62658 19.6898 8.50845 11.1813 2.48388 5.80564 31.2168 2.29364 28.9231 7.00088 21.9222 19.4765 18.4672 14.909 3.55826 12.4959 10.4725 7.8453 6.41329
internal_count=830 812 784 448 385 87 63 46 336 298 231 26 205 81 124 26 67 320 28 292 69 223 200 191 156 35 132 116 94 78
shrinkage=0.2


Tree=25
num_leaves=31
num_cat=0
split_feature=19 3 1 16 1 19 19 19 19 1 5 6 6 11 6 6 3 3 16 7 3 5 16 11 5 6 7 16 11 1
split_gain=0.455285 0.928691 0.884414 0.608798 1.0398 0.567254 0.767782 0.561436 0.873928 0.702863 0.50968 0.507923 0.543164 1.18765 1.69132 1.05138 1.01698 1.25158 1.08491 0.951437 0.847775 0.764021 0.906596 0.682335 0.672714 0.804289 0.676455 0.908962 0.671926 0.664271
threshold=-0.052468807283376821 0.71763359361915879 0.0041292253546490647 -1.9737992028131686 0.0063398613928768929 -0.081405942105522086 -0.099755994369937998 0.074433363372579928 0.069092294086120054 0.0062738135221881474 0.21113005962911555 0.0074007229186124441 0.85002685179166659 -17.774812998300327 0.40714295719251481 0.88674783690269743 0.50853068667499624 0.35597090697328437 4.8309479659451036 0.89501700841780918 0.84019068115656148 0.30703124738349452 -7.0721897126291688 -32.976419835915188 0.90305127360244475 0.95227282449478801 0.80056055618999644 0.73728885654059917 62.569207258490692 -0.00096167518059586069
decision_type=2 2 2 2 2 2 2 2 2 2 2 2 2 2 2 2 2 2 2 2 2 2 2 2 2 2 2 2 2 2
left_child=1 3 -3 4 10 6 -5 8 11 -9 -1 -2 13 14 21 28 17 -15 -18 20 24 22 -13 -24 -17 -26 27 -27 -14 -19
right_child=7 2 -4 5 -6 -7 -8 9 -10 -11 -12 12 15 16 -16 19 18 29 -20 -21 -22 -23 23 -25 25 26 -28 -29 -30 -31
leaf_value=-0.088546461563201007 0.095889915073549339 0.21686582685381361 -0.013572175802215855 0.094471059146568517 -0.22563254768529759 0.09612403829169032 -0.10558948684757506 0.019259281486786604 -0.17545399484532598 0.20740822303073175 0.096183593949207724 -0.19526170825103961 0.023883695352486502 -0.12710599606157011 0.11032904061081428 -0.10071039326162895 -0.14190232898756075 -0.072385893255275655 0.026778120724843587 0.14746493013840309 -0.25751623406101171 -0.11735574594099218 -0.0069550716359143526 0.14406244551869857 0.13064158484577934 0.058704838269082453 0.082339701796906639 -0.21103044080352973 0.21072693165944562 0.11100345569670414
leaf_weight=1.1090131998062132 1.7952583394944657 1.8547595553100102 1.0396218411624429 1.3323565460741522 1.0753127634525297 3.5253610387444496 1.8093276694416989 3.7776601072400799 1.2871767748147238 1.0056094769388435 1.2950844205915926 0.95709661766886611 1.4218091648071998 2.1441512908786597 4.7899302914738646 2.5125202834606153 7.5696905180811864 1.0782142765820024 1.9100400432944296 1.3433419158682216 0.62716141715645779 2.8731716424226752 15.152499767020345 1.2993738036602778 1.8621053416281936 0.83190376311540681 1.2594679836183784 1.2514963522553442 1.6790807154029606 2.9561657179147005
leaf_count=10 19 17 13 14 9 34 15 48 15 12 12 10 18 24 52 30 92 13 17 22 6 26 162 17 30 12 19 12 18 32
internal_value=0 0.0341665 0.134096 0.00566072 -0.0621539 0.0410519 -0.0207458 -0.00698156 -0.0125418 0.0588147 0.0109674 -0.00875085 -0.0122609 -0.023551 0.00343829 0.023696 -0.0667665 -0.00363151 -0.107915 -0.00874688 -0.0338942 -0.0218056 -0.00603597 0.00497234 -0.0157216 0.0253038 -0.0333734 -0.103325 0.125056 0.0619915
internal_weight=0 13.0408 2.89438 10.1465 3.47941 6.66705 3.14168 61.3849 56.6017 4.78327 2.4041 55.3145 53.5192 40.7303 25.0721 12.7889 15.6583 6.17853 9.47973 9.688 8.34466 20.2821 17.409 16.4519 7.71749 5.20497 3.34287 2.0834 3.10089 4.03438
internal_count=830 124 30 94 31 63 29 706 646 60 22 631 612 445 267 167 178 69 109 131 109 215 189 179 103 73 43 24 36 45
shrinkage=0.2


Tree=26
num_leaves=31
num_cat=0
split_feature=2 11 13 13 12 15 8 5 6 12 4 13 15 15 12 12 11 9 4 15 12 13 4 8 8 2 8 12 4 2
split_gain=0.583004 1.2968 0.79166 0.667555 1.78034 1.2678 0.753273 1.03412 0.66421 1.24551 0.63343 1.27859 0.623861 0.579247 1.24032 1.18627 0.912552 1.05255 0.81271 0.793791 0.980478 1.00027 1.1977 0.998408 0.974545 1.05426 0.873119 1.48281 0.897682 0.755198
threshold=-8.3018326775531502e-17 -12.634560485950319 0.078373144073051473 0.43499616977873251 -7.2826521828614883 26.505000000000006 0.23986036535500349 0.13280170361365021 0.069846800718349367 -1.6727535074645068 0.46788167801662656 0.13589422584437386 16.715000000000003 15.981250000000001 5.131741533486001 -10.526904020179627 -69.145784028331249 0.99843858992073153 2.6438726543475175 25.23 8.887808915085305 0.094370032542898927 -0.94031101454218635 0.33243152719880681 0.42483217374267768 0.17751475335691605 0.54989434782013147 4.7175892072409402 1.1002485592211866 0.32456836037223924
decision_type=2 2 2 2 2 2 2 2 2 2 2 2 2 2 2 2 2 2 2 2 2 2 2 2 2 2 2 2 2 2
left_child=1 12 -3 6 -5 -6 8 10 9 -2 11 -8 -1 14 16 -15 -9 -18 19 20 21 22 -17 -24 -23 -26 -25 28 -28 -29
right_child=3 2 -4 4 5 -7 7 13 -10 -11 -12 -13 -14 15 -16 18 17 -19 -20 -21 -22 24 23 26 25 -27 27 29 -30 -31
leaf_value=0.22865808581617453 -0.18617582692835122 0.089748650883469061 -0.13909935814454596 0.15454029436151234 -0.15552691578694638 0.098648669645185955 0.19522847049379988 -0.14544955638311946 -0.21809192286516807 0.085894482245392534 0.17135777256899262 -0.045058905924619842 0.06032042425447303 0.16500688097743632 0.20980336590806845 0.11898698652355798 0.049038791176528672 -0.090777422658191401 -0.22101379352191902 0.048851836762530791 -0.20358526966839943 -0.074012384923678551 0.12313559231357923 -0.13216907295073849 0.0078884391066330415 0.22789176282572635 -0.11960603600363398 0.22539861218496463 0.1218404897434319 -0.024425567655847559
leaf_weight=1.626161612570286 1.1898085474967961 0.99224711954593603 1.5479066334664819 1.2166353911161421 4.6342806518077841 0.94502272643148888 1.3457442298531526 1.3642978668212933 1.0699806623160837 1.5496495924890032 2.1844940036535263 2.5916342306882143 1.9207582175731657 1.3422133401036251 1.3617460075765837 1.5095418319106215 12.67074159067124 2.5947577916085729 0.84116129949688812 5.2335080653429022 1.3375017102807749 1.7218412905931462 1.022911764681347 6.9547755755484086 1.8820258975028994 1.6222737021744249 4.6561856977641582 1.0996206086128948 0.70984515920281399 0.86454375460743893
leaf_count=18 10 9 15 14 60 13 15 13 18 13 22 26 21 20 21 16 158 31 8 57 18 17 10 82 19 18 55 14 9 10
internal_value=0 0.0593776 -0.0497056 -0.00532971 -0.0646726 -0.112475 0.00153822 0.00750459 -0.0844642 -0.0322718 0.0849873 0.0370682 0.137498 -0.00221757 0.0262943 -0.0188736 0.0112675 0.0252735 -0.0272525 -0.0215567 -0.0373166 -0.0272282 -0.0509779 -0.0677385 0.0491972 0.109736 -0.0814066 -0.0332439 -0.0876663 0.115436
internal_weight=0 6.08707 2.54015 65.5167 6.79594 5.5793 58.7208 54.9114 3.80944 2.73946 6.12187 3.93738 3.54692 48.7895 17.9915 30.7979 16.6298 15.2655 29.4557 28.6146 23.3811 22.0436 16.8174 15.3079 5.22614 3.5043 14.285 7.3302 5.36603 1.96416
internal_count=830 63 24 767 87 73 680 639 41 23 63 41 39 576 223 353 202 189 333 325 268 250 196 180 54 37 170 88 64 24
shrinkage=0.2


Tree=27
num_leaves=31
num_cat=0
split_feature=20 20 12 20 11 0 1 0 20 12 12 1 1 20 20 12 1 6 6 0 20 12 12 15 12 12 12 13 15 6
split_gain=0.497967 1.05682 0.874384 1.39389 1.19082 0.735999 0.840503 0.805897 0.684211 1.02633 1.02643 1.15066 0.892928 0.843449 0.808301 1.29276 1.01168 0.86394 1.7592 1.06768 0.964978 1.08255 1.55014 1.2495 1.05187 0.792229 1.29082 1.03523 0.787338 0.744086
threshold=-0.16588420708000301 -0.098893660065529854 -10.526904020179627 -0.023753724930438661 -107.73892268004251 -1.9979014729368541 0.0024547468371065155 -0.48050625079262971 0.083673746682362563 -1.1203935406581926 7.9517916855794395 0.00073232641203721386 0.0063800379162047265 0.15981869857220657 0.015152957883763698 -8.0343377718602831 0.0039418304179516693 0.85879178927855682 0.34838864270113901 -1.1355985089648564 -0.077564385301885946 2.7219664724104899 5.5768650102208435 15.615 1.4072143213826591 -1.2442908889288977 0.94961896358832798 -0.36283499906474165 14.755000000000001 0.16557567787168431
decision_type=2 2 2 2 2 2 2 2 2 2 2 2 2 2 2 2 2 2 2 2 2 2 2 2 2 2 2 2 2 2
left_child=-1 5 3 -3 -4 -2 7 -7 14 13 11 -11 -13 -10 15 -6 -16 18 20 -19 -17 23 -23 24 -22 -20 -27 -28 -24 -18
right_child=1 2 4 -5 8 6 -8 -9 9 10 -12 12 -14 -15 16 17 29 19 25 -21 21 22 28 -25 -26 26 27 -29 -30 -31
leaf_value=-0.11532516530852342 0.205177593230114 -0.061564637992198301 -0.14250647134074096 0.22443213185558686 -0.18781443881064938 -0.0059073798863688428 -0.057679749573706321 0.18129763974672183 0.22185860446031611 0.088890886056621557 0.19511123009572376 -0.17413753890350478 0.063871272617461339 -0.0080435120530413708 -0.082896831681435523 -0.10802793972364227 -0.14629649268060191 -0.033413645237710517 -0.13506404574289674 0.16745069963257847 -0.097831654243556568 -0.18842709793025059 -0.070751898225222931 0.18271787911826215 0.16655815935611346 0.11644958753190125 0.0064893128349363775 -0.2176685040722918 0.15468426323794413 0.04805636208881172
leaf_weight=1.4598524430766691 1.3988222181797025 1.1831900523975494 2.6440728045999995 1.6081381831318129 1.3036369886249257 1.6196058988571169 2.0981024093925953 2.1288810074329367 1.8959466107189658 1.8490793760865907 0.90158813446760167 2.3198795132339005 0.86582634970545758 0.96228603646159161 11.610587323084475 1.3905198238790024 0.93181854486465354 1.6555285807698963 3.9121648278087378 2.9352631391957393 1.5377460122108586 1.3462460357695816 0.96321844123303924 4.3195885270833969 0.98905115202069271 1.8824776504188756 1.9057589471340177 1.4520237874239685 1.7375409863889215 5.1036592312157154
leaf_count=16 13 15 26 23 15 14 22 23 27 23 11 27 10 9 156 15 12 21 46 54 18 12 10 52 9 23 28 18 19 63
internal_value=0 0.00275973 -0.00606336 0.103204 -0.0114697 0.0748587 0.0436794 0.100412 -0.00502628 0.0459931 -0.00141507 -0.0366074 -0.10945 0.144457 -0.0150024 0.00654126 -0.04837 0.0162761 -0.000586621 0.0950151 0.0488685 0.0688961 -0.0131081 0.11737 0.00565708 -0.0669628 -0.0161212 -0.0904444 0.0742831 0.0180502
internal_weight=0 66.4522 59.2068 2.79133 56.4155 7.24541 5.84659 3.74849 53.7714 8.79461 5.93637 5.03479 3.18571 2.85823 44.9768 27.3308 17.6461 26.0271 21.4363 4.59079 12.2839 10.8934 4.04701 6.84639 2.5268 9.15243 5.24026 3.35778 2.70076 6.03548
internal_count=830 814 742 38 704 72 59 37 678 107 71 60 37 36 571 340 231 325 250 75 135 120 41 79 27 115 69 46 29 75
shrinkage=0.2


Tree=28
num_leaves=31
num_cat=0
split_feature=17 0 17 15 8 12 15 8 5 0 6 4 5 6 12 12 15 4 15 12 12 0 12 8 5 15 17 17 15 17
split_gain=0.934426 1.11006 1.04639 0.834278 1.06209 1.41882 0.725079 0.676079 0.878063 0.81685 1.23922 0.784571 0.668506 0.6397 0.651741 0.642894 0.515978 0.886685 0.625693 0.515557 0.759667 0.988338 0.691483 0.810416 0.726007 1.11034 1.2619 1.05303 0.912697 0.594545
threshold=0.43669084931029051 1.6193970653754757 0.52411278794025684 14.401250000000003 0.66347101869140923 -0.84979217343967928 11.815000000000003 0.3931347659166074 0.0011960593748250093 -0.45537663190255268 0.2399001421990235 -0.29323076802822723 0.97264627802976855 0.82950953242154724 2.6646915049635731 -1.5052079807141339 16.715000000000003 0.13958192777254863 18.121250000000003 -8.825248639031388 -3.5475974561849521 -1.9190480008318052 -1.6727535074645068 0.45802041647735892 0.23813173117059158 19.000000000000004 0.63979202546079439 0.55406336254021282 28.120000000000001 0.56730825382167638
decision_type=2 2 2 2 2 2 2 2 2 2 2 2 2 2 2 2 2 2 2 2 2 2 2 2 2 2 2 2 2 2
left_child=1 6 7 4 -4 -6 -1 8 -2 10 -9 -10 19 14 15 -8 17 -11 -18 29 21 -21 23 -22 25 26 -24 -26 -29 -5
right_child=2 -3 3 12 5 -7 13 9 11 16 -12 -13 -14 -15 -16 -17 18 -19 -20 20 22 -23 24 -25 27 -27 -28 28 -30 -31
leaf_value=-0.11814455011313295 0.1254109545836147 -0.11286691714610358 0.15331835272586491 0.034197545945162715 -0.23688035971301341 0.17586417385225489 0.052694170373756816 0.09816218152783647 0.01100717193677248 0.16499823442878625 -0.15441668954197973 -0.16917348372203223 -0.13914639790820971 0.21839026428802788 -0.034618658002678902 0.21313266135612885 -0.19253787391441621 -0.030843786744009529 0.034903375925744773 -0.084675540642227251 -0.13923305013668014 0.16121473511039314 0.079501664550946108 0.042919274008814422 -0.14299237619679325 0.13770802836382731 -0.16551797446387109 -0.0064221437163456815 0.18796912237553418 -0.19069568881093235
leaf_weight=0.63448079302906801 0.6008492186665525 1.2914296844974158 3.1339163705706587 0.80686891824006224 0.77068072184920311 0.58678691647946812 2.5525079481303683 1.0496509037911881 1.2436842229217289 1.9674826655536883 2.9911500308662653 4.3398559987545013 1.3717936798930157 1.5595170138403771 1.5977550763636825 1.6415231786668307 0.78349883295595679 1.7448147367686031 1.2649189699441192 0.87871363013982806 2.7823612652719012 2.5551937520503953 2.1241354625672311 1.5057415198534725 2.1242799572646609 3.878515487536788 1.3916052524000404 12.827775770798324 1.0448148772120465 1.1269486676901577
leaf_count=8 6 20 46 9 10 13 28 12 14 21 41 65 17 28 19 17 13 22 15 11 32 35 27 18 26 44 16 167 17 13
internal_value=0 0.0591681 -0.00945967 0.00823908 0.0893093 -0.058465 0.086989 -0.0525389 -0.104318 -0.019868 -0.088806 -0.12904 -0.00233997 0.104694 0.0740795 0.115489 0.028488 0.0729506 -0.0520906 0.00333893 0.00956678 0.0982931 -0.00144067 -0.0752714 0.0120941 0.0639198 -0.0174823 -0.0118614 0.00821844 -0.0968609
internal_weight=0 9.27721 54.896 38.9101 4.49138 1.35747 7.98578 15.9859 6.18439 9.80152 4.0408 5.58354 34.4187 7.3513 5.79179 4.19403 5.76072 3.7123 2.04842 33.047 31.1131 3.43391 27.6792 4.2881 23.3911 7.39426 3.51574 15.9969 13.8726 1.93382
internal_count=830 120 710 501 69 23 100 209 85 124 53 79 432 92 64 45 71 43 28 415 393 46 347 50 297 87 43 210 184 22
shrinkage=0.2


Tree=29
num_leaves=31
num_cat=0
split_feature=17 17 16 20 7 9 16 5 12 7 11 11 5 18 17 21 17 7 20 7 18 11 12 9 18 20 11 17 20 11
split_gain=0.662751 0.732161 0.649291 0.644132 0.954773 0.933062 0.942491 0.848108 1.11579 0.634818 0.662757 0.75442 0.609202 0.672578 0.781379 0.897594 0.824924 0.847956 0.744406 1.01379 1.07126 0.66544 1.0342 0.819943 0.762605 0.681999 0.612641 1.35591 1.15008 1.07251
threshold=0.43669084931029051 0.52411278794025684 0.12612708839577461 0.015755900994969322 0.31516564102763739 -0.99740900867226545 -2.7205000182476957 0.4334136495066549 -2.3709285283841708 0.42123833988625642 33.586721033065963 58.536773221033329 0.23813173117059158 0.027611445035689134 0.5789751993817015 1.0000000180025095e-35 0.64512359961311672 0.67411936847313325 -0.098893660065529854 0.55063314113929607 -0.025569359083179751 7.6184308423284905 2.7219664724104899 -0.99860926474657585 -0.014072297376924779 0.026279523783700399 59.620680220489341 0.61073628234764876 0.015755900994969322 91.076243078534105
decision_type=2 2 2 2 2 2 2 2 2 2 2 2 2 2 2 2 2 2 2 2 2 2 2 2 2 2 2 2 2 2
left_child=2 3 9 5 -5 -2 -7 -6 -9 -1 -11 -12 21 18 15 -15 -16 -18 19 20 -14 22 23 -3 -25 -24 -20 28 29 -28
right_child=1 12 -4 4 7 6 -8 8 -10 10 11 -13 13 14 16 -17 17 -19 26 -21 -22 -23 25 24 -26 -27 27 -29 -30 -31
