tree
version=v3
num_class=1
num_tree_per_iteration=1
label_index=0
max_feature_idx=23
objective=binary sigmoid:1
feature_names=Column_0 Column_1 Column_2 Column_3 Column_4 Column_5 Column_6 Column_7 Column_8 Column_9 Column_10 Column_11 Column_12 Column_13 Column_14 Column_15 Column_16 Column_17 Column_18 Column_19 Column_20 Column_21 Column_22 Column_23
feature_infos=[-10.995312238406155:19.062817859773407] [-0.081937065794850786:0.20851601136403489] [-8.1937065794850792:20.851601136403488] [0.00086259034284403169:1.0001242361615796] [-0.00044249722766557511:0.99963433012055358] [0.058480570655491795:0.96778502876016637] [0.11553137031170593:0.94865955149567949] [-0.99980361752893165:0.99995113224908738] [-1:1] [-139.44211251698357:153.5747041781774] [-23.925961406677025:16.224098901811949] [-0.61688198280944229:0.7324655007988653] none [10.8675:25.965] [-11.15887515672577:18.057503506311367] [0.34278507652536305:0.80513261173693351] [-0.10296892144070657:0.10325406556870176] [-0.091538908265989039:0.13067260325331798] [-0.9111099270495131:0.89349910924965281] [0:1] [0:1] [0:1] [0:1] [0:1]
tree_sizes=1984 2212 2109 2225 2219 2220 2095

Tree=0
num_leaves=18
num_cat=0
split_feature=2 8 18 11 10 8 11 0 1 18 0 14 2 0 6 17 0
split_gain=19.5843 9.24414 12.4312 9.77666 7.4841 7.47053 5.43494 5.27941 4.7087 5.50818 5.45975 2.94315 2.8103 2.80719 4.72539 2.29051 0.278219
threshold=-0.022849607993656484 0.058210939733735416 0.068351058654155597 0.25197449985729453 3.5867853765196305 0.53443723611031657 -0.38778271382224655 -1.0670781542766099 0.0068507380183573966 -0.08524314262169079 0.34919995442814761 -0.51572603972020714 0.54475171321652616 1.0000000180025095e-35 0.49591661211388954 -0.031465495783558499 0.47389247134862889
decision_type=2 2 2 2 2 2 2 2 2 2 2 2 2 2 2 2 2
left_child=4 3 6 7 15 11 -3 -2 9 -9 -10 -4 -11 -8 -15 -1 -17
right_child=1 2 5 -5 -6 -7 13 8 10 12 -12 -13 -14 14 -16 16 -18
leaf_value=-0.25230514271782306 -0.24845102199675304 -0.18485803009909793 -0.17750016326796425 -0.10392149495662771 -0.20509216388471546 -0.24556043145595055 -0.30626283281280314 -0.22195394203939672 -0.26947349865713494 -0.17136860757535288 -0.17136860757535288 -0.10392149495662771 -0.11516268039308192 -0.29277341028905818 -0.21633334932116965 -0.3062628328128032 -0.28602869902718564
leaf_weight=3.7066078931093207 3.4595007002353695 2.4710719287395486 2.7181791216135025 3.7066078931093207 3.9537150859832755 2.4710719287395477 3.2123935073614129 2.9652863144874617 2.7181791216135016 4.4479294717311859 2.9652863144874573 2.7181791216135016 4.4479294717311859 3.7066078931093198 4.4479294717311859 5.4363582432270041 2.4710719287395477
leaf_count=15 14 10 11 15 16 10 13 12 11 18 12 11 18 15 18 22 10
internal_value=-0.215975 -0.199711 -0.223487 -0.178788 -0.26451 -0.173476 -0.252064 -0.191999 -0.180868 -0.162938 -0.218288 -0.140711 -0.143266 -0.266674 -0.251079 -0.284737 -0.29994
internal_weight=0 46.4562 21.7454 24.7107 15.5678 7.90743 13.838 21.0041 17.5446 11.8611 5.68347 5.43636 8.89586 11.3669 8.15454 11.614 7.90743
internal_count=251 188 88 100 63 32 56 85 71 48 23 22 36 46 33 47 32
shrinkage=1


Tree=1
num_leaves=20
num_cat=0
split_feature=2 8 7 11 11 10 4 15 0 14 5 10 16 2 10 17 21 7 0
split_gain=17.7545 8.31171 9.73652 10.1378 8.69705 6.84796 5.14639 6.70421 6.39657 5.44995 5.22171 5.10873 6.56416 4.91624 3.14091 2.12159 1.44004 0.281629 0.000148244
threshold=-0.022849607993656484 0.058210939733735416 -0.95468124387379028 0.17321533345090392 0.25197449985729453 3.5867853765196305 0.58220246960701605 0.49528141528394248 -0.026437376263618431 0.60136962937107241 0.52518388876276056 10.248501710415956 0.027042010309198342 0.2745164900934754 -1.0391091690782568 -0.031465495783558499 1.0000000180025095e-35 -0.96158469906611699 -0.17105008044378386
decision_type=2 2 2 2 2 2 2 2 2 2 2 2 2 2 2 2 2 2 2
left_child=5 4 -3 11 6 15 8 -8 -2 13 -10 12 16 -9 -5 -1 -4 -17 -19
right_child=1 2 3 14 -6 -7 7 9 10 -11 -12 -13 -14 -15 -16 17 -18 18 -20
leaf_value=-0.034663764876162691 -0.070826124777743513 -0.075863897955891144 -0.077342803965804313 0.1095548328445744 0.10547566339947406 0.010326646376365866 0.10846623244724479 0.0093934238129726923 0.072391418941305144 -0.015948972664429833 -0.023420285106877062 0.049673316665805649 0.025449837355046835 0.10895534604976737 0.029909763588431476 -0.066581460879841917 -0.029187323408386923 -0.086809653741673293 -0.087336803634845528
leaf_weight=3.6909482628107062 2.709619402885437 4.1669025123119381 4.1862470209598559 2.4781970679759979 3.7398934364318839 3.9582302570343009 2.9794354736804953 2.4777506291866285 2.7304519712925011 4.6941500008106232 2.9676292538642883 2.4771125912666312 3.4566407054662704 2.4818476587533951 2.4733179211616507 2.4444639086723319 2.4675735533237457 2.9307376742362967 2.4473739266395578
leaf_count=15 11 17 17 10 15 16 12 10 11 19 12 10 14 10 10 10 10 12 10
internal_value=0 0.0154297 -0.00716039 0.00916206 0.0352168 -0.0464062 0.0227288 0.0429018 -0.00758272 0.0226667 0.0224915 -0.0146796 -0.0304464 0.0592155 0.0697715 -0.0659103 -0.0594843 -0.0806535 -0.0870495
internal_weight=0 46.4868 21.706 17.5391 24.7808 15.4718 21.0409 12.6332 8.4077 9.65375 5.69808 12.5876 10.1105 4.9596 4.95151 11.5135 6.65382 7.82258 5.37811
internal_count=251 188 88 71 100 63 85 51 34 39 23 51 41 20 20 47 27 32 22
shrinkage=0.05


Tree=2
num_leaves=19
num_cat=0
split_feature=2 8 10 7 4 11 7 5 10 9 7 17 10 2 8 1 10 17
split_gain=16.1231 7.74037 6.28511 6.19304 9.4732 6.50137 10.6092 5.69615 4.67194 4.30199 3.17193 2.44213 5.03224 1.99238 1.77942 0.270946 0.00164962 0.00163368
threshold=-0.022849607993656484 -0.2044782449873018 3.5867853765196305 0.99426018971561991 0.34696460417632219 0.21209142084675248 -0.95468124387379028 0.82651775430973051 4.9374889195274827 59.653172619783909 0.99892786855556504 0.043040163843152145 -2.9968744163822536 -0.39650445801141804 -0.30856808136927044 0.0042001113320969969 1.2197765183670539 -0.0020856677133465613
decision_type=2 2 2 2 2 2 2 2 2 2 2 2 2 2 2 2 2 2
left_child=2 8 13 5 -5 7 -7 11 14 10 -6 12 -3 15 -2 17 -14 -1
right_child=1 3 -4 4 9 6 -8 -9 -10 -11 -12 -13 16 -15 -16 -17 -18 -19
leaf_value=-0.085854628534858285 0.054470332224681499 -0.013747967324283692 0.0097999586139114192 -0.044040558711761144 0.10395806738640041 -0.024608926925787561 0.090776578121390686 0.03496373542738742 -0.00015903489107691178 0.0087039436240785341 0.034837367967709913 -0.0050124775519850865 -0.086662343126518673 -0.034249879896269153 0.10629843370658605 -0.064600242697129565 -0.088389176671482481 -0.084059866828812224
leaf_weight=2.4302686899900428 3.7214244306087494 3.9441503435373235 3.9623048305511466 3.2048786580562583 4.2381648272275907 4.6486707925796509 3.4860721379518491 2.727104887366294 2.7197179347276688 3.4633924663066864 2.7281882017850876 2.9503340274095526 3.1696252226829618 3.8860611766576758 2.9840806722640973 2.4233491867780685 2.4535760879516602 2.6510179191827774
leaf_count=10 15 16 16 13 17 19 14 11 11 14 11 12 13 16 12 10 10 11
internal_value=0 0.0146632 -0.0444415 0.00436239 0.0311439 -0.0112562 0.0248385 -0.0305166 0.0551157 0.0542467 0.0768888 -0.0447822 -0.0570462 -0.0633096 0.0775348 -0.0783573 -0.0874158 -0.0849183
internal_weight=0 46.4394 15.353 37.0142 13.6346 23.3795 8.13474 15.2448 9.42522 10.4297 6.96635 12.5177 9.56735 11.3907 6.70551 7.50464 5.6232 5.08129
internal_count=251 188 63 150 55 95 33 62 38 42 28 51 39 47 27 31 23 21
shrinkage=0.05


Tree=3
num_leaves=20
num_cat=0
split_feature=2 8 10 8 16 6 9 19 9 16 16 23 17 13 2 17 4 16 2
split_gain=14.6577 6.98243 5.78083 4.70676 6.02107 6.17967 7.10133 6.02998 4.28509 4.38501 4.04802 4.03633 3.72885 2.91514 2.53895 1.9889 1.7919 0.296364 0.000461043
threshold=-0.022849607993656484 0.53443723611031657 3.5867853765196305 -0.2044782449873018 0.025178720452108175 0.42932681386742894 -31.923494341159088 1.0000000180025095e-35 16.552062580596047 0.0031705177468505934 -0.0017256191602393956 1.0000000180025095e-35 0.030475934227512384 13.136250000000002 0.54475171321652616 -0.031465495783558499 0.72828279008342722 -0.0017256191602393956 -0.56447149724727896
decision_type=2 2 2 2 2 2 2 2 2 2 2 2 2 2 2 2 2 2 2
left_child=2 3 15 8 5 6 -5 10 -2 -10 13 16 -3 -7 -9 -1 -6 -17 -19
right_child=1 12 -4 4 11 7 -8 14 9 -11 -12 -13 -14 -15 -16 17 -18 18 -20
leaf_value=-0.030503663407997712 0.1017102298958924 -0.084674907409220637 0.0093010991471116668 -0.0062608290953805566 0.10306174733127448 0.061621248941667567 0.088124157560276334 -0.086371113699678898 0.064502746677175662 -0.018938000209474167 -0.047271819863892971 1.6511155620457589e-05 -0.0036824556779374816 -0.007144710116464531 -0.022998672387346542 -0.060791151065478791 0.044421015905304034 -0.081652513748830036 -0.082594463273201912
leaf_weight=3.6404672712087622 2.9907411187887138 2.4159464985132209 3.96598196029663 4.6619125753641129 2.7417620271444312 3.2250069528818104 3.4807977080345243 3.4082607477903357 3.7336108982563019 2.7228027284145355 2.4430954456329355 2.7120742201805115 3.4511023163795471 2.9517838954925537 2.9471827447414398 2.3760881423950186 2.4820775240659714 2.8482443988323203 2.3883485049009332
leaf_count=15 12 10 16 19 11 13 14 14 15 11 10 11 14 12 12 10 10 12 10
internal_value=0 0.0139448 -0.0426066 0.0213296 0.0119283 -0.000971185 0.0340863 -0.0200334 0.0522329 0.0293141 0.00721004 0.0495056 -0.0370337 0.0287592 -0.0569837 -0.0609006 0.0751989 -0.0754367 -0.0820821
internal_weight=0 46.3682 15.2191 40.5011 31.054 23.118 8.14271 14.9753 9.44715 6.45641 8.61989 7.93591 5.86705 6.17679 6.35544 11.2531 5.22384 7.61268 5.23659
internal_count=251 188 63 164 126 94 33 61 38 26 35 32 24 25 26 47 21 32 22
shrinkage=0.05


Tree=4
num_leaves=20
num_cat=0
split_feature=2 8 18 11 7 10 11 4 15 0 14 5 2 0 20 6 18 18 18
split_gain=13.4101 7.57951 8.61394 8.04525 5.83999 5.74423 4.58095 4.27368 5.45777 5.16522 4.70687 4.45562 4.22219 2.63902 4.14556 6.82478 2.1155 0.339099 0.00207209
threshold=-0.043960772267415474 0.058210939733735416 0.068351058654155597 0.25197449985729453 0.65384637253713118 3.5867853765196305 -0.38778271382224655 0.58220246960701605 0.49528141528394248 -0.026437376263618431 0.60136962937107241 0.52518388876276056 0.2745164900934754 -1.0000000180025095e-35 1.0000000180025095e-35 0.49591661211388954 -0.077779604338371958 0.047639755032390603 0.00057783318598281241
decision_type=2 2 2 2 2 2 2 2 2 2 2 2 2 2 2 2 2 2 2
left_child=5 3 6 7 -4 16 -3 9 -9 -2 12 -11 -10 -8 15 -15 -1 18 -18
right_child=1 2 4 -5 -6 -7 13 8 10 11 -12 -13 -14 14 -16 -17 17 -19 -20
leaf_value=-0.020670656278259841 -0.065961167926585643 0.029160456526304054 -0.017525774499379226 0.096948427415966709 0.068275296881775527 0.0088284639814238588 -0.083254069020528523 0.096722898956186451 0.007095252472269835 0.064363974019804926 -0.016536633184035848 -0.024024915044067171 0.099168739159740477 -0.065166840085319741 -0.085116782489620901 0.045466783715393089 -0.081897037703691264 -0.058214393102070355 -0.07997707066076995
leaf_weight=2.3951373249292365 2.6552205830812454 2.4694237262010565 3.4177033454179746 3.9752676486968985 4.7249719500541687 3.9693000316619864 3.3485338538885108 2.9920709133148184 2.482065409421919 2.7443328052759224 4.6840472519397736 2.9675094187259674 2.498436376452446 2.640103220939638 2.4168911725282669 2.9533264338970184 2.6099539846181861 2.3350880593061447 3.0445515811443329
leaf_count=10 11 10 14 16 19 16 14 12 10 11 19 12 10 11 10 12 11 10 13
internal_value=0 0.0128883 -0.00853652 0.031718 0.0322622 -0.0423326 -0.0325606 0.0193839 0.0377132 -0.00834217 0.0194442 0.0184427 0.0532833 -0.0459788 -0.0303967 -0.00675237 -0.0618877 -0.0742438 -0.0808633
internal_weight=0 46.9699 21.971 24.999 8.14268 14.354 13.8283 21.0237 12.6566 8.36706 9.66455 5.71184 4.9805 11.3589 8.01032 5.59343 10.3847 7.98959 5.65451
internal_count=251 191 90 101 33 60 57 85 51 34 39 23 20 47 33 23 44 34 24
shrinkage=0.05


Tree=5
num_leaves=20
num_cat=0
split_feature=2 8 18 11 10 7 11 4 15 14 15 2 4 20 6 11 18 9 17
split_gain=12.2278 6.8712 7.82673 7.31704 5.31234 5.27859 4.18496 3.86629 4.97064 4.25446 4.02122 3.8334 2.85819 2.17578 2.81569 3.42041 1.9941 0.323406 0.00244001
threshold=-0.043960772267415474 0.058210939733735416 0.068351058654155597 0.25197449985729453 3.5867853765196305 0.65384637253713118 -0.38778271382224655 0.58220246960701605 0.49528141528394248 0.60136962937107241 0.58507245907331451 0.2745164900934754 0.33480293033369851 1.0000000180025095e-35 0.49591661211388954 -0.093740222998388009 -0.077779604338371958 30.221519457562078 -0.012835430734175255
decision_type=2 2 2 2 2 2 2 2 2 2 2 2 2 2 2 2 2 2 2
left_child=4 3 6 7 16 -4 -3 10 -9 11 12 -10 -2 14 -8 -16 -1 18 -18
right_child=1 2 5 -5 -6 -7 13 8 9 -11 -12 -13 -14 -15 15 -17 17 -19 -20
leaf_value=-0.019723265603262947 0.0014593263374269336 0.027636160954435732 -0.016684532052746517 0.092655371189624441 0.0083805513591312889 0.064963196454043956 -0.067155883981516937 0.092426773812689642 0.0067371341840136703 -0.015737372437650953 0.045527222314892923 0.094531466934082264 -0.06868461729507476 -0.081959938707151264 -0.047311495702446089 0.034906330516486665 -0.079705666802168229 -0.056158814690717845 -0.077580779582917106
leaf_weight=2.3849416077136985 3.1827184706926399 2.4751888066530219 3.4107060283422452 3.9520124197006217 3.9722943305969229 4.7177207320928574 3.3206817805767077 2.9749764800071707 2.4832689762115461 4.6760483235120773 2.4700187146663666 2.4901129901409149 2.6711243391036987 2.8461378067731848 2.6404751688241941 2.4283514469862002 2.3345617800950995 2.2959390580654144 3.2067886888980865
leaf_count=10 13 10 14 16 16 19 14 12 10 19 10 10 11 12 11 10 10 10 14
internal_value=0 0.0122991 -0.00817132 0.0302531 -0.0406882 0.0307036 -0.0312182 0.0184805 0.0359227 0.0185022 -0.00797315 0.0506947 -0.0305475 -0.0441837 -0.0313681 -0.00792294 -0.0597559 -0.0719382 -0.078476
internal_weight=0 46.7395 21.8393 24.9003 14.1945 8.12843 13.7108 20.9483 12.6244 9.64943 8.32386 4.97338 5.85384 11.2356 8.38951 5.06883 10.2222 7.83729 5.54135
internal_count=251 191 90 101 60 33 57 85 51 39 34 20 24 47 35 21 44 34 24
shrinkage=0.05


Tree=6
num_leaves=19
num_cat=0
split_feature=2 8 9 7 4 11 23 7 5 9 16 9 7 18 2 7 11 11
split_gain=11.162 6.43451 5.04063 4.78571 7.47196 5.35359 9.57767 4.72706 4.57883 3.95807 3.70193 3.19626 2.72155 2.36568 2.3012 2.09754 3.17233 0.025351
threshold=-0.043960772267415474 -0.2044782449873018 30.221519457562078 0.99426018971561991 0.34696460417632219 0.21209142084675248 1.0000000180025095e-35 -0.95468124387379028 0.82651775430973051 16.552062580596047 0.0031705177468505934 59.653172619783909 0.99892786855556504 -0.073704391445935588 0.08589782542310069 0.92787230953506039 -0.0020099266297471381 0.21550973150434441
decision_type=2 2 2 2 2 2 2 2 2 2 2 2 2 2 2 2 2 2
left_child=2 9 13 5 -5 8 7 -7 14 -2 -11 12 -6 -1 -3 16 -16 -15
right_child=1 3 -4 4 11 6 -8 -9 -10 10 -12 -13 -14 17 15 -17 -18 -19
leaf_value=-0.027567734247715289 0.093625682602916926 -0.083446551861612484 0.0045051778772063778 -0.041575387234279816 0.091465609563399927 0.0057314129734456262 -0.063568453488496074 0.096080063829707407 0.029801942129766543 0.057955134280277154 -0.018948192881221706 0.0070505078510951199 0.02717949002151291 -0.08307817713121432 0.031460679912697818 -0.059761096265045333 -0.04239071960869524 -0.076400794906116787
leaf_weight=3.5730899870395652 3.1972961425781232 2.6230877041816738 4.493950590491294 3.1364638954401007 4.1810782104730588 2.630471482872963 2.3767959624528885 3.2198234945535642 2.7169308662414542 3.7115827351808548 2.7055967748165131 3.4229978173971176 2.715681716799736 2.3433168381452552 2.4494417160749364 3.8139739781618118 3.5785389542579704 3.6130229532718658
leaf_count=15 13 11 19 13 17 11 10 13 11 15 11 14 11 10 10 16 15 16
internal_value=0 0.0117476 -0.0391469 0.00224702 0.026008 -0.0114115 0.0210704 0.0554565 -0.0290134 0.0481761 0.0255313 0.0465485 0.0661522 -0.0597327 -0.041833 -0.0307422 -0.0123815 -0.0790278
internal_weight=0 46.4798 14.0234 36.8653 13.4562 23.4091 8.22709 5.85029 15.182 9.61448 6.41718 10.3198 6.89676 9.52943 12.465 9.84195 6.02798 5.95634
internal_count=251 191 60 152 55 97 34 24 63 39 26 42 28 41 52 41 25 26
shrinkage=0.05


end of trees

feature_importances:
Column_2=15
Column_11=13
Column_7=11
Column_10=11
Column_8=10
Column_18=9
Column_0=8
Column_4=7
Column_9=7
Column_17=7
Column_16=6
Column_5=4
Column_6=4
Column_14=4
Column_15=4
Column_1=2
Column_20=2
Column_23=2
Column_13=1
Column_19=1
Column_21=1

parameters:
[boosting: gbdt]
[objective: binary]
[metric: binary_logloss]
[tree_learner: serial]
[device_type: cpu]
[data: ]
[valid: ]
[num_iterations: 10000]
[learning_rate: 0.05]
[num_leaves: 63]
[num_threads: 0]
[force_col_wise: 0]
[force_row_wise: 0]
[histogram_pool_size: -1]
[max_depth: -1]
[min_data_in_leaf: 10]
[min_sum_hessian_in_leaf: 0.001]
[bagging_fraction: 0.9]
[pos_bagging_fraction: 1]
[neg_bagging_fraction: 1]
[bagging_freq: 0]
[bagging_seed: 28693]
[feature_fraction: 0.9]
[feature_fraction_bynode: 1]
[feature_fraction_seed: 24449]
[extra_trees: 0]
[extra_seed: 31430]
[early_stopping_round: 50]
[first_metric_only: 0]
[max_delta_step: 0]
[lambda_l1: 0]
[lambda_l2: 0]
[min_gain_to_split: 0]
[drop_rate: 0.1]
[max_drop: 50]
[skip_drop: 0.5]
[xgboost_dart_mode: 0]
[uniform_drop: 0]
[drop_seed: 12255]
[top_rate: 0.2]
[other_rate: 0.1]
[min_data_per_group: 100]
[max_cat_threshold: 32]
[cat_l2: 10]
[cat_smooth: 10]
[max_cat_to_onehot: 4]
[top_k: 20]
[monotone_constraints: ]
[monotone_constraints_method: basic]
[monotone_penalty: 0]
[feature_contri: ]
[forcedsplits_filename: ]
[refit_decay_rate: 0.9]
[cegb_tradeoff: 1]
[cegb_penalty_split: 0]
[cegb_penalty_feature_lazy: ]
[cegb_penalty_feature_coupled: ]
[path_smooth: 0]
[interaction_constraints: ]
[verbosity: -1]
[saved_feature_importance_type: 0]
[max_bin: 255]
[max_bin_by_feature: ]
[min_data_in_bin: 3]
[bin_construct_sample_cnt: 200000]
[data_random_seed: 54]
[is_enable_sparse: 1]
[enable_bundle: 1]
[use_missing: 1]
[zero_as_missing: 0]
[feature_pre_filter: 1]
[pre_partition: 0]
[two_round: 0]
[header: 0]
[label_column: ]
[weight_column: ]
[group_column: ]
[ignore_column: ]
[categorical_feature: ]
[forcedbins_filename: ]
[objective_seed: 27660]
[num_class: 1]
[is_unbalance: 0]
[scale_pos_weight: 1]
[sigmoid: 1]
[boost_from_average: 1]
[reg_sqrt: 0]
[alpha: 0.9]
[fair_c: 1]
[poisson_max_delta_step: 0.7]
[tweedie_variance_power: 1.5]
[lambdarank_truncation_level: 20]
[lambdarank_norm: 1]
[label_gain: ]
[eval_at: ]
[multi_error_top_k: 1]
[auc_mu_weights: ]
[num_machines: 1]
[local_listen_port: 12400]
[time_out: 120]
[machine_list_filename: ]
[machines: ]
[gpu_platform_id: -1]
[gpu_device_id: -1]
[gpu_use_dp: 0]

end of parameters

pandas_categorical:null
